{"learner":{"attributes":{},"feature_names":[],"feature_types":[],"gradient_booster":{"model":{"gbtree_model_param":{"num_parallel_tree":"1","num_trees":"300"},"iteration_indptr":[0,1,2,3,4,5,6,7,8,9,10,11,12,13,14,15,16,17,18,19,20,21,22,23,24,25,26,27,28,29,30,31,32,33,34,35,36,37,38,39,40,41,42,43,44,45,46,47,48,49,50,51,52,53,54,55,56,57,58,59,60,61,62,63,64,65,66,67,68,69,70,71,72,73,74,75,76,77,78,79,80,81,82,83,84,85,86,87,88,89,90,91,92,93,94,95,96,97,98,99,100,101,102,103,104,105,106,107,108,109,110,111,112,113,114,115,116,117,118,119,120,121,122,123,124,125,126,127,128,129,130,131,132,133,134,135,136,137,138,139,140,141,142,143,144,145,146,147,148,149,150,151,152,153,154,155,156,157,158,159,160,161,162,163,164,165,166,167,168,169,170,171,172,173,174,175,176,177,178,179,180,181,182,183,184,185,186,187,188,189,190,191,192,193,194,195,196,197,198,199,200,201,202,203,204,205,206,207,208,209,210,211,212,213,214,215,216,217,218,219,220,221,222,223,224,225,226,227,228,229,230,231,232,233,234,235,236,237,238,239,240,241,242,243,244,245,246,247,248,249,250,251,252,253,254,255,256,257,258,259,260,261,262,263,264,265,266,267,268,269,270,271,272,273,274,275,276,277,278,279,280,281,282,283,284,285,286,287,288,289,290,291,292,293,294,295,296,297,298,299,300],"tree_info":[0,0,0,0,0,0,0,0,0,0,0,0,0,0,0,0,0,0,0,0,0,0,0,0,0,0,0,0,0,0,0,0,0,0,0,0,0,0,0,0,0,0,0,0,0,0,0,0,0,0,0,0,0,0,0,0,0,0,0,0,0,0,0,0,0,0,0,0,0,0,0,0,0,0,0,0,0,0,0,0,0,0,0,0,0,0,0,0,0,0,0,0,0,0,0,0,0,0,0,0,0,0,0,0,0,0,0,0,0,0,0,0,0,0,0,0,0,0,0,0,0,0,0,0,0,0,0,0,0,0,0,0,0,0,0,0,0,0,0,0,0,0,0,0,0,0,0,0,0,0,0,0,0,0,0,0,0,0,0,0,0,0,0,0,0,0,0,0,0,0,0,0,0,0,0,0,0,0,0,0,0,0,0,0,0,0,0,0,0,0,0,0,0,0,0,0,0,0,0,0,0,0,0,0,0,0,0,0,0,0,0,0,0,0,0,0,0,0,0,0,0,0,0,0,0,0,0,0,0,0,0,0,0,0,0,0,0,0,0,0,0,0,0,0,0,0,0,0,0,0,0,0,0,0,0,0,0,0,0,0,0,0,0,0,0,0,0,0,0,0,0,0,0,0,0,0,0,0,0,0,0,0,0,0,0,0,0,0,0,0,0,0,0,0,0,0,0,0,0,0],"trees":[{"base_weights":[5.6210116E-2,2.301837E0,-1.0144731E-1,1.8736813E0,2.0968919E0,-1.7250607E-2,-3.8804178E0,2.9669213E0,-9.2396766E-1,9.734356E-2,-2.909047E0,7.5104785E0,-5.172114E0,1.4535499E0,6.50545E0,-9.849373E0,2.2801764E0,-9.711978E-2,1.4912919E0,-5.064808E0,3.0349894E0,-6.409822E0,1.1316081E1,-7.106923E0,4.522361E-1,2.3946438E0,-3.3944812E0,1.0202172E1,4.0594683E0,-2.7820349E0,-1.4329096E1,-3.5042586E0,8.189764E0,-1.3020973E-1,8.576717E0,2.7943943E0,-4.7606343E-1,4.400316E0,-6.6114674E0,-5.6452107E0,6.7752247E0,1.3792992E-1,-1.0994033E0,1.6190306E1,4.1786394E0,-7.71654E0,9.080028E-1,-6.3169904E0,5.386186E0,1.106006E0,1.7762494E-1,-1.0734471E0,-2.3746377E-2,6.293576E-1,1.7390007E0,1.515967E0,2.1127807E-1,-1.6070995E0,3.3106673E-1,-3.096548E-1,-1.5068731E0,4.552804E-1,-7.3575777E-1,1.4128293E0,3.5161105E-1,5.0305086E-3,-1.7363273E-1,-3.865798E-1,9.7415966E-1,5.6815237E-1,2.0810692E-1,5.6740906E-2,-5.185875E-1,5.6084814E-3,2.0677164E0,-9.478774E-1,-1.141663E-1,6.861653E-1,-1.0816948E0,-1.1874137E0,7.70018E-1,2.86669E-1,1.880454E0,-5.74754E-1,1.271194E0,-1.3752618E0,-6.039783E-1,4.784092E-1,-1.1077908E0,1.7504902E0,8.977654E-2],"categories":[],"categories_nodes":[],"categories_segments":[],"categories_sizes":[],"default_left":[0,0,0,0,0,0,0,0,0,0,0,0,0,0,0,0,0,0,0,0,0,0,0,0,0,0,0,0,0,0,0,0,0,0,0,0,0,0,0,0,0,0,0,0,0,0,0,0,0,0,0,0,0,0,0,0,0,0,0,0,0,0,0,0,0,0,0,0,0,0,0,0,0,0,0,0,0,0,0,0,0,0,0,0,0,0,0,0,0,0,0],"id":0,"left_children":[1,3,5,-1,7,9,11,13,15,17,19,21,23,25,27,29,31,33,35,37,39,41,43,45,47,49,51,53,55,57,59,61,63,65,67,69,71,73,75,77,79,-1,-1,81,83,85,-1,87,89,-1,-1,-1,-1,-1,-1,-1,-1,-1,-1,-1,-1,-1,-1,-1,-1,-1,-1,-1,-1,-1,-1,-1,-1,-1,-1,-1,-1,-1,-1,-1,-1,-1,-1,-1,-1,-1,-1,-1,-1,-1,-1],"loss_changes":[1.8079604E3,1.0890801E3,1.5182728E3,0E0,8.7531616E2,1.5475103E3,1.569057E3,1.3721616E3,2.1673296E3,1.2177996E3,2.2962495E3,6.5526044E2,1.0261262E3,8.384951E2,6.5482764E2,5.933303E2,1.9429819E3,1.1328242E3,1.4113464E3,1.9468447E3,1.5966154E3,1.2228496E2,2.4545215E2,7.608147E2,8.690001E2,8.0022723E2,6.9262524E2,7.33385E2,1.005185E3,7.818968E2,5.3034912E1,9.338441E2,7.274529E2,1.1392146E3,2.5506958E2,6.6985815E2,1.0841455E3,1.3423376E3,1.7614258E3,1.0444551E3,6.779265E2,0E0,0E0,1.2024817E2,4.9657773E2,6.051677E2,0E0,6.343624E2,8.0019324E2,0E0,0E0,0E0,0E0,0E0,0E0,0E0,0E0,0E0,0E0,0E0,0E0,0E0,0E0,0E0,0E0,0E0,0E0,0E0,0E0,0E0,0E0,0E0,0E0,0E0,0E0,0E0,0E0,0E0,0E0,0E0,0E0,0E0,0E0,0E0,0E0,0E0,0E0,0E0,0E0,0E0,0E0],"parents":[2147483647,0,0,1,1,2,2,4,4,5,5,6,6,7,7,8,8,9,9,10,10,11,11,12,12,13,13,14,14,15,15,16,16,17,17,18,18,19,19,20,20,21,21,22,22,23,23,24,24,25,25,26,26,27,27,28,28,29,29,30,30,31,31,32,32,33,33,34,34,35,35,36,36,37,37,38,38,39,39,40,40,43,43,44,44,45,45,47,47,48,48],"right_children":[2,4,6,-1,8,10,12,14,16,18,20,22,24,26,28,30,32,34,36,38,40,42,44,46,48,50,52,54,56,58,60,62,64,66,68,70,72,74,76,78,80,-1,-1,82,84,86,-1,88,90,-1,-1,-1,-1,-1,-1,-1,-1,-1,-1,-1,-1,-1,-1,-1,-1,-1,-1,-1,-1,-1,-1,-1,-1,-1,-1,-1,-1,-1,-1,-1,-1,-1,-1,-1,-1,-1,-1,-1,-1,-1,-1],"split_conditions":[-1.4478263E0,-2.2468572E0,2.068533E0,1.8736813E0,7.15243E-1,1.7744569E0,-1.203957E0,1.5259784E-1,-5.689082E-1,1.1768538E0,4.2295074E-1,-1.9084743E0,6.1201215E-1,-4.785076E-3,3.6202258E-1,-9.540703E-1,1.1849358E0,1.7035947E0,1.8373021E-1,-1.0159922E0,-4.6557397E-1,-1.4270684E0,-1.4687617E0,1.7895004E0,-3.6242574E-2,-1.8057694E0,4.728003E-2,6.7796355E-1,-9.273311E-1,-1.8284833E0,-2.4081013E0,8.0782786E-2,-1.9306966E0,8.0678934E-1,-1.5076892E0,1.2864904E0,9.852321E-1,-1.159529E0,2.3253942E-1,5.166108E-1,-2.1304922E0,1.3792992E-1,-1.0994033E0,-1.0003654E0,3.8720393E-1,-6.946203E-1,9.080028E-1,8.2478946E-1,4.6938088E-2,1.106006E0,1.7762494E-1,-1.0734471E0,-2.3746377E-2,6.293576E-1,1.7390007E0,1.515967E0,2.1127807E-1,-1.6070995E0,3.3106673E-1,-3.096548E-1,-1.5068731E0,4.552804E-1,-7.3575777E-1,1.4128293E0,3.5161105E-1,5.0305086E-3,-1.7363273E-1,-3.865798E-1,9.7415966E-1,5.6815237E-1,2.0810692E-1,5.6740906E-2,-5.185875E-1,5.6084814E-3,2.0677164E0,-9.478774E-1,-1.141663E-1,6.861653E-1,-1.0816948E0,-1.1874137E0,7.70018E-1,2.86669E-1,1.880454E0,-5.74754E-1,1.271194E0,-1.3752618E0,-6.039783E-1,4.784092E-1,-1.1077908E0,1.7504902E0,8.977654E-2],"split_indices":[2,5,2,0,4,4,5,4,5,5,1,4,4,4,4,5,4,4,4,1,2,1,5,1,5,1,4,5,5,5,1,5,2,5,1,5,2,1,5,1,5,0,0,1,1,5,0,4,5,0,0,0,0,0,0,0,0,0,0,0,0,0,0,0,0,0,0,0,0,0,0,0,0,0,0,0,0,0,0,0,0,0,0,0,0,0,0,0,0,0,0],"split_type":[0,0,0,0,0,0,0,0,0,0,0,0,0,0,0,0,0,0,0,0,0,0,0,0,0,0,0,0,0,0,0,0,0,0,0,0,0,0,0,0,0,0,0,0,0,0,0,0,0,0,0,0,0,0,0,0,0,0,0,0,0,0,0,0,0,0,0,0,0,0,0,0,0,0,0,0,0,0,0,0,0,0,0,0,0,0,0,0,0,0,0],"sum_hessian":[5.105E3,3.34E2,4.771E3,3E0,3.31E2,4.668E3,1.03E2,2.57E2,7.4E1,4.491E3,1.77E2,1E1,9.3E1,1.81E2,7.6E1,1.9E1,5.5E1,3.942E3,5.49E2,1.3E2,4.7E1,2E0,8E0,6.9E1,2.4E1,1.52E2,2.9E1,2.9E1,4.7E1,8E0,1.1E1,2.8E1,2.7E1,3.928E3,1.4E1,3.3E2,2.19E2,1.8E1,1.12E2,1.4E1,3.3E1,1E0,1E0,4E0,4E0,6.7E1,2E0,1E1,1.4E1,9E0,1.43E2,8E0,2.1E1,2E1,9E0,6E0,4.1E1,2E0,6E0,1E0,1E1,9E0,1.9E1,1.1E1,1.6E1,3.532E3,3.96E2,1E0,1.3E1,6.4E1,2.66E2,1.8E2,3.9E1,1.5E1,3E0,7.3E1,3.9E1,4E0,1E1,1E0,3.2E1,1E0,3E0,2E0,2E0,1.3E1,5.4E1,3E0,7E0,3E0,1.1E1],"tree_param":{"num_deleted":"0","num_feature":"6","num_nodes":"91","size_leaf_vector":"1"}},{"base_weights":[-9.1554314E-2,1.3882954E0,-3.1084213E0,7.832771E-1,2.4697008E0,-3.5129042E0,1.475769E0,5.482295E0,6.032847E-1,4.7090907E0,1.6694883E0,-1.3140357E0,-3.9609084E0,-5.4875326E-1,2.3162808E0,9.179742E0,-7.774484E-1,-8.724908E-1,1.0985495E0,2.5678577E0,6.9567137E0,1.0546736E0,5.3360763E0,-1.7971759E0,8.941413E0,-4.5921116E0,-2.1609893E0,5.824587E0,-2.032223E0,-5.564323E-1,2.7674916E0,2.3173666E0,1.2250617E1,-7.8483076E0,2.4719172E0,-1.6417457E0,2.134902E0,4.2256885E0,6.979929E-1,4.9885025E0,-1.2694986E-1,1.0016925E1,3.728847E0,1.2595725E0,-6.3914256E0,1.4070489E1,3.2257328E0,5.7435703E-1,-3.889827E0,1.0904852E1,-6.3282067E-1,9.3844545E-1,-4.7674646E0,-2.4607477E0,6.891969E0,9.4025515E-2,6.3880265E-1,-1.1155233E1,-4.439804E-1,-9.153134E0,1.6391125E0,3.4707878E0,1.5161731E0,7.259394E-1,-4.1498375E-1,2.389573E0,9.017292E-1,-1.2095938E0,6.0948074E-1,5.436773E-1,-8.695946E-1,6.315964E-2,-2.896878E-1,5.851738E-1,-2.8926632E-1,5.649175E-1,-9.755341E-1,1.8112896E-1,3.8031985E-3,1.394553E-1,7.4498034E-1,-3.4140906E-1,5.465421E-1,1.1000661E0,-6.9392306E-1,1.9740357E-1,1.0967453E0,1.0323566E-1,1.6595751E0,-1.5890926E0,-3.2214892E-1,1.60019E0,-6.9895983E-3,7.15623E-1,4.2942155E-2,2.3869689E-1,-2.9322454E-1,-5.7697815E-1,1.1946427E-1,1.3178488E0,-5.9157544E-1,-3.1460977E-1,6.521779E-1,-4.5633832E-1,-7.616577E-1,-1.001003E-1,-3.3563069E-1,8.467725E-1,3.3075175E-1,9.9574566E-2,-1.4441915E0,2.6841256E-1,-3.3488312E-1,-2.143052E-1,-1.158665E0,2.7902985E-2,3.4874222E-1,2.9913312E-1,5.0295013E-1,-1.8752645E-1,2.2136712E-1],"categories":[],"categories_nodes":[],"categories_segments":[],"categories_sizes":[],"default_left":[0,0,0,0,0,0,0,0,0,0,0,0,0,0,0,0,0,0,0,0,0,0,0,0,0,0,0,0,0,0,0,0,0,0,0,0,0,0,0,0,0,0,0,0,0,0,0,0,0,0,0,0,0,0,0,0,0,0,0,0,0,0,0,0,0,0,0,0,0,0,0,0,0,0,0,0,0,0,0,0,0,0,0,0,0,0,0,0,0,0,0,0,0,0,0,0,0,0,0,0,0,0,0,0,0,0,0,0,0,0,0,0,0,0,0,0,0,0,0,0,0],"id":1,"left_children":[1,3,5,7,9,11,13,15,17,19,21,23,25,27,29,31,33,35,37,39,41,43,45,47,49,51,53,55,57,59,61,63,65,67,69,71,73,75,77,79,81,83,85,87,89,91,93,95,97,99,-1,101,103,105,107,-1,-1,109,111,113,115,117,119,-1,-1,-1,-1,-1,-1,-1,-1,-1,-1,-1,-1,-1,-1,-1,-1,-1,-1,-1,-1,-1,-1,-1,-1,-1,-1,-1,-1,-1,-1,-1,-1,-1,-1,-1,-1,-1,-1,-1,-1,-1,-1,-1,-1,-1,-1,-1,-1,-1,-1,-1,-1,-1,-1,-1,-1,-1,-1],"loss_changes":[2.2804566E4,2.240249E3,3.1221367E3,1.8565789E3,2.1944912E3,1.5167773E3,2.3439502E2,1.8818872E3,1.5497346E3,1.5366338E3,2.0389968E3,1.319187E3,1.4477129E3,3.9947775E2,1.2727124E2,1.0463589E3,7.316504E2,1.2365747E3,1.98492E3,1.0900032E3,1.5134873E3,1.1950435E3,2.3508516E3,1.2528574E3,4.2877966E2,9.2481445E2,9.260497E2,1.6009827E1,4.8769214E2,2.7924524E2,6.866168E1,5.734639E2,1.1023599E3,6.6597437E2,7.757221E2,1.2145013E3,2.05377E3,3.637435E3,1.0344343E3,7.680405E2,1.489292E3,1.4107651E3,9.69136E2,2.6242124E3,5.811767E2,6.838911E2,1.1619617E3,7.633761E2,1.2877417E3,4.9864417E2,0E0,7.0467914E2,5.0017578E2,4.2150867E2,3.412329E1,0E0,0E0,2.1406244E2,2.8158914E2,2.6346603E1,2.919315E1,2.4563843E1,7.984792E1,0E0,0E0,0E0,0E0,0E0,0E0,0E0,0E0,0E0,0E0,0E0,0E0,0E0,0E0,0E0,0E0,0E0,0E0,0E0,0E0,0E0,0E0,0E0,0E0,0E0,0E0,0E0,0E0,0E0,0E0,0E0,0E0,0E0,0E0,0E0,0E0,0E0,0E0,0E0,0E0,0E0,0E0,0E0,0E0,0E0,0E0,0E0,0E0,0E0,0E0,0E0,0E0,0E0,0E0,0E0,0E0,0E0,0E0],"parents":[2147483647,0,0,1,1,2,2,3,3,4,4,5,5,6,6,7,7,8,8,9,9,10,10,11,11,12,12,13,13,14,14,15,15,16,16,17,17,18,18,19,19,20,20,21,21,22,22,23,23,24,24,25,25,26,26,27,27,28,28,29,29,30,30,31,31,32,32,33,33,34,34,35,35,36,36,37,37,38,38,39,39,40,40,41,41,42,42,43,43,44,44,45,45,46,46,47,47,48,48,49,49,51,51,52,52,53,53,54,54,57,57,58,58,59,59,60,60,61,61,62,62],"right_children":[2,4,6,8,10,12,14,16,18,20,22,24,26,28,30,32,34,36,38,40,42,44,46,48,50,52,54,56,58,60,62,64,66,68,70,72,74,76,78,80,82,84,86,88,90,92,94,96,98,100,-1,102,104,106,108,-1,-1,110,112,114,116,118,120,-1,-1,-1,-1,-1,-1,-1,-1,-1,-1,-1,-1,-1,-1,-1,-1,-1,-1,-1,-1,-1,-1,-1,-1,-1,-1,-1,-1,-1,-1,-1,-1,-1,-1,-1,-1,-1,-1,-1,-1,-1,-1,-1,-1,-1,-1,-1,-1,-1,-1,-1,-1,-1,-1,-1,-1,-1,-1],"split_conditions":[4.4778788E-1,3.6271054E-1,1.809186E0,-1.7622272E0,-1.0158516E0,6.0760003E-1,1.905486E0,-3.0011126E-1,-5.94015E-1,-1.4776971E0,1.1132249E0,1.9057907E0,1.3079647E0,-1.0399774E0,-1.1188194E0,-1.471708E0,-1.1268699E0,8.392379E-1,-3.577702E-1,-1.8025378E0,-2.9517955E-1,9.836051E-1,1.2549293E0,-8.573401E-2,2.5533323E0,-1.8648319E0,1.963202E0,-1.7259631E0,-8.16682E-1,1.9864746E0,4.1331512E-1,-2.0433192E0,-9.86562E-1,-8.511498E-2,9.4153345E-1,-6.584289E-1,-4.13478E-1,1.392401E0,-6.5343964E-1,-2.3117535E0,2.2928041E-1,1.7818723E0,1.4528627E0,9.2397225E-1,5.752693E-1,2.2170016E-1,-3.1863183E-1,5.667847E-1,5.64403E-1,1.963202E0,-6.3282067E-1,1.9349235E-1,1.4528627E0,-2.4015711E-1,1.608372E0,9.4025515E-2,6.3880265E-1,-6.144525E-1,2.7899438E-1,-2.6000183E0,2.1671689E0,7.586291E-1,6.3749254E-1,7.259394E-1,-4.1498375E-1,2.389573E0,9.017292E-1,-1.2095938E0,6.0948074E-1,5.436773E-1,-8.695946E-1,6.315964E-2,-2.896878E-1,5.851738E-1,-2.8926632E-1,5.649175E-1,-9.755341E-1,1.8112896E-1,3.8031985E-3,1.394553E-1,7.4498034E-1,-3.4140906E-1,5.465421E-1,1.1000661E0,-6.9392306E-1,1.9740357E-1,1.0967453E0,1.0323566E-1,1.6595751E0,-1.5890926E0,-3.2214892E-1,1.60019E0,-6.9895983E-3,7.15623E-1,4.2942155E-2,2.3869689E-1,-2.9322454E-1,-5.7697815E-1,1.1946427E-1,1.3178488E0,-5.9157544E-1,-3.1460977E-1,6.521779E-1,-4.5633832E-1,-7.616577E-1,-1.001003E-1,-3.3563069E-1,8.467725E-1,3.3075175E-1,9.9574566E-2,-1.4441915E0,2.6841256E-1,-3.3488312E-1,-2.143052E-1,-1.158665E0,2.7902985E-2,3.4874222E-1,2.9913312E-1,5.0295013E-1,-1.8752645E-1,2.2136712E-1],"split_indices":[3,0,3,5,3,3,3,0,5,3,5,0,3,0,0,0,3,2,5,3,2,5,5,5,0,2,2,0,0,3,2,5,0,0,2,0,3,2,3,3,2,5,0,5,0,3,2,0,3,2,0,5,0,2,3,0,0,5,0,0,3,5,2,0,0,0,0,0,0,0,0,0,0,0,0,0,0,0,0,0,0,0,0,0,0,0,0,0,0,0,0,0,0,0,0,0,0,0,0,0,0,0,0,0,0,0,0,0,0,0,0,0,0,0,0,0,0,0,0,0,0],"split_type":[0,0,0,0,0,0,0,0,0,0,0,0,0,0,0,0,0,0,0,0,0,0,0,0,0,0,0,0,0,0,0,0,0,0,0,0,0,0,0,0,0,0,0,0,0,0,0,0,0,0,0,0,0,0,0,0,0,0,0,0,0,0,0,0,0,0,0,0,0,0,0,0,0,0,0,0,0,0,0,0,0,0,0,0,0,0,0,0,0,0,0,0,0,0,0,0,0,0,0,0,0,0,0,0,0,0,0,0,0,0,0,0,0,0,0,0,0,0,0,0,0],"sum_hessian":[5.106E3,3.426E3,1.68E3,2.198E3,1.228E3,1.544E3,1.36E2,8E1,2.118E3,3.22E2,9.06E2,2.62E2,1.282E3,4E1,9.6E1,5E1,3E1,5.32E2,1.586E3,1.66E2,1.56E2,7.77E2,1.29E2,2.51E2,1.1E1,9.48E2,3.34E2,7E0,3.3E1,1.3E1,8.3E1,1.6E1,3.4E1,9E0,2.1E1,4.24E2,1.08E2,1.79E2,1.407E3,8.7E1,7.9E1,7.9E1,7.7E1,7.57E2,2E1,2.4E1,1.05E2,1.18E2,1.33E2,1E1,1E0,2.9E1,9.19E2,3.24E2,1E1,1E0,6E0,4E0,2.9E1,2E0,1.1E1,5.2E1,3.1E1,9E0,7E0,6E0,2.8E1,7E0,2E0,1.7E1,4E0,1.51E2,2.73E2,6.2E1,4.6E1,1.63E2,1.6E1,5.23E2,8.84E2,3.6E1,5.1E1,5E1,2.9E1,7.5E1,4E0,6.3E1,1.4E1,7.47E2,1E1,4E0,1.6E1,2.1E1,3E0,4.3E1,6.2E1,7.8E1,4E1,9.7E1,3.6E1,9E0,1E0,1.7E1,1.2E1,8.6E2,5.9E1,1.24E2,2E2,6E0,4E0,1E0,3E0,1.4E1,1.5E1,1E0,1E0,7E0,4E0,4.2E1,1E1,5E0,2.6E1],"tree_param":{"num_deleted":"0","num_feature":"6","num_nodes":"121","size_leaf_vector":"1"}},{"base_weights":[2.3602266E-2,2.4968586E0,-1.5590903E-1,1.6337801E1,2.2054114E0,-7.2043724E0,-9.791916E-2,1.825098E0,2.4293604E-1,2.0047655E0,1.8608637E0,-9.638976E0,7.7924414E0,7.313922E0,-1.5774748E-1,3.0100741E0,-1.0229186E0,-4.041126E0,-1.5683987E1,-6.9467556E-1,1.2129632E1,1.4325737E1,2.870019E-1,-4.9095333E-2,-3.55093E0,1.425199E0,7.596477E0,1.3387357E0,-9.29702E0,-1.6129982E0,2.5790152E-1,-2.258311E1,-5.961973E0,5.2059805E-1,1.5010073E0,2.097358E0,1.6487473E1,-4.046803E0,8.913611E0,7.198555E-2,-2.4616013E0,-5.296992E0,3.996651E0,-4.51326E-2,3.3464515E-1,2.259879E-1,9.9180794E-1,-2.2197823E-1,5.300233E-1,-1.5233027E0,7.691181E-2,-2.2710864E-1,7.78039E-1,-6.730281E-1,-2.3723428E0,2.9963065E-2,-9.778862E-1,1.3990539E0,-6.530549E-1,2.917092E-1,1.8217735E0,-6.13685E-1,2.7125263E-1,1.1908414E0,-4.527603E-1,-1.2452132E-2,1.439124E-1,-1.030367E0,-1.831381E-1,-9.969334E-1,-2.522254E-1,-7.338284E-1,8.8975394E-1],"categories":[],"categories_nodes":[],"categories_segments":[],"categories_sizes":[],"default_left":[0,0,0,0,0,0,0,0,0,0,0,0,0,0,0,0,0,0,0,0,0,0,0,0,0,0,0,0,0,0,0,0,0,0,0,0,0,0,0,0,0,0,0,0,0,0,0,0,0,0,0,0,0,0,0,0,0,0,0,0,0,0,0,0,0,0,0,0,0,0,0,0,0],"id":2,"left_children":[1,3,5,7,9,11,13,-1,-1,15,-1,17,19,21,23,25,27,29,31,-1,33,35,37,39,41,43,45,47,49,-1,51,53,55,-1,-1,57,59,61,63,65,67,69,71,-1,-1,-1,-1,-1,-1,-1,-1,-1,-1,-1,-1,-1,-1,-1,-1,-1,-1,-1,-1,-1,-1,-1,-1,-1,-1,-1,-1,-1,-1],"loss_changes":[2.2766616E3,1.3637327E3,1.9534781E3,1.4192725E2,1.0850068E3,1.4990515E3,2.1043804E3,0E0,0E0,1.0318689E3,0E0,1.087147E3,4.678218E2,1.8682039E3,1.7348175E3,1.835468E3,1.6733943E3,9.9159607E2,9.385342E2,0E0,2.157373E1,4.6767603E2,7.837925E2,1.3324834E3,1.9452373E3,6.8651324E2,7.829011E2,9.562684E2,1.1470166E3,0E0,3.0303415E2,3.0297852E0,1.9412878E2,0E0,0E0,5.0181897E2,3.2254248E2,2.1442873E2,3.3569305E2,1.167204E3,1.0585361E3,1.5176328E3,1.6207277E3,0E0,0E0,0E0,0E0,0E0,0E0,0E0,0E0,0E0,0E0,0E0,0E0,0E0,0E0,0E0,0E0,0E0,0E0,0E0,0E0,0E0,0E0,0E0,0E0,0E0,0E0,0E0,0E0,0E0,0E0],"parents":[2147483647,0,0,1,1,2,2,3,3,4,4,5,5,6,6,9,9,11,11,12,12,13,13,14,14,15,15,16,16,17,17,18,18,20,20,21,21,22,22,23,23,24,24,25,25,26,26,27,27,28,28,30,30,31,31,32,32,35,35,36,36,37,37,38,38,39,39,40,40,41,41,42,42],"right_children":[2,4,6,8,10,12,14,-1,-1,16,-1,18,20,22,24,26,28,30,32,-1,34,36,38,40,42,44,46,48,50,-1,52,54,56,-1,-1,58,60,62,64,66,68,70,72,-1,-1,-1,-1,-1,-1,-1,-1,-1,-1,-1,-1,-1,-1,-1,-1,-1,-1,-1,-1,-1,-1,-1,-1,-1,-1,-1,-1,-1,-1],"split_conditions":[-1.4478263E0,-1.9748886E0,-2.4455135E0,9.3492675E-1,2.5628872E0,1.392401E0,-2.1304922E0,1.825098E0,2.4293604E-1,6.6677445E-1,1.8608637E0,2.2119096E-1,-2.6098542E0,-1.898868E-2,1.8506494E0,1.9406882E-1,6.621417E-1,-1.046506E0,8.236574E-1,-6.9467556E-1,-8.8948745E-1,-1.4270684E0,1.2166966E0,1.708627E0,7.4376345E-1,1.4384548E-1,-7.578524E-1,-2.5600284E-1,1.0833895E0,-1.6129982E0,-2.4015711E-1,-1.0476071E0,9.717145E-1,5.2059805E-1,1.5010073E0,-3.746573E-1,-1.1405512E0,8.659843E-1,2.3647857E0,1.1768538E0,-1.2151932E0,2.0375438E0,-5.571343E-1,-4.51326E-2,3.3464515E-1,2.259879E-1,9.9180794E-1,-2.2197823E-1,5.300233E-1,-1.5233027E0,7.691181E-2,-2.2710864E-1,7.78039E-1,-6.730281E-1,-2.3723428E0,2.9963065E-2,-9.778862E-1,1.3990539E0,-6.530549E-1,2.917092E-1,1.8217735E0,-6.13685E-1,2.7125263E-1,1.1908414E0,-4.527603E-1,-1.2452132E-2,1.439124E-1,-1.030367E0,-1.831381E-1,-9.969334E-1,-2.522254E-1,-7.338284E-1,8.8975394E-1],"split_indices":[2,5,5,1,4,2,5,0,0,4,0,2,1,1,4,4,1,2,2,0,4,1,1,2,1,1,1,1,4,0,2,1,2,0,0,2,2,2,1,5,1,4,2,0,0,0,0,0,0,0,0,0,0,0,0,0,0,0,0,0,0,0,0,0,0,0,0,0,0,0,0,0,0],"split_type":[0,0,0,0,0,0,0,0,0,0,0,0,0,0,0,0,0,0,0,0,0,0,0,0,0,0,0,0,0,0,0,0,0,0,0,0,0,0,0,0,0,0,0,0,0,0,0,0,0,0,0,0,0,0,0,0,0,0,0,0,0,0,0,0,0,0,0,0,0,0,0,0,0],"sum_hessian":[5.126E3,3.46E2,4.78E3,6E0,3.4E2,3.8E1,4.742E3,5E0,1E0,3.37E2,3E0,3.3E1,5E0,3.7E1,4.705E3,2.53E2,8.4E1,1.8E1,1.5E1,1E0,4E0,1.8E1,1.9E1,4.56E3,1.45E2,1.89E2,6.4E1,6.6E1,1.8E1,4E0,1.4E1,8E0,7E0,2E0,2E0,3E0,1.5E1,1.3E1,6E0,4.343E3,2.17E2,1.18E2,2.7E1,9.6E1,9.3E1,2E1,4.4E1,3.5E1,3.1E1,1.1E1,7E0,1.1E1,3E0,1E0,7E0,3E0,4E0,1E0,2E0,2E0,1.3E1,1E1,3E0,5E0,1E0,3.798E3,5.45E2,1.5E1,2.02E2,4.3E1,7.5E1,8E0,1.9E1],"tree_param":{"num_deleted":"0","num_feature":"6","num_nodes":"73","size_leaf_vector":"1"}},{"base_weights":[6.8804234E-2,1.6755036E0,-2.5073216E0,1.1429968E0,2.6216986E0,-2.8911724E0,1.2425917E0,-2.7025542E-1,1.591299E0,2.8639925E0,-4.881471E0,-1.0958955E0,-3.6693504E0,-6.385128E-2,2.6999345E0,-2.1155698E0,1.0359086E0,3.1735718E0,5.629816E-1,5.722431E0,2.5578277E0,5.6434174E0,-9.14656E0,-1.269807E0,9.363946E0,-5.709532E0,-3.3271658E0,1.8726496E-1,-1.2211064E0,-1.785636E-3,3.670893E0,-1.125209E1,-1.055556E0,3.8554025E0,-4.0140465E-1,-1.6379004E0,3.6281466E0,4.348568E0,8.3403856E-2,7.298171E0,-1.8769116E0,-3.6327035E0,2.922353E0,1.2492226E0,1.6944863E0,-1.1824608E1,-1.6428761E0,-1.9573524E0,1.1242653E0,1.2035832E1,-6.00557E-1,-4.120974E0,-8.101578E0,-2.372495E0,-4.12987E0,-8.5047495E-1,3.6639792E-1,-8.7930745E-1,1.6728306E0,4.0022883E0,4.0063396E-1,-3.940116E-1,-1.462664E0,2.6978868E-1,-4.8798928E-1,4.9660203E-1,-9.120969E-1,-6.4046305E-1,6.25984E-2,1.1656116E0,-3.9142966E-1,3.210047E-1,8.920478E-1,-1.0345628E0,5.343627E-1,1.7283095E-2,-1.4706631E0,3.5024557E-1,1.0847356E0,-6.728279E-1,1.7997783E0,-7.5170356E-1,8.177657E-2,1.1868691E0,2.8235447E-1,7.2444683E-1,-8.055951E-1,-4.3414685E-1,-1.6872212E0,-4.7834635E-1,2.6935768E-1,3.0361181E-1,-2.4966474E-1,-3.953541E-2,4.8260656E-1,-2.256339E-1,1.4399905E0,-5.079311E-1,4.048856E-1,-5.0596696E-1,-1.1173608E0,-3.147143E-1,-7.603477E-2,-5.237796E-1,-3.103116E-1,3.4293443E-1,-2.963472E-3,-1.620734E-1,2.5431243E-1,5.238599E-1,2.388798E-1,-2.4678794E-1,1.2900327E-1],"categories":[],"categories_nodes":[],"categories_segments":[],"categories_sizes":[],"default_left":[0,0,0,0,0,0,0,0,0,0,0,0,0,0,0,0,0,0,0,0,0,0,0,0,0,0,0,0,0,0,0,0,0,0,0,0,0,0,0,0,0,0,0,0,0,0,0,0,0,0,0,0,0,0,0,0,0,0,0,0,0,0,0,0,0,0,0,0,0,0,0,0,0,0,0,0,0,0,0,0,0,0,0,0,0,0,0,0,0,0,0,0,0,0,0,0,0,0,0,0,0,0,0,0,0,0,0,0,0,0,0,0,0],"id":3,"left_children":[1,3,5,7,9,11,13,15,17,19,21,23,25,27,29,31,33,35,37,39,41,43,45,47,49,51,53,55,-1,57,59,61,63,65,67,69,71,73,75,77,79,81,83,85,-1,87,89,91,93,95,-1,97,99,101,103,-1,105,-1,107,109,111,-1,-1,-1,-1,-1,-1,-1,-1,-1,-1,-1,-1,-1,-1,-1,-1,-1,-1,-1,-1,-1,-1,-1,-1,-1,-1,-1,-1,-1,-1,-1,-1,-1,-1,-1,-1,-1,-1,-1,-1,-1,-1,-1,-1,-1,-1,-1,-1,-1,-1,-1,-1],"loss_changes":[2.127069E4,1.591706E3,2.8449824E3,1.2846646E3,2.084649E3,2.498086E3,3.5049646E2,1.1808201E3,2.5022874E3,9.515322E2,1.6676428E3,9.996549E2,8.529531E2,3.012222E2,2.2822998E2,1.9541448E3,1.164614E3,1.3313706E3,1.6952983E3,1.2830042E3,2.2649653E3,5.2510046E2,5.0304956E2,8.828285E2,4.4187238E2,6.429961E2,8.1169434E2,1.5414766E2,0E0,3.6803812E2,6.775641E1,4.6053638E2,2.640026E3,1.443238E3,1.1820297E3,1.6495352E3,1.1972124E3,1.5905499E3,1.1003243E3,1.1475171E3,1.9530635E3,9.742248E2,8.009585E2,5.6044226E2,0E0,6.4441626E2,1.2183669E2,1.1278489E3,6.7694727E2,3.0279297E2,0E0,8.739751E2,5.976035E2,6.1203955E2,6.446738E2,0E0,1.16552185E2,0E0,6.4315475E1,1.03183105E2,2.104241E1,0E0,0E0,0E0,0E0,0E0,0E0,0E0,0E0,0E0,0E0,0E0,0E0,0E0,0E0,0E0,0E0,0E0,0E0,0E0,0E0,0E0,0E0,0E0,0E0,0E0,0E0,0E0,0E0,0E0,0E0,0E0,0E0,0E0,0E0,0E0,0E0,0E0,0E0,0E0,0E0,0E0,0E0,0E0,0E0,0E0,0E0,0E0,0E0,0E0,0E0,0E0,0E0],"parents":[2147483647,0,0,1,1,2,2,3,3,4,4,5,5,6,6,7,7,8,8,9,9,10,10,11,11,12,12,13,13,14,14,15,15,16,16,17,17,18,18,19,19,20,20,21,21,22,22,23,23,24,24,25,25,26,26,27,27,29,29,30,30,31,31,32,32,33,33,34,34,35,35,36,36,37,37,38,38,39,39,40,40,41,41,42,42,43,43,45,45,46,46,47,47,48,48,49,49,51,51,52,52,53,53,54,54,56,56,58,58,59,59,60,60],"right_children":[2,4,6,8,10,12,14,16,18,20,22,24,26,28,30,32,34,36,38,40,42,44,46,48,50,52,54,56,-1,58,60,62,64,66,68,70,72,74,76,78,80,82,84,86,-1,88,90,92,94,96,-1,98,100,102,104,-1,106,-1,108,110,112,-1,-1,-1,-1,-1,-1,-1,-1,-1,-1,-1,-1,-1,-1,-1,-1,-1,-1,-1,-1,-1,-1,-1,-1,-1,-1,-1,-1,-1,-1,-1,-1,-1,-1,-1,-1,-1,-1,-1,-1,-1,-1,-1,-1,-1,-1,-1,-1,-1,-1,-1,-1],"split_conditions":[2.7941716E-1,3.7411585E-1,1.7095438E0,-7.166023E-1,1.7775686E0,6.0760003E-1,-8.257756E-2,-1.792769E-1,8.080335E-2,-1.3600061E0,-7.18883E-1,2.0517743E0,-1.0897002E0,-9.325565E-2,-5.955397E-1,-1.4521959E0,-1.4394375E0,-1.3240904E0,-1.220576E0,5.972666E-1,-1.1105386E0,4.6265116E-1,1.2984812E-1,5.302771E-1,2.5533323E0,2.5628623E-1,6.766625E-2,-2.663921E0,-1.2211064E0,1.75936E0,1.2713192E0,-1.4083152E0,-3.7385717E-1,2.462731E-1,-1.1920502E0,-2.1030848E0,1.9794304E-2,1.5259784E-1,2.5628872E0,-2.7499267E-1,2.3053575E0,-3.6155584E-1,-1.046506E0,9.748736E-1,1.6944863E0,9.4055533E-1,-1.10939294E-1,-1.104512E0,8.236574E-1,-1.6978146E0,-6.00557E-1,1.4505316E-1,-4.785076E-3,-2.3927727E-1,6.659197E-1,-8.5047495E-1,1.75936E0,-8.7930745E-1,-1.6830753E0,4.9372134E-1,1.3696074E0,-3.940116E-1,-1.462664E0,2.6978868E-1,-4.8798928E-1,4.9660203E-1,-9.120969E-1,-6.4046305E-1,6.25984E-2,1.1656116E0,-3.9142966E-1,3.210047E-1,8.920478E-1,-1.0345628E0,5.343627E-1,1.7283095E-2,-1.4706631E0,3.5024557E-1,1.0847356E0,-6.728279E-1,1.7997783E0,-7.5170356E-1,8.177657E-2,1.1868691E0,2.8235447E-1,7.2444683E-1,-8.055951E-1,-4.3414685E-1,-1.6872212E0,-4.7834635E-1,2.6935768E-1,3.0361181E-1,-2.4966474E-1,-3.953541E-2,4.8260656E-1,-2.256339E-1,1.4399905E0,-5.079311E-1,4.048856E-1,-5.0596696E-1,-1.1173608E0,-3.147143E-1,-7.603477E-2,-5.237796E-1,-3.103116E-1,3.4293443E-1,-2.963472E-3,-1.620734E-1,2.5431243E-1,5.238599E-1,2.388798E-1,-2.4678794E-1,1.2900327E-1],"split_indices":[3,0,3,4,2,3,4,2,4,2,3,0,0,4,0,3,4,2,2,4,2,4,4,3,0,2,0,4,0,3,2,4,3,0,0,2,4,4,4,4,4,3,2,0,0,0,3,0,2,2,0,2,4,0,0,0,3,0,0,0,2,0,0,0,0,0,0,0,0,0,0,0,0,0,0,0,0,0,0,0,0,0,0,0,0,0,0,0,0,0,0,0,0,0,0,0,0,0,0,0,0,0,0,0,0,0,0,0,0,0,0,0,0],"split_type":[0,0,0,0,0,0,0,0,0,0,0,0,0,0,0,0,0,0,0,0,0,0,0,0,0,0,0,0,0,0,0,0,0,0,0,0,0,0,0,0,0,0,0,0,0,0,0,0,0,0,0,0,0,0,0,0,0,0,0,0,0,0,0,0,0,0,0,0,0,0,0,0,0,0,0,0,0,0,0,0,0,0,0,0,0,0,0,0,0,0,0,0,0,0,0,0,0,0,0,0,0,0,0,0,0,0,0,0,0,0,0,0,0],"sum_hessian":[5.137E3,3.164E3,1.973E3,2.026E3,1.138E3,1.79E3,1.83E2,4.88E2,1.538E3,1.103E3,3.5E1,5.42E2,1.248E3,9.7E1,8.6E1,2.02E2,2.86E2,6.05E2,9.33E2,1.05E2,9.98E2,1E1,2.5E1,5.34E2,8E0,1.77E2,1.071E3,9.6E1,1E0,2.3E1,6.3E1,2E1,1.82E2,9.6E1,1.9E2,5.2E1,5.53E2,1.04E2,8.29E2,8.7E1,1.8E1,5.5E1,9.43E2,8E0,2E0,1.8E1,7E0,4.15E2,1.19E2,7E0,1E0,1.08E2,6.9E1,4.91E2,5.8E2,1E0,9.5E1,3E0,2E1,5.7E1,6E0,7E0,1.3E1,9.2E1,9E1,8.9E1,7E0,2.7E1,1.63E2,7E0,4.5E1,5.14E2,3.9E1,6E0,9.8E1,8.25E2,4E0,4.3E1,4.4E1,1.5E1,3E0,2.9E1,2.6E1,9E0,9.34E2,5E0,3E0,8E0,1E1,4E0,3E0,4E1,3.75E2,8.5E1,3.4E1,1E0,6E0,9.7E1,1.1E1,3.6E1,3.3E1,3.31E2,1.6E2,2.77E2,3.03E2,1E1,8.5E1,4E0,1.6E1,3.1E1,2.6E1,1E0,5E0],"tree_param":{"num_deleted":"0","num_feature":"6","num_nodes":"113","size_leaf_vector":"1"}},{"base_weights":[2.0023768E-1,1.4735794E0,-2.3713107E0,2.4397917E0,5.8023936E-1,-2.8281605E0,1.4971681E0,2.1320934E0,6.6784644E0,-1.9239076E0,8.7309796E-1,-1.1939346E0,-3.1709826E0,7.253324E-1,2.9544468E0,1.5329927E0,3.8369644E0,8.101235E0,-4.670211E0,-5.405663E-1,-7.7112403E0,3.7414375E-1,2.1760798E0,-4.1630325E0,7.80555E-1,-2.966556E0,-7.0566964E0,1.1702328E0,-2.437326E0,1.4942896E0,3.8373277E0,-8.325019E0,1.7798374E0,1.1452874E1,3.2534094E0,2.5033846E0,1.0060698E1,1.4701985E0,-1.1952067E1,-9.098654E0,2.5797442E-1,9.369111E-1,-9.547912E0,-2.4357316E0,8.1817394E-1,-1.1050641E1,2.3221016E0,-4.6930046E0,1.0524503E0,-2.4982777E0,3.2311952E0,-3.0316482E0,4.3094106E0,5.750874E0,-8.03913E0,5.168308E-1,5.7545524E0,-3.0490973E0,3.063736E-1,4.8948485E-1,6.1347616E-1,-1.6223203E-1,4.0287323E0,-1.103165E0,3.4379047E-1,4.021363E-1,1.07726194E-1,2.0520972E-1,1.3923445E0,-6.2792987E-1,3.8128796E-1,1.0573963E0,-2.1193467E-1,7.8115004E-1,1.5258162E0,7.0275325E-1,-1.484175E0,5.251434E-2,-1.2038307E0,-5.2905166E-1,1.3939215E-1,2.3211884E-1,-1.2832716E0,-1.8546627E-1,-1.309894E0,2.898682E-1,3.131836E-2,-2.6105365E-1,-1.2508034E0,7.7594525E-1,1.6951907E-1,5.638205E-1,-5.5050534E-1,3.0745253E-1,-6.153997E-1,-2.4581492E-1,5.390774E-1,-2.4116586E-1,-3.8406742E-1,6.4766943E-1,-3.6289093E-1,-2.1455832E-1,8.2613844E-1,-1.4727253E0,-5.9742445E-1,1.1848497E-1,-2.5393033E-1,1.3484602E-1,6.009355E-1,-8.483781E-2,-5.1286197E-1,-4.2411333E-1,1.3477053E-1,4.4955593E-1,8.67534E-2],"categories":[],"categories_nodes":[],"categories_segments":[],"categories_sizes":[],"default_left":[0,0,0,0,0,0,0,0,0,0,0,0,0,0,0,0,0,0,0,0,0,0,0,0,0,0,0,0,0,0,0,0,0,0,0,0,0,0,0,0,0,0,0,0,0,0,0,0,0,0,0,0,0,0,0,0,0,0,0,0,0,0,0,0,0,0,0,0,0,0,0,0,0,0,0,0,0,0,0,0,0,0,0,0,0,0,0,0,0,0,0,0,0,0,0,0,0,0,0,0,0,0,0,0,0,0,0,0,0,0,0,0,0,0,0],"id":4,"left_children":[1,3,5,7,9,11,13,15,17,19,21,23,25,27,29,31,33,35,37,39,41,43,45,47,49,51,53,55,57,59,61,63,65,67,69,71,73,-1,75,77,79,-1,81,83,85,87,89,91,-1,93,95,97,99,101,103,105,107,109,-1,-1,111,-1,113,-1,-1,-1,-1,-1,-1,-1,-1,-1,-1,-1,-1,-1,-1,-1,-1,-1,-1,-1,-1,-1,-1,-1,-1,-1,-1,-1,-1,-1,-1,-1,-1,-1,-1,-1,-1,-1,-1,-1,-1,-1,-1,-1,-1,-1,-1,-1,-1,-1,-1,-1,-1],"loss_changes":[1.6788375E4,2.9583462E3,3.0051318E3,2.133833E3,1.3092625E3,8.472324E2,2.0031744E2,1.5639927E3,1.830103E3,1.4929269E3,1.0374408E3,1.5567994E3,9.759668E2,1.7029333E2,7.419287E1,2.7864578E3,1.7360161E3,1.0607231E3,2.0095713E3,1.0411124E3,1.218811E3,1.4442988E3,8.793347E2,8.744935E2,1.2937108E3,5.7855273E2,8.2635254E2,3.115432E2,5.982251E1,7.187856E1,4.624597E1,9.2938684E2,1.7468906E3,6.217356E2,2.0079167E3,1.029729E3,7.3418994E2,0E0,6.5275073E2,3.7409998E2,8.8976544E2,0E0,1.3163801E3,9.5468317E2,1.048678E3,2.8850037E1,1.4798721E3,8.951516E2,0E0,1.4246301E3,1.1436172E3,5.846172E2,2.1275383E2,1.1684616E2,7.1300757E2,1.928733E2,6.491516E0,5.9719223E1,0E0,0E0,8.05681E1,0E0,5.0702026E1,0E0,0E0,0E0,0E0,0E0,0E0,0E0,0E0,0E0,0E0,0E0,0E0,0E0,0E0,0E0,0E0,0E0,0E0,0E0,0E0,0E0,0E0,0E0,0E0,0E0,0E0,0E0,0E0,0E0,0E0,0E0,0E0,0E0,0E0,0E0,0E0,0E0,0E0,0E0,0E0,0E0,0E0,0E0,0E0,0E0,0E0,0E0,0E0,0E0,0E0,0E0,0E0],"parents":[2147483647,0,0,1,1,2,2,3,3,4,4,5,5,6,6,7,7,8,8,9,9,10,10,11,11,12,12,13,13,14,14,15,15,16,16,17,17,18,18,19,19,20,20,21,21,22,22,23,23,24,24,25,25,26,26,27,27,28,28,29,29,30,30,31,31,32,32,33,33,34,34,35,35,36,36,38,38,39,39,40,40,42,42,43,43,44,44,45,45,46,46,47,47,49,49,50,50,51,51,52,52,53,53,54,54,55,55,56,56,57,57,60,60,62,62],"right_children":[2,4,6,8,10,12,14,16,18,20,22,24,26,28,30,32,34,36,38,40,42,44,46,48,50,52,54,56,58,60,62,64,66,68,70,72,74,-1,76,78,80,-1,82,84,86,88,90,92,-1,94,96,98,100,102,104,106,108,110,-1,-1,112,-1,114,-1,-1,-1,-1,-1,-1,-1,-1,-1,-1,-1,-1,-1,-1,-1,-1,-1,-1,-1,-1,-1,-1,-1,-1,-1,-1,-1,-1,-1,-1,-1,-1,-1,-1,-1,-1,-1,-1,-1,-1,-1,-1,-1,-1,-1,-1,-1,-1,-1,-1,-1,-1],"split_conditions":[4.4778788E-1,-4.8932543E-1,1.7095438E0,1.4839644E0,-3.9770156E-1,6.0760003E-1,2.0479517E0,6.011187E-1,9.852321E-1,9.043268E-1,5.47634E-1,5.08519E-1,1.5161644E0,1.1042771E0,-3.1619483E-1,-1.9084743E0,-1.5293899E0,-1.4776971E0,-6.8335456E-1,-1.6978146E0,-4.766788E-1,-1.046506E0,-2.646768E0,2.0517743E0,-1.6215761E-1,2.4724638E0,-1.2391131E0,5.252265E-1,1.6702328E0,-8.8961667E-1,-1.6830753E0,-8.7034124E-1,-9.0522575E-1,-5.8276576E-1,-1.1916974E0,-2.1537132E0,1.9843183E0,1.4701985E0,-2.1537132E0,-8.326845E-1,-1.1188194E0,9.369111E-1,-8.61477E-1,4.0305957E-1,-1.0548246E0,-1.311929E0,-1.1571277E0,-1.2983425E0,1.0524503E0,-9.959483E-1,-4.769932E-1,7.803117E-2,8.62902E-1,7.4630594E-1,-7.873764E-1,9.043268E-1,-1.2594007E0,1.6180226E0,3.063736E-1,4.8948485E-1,-5.698352E-1,-1.6223203E-1,9.0361434E-1,-1.103165E0,3.4379047E-1,4.021363E-1,1.07726194E-1,2.0520972E-1,1.3923445E0,-6.2792987E-1,3.8128796E-1,1.0573963E0,-2.1193467E-1,7.8115004E-1,1.5258162E0,7.0275325E-1,-1.484175E0,5.251434E-2,-1.2038307E0,-5.2905166E-1,1.3939215E-1,2.3211884E-1,-1.2832716E0,-1.8546627E-1,-1.309894E0,2.898682E-1,3.131836E-2,-2.6105365E-1,-1.2508034E0,7.7594525E-1,1.6951907E-1,5.638205E-1,-5.5050534E-1,3.0745253E-1,-6.153997E-1,-2.4581492E-1,5.390774E-1,-2.4116586E-1,-3.8406742E-1,6.4766943E-1,-3.6289093E-1,-2.1455832E-1,8.2613844E-1,-1.4727253E0,-5.9742445E-1,1.1848497E-1,-2.5393033E-1,1.3484602E-1,6.009355E-1,-8.483781E-2,-5.1286197E-1,-4.2411333E-1,1.3477053E-1,4.4955593E-1,8.67534E-2],"split_indices":[3,3,3,0,3,3,3,2,2,0,0,3,0,4,4,4,4,3,4,2,3,2,2,0,2,2,2,4,0,2,0,3,2,0,4,3,0,0,3,0,0,0,2,3,0,4,2,0,0,2,4,0,4,3,2,0,0,4,0,0,2,0,2,0,0,0,0,0,0,0,0,0,0,0,0,0,0,0,0,0,0,0,0,0,0,0,0,0,0,0,0,0,0,0,0,0,0,0,0,0,0,0,0,0,0,0,0,0,0,0,0,0,0,0,0],"split_type":[0,0,0,0,0,0,0,0,0,0,0,0,0,0,0,0,0,0,0,0,0,0,0,0,0,0,0,0,0,0,0,0,0,0,0,0,0,0,0,0,0,0,0,0,0,0,0,0,0,0,0,0,0,0,0,0,0,0,0,0,0,0,0,0,0,0,0,0,0,0,0,0,0,0,0,0,0,0,0,0,0,0,0,0,0,0,0,0,0,0,0,0,0,0,0,0,0,0,0,0,0,0,0,0,0,0,0,0,0,0,0,0,0,0,0],"sum_hessian":[5.125E3,3.428E3,1.697E3,1.646E3,1.782E3,1.518E3,1.79E2,1.536E3,1.1E2,1.86E2,1.596E3,2.64E2,1.254E3,1.18E2,6.1E1,1.138E3,3.98E2,9.8E1,1.2E1,1.51E2,3.5E1,1.155E3,4.41E2,1.05E2,1.59E2,1.193E3,6.1E1,1.04E2,1.4E1,2.4E1,3.7E1,2.7E1,1.111E3,2.7E1,3.71E2,2.6E1,7.2E1,3E0,9E0,1.2E1,1.39E2,3E0,3.2E1,1.57E2,9.98E2,4E0,4.37E2,1.02E2,3E0,6.8E1,9.1E1,1.183E3,1E1,4E0,5.7E1,9.2E1,1.2E1,1.3E1,1E0,4E0,2E1,1E0,3.6E1,2.2E1,5E0,2.64E2,8.47E2,6E0,2.1E1,2E1,3.51E2,9E0,1.7E1,5.2E1,2E1,1E0,8E0,3E0,9E0,2.3E1,1.16E2,7E0,2.5E1,1.5E2,7E0,1.94E2,8.04E2,1E0,3E0,4.4E1,3.93E2,7E0,9.5E1,2.7E1,4.1E1,2.5E1,6.6E1,6.72E2,5.11E2,8E0,2E0,1E0,3E0,1.2E1,4.5E1,7.6E1,1.6E1,1E0,1.1E1,7E0,6E0,2E0,1.8E1,3.1E1,5E0],"tree_param":{"num_deleted":"0","num_feature":"6","num_nodes":"115","size_leaf_vector":"1"}},{"base_weights":[-6.577522E-2,1.3698059E0,-1.6535495E-1,-3.487297E0,2.063739E0,-1.9766413E0,-9.679887E-2,-4.9796014E0,1.1934494E1,-1.8933305E0,3.2966142E0,-6.2195153E0,7.131001E-1,9.169937E-2,-8.018299E-1,4.3264256E0,-8.790055E0,1.4237179E0,2.5132218E-1,-3.4238389E0,5.789447E0,4.1118445E0,-1.3560451E0,-9.4132595E0,-2.3323884E0,-1.1968368E0,5.2866015E0,-1.7173663E-2,4.123583E0,-9.8425525E-1,9.547005E0,9.670408E0,-5.0892324E0,7.7529945E0,-1.036079E1,1.17250185E1,-4.44476E0,3.9655814E-1,6.8283687E0,1.0885568E1,3.1137538E0,1.0403894E0,-1.2712805E0,-1.11074295E1,1.1911904E0,-1.0596987E1,-1.7596904E-2,1.5729395E0,-2.095595E0,1.2557028E1,-1.0657868E0,8.431602E-2,-2.290563E0,-1.5282464E0,4.7985425E0,2.2090337E0,-1.2612903E0,1.7640346E0,5.6997957E0,4.377864E-1,1.3868487E0,4.6067104E-1,-1.3088765E0,1.3473734E0,-1.8442412E-1,-1.2024132E0,1.793623E-1,2.801799E-1,1.3765492E0,-1.5101818E0,-2.614123E-1,3.6279747E-1,-3.0331373E-1,-4.5756437E-2,7.688757E-1,1.171561E0,1.1700707E-1,2.3958242E-1,1.0229052E0,-5.0725096E-1,5.65376E-1,-5.087039E-1,-1.2902267E0,4.6434936E-1,-3.808944E-1,8.6640455E-2,-1.2651953E0,-7.4402744E-1,2.1040061E-1,1.001464E0,-2.748346E-1,1.4276263E0,-5.756128E-1,-4.3545794E-1,8.3559895E-1,2.9630328E-2,-1.0071496E-1,-4.097229E-1,3.435486E-1,5.50245E-1,-1.1065571E0,8.991939E-1,2.932529E-1,-6.736596E-1,4.8559055E-1,1.3086851E-1,-1.6823241E-1,2.7479101E-2,1.1983169E0],"categories":[],"categories_nodes":[],"categories_segments":[],"categories_sizes":[],"default_left":[0,0,0,0,0,0,0,0,0,0,0,0,0,0,0,0,0,0,0,0,0,0,0,0,0,0,0,0,0,0,0,0,0,0,0,0,0,0,0,0,0,0,0,0,0,0,0,0,0,0,0,0,0,0,0,0,0,0,0,0,0,0,0,0,0,0,0,0,0,0,0,0,0,0,0,0,0,0,0,0,0,0,0,0,0,0,0,0,0,0,0,0,0,0,0,0,0,0,0,0,0,0,0,0,0,0,0,0,0],"id":5,"left_children":[1,3,5,7,9,11,13,15,17,19,21,23,25,27,29,31,33,-1,-1,35,37,39,41,43,45,47,49,51,53,55,57,59,61,63,65,67,69,71,73,75,77,79,-1,81,83,85,87,-1,89,91,93,95,97,99,101,103,105,-1,107,-1,-1,-1,-1,-1,-1,-1,-1,-1,-1,-1,-1,-1,-1,-1,-1,-1,-1,-1,-1,-1,-1,-1,-1,-1,-1,-1,-1,-1,-1,-1,-1,-1,-1,-1,-1,-1,-1,-1,-1,-1,-1,-1,-1,-1,-1,-1,-1,-1,-1],"loss_changes":[7.338705E2,1.1295752E3,5.958472E2,1.0260172E3,1.4307845E3,2.0015757E3,6.148556E2,1.4209769E3,5.0995667E1,8.42921E2,8.514126E2,8.2223E2,9.497179E2,1.6027262E3,1.8519772E3,6.530204E2,8.0789966E2,0E0,0E0,9.645965E2,6.4525635E1,1.2506555E3,9.3856116E2,6.779636E2,6.119998E2,1.2043315E3,1.4912894E3,8.206533E2,3.7355005E2,8.520532E2,4.287788E2,1.1703381E2,4.4811124E2,1.8955862E2,5.472075E2,3.4262207E1,1.0530377E3,4.425247E1,6.6205444E1,1.7983447E2,8.2857605E2,8.4650977E2,0E0,2.8014526E2,1.2125868E2,1.7585986E2,4.2510168E2,0E0,6.124916E2,5.544453E2,5.941396E2,7.881364E2,1.5865247E3,7.9848206E2,6.465753E2,1.8559133E3,9.587306E2,0E0,4.398424E2,0E0,0E0,0E0,0E0,0E0,0E0,0E0,0E0,0E0,0E0,0E0,0E0,0E0,0E0,0E0,0E0,0E0,0E0,0E0,0E0,0E0,0E0,0E0,0E0,0E0,0E0,0E0,0E0,0E0,0E0,0E0,0E0,0E0,0E0,0E0,0E0,0E0,0E0,0E0,0E0,0E0,0E0,0E0,0E0,0E0,0E0,0E0,0E0,0E0,0E0],"parents":[2147483647,0,0,1,1,2,2,3,3,4,4,5,5,6,6,7,7,8,8,9,9,10,10,11,11,12,12,13,13,14,14,15,15,16,16,19,19,20,20,21,21,22,22,23,23,24,24,25,25,26,26,27,27,28,28,29,29,30,30,31,31,32,32,33,33,34,34,35,35,36,36,37,37,38,38,39,39,40,40,41,41,43,43,44,44,45,45,46,46,48,48,49,49,50,50,51,51,52,52,53,53,54,54,55,55,56,56,58,58],"right_children":[2,4,6,8,10,12,14,16,18,20,22,24,26,28,30,32,34,-1,-1,36,38,40,42,44,46,48,50,52,54,56,58,60,62,64,66,68,70,72,74,76,78,80,-1,82,84,86,88,-1,90,92,94,96,98,100,102,104,106,-1,108,-1,-1,-1,-1,-1,-1,-1,-1,-1,-1,-1,-1,-1,-1,-1,-1,-1,-1,-1,-1,-1,-1,-1,-1,-1,-1,-1,-1,-1,-1,-1,-1,-1,-1,-1,-1,-1,-1,-1,-1,-1,-1,-1,-1,-1,-1,-1,-1,-1,-1],"split_conditions":[-1.4478263E0,-2.4001455E0,-1.8671108E0,1.5399623E0,-6.80563E-1,-1.3183825E-1,7.9080665E-1,-8.0223286E-1,-9.227039E-1,9.504358E-1,9.942971E-1,-8.784757E-2,4.3451005E-1,7.2828025E-1,1.9587461E0,-2.646768E0,-1.9207501E0,1.4237179E0,2.5132218E-1,-2.0026622E0,-1.0476071E0,-3.5126552E-1,4.757793E-1,1.5161644E0,-8.0223286E-1,-1.6221826E0,-1.9599658E-1,1.7744569E0,-1.2097492E0,-1.2462798E0,2.2004762E0,-1.2313893E0,-1.2097492E0,-1.7671004E-1,1.2976286E0,-1.4408544E0,-1.2361884E0,-1.1188194E0,1.1582288E0,9.6878314E-1,1.5161644E0,-1.8648319E0,-1.2712805E0,-1.0319268E0,-2.3171089E0,-2.6000183E0,-1.1571277E0,1.5729395E0,-8.3251685E-2,1.3169245E0,4.3819964E-1,9.748736E-1,2.8806013E-1,-1.5421786E0,-3.6768058E-1,-8.792866E-1,-9.4606805E-1,1.7640346E0,1.4118087E0,4.377864E-1,1.3868487E0,4.6067104E-1,-1.3088765E0,1.3473734E0,-1.8442412E-1,-1.2024132E0,1.793623E-1,2.801799E-1,1.3765492E0,-1.5101818E0,-2.614123E-1,3.6279747E-1,-3.0331373E-1,-4.5756437E-2,7.688757E-1,1.171561E0,1.1700707E-1,2.3958242E-1,1.0229052E0,-5.0725096E-1,5.65376E-1,-5.087039E-1,-1.2902267E0,4.6434936E-1,-3.808944E-1,8.6640455E-2,-1.2651953E0,-7.4402744E-1,2.1040061E-1,1.001464E0,-2.748346E-1,1.4276263E0,-5.756128E-1,-4.3545794E-1,8.3559895E-1,2.9630328E-2,-1.0071496E-1,-4.097229E-1,3.435486E-1,5.50245E-1,-1.1065571E0,8.991939E-1,2.932529E-1,-6.736596E-1,4.8559055E-1,1.3086851E-1,-1.6823241E-1,2.7479101E-2,1.1983169E0],"split_indices":[2,2,4,0,0,2,1,0,4,4,1,1,1,1,4,2,1,0,0,1,1,0,4,0,0,1,0,4,0,4,4,0,0,0,1,0,1,0,4,4,0,2,0,2,4,0,2,0,2,1,0,0,1,0,0,0,0,0,1,0,0,0,0,0,0,0,0,0,0,0,0,0,0,0,0,0,0,0,0,0,0,0,0,0,0,0,0,0,0,0,0,0,0,0,0,0,0,0,0,0,0,0,0,0,0,0,0,0,0],"split_type":[0,0,0,0,0,0,0,0,0,0,0,0,0,0,0,0,0,0,0,0,0,0,0,0,0,0,0,0,0,0,0,0,0,0,0,0,0,0,0,0,0,0,0,0,0,0,0,0,0,0,0,0,0,0,0,0,0,0,0,0,0,0,0,0,0,0,0,0,0,0,0,0,0,0,0,0,0,0,0,0,0,0,0,0,0,0,0,0,0,0,0,0,0,0,0,0,0,0,0,0,0,0,0,0,0,0,0,0,0],"sum_hessian":[5.131E3,3.32E2,4.799E3,4.1E1,2.91E2,1.74E2,4.625E3,3.8E1,3E0,6.9E1,2.22E2,6.7E1,1.07E2,3.65E3,9.75E2,1.1E1,2.7E1,2E0,1E0,5.8E1,1.1E1,1.89E2,3.3E1,3.6E1,3.1E1,7.6E1,3.1E1,3.555E3,9.5E1,9.59E2,1.6E1,7E0,4E0,2E0,2.5E1,3E0,5.5E1,2E0,9E0,2.3E1,1.66E2,2.8E1,5E0,3.1E1,5E0,6E0,2.5E1,3E0,7.3E1,1.4E1,1.7E1,3.404E3,1.51E2,1E1,8.5E1,7.6E1,8.83E2,4E0,1.2E1,4E0,3E0,2E0,2E0,1E0,1E0,2.2E1,3E0,1E0,2E0,7E0,4.8E1,1E0,1E0,1E0,8E0,2.1E1,2E0,1.52E2,1.4E1,1.2E1,1.6E1,8E0,2.3E1,3E0,2E0,1E0,5E0,5E0,2E1,3E0,7E1,1.3E1,1E0,1.3E1,4E0,2.851E3,5.53E2,1.15E2,3.6E1,6E0,4E0,2.5E1,6E1,1.7E1,5.9E1,1.24E2,7.59E2,7E0,5E0],"tree_param":{"num_deleted":"0","num_feature":"6","num_nodes":"109","size_leaf_vector":"1"}},{"base_weights":[-1.5886566E-1,1.0142884E0,-1.9457874E0,1.9409479E0,2.9195702E-1,-2.31647E0,9.2420584E-1,7.752898E0,1.7665719E0,4.5667103E-1,-4.1520596E0,-9.607028E-1,-3.0072613E0,-2.5229301E0,1.2435416E0,1.6193207E1,4.681032E0,-7.697576E0,1.9117084E0,-2.9527915E0,6.5262574E-1,-1.43436775E1,-8.8067776E-1,-3.3984065E0,-3.1372547E-1,-3.0576646E0,9.509549E-1,-6.8467674E0,1.6371884E0,-8.242626E-1,1.3725225E0,3.1317338E-1,1.9067109E0,2.330502E0,1.5967583E1,-2.688141E0,-1.6616793E0,3.2266698E0,1.2241323E0,-9.523211E0,-1.6344917E0,7.3046746E0,5.1048875E-1,-4.477176E0,-1.6437206E1,-5.558307E0,5.3980985E0,5.167489E0,-4.174701E0,-7.743117E-1,2.862667E0,-2.337972E0,-3.8262858E0,-1.21029E0,-2.865154E0,-5.207753E-1,2.842458E0,-7.308408E-1,1.4486622E0,-1.4783499E0,4.3726483E-1,1.9518772E0,8.814106E-2,-5.106602E-1,1.4375924E0,-5.5918615E-2,4.5093742E-1,2.0759718E-1,-5.081547E-2,-4.3445513E-1,-1.6567109E0,4.911901E-1,-2.79998E-1,1.0750884E0,-7.031368E-1,3.0159224E-2,3.8541096E-1,5.9737664E-1,-9.952079E-1,-1.7807868E0,-6.389264E-1,-1.8170455E-1,-1.6522515E0,-7.2441614E-1,9.8015654E-1,-3.1649834E-1,8.687789E-1,-5.821208E-1,1.5924287E-3,7.3646106E-2,-3.0904126E-1,3.466372E-1,-6.6067153E-1,4.2111847E-1,-2.5205478E-1,-3.490778E-1,-7.7577955E-1,-8.2900393E-1,9.628078E-2,3.259711E-1,-4.5640945E-2,4.449968E-1,1.2115792E-1],"categories":[],"categories_nodes":[],"categories_segments":[],"categories_sizes":[],"default_left":[0,0,0,0,0,0,0,0,0,0,0,0,0,0,0,0,0,0,0,0,0,0,0,0,0,0,0,0,0,0,0,0,0,0,0,0,0,0,0,0,0,0,0,0,0,0,0,0,0,0,0,0,0,0,0,0,0,0,0,0,0,0,0,0,0,0,0,0,0,0,0,0,0,0,0,0,0,0,0,0,0,0,0,0,0,0,0,0,0,0,0,0,0,0,0,0,0,0,0,0,0,0,0],"id":6,"left_children":[1,3,5,7,9,11,13,15,17,19,21,23,25,27,29,31,33,35,37,39,41,43,45,47,49,51,-1,53,55,-1,57,-1,-1,59,61,63,-1,65,67,69,71,73,75,77,79,81,83,85,87,89,91,93,95,-1,97,-1,99,-1,101,-1,-1,-1,-1,-1,-1,-1,-1,-1,-1,-1,-1,-1,-1,-1,-1,-1,-1,-1,-1,-1,-1,-1,-1,-1,-1,-1,-1,-1,-1,-1,-1,-1,-1,-1,-1,-1,-1,-1,-1,-1,-1,-1,-1],"loss_changes":[1.0695376E4,2.0610474E3,2.1532598E3,1.3534683E3,1.2697058E3,1.6744756E3,2.585215E2,9.3537134E2,1.8154968E3,1.1183226E3,2.0544897E3,9.5468024E2,7.773115E2,3.7096295E2,2.7192596E2,3.156609E2,7.586688E2,8.489364E2,1.1641938E3,7.7265656E2,1.4911101E3,2.3624463E2,1.4397542E3,8.660791E2,7.0445795E2,6.4490234E2,0E0,1.7460217E2,1.055528E2,0E0,1.5005069E2,0E0,0E0,9.7332446E2,2.5066528E2,6.511749E2,0E0,2.1537886E3,1.2553407E3,4.751925E2,6.012434E2,1.7059579E3,1.0807687E3,2.8832297E2,5.148877E1,1.1185369E3,1.2400691E3,3.5015753E2,8.073801E2,1.4718989E3,3.7162067E2,7.435886E2,7.247793E2,0E0,1.5334549E2,0E0,1.5252388E1,0E0,1.4403574E2,0E0,0E0,0E0,0E0,0E0,0E0,0E0,0E0,0E0,0E0,0E0,0E0,0E0,0E0,0E0,0E0,0E0,0E0,0E0,0E0,0E0,0E0,0E0,0E0,0E0,0E0,0E0,0E0,0E0,0E0,0E0,0E0,0E0,0E0,0E0,0E0,0E0,0E0,0E0,0E0,0E0,0E0,0E0,0E0],"parents":[2147483647,0,0,1,1,2,2,3,3,4,4,5,5,6,6,7,7,8,8,9,9,10,10,11,11,12,12,13,13,14,14,15,15,16,16,17,17,18,18,19,19,20,20,21,21,22,22,23,23,24,24,25,25,27,27,28,28,30,30,33,33,34,34,35,35,37,37,38,38,39,39,40,40,41,41,42,42,43,43,44,44,45,45,46,46,47,47,48,48,49,49,50,50,51,51,52,52,54,54,56,56,58,58],"right_children":[2,4,6,8,10,12,14,16,18,20,22,24,26,28,30,32,34,36,38,40,42,44,46,48,50,52,-1,54,56,-1,58,-1,-1,60,62,64,-1,66,68,70,72,74,76,78,80,82,84,86,88,90,92,94,96,-1,98,-1,100,-1,102,-1,-1,-1,-1,-1,-1,-1,-1,-1,-1,-1,-1,-1,-1,-1,-1,-1,-1,-1,-1,-1,-1,-1,-1,-1,-1,-1,-1,-1,-1,-1,-1,-1,-1,-1,-1,-1,-1,-1,-1,-1,-1,-1,-1],"split_conditions":[2.4679393E-1,-6.5343964E-1,1.6413752E0,-1.9207501E0,1.708627E0,6.0760003E-1,-1.6437405E0,-5.698352E-1,-1.7601596E0,-1.5729859E0,-5.5141234E-1,3.2265687E-1,2.6994627E0,1.8511977E0,-2.1737595E0,-2.4573853E0,1.2272824E0,6.2208056E-1,-3.23055E-1,-8.109058E-1,-1.4285026E0,-5.6473756E-1,3.4737855E-1,-1.3600061E0,1.1154788E0,1.6066214E-1,9.509549E-1,-1.8213464E0,-1.5747342E0,-8.242626E-1,-2.2181754E0,3.1317338E-1,1.9067109E0,-8.0333865E-1,-2.1737595E0,3.4393665E-1,-1.6616793E0,-7.166023E-1,3.9438057E-1,-1.4265549E-1,-3.5594678E-1,6.868343E-1,1.3428226E0,-8.0045766E-1,2.1886976E0,-1.4615144E-2,-3.4225965E-1,-7.4547833E-1,5.527216E-1,7.561418E-2,1.3428226E0,-2.0676475E0,1.3653835E0,-1.21029E0,-6.755543E-1,-5.207753E-1,1.3457029E0,-7.308408E-1,1.6662214E0,-1.4783499E0,4.3726483E-1,1.9518772E0,8.814106E-2,-5.106602E-1,1.4375924E0,-5.5918615E-2,4.5093742E-1,2.0759718E-1,-5.081547E-2,-4.3445513E-1,-1.6567109E0,4.911901E-1,-2.79998E-1,1.0750884E0,-7.031368E-1,3.0159224E-2,3.8541096E-1,5.9737664E-1,-9.952079E-1,-1.7807868E0,-6.389264E-1,-1.8170455E-1,-1.6522515E0,-7.2441614E-1,9.8015654E-1,-3.1649834E-1,8.687789E-1,-5.821208E-1,1.5924287E-3,7.3646106E-2,-3.0904126E-1,3.466372E-1,-6.6067153E-1,4.2111847E-1,-2.5205478E-1,-3.490778E-1,-7.7577955E-1,-8.2900393E-1,9.628078E-2,3.259711E-1,-4.5640945E-2,4.449968E-1,1.2115792E-1],"split_indices":[3,3,3,1,2,3,4,2,1,2,4,3,2,3,1,3,2,4,1,1,2,3,1,2,1,2,0,4,1,0,2,0,0,4,1,4,0,4,4,3,1,4,2,1,2,3,3,1,1,1,2,1,1,0,2,0,1,0,3,0,0,0,0,0,0,0,0,0,0,0,0,0,0,0,0,0,0,0,0,0,0,0,0,0,0,0,0,0,0,0,0,0,0,0,0,0,0,0,0,0,0,0,0],"split_type":[0,0,0,0,0,0,0,0,0,0,0,0,0,0,0,0,0,0,0,0,0,0,0,0,0,0,0,0,0,0,0,0,0,0,0,0,0,0,0,0,0,0,0,0,0,0,0,0,0,0,0,0,0,0,0,0,0,0,0,0,0,0,0,0,0,0,0,0,0,0,0,0,0,0,0,0,0,0,0,0,0,0,0,0,0,0,0,0,0,0,0,0,0,0,0,0,0,0,0,0,0,0,0],"sum_hessian":[5.1E3,3.079E3,2.021E3,1.348E3,1.731E3,1.79E3,2.31E2,3.8E1,1.31E3,1.67E3,6.1E1,6.05E2,1.185E3,1.9E1,2.12E2,9E0,2.9E1,1.9E1,1.291E3,9E1,1.58E3,1.4E1,4.7E1,1.26E2,4.79E2,1.181E3,4E0,9E0,1E1,2E0,2.1E2,2E0,7E0,2.5E1,4E0,1.3E1,6E0,4.42E2,8.49E2,1.4E1,7.6E1,3.2E1,1.548E3,3E0,1.1E1,2.7E1,2E1,1E1,1.16E2,4.19E2,6E1,6.12E2,5.69E2,3E0,6E0,1E0,9E0,1E0,2.09E2,2E0,2.3E1,3E0,1E0,1.2E1,1E0,1.12E2,3.3E2,5.69E2,2.8E2,9E0,5E0,1.1E1,6.5E1,2.6E1,6E0,1.458E3,9E1,1E0,2E0,9E0,2E0,2.1E1,6E0,5E0,1.5E1,3E0,7E0,8.3E1,3.3E1,2.54E2,1.65E2,5.7E1,3E0,1.6E1,5.96E2,5.26E2,4.3E1,2E0,4E0,8E0,1E0,1.4E1,1.95E2],"tree_param":{"num_deleted":"0","num_feature":"6","num_nodes":"103","size_leaf_vector":"1"}},{"base_weights":[1.9389112E-1,1.2505549E0,-2.0051425E0,8.3866906E-1,2.2641304E0,-2.3515375E0,9.2907405E-1,1.013944E0,-2.4800348E0,8.009983E0,1.7336855E0,-5.51304E0,-2.0952902E0,-9.442738E-1,1.444299E0,8.285293E-1,4.6968565E0,-3.6503086E0,1.5091509E1,8.998721E0,-1.4261642E0,3.7942388E0,4.4956964E-1,-9.736833E0,-3.031255E0,-1.1539408E0,-2.9290605E0,8.508907E-1,-5.0543013E0,1.9648789E0,-1.1417826E-1,1.8864217E-1,1.4843733E0,-4.19943E0,6.426673E0,1.4690071E0,-4.422691E0,9.052153E-2,1.6988806E0,3.547821E0,1.2416341E1,4.1824927E0,-8.727743E0,2.4915364E0,-1.1485089E0,8.7959945E-1,-1.15819235E1,-4.2347517E0,7.1260643E0,2.8665545E0,-1.9180026E0,-4.050449E0,-1.2728106E0,4.6111113E-1,2.152198E-1,-1.0491044E-1,-9.986208E-1,1.6371436E0,4.3683987E0,1.0482285E0,-3.2412586E0,-8.793422E-2,1.0454311E-1,5.453471E-1,1.09930836E-1,1.0973972E0,-6.6300637E-1,-3.5155836E-1,7.257484E-1,-5.096399E-1,1.203535E-1,6.594716E-1,-6.798064E-1,2.0733173E-1,1.4337076E0,3.4209827E-1,9.4512147E-1,-6.925335E-2,-1.0436397E0,1.8146707E-2,6.1571985E-1,-9.775311E-1,-4.810676E-2,4.4228274E-1,-2.8835282E-1,-3.1510815E-1,-1.2568127E0,-5.995278E-1,3.4311574E-2,1.3712864E0,-2.8889516E-1,5.091193E-1,-1.7281848E-1,-5.4319036E-1,-1.3183628E-1,-5.969255E-1,-2.939523E-1,-5.8212835E-1,-9.950832E-2,-2.7431402E-1,1.7687504E-1,2.1106306E-1,-3.7625083E-1,3.8813684E-2,2.2455733E-1,7.6164824E-1,1.7922969E-1,-4.321114E-1,1.8994428E-1,-4.6712327E-1,1.6524252E-1],"categories":[],"categories_nodes":[],"categories_segments":[],"categories_sizes":[],"default_left":[0,0,0,0,0,0,0,0,0,0,0,0,0,0,0,0,0,0,0,0,0,0,0,0,0,0,0,0,0,0,0,0,0,0,0,0,0,0,0,0,0,0,0,0,0,0,0,0,0,0,0,0,0,0,0,0,0,0,0,0,0,0,0,0,0,0,0,0,0,0,0,0,0,0,0,0,0,0,0,0,0,0,0,0,0,0,0,0,0,0,0,0,0,0,0,0,0,0,0,0,0,0,0,0,0,0,0,0,0,0,0],"id":7,"left_children":[1,3,5,7,9,11,13,15,17,19,21,23,25,27,29,31,33,35,37,39,-1,41,43,45,47,49,51,53,55,57,59,61,63,65,67,-1,69,-1,-1,71,73,75,77,79,81,83,85,87,89,91,93,95,97,-1,99,101,-1,103,105,107,109,-1,-1,-1,-1,-1,-1,-1,-1,-1,-1,-1,-1,-1,-1,-1,-1,-1,-1,-1,-1,-1,-1,-1,-1,-1,-1,-1,-1,-1,-1,-1,-1,-1,-1,-1,-1,-1,-1,-1,-1,-1,-1,-1,-1,-1,-1,-1,-1,-1,-1],"loss_changes":[1.2020369E4,1.4567676E3,1.7087163E3,1.4485847E3,3.0614028E3,1.2052588E3,1.7316862E2,1.6090381E3,2.6255286E3,2.000105E3,2.4458342E3,1.1445303E3,1.0883735E3,2.920495E2,1.13808014E2,9.439689E2,1.7659392E3,1.7365325E3,1.9994641E2,1.4835356E3,0E0,1.7624097E3,1.8661619E3,8.133074E2,9.103268E2,2.0175973E3,1.3636743E3,6.593495E1,2.918715E2,7.5558716E1,1.342554E2,1.0440618E3,1.6920134E3,7.7349695E2,8.102273E2,0E0,4.382434E2,0E0,0E0,1.0850844E3,9.6358496E2,1.3518716E3,1.4379572E2,2.124334E3,1.8435781E3,1.06088684E2,2.5140479E2,5.2592175E2,5.673511E2,1.0820701E3,1.153837E3,9.1824805E2,3.719147E2,0E0,1.19749504E2,6.466617E1,0E0,7.056209E1,8.675777E1,1.3161014E2,7.769727E1,0E0,0E0,0E0,0E0,0E0,0E0,0E0,0E0,0E0,0E0,0E0,0E0,0E0,0E0,0E0,0E0,0E0,0E0,0E0,0E0,0E0,0E0,0E0,0E0,0E0,0E0,0E0,0E0,0E0,0E0,0E0,0E0,0E0,0E0,0E0,0E0,0E0,0E0,0E0,0E0,0E0,0E0,0E0,0E0,0E0,0E0,0E0,0E0,0E0,0E0],"parents":[2147483647,0,0,1,1,2,2,3,3,4,4,5,5,6,6,7,7,8,8,9,9,10,10,11,11,12,12,13,13,14,14,15,15,16,16,17,17,18,18,19,19,21,21,22,22,23,23,24,24,25,25,26,26,27,27,28,28,29,29,30,30,31,31,32,32,33,33,34,34,36,36,39,39,40,40,41,41,42,42,43,43,44,44,45,45,46,46,47,47,48,48,49,49,50,50,51,51,52,52,54,54,55,55,57,57,58,58,59,59,60,60],"right_children":[2,4,6,8,10,12,14,16,18,20,22,24,26,28,30,32,34,36,38,40,-1,42,44,46,48,50,52,54,56,58,60,62,64,66,68,-1,70,-1,-1,72,74,76,78,80,82,84,86,88,90,92,94,96,98,-1,100,102,-1,104,106,108,110,-1,-1,-1,-1,-1,-1,-1,-1,-1,-1,-1,-1,-1,-1,-1,-1,-1,-1,-1,-1,-1,-1,-1,-1,-1,-1,-1,-1,-1,-1,-1,-1,-1,-1,-1,-1,-1,-1,-1,-1,-1,-1,-1,-1,-1,-1,-1,-1,-1,-1],"split_conditions":[4.4778788E-1,5.47634E-1,1.7095438E0,4.5755246E-1,6.130638E-1,-1.3519626E0,-7.543173E-1,3.7411585E-1,1.64454E0,4.0305957E-1,-6.648762E-1,-3.500846E-1,8.888623E-1,-1.0399774E0,7.7650213E-1,1.1605241E-2,-9.144279E-1,-1.8648319E0,-4.9525064E-1,-6.417638E-1,-1.4261642E0,1.9520853E0,1.0184644E0,-2.3904681E0,1.0275104E0,-9.273311E-1,1.2660009E0,-1.3404629E0,-8.573401E-2,1.0611479E0,1.0961033E0,-5.141363E-1,-1.5421786E0,3.8492113E-1,-1.6762112E0,1.4690071E0,1.2713192E0,9.052153E-2,1.6988806E0,5.854331E-1,-8.749827E-1,1.0460955E0,-1.4820732E0,8.453667E-1,1.0541135E0,-2.6000183E0,5.9380996E-1,1.1583096E0,-1.6830753E0,7.934863E-1,5.08519E-1,-3.500846E-1,-1.104512E0,4.6111113E-1,-1.2378703E-1,-8.4800905E-1,-9.986208E-1,-5.1475906E-1,1.3728454E0,8.392379E-1,1.392401E0,-8.793422E-2,1.0454311E-1,5.453471E-1,1.09930836E-1,1.0973972E0,-6.6300637E-1,-3.5155836E-1,7.257484E-1,-5.096399E-1,1.203535E-1,6.594716E-1,-6.798064E-1,2.0733173E-1,1.4337076E0,3.4209827E-1,9.4512147E-1,-6.925335E-2,-1.0436397E0,1.8146707E-2,6.1571985E-1,-9.775311E-1,-4.810676E-2,4.4228274E-1,-2.8835282E-1,-3.1510815E-1,-1.2568127E0,-5.995278E-1,3.4311574E-2,1.3712864E0,-2.8889516E-1,5.091193E-1,-1.7281848E-1,-5.4319036E-1,-1.3183628E-1,-5.969255E-1,-2.939523E-1,-5.8212835E-1,-9.950832E-2,-2.7431402E-1,1.7687504E-1,2.1106306E-1,-3.7625083E-1,3.8813684E-2,2.2455733E-1,7.6164824E-1,1.7922969E-1,-4.321114E-1,1.8994428E-1,-4.6712327E-1,1.6524252E-1],"split_indices":[3,0,3,0,0,0,0,0,5,3,3,5,3,0,2,2,5,2,2,3,0,5,0,0,2,5,3,2,5,5,5,0,0,0,3,0,2,0,0,0,2,5,2,0,0,0,3,3,0,0,3,5,0,0,2,0,0,2,5,2,2,0,0,0,0,0,0,0,0,0,0,0,0,0,0,0,0,0,0,0,0,0,0,0,0,0,0,0,0,0,0,0,0,0,0,0,0,0,0,0,0,0,0,0,0,0,0,0,0,0,0],"split_type":[0,0,0,0,0,0,0,0,0,0,0,0,0,0,0,0,0,0,0,0,0,0,0,0,0,0,0,0,0,0,0,0,0,0,0,0,0,0,0,0,0,0,0,0,0,0,0,0,0,0,0,0,0,0,0,0,0,0,0,0,0,0,0,0,0,0,0,0,0,0,0,0,0,0,0,0,0,0,0,0,0,0,0,0,0,0,0,0,0,0,0,0,0,0,0,0,0,0,0,0,0,0,0,0,0,0,0,0,0,0,0],"sum_hessian":[5.171E3,3.493E3,1.678E3,2.485E3,1.008E3,1.501E3,1.77E2,2.361E3,1.24E2,8.4E1,9.24E2,1.11E2,1.39E3,3.8E1,1.39E2,2.249E3,1.12E2,1.17E2,7E0,8.1E1,3E0,3.54E2,5.7E2,4E1,7.1E1,6.54E2,7.36E2,2.7E1,1.1E1,1.04E2,3.5E1,1.139E3,1.11E3,1.8E1,9.4E1,4E0,1.13E2,1E0,6E0,3.2E1,4.9E1,3.44E2,1E1,2.5E2,3.2E2,6E0,3.4E1,6.4E1,7E0,1.04E2,5.5E2,4.38E2,2.98E2,3E0,2.4E1,6E0,5E0,9.3E1,1.1E1,2.6E1,9E0,5.07E2,6.32E2,9.7E1,1.013E3,2E0,1.6E1,7E0,8.7E1,1.01E2,1.2E1,2.5E1,7E0,8E0,4.1E1,3.02E2,4.2E1,2E0,8E0,1.54E2,9.6E1,2.2E1,2.98E2,3E0,3E0,4E0,3E1,4.6E1,1.8E1,4E0,3E0,7E1,3.4E1,7.9E1,4.71E2,1.59E2,2.79E2,1.6E1,2.82E2,8E0,1.6E1,4E0,2E0,3.1E1,6.2E1,4E0,7E0,3E0,2.3E1,7E0,2E0],"tree_param":{"num_deleted":"0","num_feature":"6","num_nodes":"111","size_leaf_vector":"1"}},{"base_weights":[-4.790908E-2,1.0577683E0,-1.5418409E0,4.697275E-1,1.7917906E0,-1.2006614E0,-3.058414E0,5.6047124E-1,-1.8134739E0,3.4058647E0,1.1363143E0,-1.2755398E0,5.1569824E0,-1.5797037E0,-2.8576813E0,-3.0250132E0,8.4391296E-1,1.3712104E1,2.7935057E0,9.634801E-1,1.4364257E1,-1.4249008E0,1.7720374E0,1.1660754E1,-6.925761E-1,-3.7131789E0,-1.1948681E0,-3.9103756E0,8.328942E0,5.3737445E0,4.8916855E-1,1.6810637E1,-1.0482644E0,3.4266706E0,-1.5892617E0,-2.9551246E0,1.3635236E0,1.8585329E0,7.0456295E0,-1.4782376E0,6.826391E0,-1.2407168E0,2.3492734E0,-2.9634485E-1,1.3614938E1,-6.951416E0,2.1660836E0,-5.395713E0,-1.2796286E0,-1.6409552E0,5.2822456E0,6.636433E-1,-4.6767002E-1,1.2539479E0,-4.271956E-1,7.8696483E-1,-1.8689409E-1,-4.0440652E-1,6.557168E-2,1.9474455E0,1.0713582E0,2.7500105E-1,6.7070156E-1,6.855257E-2,-9.847049E-1,-6.8024635E-1,1.8558346E-1,1.6207926E-1,-5.4026526E-1,9.9758416E-1,-3.8027164E-1,1.661958E-1,-1.6162287E-1,1.0442128E0,3.268523E-1,-1.0997088E0,3.5570305E-2,3.611607E-1,6.446733E-2,-3.3946992E-3,1.5325292E0,-9.745081E-1,7.147894E-2,6.9270605E-1,-3.0281097E-1,-9.687273E-1,-3.4781295E-1,1.4896849E0,-1.7253816E-1,-2.4876633E-1,7.7310994E-2,6.2288225E-1,1.3128172E-1],"categories":[],"categories_nodes":[],"categories_segments":[],"categories_sizes":[],"default_left":[0,0,0,0,0,0,0,0,0,0,0,0,0,0,0,0,0,0,0,0,0,0,0,0,0,0,0,0,0,0,0,0,0,0,0,0,0,0,0,0,0,0,0,0,0,0,0,0,0,0,0,0,0,0,0,0,0,0,0,0,0,0,0,0,0,0,0,0,0,0,0,0,0,0,0,0,0,0,0,0,0,0,0,0,0,0,0,0,0,0,0,0,0],"id":8,"left_children":[1,3,5,7,9,11,13,15,-1,17,19,21,23,-1,25,27,29,31,33,35,37,39,41,43,45,47,49,51,53,55,57,59,-1,61,63,65,67,-1,69,71,73,75,77,-1,79,81,83,85,87,89,91,-1,-1,-1,-1,-1,-1,-1,-1,-1,-1,-1,-1,-1,-1,-1,-1,-1,-1,-1,-1,-1,-1,-1,-1,-1,-1,-1,-1,-1,-1,-1,-1,-1,-1,-1,-1,-1,-1,-1,-1,-1,-1],"loss_changes":[8.493569E3,1.2746401E3,1.1279326E3,2.7822522E3,1.3863252E3,8.572781E2,9.802373E2,1.6641638E3,0E0,2.3536094E3,2.1260815E3,8.068445E2,8.07004E2,0E0,5.588865E2,1.2388534E3,2.433481E3,1.7505532E3,1.001676E3,1.4540708E3,2.3976416E2,7.5165674E2,1.4725763E2,3.2613098E2,2.2976009E2,1.0617683E3,4.0162048E2,9.3625183E2,5.310769E2,2.0031836E3,1.0649397E3,9.99458E1,0E0,6.7853467E2,8.7084705E2,1.604432E3,1.4709675E3,0E0,2.2866306E2,7.284956E2,1.073772E2,2.219654E2,1.482959E2,0E0,2.1062012E2,9.2632904E1,2.4354077E2,1.2336377E3,8.0445953E2,2.635563E2,2.5638992E1,0E0,0E0,0E0,0E0,0E0,0E0,0E0,0E0,0E0,0E0,0E0,0E0,0E0,0E0,0E0,0E0,0E0,0E0,0E0,0E0,0E0,0E0,0E0,0E0,0E0,0E0,0E0,0E0,0E0,0E0,0E0,0E0,0E0,0E0,0E0,0E0,0E0,0E0,0E0,0E0,0E0,0E0],"parents":[2147483647,0,0,1,1,2,2,3,3,4,4,5,5,6,6,7,7,9,9,10,10,11,11,12,12,14,14,15,15,16,16,17,17,18,18,19,19,20,20,21,21,22,22,23,23,24,24,25,25,26,26,27,27,28,28,29,29,30,30,31,31,33,33,34,34,35,35,36,36,38,38,39,39,40,40,41,41,42,42,44,44,45,45,46,46,47,47,48,48,49,49,50,50],"right_children":[2,4,6,8,10,12,14,16,-1,18,20,22,24,-1,26,28,30,32,34,36,38,40,42,44,46,48,50,52,54,56,58,60,-1,62,64,66,68,-1,70,72,74,76,78,-1,80,82,84,86,88,90,92,-1,-1,-1,-1,-1,-1,-1,-1,-1,-1,-1,-1,-1,-1,-1,-1,-1,-1,-1,-1,-1,-1,-1,-1,-1,-1,-1,-1,-1,-1,-1,-1,-1,-1,-1,-1,-1,-1,-1,-1,-1,-1],"split_conditions":[1.5108146E-1,1.6747177E-1,8.7686586E-1,2.6994627E0,-1.0158516E0,2.0517743E0,1.6160157E-1,-1.8805342E0,-1.8134739E0,2.462731E-1,2.3053575E0,1.905486E0,6.698595E-1,-1.5797037E0,1.0890317E0,1.5567117E0,-1.508098E0,9.978877E-1,1.1582288E0,-8.527997E-1,-3.1863183E-1,8.525347E-1,-1.1188194E0,-1.6978146E0,-1.0837259E0,1.4130837E0,1.4634403E0,-1.471708E0,-2.6332784E-1,-2.4588172E-1,-1.3952827E0,-1.3188338E-1,-1.0482644E0,6.341282E-1,9.717145E-1,2.9650298E-1,1.708627E0,1.8585329E0,6.659197E-1,-1.5521928E0,-3.5126552E-1,-1.0029643E0,3.182823E-1,-2.9634485E-1,2.5647175E-1,2.9703218E-2,-1.8467718E-1,-2.555012E-1,1.840942E-1,7.934863E-1,1.5742865E0,6.636433E-1,-4.6767002E-1,1.2539479E0,-4.271956E-1,7.8696483E-1,-1.8689409E-1,-4.0440652E-1,6.557168E-2,1.9474455E0,1.0713582E0,2.7500105E-1,6.7070156E-1,6.855257E-2,-9.847049E-1,-6.8024635E-1,1.8558346E-1,1.6207926E-1,-5.4026526E-1,9.9758416E-1,-3.8027164E-1,1.661958E-1,-1.6162287E-1,1.0442128E0,3.268523E-1,-1.0997088E0,3.5570305E-2,3.611607E-1,6.446733E-2,-3.3946992E-3,1.5325292E0,-9.745081E-1,7.147894E-2,6.9270605E-1,-3.0281097E-1,-9.687273E-1,-3.4781295E-1,1.4896849E0,-1.7253816E-1,-2.4876633E-1,7.7310994E-2,6.2288225E-1,1.3128172E-1],"split_indices":[3,0,4,2,3,0,3,3,0,0,4,3,3,0,3,2,3,4,4,3,2,4,0,2,4,4,2,0,0,0,3,4,0,4,2,2,2,0,0,2,0,4,2,0,3,2,4,0,3,0,3,0,0,0,0,0,0,0,0,0,0,0,0,0,0,0,0,0,0,0,0,0,0,0,0,0,0,0,0,0,0,0,0,0,0,0,0,0,0,0,0,0,0],"split_type":[0,0,0,0,0,0,0,0,0,0,0,0,0,0,0,0,0,0,0,0,0,0,0,0,0,0,0,0,0,0,0,0,0,0,0,0,0,0,0,0,0,0,0,0,0,0,0,0,0,0,0,0,0,0,0,0,0,0,0,0,0,0,0,0,0,0,0,0,0,0,0,0,0,0,0,0,0,0,0,0,0,0,0,0,0,0,0,0,0,0,0,0,0],"sum_hessian":[5.14E3,2.954E3,2.186E3,1.641E3,1.313E3,1.786E3,4E2,1.634E3,7E0,3.78E2,9.35E2,1.766E3,2E1,5E0,3.95E2,1.19E2,1.515E3,2E1,3.58E2,9.24E2,1.1E1,1.684E3,8.2E1,9E0,1.1E1,2.6E2,1.35E2,1.11E2,8E0,1.09E2,1.406E3,1.8E1,2E0,3.13E2,4.5E1,8.5E1,8.39E2,6E0,5E0,1.674E3,1E1,1.3E1,6.9E1,1E0,8E0,3E0,8E0,1.53E2,1.07E2,1.27E2,8E0,7E0,1.04E2,6E0,2E0,8.1E1,2.8E1,4.9E1,1.357E3,1.1E1,7E0,2.61E2,5.2E1,3.6E1,9E0,4.7E1,3.8E1,8.09E2,3E1,4E0,1E0,7E1,1.604E3,4E0,6E0,1E0,1.2E1,3.9E1,3E1,1E0,7E0,2E0,1E0,4E0,4E0,4.6E1,1.07E2,2E0,1.05E2,9.4E1,3.3E1,6E0,2E0],"tree_param":{"num_deleted":"0","num_feature":"6","num_nodes":"93","size_leaf_vector":"1"}},{"base_weights":[3.7101276E-2,8.4686804E-1,-1.6101793E0,1.6114225E0,2.0316067E-1,-1.9352268E0,3.767629E-1,1.7646093E0,-4.986332E0,-1.0732481E-1,2.355964E0,-1.4761863E0,-3.4909499E0,6.680981E-1,-3.7254772E0,8.409222E-1,2.880574E0,1.5236211E-1,-8.664083E0,2.059843E0,-4.6664354E-1,1.6439521E0,1.0401366E1,3.5334665E-1,-2.2221625E0,-4.3608017E0,-6.136001E-1,-6.8930225E0,8.3690494E-1,-1.0277574E1,-6.849806E-1,1.5461445E0,-2.3542073E0,8.084887E0,2.4044323E0,5.14073E0,-9.018373E0,-1.019783E1,4.0380335E-1,4.7527685E0,-9.9454427E-1,-4.9643745E0,-1.877307E-1,6.249117E0,5.0948596E-1,-6.910903E-1,1.1747098E1,2.1512845E0,-1.0211723E0,-9.902238E0,-2.0827177E0,-3.935143E0,-1.3406248E1,-1.3873424E1,1.3170062E0,-1.3146983E-1,-7.958929E-1,-1.027291E0,1.3356423E0,-1.584407E-1,-1.2054764E0,-1.3237605E0,3.1707993E-1,-2.3462896E-1,2.2542405E-1,-2.9055342E-1,9.5599717E-1,1.2269552E0,6.795471E-2,1.8273458E-1,6.7936707E-1,-8.419734E-1,9.089692E-1,-1.143207E0,-4.953507E-1,2.3053494E-1,-1.106892E0,2.7554008E-1,-3.3254948E-1,7.350689E-1,1.4668891E-1,-2.1110046E-1,6.8119705E-1,-1.2007022E-1,-8.0322665E-1,-1.4894217E-1,4.729541E-2,-8.792677E-1,1.0489377E0,1.3251975E-1,-1.0749004E0,1.2848252E0,-3.4862605E-1,3.726081E-1,-1.9575982E-1,-5.195589E-1,4.6844795E-2,-1.2340003E0,3.149571E-1,-2.1306813E-1,1.1162002E0,-5.0703305E-1,-9.825626E-2,-2.2415133E-1,-1.7312834E0,1.11166954E-1,-1.5661954E0,1.5476825E0,6.633277E-2,5.0891966E-2,-5.084221E-1,3.882195E-1,1.12304464E-1,4.3610003E-2,-4.5125413E-1],"categories":[],"categories_nodes":[],"categories_segments":[],"categories_sizes":[],"default_left":[0,0,0,0,0,0,0,0,0,0,0,0,0,0,0,0,0,0,0,0,0,0,0,0,0,0,0,0,0,0,0,0,0,0,0,0,0,0,0,0,0,0,0,0,0,0,0,0,0,0,0,0,0,0,0,0,0,0,0,0,0,0,0,0,0,0,0,0,0,0,0,0,0,0,0,0,0,0,0,0,0,0,0,0,0,0,0,0,0,0,0,0,0,0,0,0,0,0,0,0,0,0,0,0,0,0,0,0,0,0,0,0,0,0,0],"id":9,"left_children":[1,3,5,7,9,11,13,15,17,19,21,23,25,27,29,31,33,35,37,39,41,43,45,47,49,51,53,55,57,59,61,63,65,67,69,71,73,75,77,79,81,83,85,87,89,-1,91,93,95,97,99,101,103,105,107,-1,-1,109,111,-1,-1,113,-1,-1,-1,-1,-1,-1,-1,-1,-1,-1,-1,-1,-1,-1,-1,-1,-1,-1,-1,-1,-1,-1,-1,-1,-1,-1,-1,-1,-1,-1,-1,-1,-1,-1,-1,-1,-1,-1,-1,-1,-1,-1,-1,-1,-1,-1,-1,-1,-1,-1,-1,-1,-1],"loss_changes":[6.8563433E3,1.6956194E3,1.0947998E3,1.6006343E3,1.2515243E3,1.0346348E3,2.881243E2,1.5850132E3,6.816781E2,1.2756997E3,1.3348082E3,1.5375369E3,8.2577295E2,2.9167548E2,3.1170612E2,1.9054055E3,1.7077197E3,7.783129E2,2.9618274E2,1.9212073E3,1.761605E3,1.1357361E3,5.2383887E2,8.103118E2,8.3613477E2,9.2521436E2,2.0150322E3,1.9266266E1,2.0591582E2,5.81474E1,3.3753315E1,1.9125916E3,1.0327737E3,1.7890161E3,1.6086868E3,6.655802E2,2.2392883E0,2.2156299E2,4.4242302E1,1.0477375E3,9.731033E2,9.37172E2,1.1393542E3,2.8348174E3,1.630572E3,0E0,3.4672925E2,9.2612695E2,1.1590369E3,4.8430713E2,5.2373584E2,8.1284033E2,4.4096912E2,2.8542383E2,6.2839575E2,0E0,0E0,2.955055E2,8.9842255E1,0E0,0E0,6.369783E1,0E0,0E0,0E0,0E0,0E0,0E0,0E0,0E0,0E0,0E0,0E0,0E0,0E0,0E0,0E0,0E0,0E0,0E0,0E0,0E0,0E0,0E0,0E0,0E0,0E0,0E0,0E0,0E0,0E0,0E0,0E0,0E0,0E0,0E0,0E0,0E0,0E0,0E0,0E0,0E0,0E0,0E0,0E0,0E0,0E0,0E0,0E0,0E0,0E0,0E0,0E0,0E0,0E0],"parents":[2147483647,0,0,1,1,2,2,3,3,4,4,5,5,6,6,7,7,8,8,9,9,10,10,11,11,12,12,13,13,14,14,15,15,16,16,17,17,18,18,19,19,20,20,21,21,22,22,23,23,24,24,25,25,26,26,27,27,28,28,29,29,30,30,31,31,32,32,33,33,34,34,35,35,36,36,37,37,38,38,39,39,40,40,41,41,42,42,43,43,44,44,46,46,47,47,48,48,49,49,50,50,51,51,52,52,53,53,54,54,57,57,58,58,61,61],"right_children":[2,4,6,8,10,12,14,16,18,20,22,24,26,28,30,32,34,36,38,40,42,44,46,48,50,52,54,56,58,60,62,64,66,68,70,72,74,76,78,80,82,84,86,88,90,-1,92,94,96,98,100,102,104,106,108,-1,-1,110,112,-1,-1,114,-1,-1,-1,-1,-1,-1,-1,-1,-1,-1,-1,-1,-1,-1,-1,-1,-1,-1,-1,-1,-1,-1,-1,-1,-1,-1,-1,-1,-1,-1,-1,-1,-1,-1,-1,-1,-1,-1,-1,-1,-1,-1,-1,-1,-1,-1,-1,-1,-1,-1,-1,-1,-1],"split_conditions":[4.4778788E-1,-5.3489053E-1,1.608372E0,2.0503855E0,1.1319531E0,7.043113E-1,1.5399623E0,1.6747177E-1,-1.1464101E0,-1.0763572E0,3.5980475E-1,7.0175743E-1,7.065922E-1,-2.1737595E0,1.7095438E0,9.678118E-1,2.5696227E-1,5.150847E-1,9.910291E-1,-3.7514955E-2,-9.144279E-1,1.2549293E0,1.1516036E0,-8.573401E-2,-2.080254E0,6.016037E-1,4.96162E-1,-1.1188194E0,-8.0223286E-1,-8.109058E-1,1.624186E-1,-1.0575378E0,1.0710913E-1,5.711855E-1,1.0779551E0,-1.4100426E0,-2.6502237E0,-1.6118667E0,1.2419983E0,2.1017002E-1,1.2565885E0,-2.5600284E-1,-1.9189826E-1,-7.543173E-1,1.4942174E0,-6.910903E-1,1.5559722E0,6.3100916E-1,5.1987547E-1,6.175246E-1,6.930884E-1,1.1396608E0,6.180694E-1,7.6753384E-1,5.302771E-1,-1.3146983E-1,-7.958929E-1,-1.0399774E0,-6.200378E-1,-1.584407E-1,-1.2054764E0,-1.5502816E-1,3.1707993E-1,-2.3462896E-1,2.2542405E-1,-2.9055342E-1,9.5599717E-1,1.2269552E0,6.795471E-2,1.8273458E-1,6.7936707E-1,-8.419734E-1,9.089692E-1,-1.143207E0,-4.953507E-1,2.3053494E-1,-1.106892E0,2.7554008E-1,-3.3254948E-1,7.350689E-1,1.4668891E-1,-2.1110046E-1,6.8119705E-1,-1.2007022E-1,-8.0322665E-1,-1.4894217E-1,4.729541E-2,-8.792677E-1,1.0489377E0,1.3251975E-1,-1.0749004E0,1.2848252E0,-3.4862605E-1,3.726081E-1,-1.9575982E-1,-5.195589E-1,4.6844795E-2,-1.2340003E0,3.149571E-1,-2.1306813E-1,1.1162002E0,-5.0703305E-1,-9.825626E-2,-2.2415133E-1,-1.7312834E0,1.11166954E-1,-1.5661954E0,1.5476825E0,6.633277E-2,5.0891966E-2,-5.084221E-1,3.882195E-1,1.12304464E-1,4.3610003E-2,-4.5125413E-1],"split_indices":[3,3,3,5,5,1,0,0,3,5,3,3,0,1,3,1,0,0,0,3,5,5,5,5,0,0,3,0,0,1,1,5,0,5,5,0,3,0,0,1,0,1,3,0,1,0,1,3,3,1,1,3,3,0,3,0,0,0,0,0,0,1,0,0,0,0,0,0,0,0,0,0,0,0,0,0,0,0,0,0,0,0,0,0,0,0,0,0,0,0,0,0,0,0,0,0,0,0,0,0,0,0,0,0,0,0,0,0,0,0,0,0,0,0,0],"split_type":[0,0,0,0,0,0,0,0,0,0,0,0,0,0,0,0,0,0,0,0,0,0,0,0,0,0,0,0,0,0,0,0,0,0,0,0,0,0,0,0,0,0,0,0,0,0,0,0,0,0,0,0,0,0,0,0,0,0,0,0,0,0,0,0,0,0,0,0,0,0,0,0,0,0,0,0,0,0,0,0,0,0,0,0,0,0,0,0,0,0,0,0,0,0,0,0,0,0,0,0,0,0,0,0,0,0,0,0,0,0,0,0,0,0,0],"sum_hessian":[5.138E3,3.445E3,1.693E3,1.574E3,1.871E3,1.455E3,2.38E2,1.539E3,3.5E1,1.636E3,2.35E2,1.125E3,3.3E2,2.23E2,1.5E1,8.43E2,6.96E2,1.5E1,2E1,2.32E2,1.404E3,2.17E2,1.8E1,3.26E2,7.99E2,2.53E2,7.7E1,4E0,2.19E2,4E0,1.1E1,6.91E2,1.52E2,5.7E1,6.39E2,1E1,5E0,1.7E1,3E0,1.23E2,1.09E2,8.1E1,1.323E3,4.2E1,1.75E2,1E0,1.7E1,1.41E2,1.85E2,1.3E1,7.86E2,2.43E2,1E1,9E0,6.8E1,1E0,3E0,4.6E1,1.73E2,1E0,3E0,1E1,1E0,1.06E2,5.85E2,1.46E2,6E0,3.6E1,2.1E1,5.66E2,7.3E1,2E0,8E0,2E0,3E0,1E0,1.6E1,2E0,1E0,6.8E1,5.5E1,9.6E1,1.3E1,3.7E1,4.4E1,4.45E2,8.78E2,9E0,3.3E1,1.64E2,1.1E1,1.6E1,1E0,1.02E2,3.9E1,4.8E1,1.37E2,1.1E1,2E0,7.84E2,2E0,1.75E2,6.8E1,3E0,7E0,1E0,8E0,2E0,6.6E1,3.4E1,1.2E1,1.2E1,1.61E2,7E0,3E0],"tree_param":{"num_deleted":"0","num_feature":"6","num_nodes":"115","size_leaf_vector":"1"}},{"base_weights":[-4.2186595E-2,8.9067715E-1,-1.4677227E0,1.0269252E0,-2.7469473E0,-1.6563752E0,1.2465398E0,2.1748617E0,6.980691E-1,-6.6619096E0,2.1625445E0,-8.7242067E-1,-2.1478848E0,1.4099023E-1,2.771645E0,1.5180681E0,5.8245897E0,7.397405E-1,-8.918647E0,-9.675436E0,-1.8148723E0,1.4374537E0,4.8622218E-1,2.9533252E-1,-2.3025706E0,-2.0248067E0,-8.685957E0,-1.1587181E0,9.07328E-1,3.3330746E0,-4.682257E-1,4.182114E0,7.803285E-1,3.692816E0,1.1451504E1,3.2556838E-1,1.56065E0,-1.2639979E0,-1.7665339E-1,1.1648922E0,-1.0566606E1,5.59645E0,-9.086589E0,-2.0322688E0,1.0785994E1,-2.3267952E-1,5.331465E0,-3.5017037E0,1.7572184E0,-9.052445E-1,-2.4605312E0,-1.0505348E1,-7.628349E-1,-2.7962835E0,1.3941897E0,-1.8244572E0,1.1906968E0,4.0558004E0,1.6793057E0,-3.4835105E0,2.6407045E-1,1.3251685E-1,6.879447E-1,3.6976415E-1,-4.6959165E-3,-1.1423291E0,4.492416E-1,1.4542614E0,-9.9580306E-1,4.094982E-1,7.773438E-3,3.9133117E-1,5.6005705E-2,7.308697E-1,-1.1316352E0,-1.2943428E0,-4.5362756E-1,2.17747E-1,1.0631324E0,-3.7832603E-1,-1.4643263E0,2.7600157E-1,-9.2449534E-1,1.6796554E0,-9.263458E-2,-4.2412302E-1,4.8156954E-2,1.1961135E0,2.187484E-1,-5.3655356E-1,-2.0193567E-2,3.095471E-1,-6.310384E-1,-6.979251E-1,-4.31819E-2,-2.1398452E-1,-6.940206E-1,-1.30937E0,-7.3841316E-1,-2.2476625E-1,1.7028762E-2,-4.584166E-1,1.5435092E-1,-2.650427E-1,2.00283E-1,2.1114664E-1,-3.3363047E-1,2.7260253E-1,4.0938657E-2,5.2E-1,3.208839E-1,2.6011258E-1,-3.18229E-1,-4.0976602E-1,-5.1345635E-2],"categories":[],"categories_nodes":[],"categories_segments":[],"categories_sizes":[],"default_left":[0,0,0,0,0,0,0,0,0,0,0,0,0,0,0,0,0,0,0,0,0,0,0,0,0,0,0,0,0,0,0,0,0,0,0,0,0,0,0,0,0,0,0,0,0,0,0,0,0,0,0,0,0,0,0,0,0,0,0,0,0,0,0,0,0,0,0,0,0,0,0,0,0,0,0,0,0,0,0,0,0,0,0,0,0,0,0,0,0,0,0,0,0,0,0,0,0,0,0,0,0,0,0,0,0,0,0,0,0,0,0,0,0,0,0],"id":10,"left_children":[1,3,5,7,9,11,13,15,17,19,21,23,25,27,29,31,33,35,37,39,41,-1,43,45,47,49,51,53,55,57,59,61,63,65,67,69,71,-1,73,-1,75,77,79,81,83,85,87,89,91,93,95,97,99,101,103,105,107,109,111,113,-1,-1,-1,-1,-1,-1,-1,-1,-1,-1,-1,-1,-1,-1,-1,-1,-1,-1,-1,-1,-1,-1,-1,-1,-1,-1,-1,-1,-1,-1,-1,-1,-1,-1,-1,-1,-1,-1,-1,-1,-1,-1,-1,-1,-1,-1,-1,-1,-1,-1,-1,-1,-1,-1,-1],"loss_changes":[6.7475396E3,1.522886E3,1.0297534E3,1.1147666E3,2.1478792E3,7.213745E2,2.2048564E2,1.5684619E3,9.283031E2,8.8805396E2,1.01657263E3,1.2114751E3,9.1022363E2,7.774454E1,1.01603455E2,1.0953798E3,1.1572424E3,7.784269E2,3.2308582E2,8.452273E2,1.3981785E3,0E0,1.1892146E3,1.0648959E3,1.5931954E3,5.5047363E2,2.9470667E2,1.251346E2,4.0103413E1,4.936444E1,9.356772E1,9.2332544E2,1.0596813E3,9.457444E2,1.9316545E3,1.4233854E3,1.8057238E3,0E0,4.1624597E2,0E0,4.7160693E2,2.0063434E2,3.2769617E2,1.3044299E3,6.491389E2,1.041349E3,7.6589026E2,1.5487703E3,8.292703E2,9.1429944E2,1.1559536E3,4.0654175E1,7.3103795E0,1.4673839E2,3.4848953E1,3.6797073E1,5.286455E1,1.4325073E1,7.99818E1,7.0163116E0,0E0,0E0,0E0,0E0,0E0,0E0,0E0,0E0,0E0,0E0,0E0,0E0,0E0,0E0,0E0,0E0,0E0,0E0,0E0,0E0,0E0,0E0,0E0,0E0,0E0,0E0,0E0,0E0,0E0,0E0,0E0,0E0,0E0,0E0,0E0,0E0,0E0,0E0,0E0,0E0,0E0,0E0,0E0,0E0,0E0,0E0,0E0,0E0,0E0,0E0,0E0,0E0,0E0,0E0,0E0],"parents":[2147483647,0,0,1,1,2,2,3,3,4,4,5,5,6,6,7,7,8,8,9,9,10,10,11,11,12,12,13,13,14,14,15,15,16,16,17,17,18,18,19,19,20,20,22,22,23,23,24,24,25,25,26,26,27,27,28,28,29,29,30,30,31,31,32,32,33,33,34,34,35,35,36,36,38,38,40,40,41,41,42,42,43,43,44,44,45,45,46,46,47,47,48,48,49,49,50,50,51,51,52,52,53,53,54,54,55,55,56,56,57,57,58,58,59,59],"right_children":[2,4,6,8,10,12,14,16,18,20,22,24,26,28,30,32,34,36,38,40,42,-1,44,46,48,50,52,54,56,58,60,62,64,66,68,70,72,-1,74,-1,76,78,80,82,84,86,88,90,92,94,96,98,100,102,104,106,108,110,112,114,-1,-1,-1,-1,-1,-1,-1,-1,-1,-1,-1,-1,-1,-1,-1,-1,-1,-1,-1,-1,-1,-1,-1,-1,-1,-1,-1,-1,-1,-1,-1,-1,-1,-1,-1,-1,-1,-1,-1,-1,-1,-1,-1,-1,-1,-1,-1,-1,-1,-1,-1,-1,-1,-1,-1],"split_conditions":[2.5647175E-1,1.8506494E0,1.8511977E0,-1.1268699E0,2.091016E0,7.0175743E-1,1.5259784E-1,9.9796456E-1,2.6994627E0,1.522126E-1,-1.6189356E0,1.07346945E-1,2.0375438E0,1.9864746E0,7.7650213E-1,-7.8765655E-1,4.6265116E-1,-1.503106E-1,-3.6155584E-1,-2.646768E0,-4.6801147E-1,1.4374537E0,1.3156139E0,-1.898868E-2,1.2976286E0,-5.4769945E-1,1.4452158E0,1.5348244E-1,-1.5747342E0,9.253603E-1,1.9864746E0,-1.19811505E-1,-8.8961667E-1,-1.104093E0,1.3354577E0,-1.5591097E0,-3.7514955E-2,-1.2639979E0,1.07346945E-1,1.1648922E0,2.0375438E0,6.175246E-1,1.3653835E0,2.0486675E-1,1.708627E0,3.2265687E-1,4.0305957E-1,3.264504E-1,6.3100916E-1,-1.2462798E0,1.3653835E0,1.0890317E0,2.2004762E0,-8.257756E-2,-1.9207501E0,-2.0026622E0,-4.6229655E-1,2.0479517E0,2.505666E-1,-4.3536544E-1,2.6407045E-1,1.3251685E-1,6.879447E-1,3.6976415E-1,-4.6959165E-3,-1.1423291E0,4.492416E-1,1.4542614E0,-9.9580306E-1,4.094982E-1,7.773438E-3,3.9133117E-1,5.6005705E-2,7.308697E-1,-1.1316352E0,-1.2943428E0,-4.5362756E-1,2.17747E-1,1.0631324E0,-3.7832603E-1,-1.4643263E0,2.7600157E-1,-9.2449534E-1,1.6796554E0,-9.263458E-2,-4.2412302E-1,4.8156954E-2,1.1961135E0,2.187484E-1,-5.3655356E-1,-2.0193567E-2,3.095471E-1,-6.310384E-1,-6.979251E-1,-4.31819E-2,-2.1398452E-1,-6.940206E-1,-1.30937E0,-7.3841316E-1,-2.2476625E-1,1.7028762E-2,-4.584166E-1,1.5435092E-1,-2.650427E-1,2.00283E-1,2.1114664E-1,-3.3363047E-1,2.7260253E-1,4.0938657E-2,5.2E-1,3.208839E-1,2.6011258E-1,-3.18229E-1,-4.0976602E-1,-5.1345635E-2],"split_indices":[3,4,3,3,4,3,4,2,2,1,2,1,4,3,2,1,4,3,3,2,3,0,2,1,1,2,3,2,1,4,3,4,2,1,4,4,3,0,1,0,4,1,1,2,2,3,3,4,3,4,1,3,4,4,1,1,1,3,2,1,0,0,0,0,0,0,0,0,0,0,0,0,0,0,0,0,0,0,0,0,0,0,0,0,0,0,0,0,0,0,0,0,0,0,0,0,0,0,0,0,0,0,0,0,0,0,0,0,0,0,0,0,0,0,0],"split_type":[0,0,0,0,0,0,0,0,0,0,0,0,0,0,0,0,0,0,0,0,0,0,0,0,0,0,0,0,0,0,0,0,0,0,0,0,0,0,0,0,0,0,0,0,0,0,0,0,0,0,0,0,0,0,0,0,0,0,0,0,0,0,0,0,0,0,0,0,0,0,0,0,0,0,0,0,0,0,0,0,0,0,0,0,0,0,0,0,0,0,0,0,0,0,0,0,0,0,0,0,0,0,0,0,0,0,0,0,0,0,0,0,0,0,0],"sum_hessian":[5.072E3,3.066E3,2.006E3,2.956E3,1.1E2,1.876E3,1.3E2,6.57E2,2.299E3,6.1E1,4.9E1,7.24E2,1.152E3,7.6E1,5.4E1,5.58E2,9.9E1,2.29E3,9E0,3.7E1,2.4E1,5E0,4.4E1,3.99E2,3.25E2,1.132E3,2E1,2.8E1,4.8E1,4.6E1,8E0,1.2E2,4.38E2,7.3E1,2.6E1,1.523E3,7.67E2,6E0,3E0,1E0,3.6E1,1.2E1,1.2E1,3.6E1,8E0,3.62E2,3.7E1,2.51E2,7.4E1,3.18E2,8.14E2,1.6E1,4E0,1.7E1,1.1E1,4E0,4.4E1,3.1E1,1.5E1,4E0,4E0,5.9E1,6.1E1,9.6E1,3.42E2,3E0,7E1,2.3E1,3E0,9.3E1,1.43E3,2.28E2,5.39E2,2E0,1E0,2.5E1,1.1E1,8E0,4E0,7E0,5E0,2.2E1,1.4E1,5E0,3E0,5.4E1,3.08E2,1.1E1,2.6E1,1.6E2,9.1E1,6.4E1,1E1,2.2E1,2.96E2,7.61E2,5.3E1,7E0,9E0,1E0,3E0,1.2E1,5E0,1E0,1E1,1E0,3E0,1.4E1,3E1,1.1E1,2E1,1.3E1,2E0,3E0,1E0],"tree_param":{"num_deleted":"0","num_feature":"6","num_nodes":"115","size_leaf_vector":"1"}},{"base_weights":[7.911742E-3,6.6508603E-1,-1.4215913E0,2.4431919E-1,1.4021508E0,-1.7773662E0,3.0404145E-1,-4.1299823E-1,9.720767E-1,4.7403007E0,1.092225E0,-6.3418975E0,-1.637666E0,-2.220783E0,9.3386555E-1,6.5061135E0,-6.395888E-1,4.7295747E0,4.4122326E-1,8.05755E0,-9.189034E-3,-2.1146097E0,1.52502E0,-8.211009E0,5.3067183E0,-1.7065619E0,7.3310037E0,-3.022938E0,2.2150028E0,1.7495143E0,-5.1538885E-1,-7.402657E0,9.436929E0,-1.0395366E1,-5.6062305E-1,6.0260244E-2,8.152936E0,4.5278716E0,-5.0305136E-2,5.248852E-1,9.4689045E0,-5.9692745E0,2.8750198E0,-1.5256705E0,-1.0794501E0,6.274378E0,1.1031418E0,-3.3050315E0,-1.3523669E1,7.3081036E0,-2.3501034E-1,-1.402508E0,-3.2729354E0,-5.3635406E-1,9.364887E0,6.3586587E-1,-4.9318647E0,2.526571E0,-1.3877201E-2,-2.446845E0,2.3445542E0,1.4148036E0,-2.5808425E0,2.8295967E-1,-1.5784247E0,1.1882533E0,2.1385041E-1,-1.4541336E0,-4.170323E-1,1.6786473E0,-6.378407E-2,1.7186813E-1,-8.791348E-1,1.3520353E0,5.66985E-1,8.5905775E-2,1.2937509E0,3.2682985E-2,-3.661453E-1,6.20008E-1,-7.525365E-1,5.8724326E-1,1.1470631E0,-8.088423E-1,5.2034605E-1,6.8488103E-1,-3.9875492E-1,1.0449349E0,-2.3512018E-1,2.2098282E-1,1.2067116E0,1.9215919E-1,3.5249318E-3,5.2498055E-1,-6.735317E-1,-4.0947515E-1,-1.4578174E0,1.0781969E-1,1.1101975E0,-4.331712E-2,-2.2271192E-1,-8.7612027E-1,-2.1436737E-1,-6.885306E-1,6.080775E-1,1.7699747E-1,1.0197022E0,-5.387462E-1,2.3113976E-1,-9.017931E-1,-3.11854E-1,1.028944E-1,2.8542894E-1,-5.1089275E-1,1.5193741E-1,3.068921E-1,-8.015118E-2,1.9338907E-1,-3.9999968E-1,-8.286417E-1,-1.0737976E-1],"categories":[],"categories_nodes":[],"categories_segments":[],"categories_sizes":[],"default_left":[0,0,0,0,0,0,0,0,0,0,0,0,0,0,0,0,0,0,0,0,0,0,0,0,0,0,0,0,0,0,0,0,0,0,0,0,0,0,0,0,0,0,0,0,0,0,0,0,0,0,0,0,0,0,0,0,0,0,0,0,0,0,0,0,0,0,0,0,0,0,0,0,0,0,0,0,0,0,0,0,0,0,0,0,0,0,0,0,0,0,0,0,0,0,0,0,0,0,0,0,0,0,0,0,0,0,0,0,0,0,0,0,0,0,0,0,0,0,0,0,0],"id":11,"left_children":[1,3,5,7,9,11,13,15,17,19,21,23,25,27,29,31,33,35,37,39,41,43,45,47,49,51,53,55,57,59,61,63,65,67,69,71,73,75,77,79,81,83,85,-1,87,89,91,93,95,97,-1,99,101,103,105,107,109,111,-1,113,115,117,119,-1,-1,-1,-1,-1,-1,-1,-1,-1,-1,-1,-1,-1,-1,-1,-1,-1,-1,-1,-1,-1,-1,-1,-1,-1,-1,-1,-1,-1,-1,-1,-1,-1,-1,-1,-1,-1,-1,-1,-1,-1,-1,-1,-1,-1,-1,-1,-1,-1,-1,-1,-1,-1,-1,-1,-1,-1,-1],"loss_changes":[4.766687E3,1.0776776E3,9.816118E2,1.0595076E3,1.3014956E3,8.34521E2,4.3778738E2,1.8290865E3,2.0943228E3,1.685885E3,1.6090276E3,8.927035E2,8.0775464E2,2.0239615E2,2.609599E2,1.5781277E3,8.631514E2,2.0775256E3,1.8522527E3,6.647993E2,7.9071765E2,1.860906E3,2.0368022E3,8.4147266E2,1.09120285E2,6.0407227E2,1.6503583E2,3.3140222E2,6.9508743E0,3.578139E2,3.2258923E2,6.450009E2,5.279099E2,1.7163751E2,1.5109486E3,8.3717224E2,9.2292334E2,3.0433716E3,1.1233942E3,5.49212E2,3.1419482E2,3.9723798E2,8.7269275E2,0E0,1.9159366E3,1.9275579E3,8.197599E2,5.929242E2,9.93916E1,1.06207214E2,0E0,8.559126E2,1.2641406E3,1.6790352E2,3.2511353E1,1.8402124E2,2.0156757E2,9.894943E-1,0E0,1.9781363E2,2.8504407E2,1.25787186E2,3.2644583E2,0E0,0E0,0E0,0E0,0E0,0E0,0E0,0E0,0E0,0E0,0E0,0E0,0E0,0E0,0E0,0E0,0E0,0E0,0E0,0E0,0E0,0E0,0E0,0E0,0E0,0E0,0E0,0E0,0E0,0E0,0E0,0E0,0E0,0E0,0E0,0E0,0E0,0E0,0E0,0E0,0E0,0E0,0E0,0E0,0E0,0E0,0E0,0E0,0E0,0E0,0E0,0E0,0E0,0E0,0E0,0E0,0E0,0E0],"parents":[2147483647,0,0,1,1,2,2,3,3,4,4,5,5,6,6,7,7,8,8,9,9,10,10,11,11,12,12,13,13,14,14,15,15,16,16,17,17,18,18,19,19,20,20,21,21,22,22,23,23,24,24,25,25,26,26,27,27,28,28,29,29,30,30,31,31,32,32,33,33,34,34,35,35,36,36,37,37,38,38,39,39,40,40,41,41,42,42,44,44,45,45,46,46,47,47,48,48,49,49,51,51,52,52,53,53,54,54,55,55,56,56,57,57,59,59,60,60,61,61,62,62],"right_children":[2,4,6,8,10,12,14,16,18,20,22,24,26,28,30,32,34,36,38,40,42,44,46,48,50,52,54,56,58,60,62,64,66,68,70,72,74,76,78,80,82,84,86,-1,88,90,92,94,96,98,-1,100,102,104,106,108,110,112,-1,114,116,118,120,-1,-1,-1,-1,-1,-1,-1,-1,-1,-1,-1,-1,-1,-1,-1,-1,-1,-1,-1,-1,-1,-1,-1,-1,-1,-1,-1,-1,-1,-1,-1,-1,-1,-1,-1,-1,-1,-1,-1,-1,-1,-1,-1,-1,-1,-1,-1,-1,-1,-1,-1,-1,-1,-1,-1,-1,-1,-1],"split_conditions":[4.8496553E-1,3.7411585E-1,1.5575774E0,3.9955538E-2,4.4764307E-1,5.08519E-1,-8.16682E-1,-1.8057694E0,-1.4521959E0,1.8634942E-1,5.47634E-1,1.0593998E0,2.4724638E0,2.1671689E0,4.3871912E-1,-1.4100426E0,-1.7601596E0,-1.8805342E0,1.7002529E-1,-1.2151932E0,5.2972627E-1,-1.7024275E0,6.130638E-1,4.96162E-1,9.471352E-2,8.9941156E-1,-9.6693105E-1,-7.5177324E-1,7.2828025E-1,-1.3855579E0,3.1911048E-1,-2.4081013E0,-4.5551747E-2,-2.3927727E-1,-1.7024275E0,1.2166966E0,-1.7177646E0,3.8720393E-1,1.3457029E0,-6.417638E-1,-3.844266E-1,4.2461726E-1,4.2461726E-1,-1.5256705E0,-1.0912644E0,1.4384548E-1,2.0486675E-1,-9.3327653E-1,-1.104093E0,-6.200378E-1,-2.3501034E-1,8.888623E-1,1.0331386E0,3.5619035E-1,5.64403E-1,1.608372E0,-4.519594E-1,1.6066214E-1,-1.3877201E-2,1.8511977E0,8.554766E-1,1.8961465E0,1.608372E0,2.8295967E-1,-1.5784247E0,1.1882533E0,2.1385041E-1,-1.4541336E0,-4.170323E-1,1.6786473E0,-6.378407E-2,1.7186813E-1,-8.791348E-1,1.3520353E0,5.66985E-1,8.5905775E-2,1.2937509E0,3.2682985E-2,-3.661453E-1,6.20008E-1,-7.525365E-1,5.8724326E-1,1.1470631E0,-8.088423E-1,5.2034605E-1,6.8488103E-1,-3.9875492E-1,1.0449349E0,-2.3512018E-1,2.2098282E-1,1.2067116E0,1.9215919E-1,3.5249318E-3,5.2498055E-1,-6.735317E-1,-4.0947515E-1,-1.4578174E0,1.0781969E-1,1.1101975E0,-4.331712E-2,-2.2271192E-1,-8.7612027E-1,-2.1436737E-1,-6.885306E-1,6.080775E-1,1.7699747E-1,1.0197022E0,-5.387462E-1,2.3113976E-1,-9.017931E-1,-3.11854E-1,1.028944E-1,2.8542894E-1,-5.1089275E-1,1.5193741E-1,3.068921E-1,-8.015118E-2,1.9338907E-1,-3.9999968E-1,-8.286417E-1,-1.0737976E-1],"split_indices":[3,0,3,2,0,3,0,1,3,1,0,2,2,3,2,0,1,3,2,1,1,1,0,3,0,1,1,2,1,2,0,1,3,0,1,1,3,1,1,3,2,0,0,0,2,1,2,1,1,0,0,3,1,0,3,3,2,2,0,3,1,1,3,0,0,0,0,0,0,0,0,0,0,0,0,0,0,0,0,0,0,0,0,0,0,0,0,0,0,0,0,0,0,0,0,0,0,0,0,0,0,0,0,0,0,0,0,0,0,0,0,0,0,0,0,0,0,0,0,0,0],"split_type":[0,0,0,0,0,0,0,0,0,0,0,0,0,0,0,0,0,0,0,0,0,0,0,0,0,0,0,0,0,0,0,0,0,0,0,0,0,0,0,0,0,0,0,0,0,0,0,0,0,0,0,0,0,0,0,0,0,0,0,0,0,0,0,0,0,0,0,0,0,0,0,0,0,0,0,0,0,0,0,0,0,0,0,0,0,0,0,0,0,0,0,0,0,0,0,0,0,0,0,0,0,0,0,0,0,0,0,0,0,0,0,0,0,0,0,0,0,0,0,0,0],"sum_hessian":[5.072E3,3.475E3,1.597E3,2.213E3,1.262E3,1.324E3,2.73E2,1.163E3,1.05E3,1.06E2,1.156E3,3.8E1,1.286E3,5.4E1,2.19E2,3.6E1,1.127E3,1.29E2,9.21E2,6.2E1,4.4E1,1.37E2,1.019E3,3.3E1,5E0,1.277E3,9E0,4.6E1,8E0,1.4E2,7.9E1,6E0,3E1,8E0,1.119E3,5.5E1,7.4E1,9.8E1,8.23E2,1E1,5.2E1,1.4E1,3E1,9E0,1.28E2,8.2E1,9.37E2,1.8E1,1.5E1,4E0,1E0,1.071E3,2.06E2,2E0,7E0,1.6E1,3E1,7E0,1E0,1.7E1,1.23E2,4.1E1,3.8E1,3E0,3E0,2.2E1,8E0,4E0,4E0,4E0,1.115E3,4.7E1,8E0,2.2E1,5.2E1,6.9E1,2.9E1,7.46E2,7.7E1,6E0,4E0,2E1,3.2E1,1.2E1,2E0,1.9E1,1.1E1,1.2E1,1.16E2,4.9E1,3.3E1,5.3E2,4.07E2,5E0,1.3E1,2E0,1.3E1,2E0,2E0,4.93E2,5.78E2,3.4E1,1.72E2,1E0,1E0,1E0,6E0,3E0,1.3E1,8E0,2.2E1,2E0,5E0,1E1,7E0,1E2,2.3E1,3.8E1,3E0,7E0,3.1E1],"tree_param":{"num_deleted":"0","num_feature":"6","num_nodes":"121","size_leaf_vector":"1"}},{"base_weights":[-6.805309E-2,-4.4719405E0,-3.2517493E-2,-6.2292557E0,6.8172736E0,6.6091423E0,-8.9164756E-2,-3.1378884E0,-1.5154702E1,-7.306752E-1,1.110343E1,1.3237097E1,-3.1922808E-1,-1.6771367E-1,1.6166685E0,-1.4425364E0,-1.2063769E0,-1.6363262E0,-2.7431116E-1,1.2546799E0,2.6649752E-1,2.0488431E0,9.237319E0,-1.0208373E1,7.3123627E0,-9.6643515E-2,-2.5427973E0,2.1800401E0,-6.303196E0,6.120239E0,-3.8421628E0,-2.2779112E-1,1.0156861E1,-1.2650142E0,-2.9420027E-1,8.543157E0,-3.7285805E-1,2.4136488E0,-1.5758114E-1,2.8015864E0,-3.786267E0,-8.34118E0,2.6425948E0,-1.0987479E1,6.199112E-1,8.3899444E-1,2.3204742E-1,-6.870369E-1,3.8640112E-1,7.355458E-1,1.4288577E0,-2.6805544E-1,2.239254E-1,5.420668E-1,1.3432966E0,-4.9733874E-1,6.81139E-1,2.17363E-1,-2.1876948E-2,-8.5375327E-1,6.447884E-1,-1.0049536E0,-1.7269821E-1,-1.2118714E-1,-1.3802252E0,1.0164686E0,2.1931969E-1,-1.2364131E0,-4.112799E-1,-8.9097625E-1,3.6931506E-1],"categories":[],"categories_nodes":[],"categories_segments":[],"categories_sizes":[],"default_left":[0,0,0,0,0,0,0,0,0,0,0,0,0,0,0,0,0,0,0,0,0,0,0,0,0,0,0,0,0,0,0,0,0,0,0,0,0,0,0,0,0,0,0,0,0,0,0,0,0,0,0,0,0,0,0,0,0,0,0,0,0,0,0,0,0,0,0,0,0,0,0],"id":12,"left_children":[1,3,5,7,9,11,13,15,17,-1,19,21,23,25,27,-1,29,-1,-1,-1,-1,-1,31,33,35,37,39,41,43,45,47,-1,49,-1,51,53,-1,55,57,59,61,63,65,67,69,-1,-1,-1,-1,-1,-1,-1,-1,-1,-1,-1,-1,-1,-1,-1,-1,-1,-1,-1,-1,-1,-1,-1,-1,-1,-1],"loss_changes":[8.015772E2,8.5585345E2,1.9129757E3,9.457522E2,4.4435666E2,1.9788254E3,6.7572156E2,5.930504E2,9.011499E1,0E0,2.7462097E1,4.4882397E2,1.7349854E3,8.133586E2,1.0042668E3,0E0,5.062997E2,0E0,0E0,0E0,0E0,0E0,1.9255652E2,2.383595E2,2.0851239E2,7.164387E2,9.409887E2,1.0343033E3,4.9325824E2,4.0901733E1,4.6992892E2,0E0,6.852002E1,0E0,2.41396E1,1.1040485E2,0E0,3.639852E3,6.5249646E2,1.1713857E3,1.4530001E3,3.336764E2,6.537893E2,3.4325195E1,2.3791386E2,0E0,0E0,0E0,0E0,0E0,0E0,0E0,0E0,0E0,0E0,0E0,0E0,0E0,0E0,0E0,0E0,0E0,0E0,0E0,0E0,0E0,0E0,0E0,0E0,0E0,0E0],"parents":[2147483647,0,0,1,1,2,2,3,3,4,4,5,5,6,6,7,7,8,8,10,10,11,11,12,12,13,13,14,14,16,16,22,22,23,23,24,24,25,25,26,26,27,27,28,28,29,29,30,30,32,32,34,34,35,35,37,37,38,38,39,39,40,40,41,41,42,42,43,43,44,44],"right_children":[2,4,6,8,10,12,14,16,18,-1,20,22,24,26,28,-1,30,-1,-1,-1,-1,-1,32,34,36,38,40,42,44,46,48,-1,50,-1,52,54,-1,56,58,60,62,64,66,68,70,-1,-1,-1,-1,-1,-1,-1,-1,-1,-1,-1,-1,-1,-1,-1,-1,-1,-1,-1,-1,-1,-1,-1,-1,-1,-1],"split_conditions":[-2.4455135E0,1.392401E0,-2.1304922E0,5.9534067E-1,-2.6098542E0,-1.898868E-2,1.676932E0,-1.5076892E0,1.1398543E0,-7.306752E-1,6.221958E-1,-3.6768058E-1,7.4376345E-1,1.4428054E0,1.4118087E0,-1.4425364E0,-6.1634445E-1,-1.6363262E0,-2.7431116E-1,1.2546799E0,2.6649752E-1,2.0488431E0,-1.6714965E0,6.741948E-1,2.3647857E0,-1.9306966E0,-6.6566885E-1,-1.7601596E0,1.9530348E0,-2.8071272E-1,4.0603176E-2,-2.2779112E-1,4.6752554E-1,-1.2650142E0,-9.4606805E-1,1.64253E0,-3.7285805E-1,-2.565793E-1,-1.728326E0,-7.0004E-1,-1.8100044E-1,-1.9207501E0,-1.3742989E0,2.2714463E-1,-6.200378E-1,8.3899444E-1,2.3204742E-1,-6.870369E-1,3.8640112E-1,7.355458E-1,1.4288577E0,-2.6805544E-1,2.239254E-1,5.420668E-1,1.3432966E0,-4.9733874E-1,6.81139E-1,2.17363E-1,-2.1876948E-2,-8.5375327E-1,6.447884E-1,-1.0049536E0,-1.7269821E-1,-1.2118714E-1,-1.3802252E0,1.0164686E0,2.1931969E-1,-1.2364131E0,-4.112799E-1,-8.9097625E-1,3.6931506E-1],"split_indices":[5,2,5,1,1,1,5,1,2,0,0,0,1,5,1,0,2,0,0,0,0,0,1,2,1,2,1,1,1,1,0,0,2,0,0,1,0,5,5,2,1,1,1,0,0,0,0,0,0,0,0,0,0,0,0,0,0,0,0,0,0,0,0,0,0,0,0,0,0,0,0],"split_type":[0,0,0,0,0,0,0,0,0,0,0,0,0,0,0,0,0,0,0,0,0,0,0,0,0,0,0,0,0,0,0,0,0,0,0,0,0,0,0,0,0,0,0,0,0,0,0,0,0,0,0,0,0,0,0,0,0,0,0,0,0,0,0,0,0,0,0,0,0,0,0],"sum_hessian":[5.122E3,4E1,5.082E3,3.5E1,5E0,4.2E1,5.04E3,2.7E1,8E0,1E0,4E0,2.1E1,2.1E1,4.819E3,2.21E2,3E0,2.4E1,7E0,1E0,3E0,1E0,6E0,1.5E1,9E0,1.2E1,4.68E3,1.39E2,2.07E2,1.4E1,6E0,1.8E1,1E0,1.4E1,7E0,2E0,1.1E1,1E0,1.1E2,4.57E3,2.6E1,1.13E2,8E0,1.99E2,8E0,6E0,3E0,3E0,1.3E1,5E0,1E1,4E0,1E0,1E0,8E0,3E0,4.1E1,6.9E1,1.16E2,4.454E3,6E0,2E1,2.7E1,8.6E1,4E0,4E0,1E1,1.89E2,6E0,2E0,1E0,5E0],"tree_param":{"num_deleted":"0","num_feature":"6","num_nodes":"71","size_leaf_vector":"1"}},{"base_weights":[1.21469654E-1,8.784032E-1,-8.693125E-1,-2.2286089E-1,1.2781224E0,-4.598391E0,-7.70732E-1,-2.792799E0,5.424766E-1,4.604244E0,1.1412091E0,-1.32189455E1,-2.2495856E0,4.9758006E-2,-1.1753528E0,-8.1100855E0,-5.936517E-1,4.5337605E0,-2.8745228E-1,-3.2733014E0,1.0580597E1,1.0526898E0,5.3482127E0,-1.6436531E1,1.1087247E0,8.206118E0,-4.023094E0,-5.2547014E-1,2.338341E0,-1.8484725E0,1.3504075E-1,-6.1297727E0,-1.5814421E0,3.9458272E0,-3.2203412E0,-2.8142216E0,5.8182373E0,-4.418389E0,5.6550175E-1,1.0917639E1,-5.831812E0,1.3698863E1,-1.353041E0,-4.653586E0,1.1240269E0,7.095346E0,-8.99964E0,1.5305805E-2,-1.8110796E0,8.9593124E-1,1.3464775E0,-8.87052E0,3.4618714E-1,4.1796604E-1,-4.3697057E0,1.549622E-1,5.8686275E0,5.5819505E-1,-2.1549175E0,-2.323882E0,4.4279864E-1,-2.2470911E-1,-1.0915946E0,1.6212748E-1,1.2384545E0,-8.296386E-1,9.273379E-3,5.695208E-1,-1.4568518E0,1.3880912E0,4.1052866E-1,-1.2483226E0,-3.1766343E-1,4.0020567E-1,-3.2679297E-2,1.4126911E0,-2.5643617E-1,6.6181296E-1,-7.3479486E-1,7.6421803E-1,1.7753989E0,-6.3003343E-1,9.5226765E-1,1.1651517E0,1.0701813E-1,-1.3334912E-1,1.2650392E0,-7.516575E-2,-1.0873722E0,5.1077026E-1,-5.869691E-1,-4.7256905E-1,-1.3978949E0,5.3590775E-1,-7.4901074E-1,2.1501249E-2,1.3550237E0,-6.7178935E-1,-1.7712909E-1,-2.3562537E-1,5.518425E-1,-8.449276E-1,6.568346E-1,6.99953E-1,-6.252555E-2,-4.1826516E-1,-1.491442E-1,-4.8206863E-1,6.464255E-2,2.9313803E-2,4.9651295E-1],"categories":[],"categories_nodes":[],"categories_segments":[],"categories_sizes":[],"default_left":[0,0,0,0,0,0,0,0,0,0,0,0,0,0,0,0,0,0,0,0,0,0,0,0,0,0,0,0,0,0,0,0,0,0,0,0,0,0,0,0,0,0,0,0,0,0,0,0,0,0,0,0,0,0,0,0,0,0,0,0,0,0,0,0,0,0,0,0,0,0,0,0,0,0,0,0,0,0,0,0,0,0,0,0,0,0,0,0,0,0,0,0,0,0,0,0,0,0,0,0,0,0,0,0,0,0,0,0,0,0,0],"id":13,"left_children":[1,3,5,7,9,11,13,15,17,19,21,23,25,27,29,31,33,35,37,39,41,43,45,47,-1,49,51,53,55,57,59,61,-1,63,65,67,69,71,73,75,77,79,-1,81,83,85,87,-1,-1,89,-1,91,93,95,97,99,101,103,105,107,109,-1,-1,-1,-1,-1,-1,-1,-1,-1,-1,-1,-1,-1,-1,-1,-1,-1,-1,-1,-1,-1,-1,-1,-1,-1,-1,-1,-1,-1,-1,-1,-1,-1,-1,-1,-1,-1,-1,-1,-1,-1,-1,-1,-1,-1,-1,-1,-1,-1,-1],"loss_changes":[3.8457893E3,1.279936E3,8.129276E2,1.5258392E3,9.6609326E2,1.1243994E3,7.188109E2,2.0766274E3,1.9821675E3,3.989269E3,7.577925E2,1.1207227E3,8.8600476E2,9.4381226E2,1.2792244E3,6.964253E2,1.5270297E3,9.885198E2,1.7501542E3,1.4070535E3,3.794209E3,8.2303296E2,1.1166951E3,3.0830103E2,0E0,2.570288E2,8.502615E2,2.0799775E3,1.1090359E3,7.077388E2,3.7410822E2,7.745476E2,0E0,9.0188464E2,1.3629718E3,1.6833284E3,1.1583799E3,8.115819E2,1.2646729E3,2.9583105E2,6.5265564E2,9.2042725E2,0E0,6.436143E2,1.1127461E3,1.7961271E3,6.911365E1,0E0,0E0,1.4396164E2,0E0,3.3623767E2,9.0435474E2,1.2257628E3,6.7757764E2,1.2251959E3,6.065156E2,8.352837E2,1.1373108E3,4.110114E2,2.9566623E2,0E0,0E0,0E0,0E0,0E0,0E0,0E0,0E0,0E0,0E0,0E0,0E0,0E0,0E0,0E0,0E0,0E0,0E0,0E0,0E0,0E0,0E0,0E0,0E0,0E0,0E0,0E0,0E0,0E0,0E0,0E0,0E0,0E0,0E0,0E0,0E0,0E0,0E0,0E0,0E0,0E0,0E0,0E0,0E0,0E0,0E0,0E0,0E0,0E0,0E0],"parents":[2147483647,0,0,1,1,2,2,3,3,4,4,5,5,6,6,7,7,8,8,9,9,10,10,11,11,12,12,13,13,14,14,15,15,16,16,17,17,18,18,19,19,20,20,21,21,22,22,23,23,25,25,26,26,27,27,28,28,29,29,30,30,31,31,33,33,34,34,35,35,36,36,37,37,38,38,39,39,40,40,41,41,43,43,44,44,45,45,46,46,49,49,51,51,52,52,53,53,54,54,55,55,56,56,57,57,58,58,59,59,60,60],"right_children":[2,4,6,8,10,12,14,16,18,20,22,24,26,28,30,32,34,36,38,40,42,44,46,48,-1,50,52,54,56,58,60,62,-1,64,66,68,70,72,74,76,78,80,-1,82,84,86,88,-1,-1,90,-1,92,94,96,98,100,102,104,106,108,110,-1,-1,-1,-1,-1,-1,-1,-1,-1,-1,-1,-1,-1,-1,-1,-1,-1,-1,-1,-1,-1,-1,-1,-1,-1,-1,-1,-1,-1,-1,-1,-1,-1,-1,-1,-1,-1,-1,-1,-1,-1,-1,-1,-1,-1,-1,-1,-1,-1,-1],"split_conditions":[1.5108146E-1,-5.820719E-1,1.840942E-1,-7.257029E-1,-4.9474615E-1,-7.379211E-1,6.0760003E-1,-1.0434111E0,-3.6706054E-1,-2.3297194E-1,1.9843183E0,1.64454E0,-2.7689108E-1,8.453667E-1,1.3079647E0,-1.2298537E0,-1.296179E0,-1.1584744E0,-8.3251685E-2,-1.278378E0,1.186642E0,-2.4001455E0,-4.5551747E-2,-2.242057E0,1.1087247E0,1.0357209E-1,3.0154055E-1,4.4764307E-1,6.4990693E-1,-1.203957E0,-1.1584744E0,-9.273311E-1,-1.5814421E0,-8.091636E-1,-1.203957E0,-1.3773042E0,-6.584289E-1,-1.6208968E0,-1.6047728E0,-9.3446516E-2,-1.508098E0,-3.284357E-1,-1.353041E0,1.5399623E0,-2.2181754E0,-3.844266E-1,2.4198383E-1,1.5305805E-2,-1.8110796E0,-6.030909E-1,1.3464775E0,8.6625755E-2,8.721063E-1,4.2461726E-1,3.8838607E-1,4.847617E-1,-1.8998045E0,-9.2535186E-1,-4.0197855E-1,1.608372E0,2.068533E0,-2.2470911E-1,-1.0915946E0,1.6212748E-1,1.2384545E0,-8.296386E-1,9.273379E-3,5.695208E-1,-1.4568518E0,1.3880912E0,4.1052866E-1,-1.2483226E0,-3.1766343E-1,4.0020567E-1,-3.2679297E-2,1.4126911E0,-2.5643617E-1,6.6181296E-1,-7.3479486E-1,7.6421803E-1,1.7753989E0,-6.3003343E-1,9.5226765E-1,1.1651517E0,1.0701813E-1,-1.3334912E-1,1.2650392E0,-7.516575E-2,-1.0873722E0,5.1077026E-1,-5.869691E-1,-4.7256905E-1,-1.3978949E0,5.3590775E-1,-7.4901074E-1,2.1501249E-2,1.3550237E0,-6.7178935E-1,-1.7712909E-1,-2.3562537E-1,5.518425E-1,-8.449276E-1,6.568346E-1,6.99953E-1,-6.252555E-2,-4.1826516E-1,-1.491442E-1,-4.8206863E-1,6.464255E-2,2.9313803E-2,4.9651295E-1],"split_indices":[3,5,3,2,5,0,3,3,2,0,0,5,0,0,3,3,2,0,2,0,2,2,3,0,0,2,0,0,2,5,0,5,0,5,5,0,0,3,5,3,3,2,0,0,2,2,2,0,0,2,0,0,0,0,3,5,5,2,5,3,2,0,0,0,0,0,0,0,0,0,0,0,0,0,0,0,0,0,0,0,0,0,0,0,0,0,0,0,0,0,0,0,0,0,0,0,0,0,0,0,0,0,0,0,0,0,0,0,0,0,0],"split_type":[0,0,0,0,0,0,0,0,0,0,0,0,0,0,0,0,0,0,0,0,0,0,0,0,0,0,0,0,0,0,0,0,0,0,0,0,0,0,0,0,0,0,0,0,0,0,0,0,0,0,0,0,0,0,0,0,0,0,0,0,0,0,0,0,0,0,0,0,0,0,0,0,0,0,0,0,0,0,0,0,0,0,0,0,0,0,0,0,0,0,0,0,0,0,0,0,0,0,0,0,0,0,0,0,0,0,0,0,0,0,0],"sum_hessian":[5.126E3,2.906E3,2.22E3,7.74E2,2.132E3,5.6E1,2.164E3,1.77E2,5.97E2,8.3E1,2.049E3,1.1E1,4.5E1,7.15E2,1.449E3,5.1E1,1.26E2,1.02E2,4.95E2,3.6E1,4.7E1,2.008E3,4.1E1,1E1,1E0,6E0,3.9E1,5.72E2,1.43E2,9.57E2,4.92E2,4.2E1,9E0,4.6E1,8E1,1.5E1,8.7E1,8.4E1,4.11E2,5E0,3.1E1,4.2E1,5E0,2.4E1,1.984E3,3.7E1,4E0,1E0,9E0,3E0,3E0,1.8E1,2.1E1,4.6E2,1.12E2,8.9E1,5.4E1,1.08E2,8.49E2,5.4E1,4.38E2,2.4E1,1.8E1,3.7E1,9E0,3.1E1,4.9E1,9E0,6E0,1.4E1,7.3E1,1E1,7.4E1,8.4E1,3.27E2,4E0,1E0,3E0,2.8E1,1.8E1,2.4E1,2.2E1,2E0,9E0,1.975E3,1.5E1,2.2E1,1E0,3E0,2E0,1E0,1.1E1,7E0,1.3E1,8E0,4.54E2,6E0,5.8E1,5.4E1,6.1E1,2.8E1,2E0,5.2E1,1.6E1,9.2E1,2.08E2,6.41E2,2.9E1,2.5E1,4.25E2,1.3E1],"tree_param":{"num_deleted":"0","num_feature":"6","num_nodes":"111","size_leaf_vector":"1"}},{"base_weights":[3.077828E-2,7.5260055E-1,-1.10014E0,8.655396E-1,-2.4020917E0,-1.2384508E0,1.0112805E0,-5.791248E-1,1.1668854E0,-7.1506763E0,5.6618255E-1,-6.678698E-1,-1.6954771E0,-1.0655016E-2,2.066897E0,6.8878967E-1,-5.3688817E0,1.6523062E0,4.6474522E-1,1.0746554E0,-8.314202E0,-1.1706936E1,1.726064E0,3.2803917E0,-1.0820525E0,-4.415023E0,-1.4472522E0,4.2135566E-1,-8.935325E0,2.6597714E0,-1.1345128E-1,6.5250883E0,8.480967E-2,-1.0969008E1,-3.7623081E0,4.5584202E-1,2.4711368E0,3.6662954E-1,1.7132362E1,-1.2791433E1,-5.684741E0,-2.4075747E-1,-1.3085293E0,-8.5719717E-1,5.95958E0,1.4625125E1,1.450785E0,-1.6457419E0,6.818981E-1,1.9056653E0,-5.6533146E0,4.680277E0,-1.5626799E0,-2.0459268E0,1.1176944E0,-1.0659211E0,-2.7437764E-1,3.1767523E0,-1.4885544E0,-2.653727E0,2.1234715E0,-4.6809804E-2,9.650508E-1,-2.720083E-1,2.2470641E-1,6.418013E-1,-1.2841376E0,-4.9402076E-1,1.3784677E-1,-4.1770708E-2,5.8788985E-1,1.6972457E-1,4.128941E-1,1.8419172E-1,-8.116555E-2,1.8512719E0,5.115291E-1,-1.4023708E0,1.6140719E-1,3.1522533E-1,-6.517791E-1,-3.031635E-1,8.2195085E-1,9.1625637E-1,-1.5917075E-1,3.1433126E-1,1.5458976E0,-2.8808048E-2,8.426825E-1,-9.4022185E-2,-5.0845575E-1,-3.9362717E-1,1.4280888E-1,5.660336E-1,-6.735744E-1,2.4014664E-1,-6.681618E-1,2.4586888E-1,1.4968656E0,-7.6133035E-2,-2.5169381E-1,1.7735592E-1,-6.1187786E-1,4.5367822E-1,7.129581E-2,3.298252E-1,-9.6311286E-2,-2.2842076E-1,1.2448559E-1,2.1753292E-1,-3.8211247E-1,2.6408353E-1,9.4589904E-2],"categories":[],"categories_nodes":[],"categories_segments":[],"categories_sizes":[],"default_left":[0,0,0,0,0,0,0,0,0,0,0,0,0,0,0,0,0,0,0,0,0,0,0,0,0,0,0,0,0,0,0,0,0,0,0,0,0,0,0,0,0,0,0,0,0,0,0,0,0,0,0,0,0,0,0,0,0,0,0,0,0,0,0,0,0,0,0,0,0,0,0,0,0,0,0,0,0,0,0,0,0,0,0,0,0,0,0,0,0,0,0,0,0,0,0,0,0,0,0,0,0,0,0,0,0,0,0,0,0,0,0,0,0],"id":14,"left_children":[1,3,5,7,9,11,13,15,17,19,21,23,25,27,29,31,33,35,37,-1,39,41,43,45,47,49,51,53,55,57,59,61,63,65,67,69,71,73,75,77,79,-1,-1,81,83,85,87,89,91,93,95,97,99,101,103,-1,-1,105,107,109,111,-1,-1,-1,-1,-1,-1,-1,-1,-1,-1,-1,-1,-1,-1,-1,-1,-1,-1,-1,-1,-1,-1,-1,-1,-1,-1,-1,-1,-1,-1,-1,-1,-1,-1,-1,-1,-1,-1,-1,-1,-1,-1,-1,-1,-1,-1,-1,-1,-1,-1,-1,-1],"loss_changes":[4.2073354E3,1.1229609E3,5.876533E2,1.3232493E3,1.5404148E3,4.904204E2,1.3378973E2,3.1920242E3,8.5608765E2,9.6395215E2,9.882114E2,1.3772029E3,6.9972217E2,2.5052032E2,7.9154785E1,1.4658499E3,9.484033E2,1.4547104E3,1.6764985E3,0E0,3.9819214E2,4.540332E1,6.94094E2,1.6392941E3,7.5780005E2,6.9170984E2,6.8630835E2,1.0880671E2,2.774063E0,1.0766986E2,8.518873E1,8.569263E2,2.2986414E3,8.6373315E2,5.3362256E2,2.8685261E3,1.1245635E3,1.7815239E3,4.8291016E0,2.7115674E2,2.1931049E2,0E0,0E0,8.143878E2,5.950637E2,5.67229E1,8.515552E2,1.3951097E3,6.4313794E2,5.248113E2,6.20687E2,3.746145E2,7.191907E2,2.2863881E2,6.457309E1,0E0,0E0,2.4805237E1,1.5892587E1,4.7774204E1,2.3759003E0,0E0,0E0,0E0,0E0,0E0,0E0,0E0,0E0,0E0,0E0,0E0,0E0,0E0,0E0,0E0,0E0,0E0,0E0,0E0,0E0,0E0,0E0,0E0,0E0,0E0,0E0,0E0,0E0,0E0,0E0,0E0,0E0,0E0,0E0,0E0,0E0,0E0,0E0,0E0,0E0,0E0,0E0,0E0,0E0,0E0,0E0,0E0,0E0,0E0,0E0,0E0,0E0],"parents":[2147483647,0,0,1,1,2,2,3,3,4,4,5,5,6,6,7,7,8,8,9,9,10,10,11,11,12,12,13,13,14,14,15,15,16,16,17,17,18,18,20,20,21,21,22,22,23,23,24,24,25,25,26,26,27,27,28,28,29,29,30,30,31,31,32,32,33,33,34,34,35,35,36,36,37,37,38,38,39,39,40,40,43,43,44,44,45,45,46,46,47,47,48,48,49,49,50,50,51,51,52,52,53,53,54,54,57,57,58,58,59,59,60,60],"right_children":[2,4,6,8,10,12,14,16,18,20,22,24,26,28,30,32,34,36,38,-1,40,42,44,46,48,50,52,54,56,58,60,62,64,66,68,70,72,74,76,78,80,-1,-1,82,84,86,88,90,92,94,96,98,100,102,104,-1,-1,106,108,110,112,-1,-1,-1,-1,-1,-1,-1,-1,-1,-1,-1,-1,-1,-1,-1,-1,-1,-1,-1,-1,-1,-1,-1,-1,-1,-1,-1,-1,-1,-1,-1,-1,-1,-1,-1,-1,-1,-1,-1,-1,-1,-1,-1,-1,-1,-1,-1,-1,-1,-1,-1,-1],"split_conditions":[2.7941716E-1,1.8506494E0,1.8511977E0,-9.910599E-1,2.0375438E0,-3.4061957E-2,-8.257756E-2,-1.1350214E0,2.0486675E-1,-2.646768E0,-1.5844411E0,3.8838607E-1,3.7066895E-1,-1.00515105E-1,1.1446165E0,-1.296179E0,-1.0971974E0,-4.7402695E-2,1.8132834E0,1.0746554E0,-3.5126552E-1,-1.9952794E0,-3.7385717E-1,-1.104512E0,-3.4782255E-1,-9.4606805E-1,3.800146E-1,-9.151907E-1,-8.16682E-1,1.2713192E0,2.0479517E0,-5.34091E-1,1.6983673E-3,-1.6118667E0,7.7650213E-1,1.1605241E-2,-2.6600263E-1,2.8858893E-3,2.5460675E-2,9.0361434E-1,-1.1105386E0,-2.4075747E-1,-1.3085293E0,9.043268E-1,1.9842582E-2,2.954138E-1,8.3083737E-1,-5.3579473E-1,-1.060055E0,3.5980475E-1,-1.3426251E0,1.3958067E0,4.728003E-2,-1.2097492E0,-6.6990805E-1,-1.0659211E0,-2.7437764E-1,1.42685E0,-5.0476864E-3,-2.6332784E-1,2.1671689E0,-4.6809804E-2,9.650508E-1,-2.720083E-1,2.2470641E-1,6.418013E-1,-1.2841376E0,-4.9402076E-1,1.3784677E-1,-4.1770708E-2,5.8788985E-1,1.6972457E-1,4.128941E-1,1.8419172E-1,-8.116555E-2,1.8512719E0,5.115291E-1,-1.4023708E0,1.6140719E-1,3.1522533E-1,-6.517791E-1,-3.031635E-1,8.2195085E-1,9.1625637E-1,-1.5917075E-1,3.1433126E-1,1.5458976E0,-2.8808048E-2,8.426825E-1,-9.4022185E-2,-5.0845575E-1,-3.9362717E-1,1.4280888E-1,5.660336E-1,-6.735744E-1,2.4014664E-1,-6.681618E-1,2.4586888E-1,1.4968656E0,-7.6133035E-2,-2.5169381E-1,1.7735592E-1,-6.1187786E-1,4.5367822E-1,7.129581E-2,3.298252E-1,-9.6311286E-2,-2.2842076E-1,1.2448559E-1,2.1753292E-1,-3.8211247E-1,2.6408353E-1,9.4589904E-2],"split_indices":[3,4,3,4,4,2,4,4,2,2,0,3,3,4,4,2,4,4,4,0,0,3,3,0,2,0,3,0,0,2,3,0,2,0,2,2,3,4,3,2,2,0,0,0,2,3,0,2,4,3,4,0,4,0,0,0,0,0,0,0,3,0,0,0,0,0,0,0,0,0,0,0,0,0,0,0,0,0,0,0,0,0,0,0,0,0,0,0,0,0,0,0,0,0,0,0,0,0,0,0,0,0,0,0,0,0,0,0,0,0,0,0,0],"split_type":[0,0,0,0,0,0,0,0,0,0,0,0,0,0,0,0,0,0,0,0,0,0,0,0,0,0,0,0,0,0,0,0,0,0,0,0,0,0,0,0,0,0,0,0,0,0,0,0,0,0,0,0,0,0,0,0,0,0,0,0,0,0,0,0,0,0,0,0,0,0,0,0,0,0,0,0,0,0,0,0,0,0,0,0,0,0,0,0,0,0,0,0,0,0,0,0,0,0,0,0,0,0,0,0,0,0,0,0,0,0,0,0,0],"sum_hessian":[5.152E3,3.145E3,2.007E3,3.037E3,1.08E2,1.884E3,1.23E2,5.24E2,2.513E3,4.1E1,6.7E1,8.39E2,1.045E3,6.3E1,6E1,4.15E2,1.09E2,1.485E3,1.028E3,2E0,3.9E1,5E0,6.2E1,7.9E1,7.6E2,8.6E1,9.59E2,6.1E1,2E0,4.7E1,1.3E1,3.8E1,3.77E2,2.3E1,8.6E1,6.04E2,8.81E2,1.023E3,5E0,1.3E1,2.6E1,1E0,4E0,3.9E1,2.3E1,1E1,6.9E1,5.76E2,1.84E2,1.4E1,7.2E1,1.7E1,9.42E2,1.3E1,4.8E1,1E0,1E0,4.2E1,5E0,6E0,7E0,1.2E1,2.6E1,1.64E2,2.13E2,2E0,2.1E1,7E1,1.6E1,5.21E2,8.3E1,6.02E2,2.79E2,4.54E2,5.69E2,4E0,1E0,1.2E1,1E0,2E0,2.4E1,3.2E1,7E0,1.6E1,7E0,1E0,9E0,5.6E1,1.3E1,4.79E2,9.7E1,2.5E1,1.59E2,1E1,4E0,8E0,6.4E1,1.5E1,2E0,5.13E2,4.29E2,7E0,6E0,4E0,4.4E1,4.1E1,1E0,4E0,1E0,1E0,5E0,4E0,3E0],"tree_param":{"num_deleted":"0","num_feature":"6","num_nodes":"113","size_leaf_vector":"1"}},{"base_weights":[8.322491E-2,5.4175675E-1,-1.129135E0,-7.873401E0,5.9865403E-1,-7.305659E0,-1.0346003E0,2.3975546E0,-1.2000859E1,5.4058833E0,5.3912497E-1,-1.1536918E1,-3.8210052E-1,-3.1113274E0,-7.567434E-1,1.1433693E1,-9.497007E0,8.2660717E-1,-1.3679271E1,1.2647838E1,3.967433E0,4.0895402E-1,2.343378E0,-1.3285774E1,4.7246847E-1,9.125661E-1,-6.6569247E0,-5.534008E0,-1.2282989E0,-5.77072E-1,-2.9573042E0,3.2762292E-1,1.5779927E0,2.986147E-1,-1.4653442E0,-1.6508875E1,-3.5864472E0,-3.925365E-1,2.0062191E0,2.3367546E0,1.1088141E0,5.7914454E-1,-2.053705E0,2.935615E0,-6.933295E0,-1.5309658E0,-5.410594E0,-3.054873E-2,-9.962476E-1,5.821705E-1,-6.43123E0,-3.1307855E0,1.4861898E0,2.1834836E0,-7.5295615E-1,3.7123775E0,-3.8159528E0,-1.7206163E0,-4.0707102E-1,-5.602823E-1,2.2395277E-1,3.6805317E-1,-1.2327858E0,4.026023E-2,2.3377E-1,-6.248878E-1,4.359202E-2,6.438257E-1,1.4040066E-1,-9.790675E-1,3.3721694E-1,1.3466962E-2,-1.1023192E0,-7.287726E-1,7.2419024E-1,4.4264656E-1,-1.6977368E-1,-1.2446692E0,-4.889725E-1,-2.4324093E-2,-1.0153973E0,5.406557E-1,-5.2093836E-3,9.704322E-1,1.2991394E-1,-8.218198E-2,6.587458E-1,-3.0025024E-2,6.048201E-1,-6.2415546E-1,-1.1130321E-1],"categories":[],"categories_nodes":[],"categories_segments":[],"categories_sizes":[],"default_left":[0,0,0,0,0,0,0,0,0,0,0,0,0,0,0,0,0,0,0,0,0,0,0,0,0,0,0,0,0,0,0,0,0,0,0,0,0,0,0,0,0,0,0,0,0,0,0,0,0,0,0,0,0,0,0,0,0,0,0,0,0,0,0,0,0,0,0,0,0,0,0,0,0,0,0,0,0,0,0,0,0,0,0,0,0,0,0,0,0,0,0],"id":15,"left_children":[1,3,5,7,9,11,13,15,17,19,21,23,25,27,29,31,33,-1,35,37,39,41,43,45,-1,-1,47,49,51,53,55,-1,-1,-1,-1,57,59,-1,-1,61,-1,63,65,67,69,-1,71,73,-1,75,77,79,81,83,85,87,89,-1,-1,-1,-1,-1,-1,-1,-1,-1,-1,-1,-1,-1,-1,-1,-1,-1,-1,-1,-1,-1,-1,-1,-1,-1,-1,-1,-1,-1,-1,-1,-1,-1,-1],"loss_changes":[2.844069E3,1.7820178E3,8.122317E2,1.0885963E3,1.0524802E3,6.1079443E2,7.962593E2,9.6843317E2,7.253662E2,4.1859424E2,8.548762E2,4.3248108E2,5.9768463E2,7.368047E2,4.8144513E2,1.2557257E2,3.0123157E2,0E0,4.2628955E2,9.3890857E2,4.2694147E2,1.4262014E3,1.3663805E3,1.08427E2,0E0,0E0,1.3111859E2,3.9336182E2,4.8493085E2,5.507875E2,5.4104236E2,0E0,0E0,0E0,0E0,4.2707275E1,7.128445E1,0E0,0E0,6.956699E2,0E0,9.866299E2,2.3004941E3,1.2302007E3,4.7471527E2,0E0,1.2597785E2,2.1110939E2,0E0,9.516134E1,5.1405664E2,1.1129172E3,2.3547649E2,4.396614E2,5.4325287E2,1.0491664E2,5.30662E2,0E0,0E0,0E0,0E0,0E0,0E0,0E0,0E0,0E0,0E0,0E0,0E0,0E0,0E0,0E0,0E0,0E0,0E0,0E0,0E0,0E0,0E0,0E0,0E0,0E0,0E0,0E0,0E0,0E0,0E0,0E0,0E0,0E0,0E0],"parents":[2147483647,0,0,1,1,2,2,3,3,4,4,5,5,6,6,7,7,8,8,9,9,10,10,11,11,12,12,13,13,14,14,15,15,16,16,18,18,19,19,20,20,21,21,22,22,23,23,26,26,27,27,28,28,29,29,30,30,35,35,36,36,39,39,41,41,42,42,43,43,44,44,46,46,47,47,49,49,50,50,51,51,52,52,53,53,54,54,55,55,56,56],"right_children":[2,4,6,8,10,12,14,16,18,20,22,24,26,28,30,32,34,-1,36,38,40,42,44,46,-1,-1,48,50,52,54,56,-1,-1,-1,-1,58,60,-1,-1,62,-1,64,66,68,70,-1,72,74,-1,76,78,80,82,84,86,88,90,-1,-1,-1,-1,-1,-1,-1,-1,-1,-1,-1,-1,-1,-1,-1,-1,-1,-1,-1,-1,-1,-1,-1,-1,-1,-1,-1,-1,-1,-1,-1,-1,-1,-1],"split_conditions":[6.3100916E-1,-2.4455135E0,6.4378E-1,-5.141363E-1,-2.0433192E0,5.252087E-1,-1.1584744E0,-6.417638E-1,-1.8648319E0,-9.86562E-1,1.4528627E0,2.4724638E0,-1.119188E-2,-2.565793E-1,1.4528627E0,-1.5421786E0,-1.6420343E0,8.2660717E-1,1.1398543E0,-8.186827E-1,1.0952791E0,1.1465642E0,2.5533323E0,3.9884657E-1,4.7246847E-1,9.125661E-1,1.0051265E0,-2.3904681E0,1.1908175E0,6.922172E-1,-1.220576E0,3.2762292E-1,1.5779927E0,2.986147E-1,-1.4653442E0,2.1668339E0,8.8360846E-1,-3.925365E-1,2.0062191E0,7.934863E-1,1.1088141E0,8.2117194E-1,-2.9804647E-1,-4.6678412E-1,-1.4615144E-2,-1.5309658E0,8.93752E-1,9.254158E-1,-9.962476E-1,-9.433836E-1,-1.6118667E0,1.0383316E0,1.2848742E0,-9.605056E-1,1.3958067E0,1.5161644E0,1.0890317E0,-1.7206163E0,-4.0707102E-1,-5.602823E-1,2.2395277E-1,3.6805317E-1,-1.2327858E0,4.026023E-2,2.3377E-1,-6.248878E-1,4.359202E-2,6.438257E-1,1.4040066E-1,-9.790675E-1,3.3721694E-1,1.3466962E-2,-1.1023192E0,-7.287726E-1,7.2419024E-1,4.4264656E-1,-1.6977368E-1,-1.2446692E0,-4.889725E-1,-2.4324093E-2,-1.0153973E0,5.406557E-1,-5.2093836E-3,9.704322E-1,1.2991394E-1,-8.218198E-2,6.587458E-1,-3.0025024E-2,6.048201E-1,-6.2415546E-1,-1.1130321E-1],"split_indices":[3,5,3,0,5,0,0,3,2,0,0,2,2,5,0,0,0,0,2,2,0,0,0,5,0,0,0,0,3,3,2,0,0,0,0,0,0,0,0,0,0,0,5,5,3,0,5,0,0,2,0,3,3,0,0,0,3,0,0,0,0,0,0,0,0,0,0,0,0,0,0,0,0,0,0,0,0,0,0,0,0,0,0,0,0,0,0,0,0,0,0],"split_type":[0,0,0,0,0,0,0,0,0,0,0,0,0,0,0,0,0,0,0,0,0,0,0,0,0,0,0,0,0,0,0,0,0,0,0,0,0,0,0,0,0,0,0,0,0,0,0,0,0,0,0,0,0,0,0,0,0,0,0,0,0,0,0,0,0,0,0,0,0,0,0,0,0,0,0,0,0,0,0,0,0,0,0,0,0,0,0,0,0,0,0],"sum_hessian":[5.114E3,3.711E3,1.403E3,2.4E1,3.687E3,2E1,1.383E3,7E0,1.7E1,4.4E1,3.643E3,1.2E1,8E0,1.62E2,1.221E3,4E0,3E0,1E0,1.6E1,6E0,3.8E1,3.399E3,2.44E2,1.1E1,1E0,3E0,5E0,7E1,9.2E1,1.13E3,9.1E1,2E0,2E0,1E0,2E0,1.2E1,4E0,2E0,4E0,3.2E1,6E0,3.18E3,2.19E2,2.3E2,1.4E1,8E0,3E0,2E0,3E0,9E0,6.1E1,5.4E1,3.8E1,6.7E1,1.063E3,1E1,8.1E1,1.1E1,1E0,3E0,1E0,3E1,2E0,2.891E3,2.89E2,8.1E1,1.38E2,6.9E1,1.61E2,1.1E1,3E0,2E0,1E0,1E0,1E0,3E0,6E0,1.1E1,5E1,3.9E1,1.5E1,1E1,2.8E1,6E0,6.1E1,1.054E3,9E0,4E0,6E0,4.2E1,3.9E1],"tree_param":{"num_deleted":"0","num_feature":"6","num_nodes":"91","size_leaf_vector":"1"}},{"base_weights":[2.059754E-2,-6.245829E0,6.625275E-2,7.8527683E-1,-6.855589E0,3.3899693E0,-4.1173503E-2,6.7609996E-1,-7.4378057E0,8.962052E0,1.5043585E0,-1.0889832E0,2.878693E-1,-8.580833E0,1.1365261E0,1.280122E1,5.8692226E0,4.9480643E0,-4.1338125E-1,-8.96719E0,-9.240517E-1,-7.984565E-2,7.4136627E-1,-1.0523629E1,-4.1644397E-1,-1.175805E0,7.2996825E-1,1.697927E-1,1.4168464E1,1.360925E0,1.026411E1,5.966516E0,-3.9854696E0,-2.5137756E0,3.8840911E0,-1.8192831E0,-4.0982294E0,-1.1488608E0,2.7958922E0,1.3457564E-1,-2.4012656E0,1.3890263E-1,1.8716515E0,-5.1282966E-1,-1.5109452E0,4.4538346E-1,-5.1826113E-1,9.772358E-2,1.5040892E0,-6.33686E-2,8.220857E-1,2.696508E-1,1.5284325E0,4.0607235E-1,1.5771588E0,9.237501E-1,-9.600588E-1,-9.267203E-1,-1.2846193E-1,5.6525755E-1,-7.2557163E-1,-5.9953576E-1,1.3127912E0,-9.85735E-2,-4.2541623E-1,8.705902E-1,1.18200496E-1,6.0236394E-2,-6.078151E-2,1.242742E0,-2.9105058E-1,3.5154718E-1,-9.512207E-3,9.408124E-1,1.5732992E-1],"categories":[],"categories_nodes":[],"categories_segments":[],"categories_sizes":[],"default_left":[0,0,0,0,0,0,0,0,0,0,0,0,0,0,0,0,0,0,0,0,0,0,0,0,0,0,0,0,0,0,0,0,0,0,0,0,0,0,0,0,0,0,0,0,0,0,0,0,0,0,0,0,0,0,0,0,0,0,0,0,0,0,0,0,0,0,0,0,0,0,0,0,0,0,0],"id":16,"left_children":[1,3,5,-1,7,9,11,-1,13,15,17,19,21,23,25,27,29,31,33,35,37,39,41,43,45,-1,-1,-1,47,49,51,53,55,57,59,-1,61,63,65,67,69,71,73,-1,-1,-1,-1,-1,-1,-1,-1,-1,-1,-1,-1,-1,-1,-1,-1,-1,-1,-1,-1,-1,-1,-1,-1,-1,-1,-1,-1,-1,-1,-1,-1],"loss_changes":[1.4635039E3,3.7191553E2,1.8132618E3,0E0,3.356881E2,1.6570957E3,1.6966027E3,0E0,3.5277673E2,3.9982227E2,7.9454126E2,1.5197657E3,6.245664E2,4.8733154E2,4.8318637E2,2.3401855E2,4.6155432E2,4.1500916E2,7.1382184E2,1.0035045E3,9.674395E2,1.0301925E3,1.1417029E3,5.410652E2,1.8557043E2,0E0,0E0,0E0,1.5792749E2,1.830871E2,4.146776E2,6.6472705E2,4.599281E2,4.2804913E2,5.532284E2,0E0,6.3427E2,5.469381E2,6.192235E2,6.5846497E2,1.3576587E3,8.65604E2,1.296088E3,0E0,0E0,0E0,0E0,0E0,0E0,0E0,0E0,0E0,0E0,0E0,0E0,0E0,0E0,0E0,0E0,0E0,0E0,0E0,0E0,0E0,0E0,0E0,0E0,0E0,0E0,0E0,0E0,0E0,0E0,0E0,0E0],"parents":[2147483647,0,0,1,1,2,2,4,4,5,5,6,6,8,8,9,9,10,10,11,11,12,12,13,13,14,14,15,15,16,16,17,17,18,18,19,19,20,20,21,21,22,22,23,23,24,24,28,28,29,29,30,30,31,31,32,32,33,33,34,34,36,36,37,37,38,38,39,39,40,40,41,41,42,42],"right_children":[2,4,6,-1,8,10,12,-1,14,16,18,20,22,24,26,28,30,32,34,36,38,40,42,44,46,-1,-1,-1,48,50,52,54,56,58,60,-1,62,64,66,68,70,72,74,-1,-1,-1,-1,-1,-1,-1,-1,-1,-1,-1,-1,-1,-1,-1,-1,-1,-1,-1,-1,-1,-1,-1,-1,-1,-1,-1,-1,-1,-1,-1,-1],"split_conditions":[-2.4455135E0,-1.8648319E0,-1.728326E0,7.8527683E-1,-1.8344939E0,-8.8948745E-1,-5.94015E-1,6.7609996E-1,1.3570484E0,-9.471297E-2,-3.6768058E-1,-2.116392E0,1.4057276E-1,1.1695168E0,-2.8358158E-1,-2.2048628E0,-3.4061957E-2,1.3159002E0,5.9001935E-1,-7.1555185E-1,1.5718011E0,