{"learner":{"attributes":{},"feature_names":[],"feature_types":[],"gradient_booster":{"model":{"cats":{"enc":[],"feature_segments":[],"sorted_idx":[]},"gbtree_model_param":{"num_parallel_tree":"1","num_trees":"300"},"iteration_indptr":[0,1,2,3,4,5,6,7,8,9,10,11,12,13,14,15,16,17,18,19,20,21,22,23,24,25,26,27,28,29,30,31,32,33,34,35,36,37,38,39,40,41,42,43,44,45,46,47,48,49,50,51,52,53,54,55,56,57,58,59,60,61,62,63,64,65,66,67,68,69,70,71,72,73,74,75,76,77,78,79,80,81,82,83,84,85,86,87,88,89,90,91,92,93,94,95,96,97,98,99,100,101,102,103,104,105,106,107,108,109,110,111,112,113,114,115,116,117,118,119,120,121,122,123,124,125,126,127,128,129,130,131,132,133,134,135,136,137,138,139,140,141,142,143,144,145,146,147,148,149,150,151,152,153,154,155,156,157,158,159,160,161,162,163,164,165,166,167,168,169,170,171,172,173,174,175,176,177,178,179,180,181,182,183,184,185,186,187,188,189,190,191,192,193,194,195,196,197,198,199,200,201,202,203,204,205,206,207,208,209,210,211,212,213,214,215,216,217,218,219,220,221,222,223,224,225,226,227,228,229,230,231,232,233,234,235,236,237,238,239,240,241,242,243,244,245,246,247,248,249,250,251,252,253,254,255,256,257,258,259,260,261,262,263,264,265,266,267,268,269,270,271,272,273,274,275,276,277,278,279,280,281,282,283,284,285,286,287,288,289,290,291,292,293,294,295,296,297,298,299,300],"tree_info":[0,0,0,0,0,0,0,0,0,0,0,0,0,0,0,0,0,0,0,0,0,0,0,0,0,0,0,0,0,0,0,0,0,0,0,0,0,0,0,0,0,0,0,0,0,0,0,0,0,0,0,0,0,0,0,0,0,0,0,0,0,0,0,0,0,0,0,0,0,0,0,0,0,0,0,0,0,0,0,0,0,0,0,0,0,0,0,0,0,0,0,0,0,0,0,0,0,0,0,0,0,0,0,0,0,0,0,0,0,0,0,0,0,0,0,0,0,0,0,0,0,0,0,0,0,0,0,0,0,0,0,0,0,0,0,0,0,0,0,0,0,0,0,0,0,0,0,0,0,0,0,0,0,0,0,0,0,0,0,0,0,0,0,0,0,0,0,0,0,0,0,0,0,0,0,0,0,0,0,0,0,0,0,0,0,0,0,0,0,0,0,0,0,0,0,0,0,0,0,0,0,0,0,0,0,0,0,0,0,0,0,0,0,0,0,0,0,0,0,0,0,0,0,0,0,0,0,0,0,0,0,0,0,0,0,0,0,0,0,0,0,0,0,0,0,0,0,0,0,0,0,0,0,0,0,0,0,0,0,0,0,0,0,0,0,0,0,0,0,0,0,0,0,0,0,0,0,0,0,0,0,0,0,0,0,0,0,0,0,0,0,0,0,0,0,0,0,0,0,0],"trees":[{"base_weights":[1.8111322E-2,9.018119E-1,-1.1920066E0,3.528235E0,6.8848115E-1,-1.5769747E0,6.9572E-1,1.1201904E1,-2.3562984E-1,4.7227252E-1,3.7354844E0,-2.8553836E0,1.6232809E0,1.4331778E1,-5.4595785E0,2.5526779E0,1.5367865E1,-1.2526872E1,1.1634276E0,1.6487217E-1,2.9959128E0,-2.2472426E-2,1.1889052E1,-3.8457713E0,1.9619672E0,1.1116105E1,-3.521308E0,1.7237036E1,9.3731165E0,-6.8766522E0,1.7230178E-1,-1.1929288E1,7.577971E0,7.0921702E0,1.7570974E1,-1.4300921E1,1.7502506E-1,1.381703E1,-4.9596223E-1,3.5438244E0,-1.4607403E-1,1.1163343E1,-4.0661435E0,1.3807296E0,-1.34987755E1,1.5630324E1,4.8335223E0,-4.58192E0,2.1479389E-1,8.606014E0,-5.7804213E0,1.3616574E1,-9.6042836E-1,4.8827413E-1,-5.820634E0,2.019056E1,1.1788446E1,5.211309E0,1.1806277E1,-5.11986E-1,-9.367051E0,8.4971485E0,-1.613744E1,-1.3618025E0,1.8135617E0,1.7269402E0,2.6082957E-2,1.9037536E0,-6.208903E-1,1.9472252E0,1.0076969E0,-8.314244E-1,-1.7289902E0,-1.4664729E0,9.160016E-1,3.5398135E-1,1.9560833E0,8.243174E-2,-1.375548E0,-3.0756393E-1,1.250896E0,6.069714E-2,-7.42531E-2,1.4300705E0,5.838426E-1,-5.6062305E-1,7.762206E-2,-9.6606E-1,2.9048523E-1,-3.501743E-2,-1.526127E0,1.8836727E0,7.9375046E-1,8.933652E-1,-1.328493E0,-4.8111048E-1,1.141414E0,1.067684E0,-5.7388824E-1,1.4583594E0,4.16277E-1,8.413828E-1,-7.5740826E-1,-3.2607153E-2,1.7289366E0,1.2469208E0,-6.831246E-1,2.9587516E-1,-4.5021906E-1,-3.130429E-2,-6.4051896E-1,2.2053125E0,1.7378619E0,1.8447056E0,8.822066E-1,8.0003375E-1,-1.09431125E-1,2.329551E0,1.1198976E0,-1.4778736E0,8.941294E-1,5.720028E-1,-1.0590432E0,-7.1525353E-1,1.2991627E0,-7.693208E-1,-1.9090023E0],"categories":[],"categories_nodes":[],"categories_segments":[],"categories_sizes":[],"default_left":[0,0,0,0,0,0,0,0,0,0,0,0,0,0,0,0,0,0,0,0,0,0,0,0,0,0,0,0,0,0,0,0,0,0,0,0,0,0,0,0,0,0,0,0,0,0,0,0,0,0,0,0,0,0,0,0,0,0,0,0,0,0,0,0,0,0,0,0,0,0,0,0,0,0,0,0,0,0,0,0,0,0,0,0,0,0,0,0,0,0,0,0,0,0,0,0,0,0,0,0,0,0,0,0,0,0,0,0,0,0,0,0,0,0,0,0,0,0,0,0,0,0,0,0,0,0,0],"id":0,"left_children":[1,3,5,7,9,11,13,15,17,19,21,23,25,27,29,31,33,35,37,39,41,43,45,47,49,51,53,55,57,59,61,63,65,67,69,71,73,75,77,79,81,83,85,87,89,91,93,95,97,99,101,103,105,107,109,111,113,115,117,119,121,123,125,-1,-1,-1,-1,-1,-1,-1,-1,-1,-1,-1,-1,-1,-1,-1,-1,-1,-1,-1,-1,-1,-1,-1,-1,-1,-1,-1,-1,-1,-1,-1,-1,-1,-1,-1,-1,-1,-1,-1,-1,-1,-1,-1,-1,-1,-1,-1,-1,-1,-1,-1,-1,-1,-1,-1,-1,-1,-1,-1,-1,-1,-1,-1,-1],"loss_changes":[3.2827994E5,9.940486E4,9.415575E4,3.8495056E5,1.0810015E5,4.4028694E5,1.8421778E6,1.5799869E5,1.5379978E5,1.1886344E5,3.3312653E5,3.6689144E5,1.5002529E6,9.8175125E4,1.2068666E5,1.0394192E5,5.3842875E4,2.059839E4,1.6861484E5,1.4350661E5,9.596485E5,1.4076558E5,9.046497E4,1.9066581E5,6.746443E5,3.2605025E5,1.8367967E5,6.900825E4,2.549739E4,1.9150169E5,4.130322E5,1.8930957E4,7.5163875E4,9.926317E4,3.310175E4,1.4207281E4,1.520119E4,5.488797E4,1.2430586E5,6.830924E5,5.617948E4,1.2880481E5,6.654905E4,1.13484734E5,1.6263031E4,5.5127625E4,8.85214E4,1.9800688E5,6.098572E5,1.8739872E5,1.5427297E5,4.5806512E5,1.4618114E5,8.95453E4,4.076322E4,1.4223875E4,2.9761484E4,1.6417012E4,1.0847172E4,4.58547E5,1.6034312E5,1.41752E5,2.5483562E4,0E0,0E0,0E0,0E0,0E0,0E0,0E0,0E0,0E0,0E0,0E0,0E0,0E0,0E0,0E0,0E0,0E0,0E0,0E0,0E0,0E0,0E0,0E0,0E0,0E0,0E0,0E0,0E0,0E0,0E0,0E0,0E0,0E0,0E0,0E0,0E0,0E0,0E0,0E0,0E0,0E0,0E0,0E0,0E0,0E0,0E0,0E0,0E0,0E0,0E0,0E0,0E0,0E0,0E0,0E0,0E0,0E0,0E0,0E0,0E0,0E0,0E0,0E0,0E0],"parents":[2147483647,0,0,1,1,2,2,3,3,4,4,5,5,6,6,7,7,8,8,9,9,10,10,11,11,12,12,13,13,14,14,15,15,16,16,17,17,18,18,19,19,20,20,21,21,22,22,23,23,24,24,25,25,26,26,27,27,28,28,29,29,30,30,31,31,32,32,33,33,34,34,35,35,36,36,37,37,38,38,39,39,40,40,41,41,42,42,43,43,44,44,45,45,46,46,47,47,48,48,49,49,50,50,51,51,52,52,53,53,54,54,55,55,56,56,57,57,58,58,59,59,60,60,61,61,62,62],"right_children":[2,4,6,8,10,12,14,16,18,20,22,24,26,28,30,32,34,36,38,40,42,44,46,48,50,52,54,56,58,60,62,64,66,68,70,72,74,76,78,80,82,84,86,88,90,92,94,96,98,100,102,104,106,108,110,112,114,116,118,120,122,124,126,-1,-1,-1,-1,-1,-1,-1,-1,-1,-1,-1,-1,-1,-1,-1,-1,-1,-1,-1,-1,-1,-1,-1,-1,-1,-1,-1,-1,-1,-1,-1,-1,-1,-1,-1,-1,-1,-1,-1,-1,-1,-1,-1,-1,-1,-1,-1,-1,-1,-1,-1,-1,-1,-1,-1,-1,-1,-1,-1,-1,-1,-1,-1,-1],"split_conditions":[1.2892086E1,2.7651458E0,1.6064014E1,1.6133379E2,1.7655842E1,1.4767313E1,1.0702279E1,1.6246071E2,2.0213583E2,1.6416693E1,1.9634164E2,1.2906975E1,8.255237E0,7.2999945E0,3.3662744E2,3.6336517E1,1.6373507E1,2.1202188E2,1.9634164E2,2.78026E0,1.4069195E1,1.5676445E2,1.8549237E2,1.1688863E1,7.080722E0,2.9928836E2,1.1273155E1,1.7971943E1,1.7478842E1,2.6591606E1,3.238954E2,5.4342075E1,2.202424E1,3.3508557E2,1.4822527E2,1.7171199E2,2.0592037E1,2.1607133E2,3.251991E2,6.082424E0,7.940528E0,1.1623307E1,3.1995258E2,4.3981537E1,1.4422943E2,3.3806992E2,3.2669464E2,3.1894485E2,5.7012186E0,1.582801E1,2.936259E1,6.2738422E1,5.5676113E1,1.7658554E1,1.31228075E1,5.0259237E0,1.1246458E2,1.6364449E1,1.6373507E1,3.9995598E1,1.9125902E1,1.9125902E1,3.3223642E2,-1.3618025E0,1.8135617E0,1.7269402E0,2.6082957E-2,1.9037536E0,-6.208903E-1,1.9472252E0,1.0076969E0,-8.314244E-1,-1.7289902E0,-1.4664729E0,9.160016E-1,3.5398135E-1,1.9560833E0,8.243174E-2,-1.375548E0,-3.0756393E-1,1.250896E0,6.069714E-2,-7.42531E-2,1.4300705E0,5.838426E-1,-5.6062305E-1,7.762206E-2,-9.6606E-1,2.9048523E-1,-3.501743E-2,-1.526127E0,1.8836727E0,7.9375046E-1,8.933652E-1,-1.328493E0,-4.8111048E-1,1.141414E0,1.067684E0,-5.7388824E-1,1.4583594E0,4.16277E-1,8.413828E-1,-7.5740826E-1,-3.2607153E-2,1.7289366E0,1.2469208E0,-6.831246E-1,2.9587516E-1,-4.5021906E-1,-3.130429E-2,-6.4051896E-1,2.2053125E0,1.7378619E0,1.8447056E0,8.822066E-1,8.0003375E-1,-1.09431125E-1,2.329551E0,1.1198976E0,-1.4778736E0,8.941294E-1,5.720028E-1,-1.0590432E0,-7.1525353E-1,1.2991627E0,-7.693208E-1,-1.9090023E0],"split_indices":[10,7,0,11,7,6,6,12,12,6,11,0,0,6,11,11,11,11,11,6,0,12,12,6,6,11,0,3,0,11,12,12,12,12,11,11,12,12,12,0,10,0,12,12,11,11,11,11,0,3,11,11,12,10,12,6,11,3,11,12,12,12,12,0,0,0,0,0,0,0,0,0,0,0,0,0,0,0,0,0,0,0,0,0,0,0,0,0,0,0,0,0,0,0,0,0,0,0,0,0,0,0,0,0,0,0,0,0,0,0,0,0,0,0,0,0,0,0,0,0,0,0,0,0,0,0,0],"split_type":[0,0,0,0,0,0,0,0,0,0,0,0,0,0,0,0,0,0,0,0,0,0,0,0,0,0,0,0,0,0,0,0,0,0,0,0,0,0,0,0,0,0,0,0,0,0,0,0,0,0,0,0,0,0,0,0,0,0,0,0,0,0,0,0,0,0,0,0,0,0,0,0,0,0,0,0,0,0,0,0,0,0,0,0,0,0,0,0,0,0,0,0,0,0,0,0,0,0,0,0,0,0,0,0,0,0,0,0,0,0,0,0,0,0,0,0,0,0,0,0,0,0,0,0,0,0,0],"sum_hessian":[3.06979E5,1.77418E5,1.29561E5,1.3327E4,1.64091E5,1.07615E5,2.1946E4,4.385E3,8.942E3,1.5322E5,1.0871E4,7.6897E4,3.0718E4,6.825E3,1.5121E4,1.426E3,2.959E3,9.13E2,8.029E3,1.36584E5,1.6636E4,7.442E3,3.429E3,6.3784E4,1.3113E4,1.0796E4,1.9922E4,4.302E3,2.523E3,1.2081E4,3.04E3,3.67E2,1.059E3,6.23E2,2.336E3,8.01E2,1.12E2,9.3E2,7.099E3,1.1509E4,1.25075E5,7.714E3,8.922E3,6.741E3,7.01E2,2.24E3,1.189E3,5.3995E4,9.789E3,7.057E3,6.056E3,8.944E3,1.852E3,7.261E3,1.2661E4,2.788E3,1.514E3,9.32E2,1.591E3,3.398E3,8.683E3,2.013E3,1.027E3,3.48E2,1.9E1,4.55E2,6.04E2,3.28E2,2.95E2,1.862E3,4.74E2,2.68E2,5.33E2,4.2E1,7E1,3.34E2,5.96E2,6.457E3,6.42E2,6.621E3,4.888E3,5.5281E4,6.9794E4,4.853E3,2.861E3,6.769E3,2.153E3,8.17E2,5.924E3,8.3E1,6.18E2,1.58E3,6.6E2,9.7E2,2.19E2,5.3233E4,7.62E2,3.55E3,6.239E3,3.008E3,4.049E3,6.79E2,5.377E3,1.865E3,7.079E3,5.63E2,1.289E3,4.857E3,2.404E3,1.215E3,1.1446E4,1.673E3,1.115E3,4.65E2,1.049E3,6.46E2,2.86E2,7.8E1,1.513E3,1.354E3,2.044E3,6.51E2,8.032E3,4.49E2,1.564E3,2.67E2,7.6E2],"tree_param":{"num_deleted":"0","num_feature":"13","num_nodes":"127","size_leaf_vector":"1"}},{"base_weights":[-3.1962064E-3,7.774393E-1,-1.3966794E0,3.2669673E0,5.3750813E-1,2.2601059E-1,-3.4635577E0,-2.7242148E0,1.3080509E1,2.6848537E-1,2.7771404E0,6.874787E0,-4.73014E-1,-2.8045073E0,-6.000382E0,-4.83257E0,1.5556229E0,6.0725775E0,1.4985773E1,2.7887237E0,-1.9601252E-2,1.2740928E1,-2.6770043E0,-2.785976E-2,1.4006497E1,-1.5012921E0,5.480574E0,-1.5689899E-1,-3.2105832E0,-3.597796E0,-1.33203535E1,-1.1589676E1,-3.0148325E0,5.9386907E0,-2.122329E0,1.7447306E1,5.262279E0,7.502681E0,1.7383114E1,-3.544535E0,1.1640486E1,6.666292E-1,-1.9270877E0,5.086903E0,1.4478874E1,2.5938983E0,-4.859146E0,-4.8898764E0,2.421496E0,4.7225285E0,1.7306314E1,-2.2436414E0,5.296968E0,1.2308443E1,-8.488982E-1,-6.4816194E0,1.4314195E1,-2.1894151E-1,-4.0773573E0,5.130518E0,-4.8619537E0,-9.501884E0,-1.5002509E1,-1.8068874E-1,-1.543509E0,-8.854599E-2,-9.43696E-1,-2.9877433E-1,7.7261907E-1,-4.021542E-1,2.3303643E-1,-3.764927E-2,1.8252605E0,2.9505894E-1,9.215668E-1,1.4442946E0,2.1819961E-1,1.2856802E0,2.1940038E0,-5.754506E-1,3.8213022E-2,6.8400544E-1,1.4034489E0,3.5019934E-2,4.44095E-1,-3.147913E-1,5.525268E-1,9.4941634E-1,2.9879043E-1,1.7315447E0,6.7639565E-1,6.347197E-1,-1.0874545E-1,-2.9792997E-1,-1.1023375E0,-1.1421255E0,-1.7620875E-2,-2.2194742E-1,9.512558E-1,1.0921113E0,2.078706E-1,1.08922E0,1.969325E0,4.926614E-1,-3.2227308E-1,1.2696257E0,-3.2082066E-1,4.359944E-1,1.6225666E0,-2.577532E-1,5.713885E-1,-1.6652548E0,-4.3611988E-1,8.826162E-1,1.9868819E0,-5.9784925E-1,1.390981E0,1.9365545E-1,-5.0632346E-1,-5.5412143E-2,1.6185694E0,-7.1352905E-1,2.4088693E-1,-2.6982632E-1,-1.0687815E0,-1.217347E0,-1.7096795E0],"categories":[],"categories_nodes":[],"categories_segments":[],"categories_sizes":[],"default_left":[0,0,0,0,0,0,0,0,0,0,0,0,0,0,0,0,0,0,0,0,0,0,0,0,0,0,0,0,0,0,0,0,0,0,0,0,0,0,0,0,0,0,0,0,0,0,0,0,0,0,0,0,0,0,0,0,0,0,0,0,0,0,0,0,0,0,0,0,0,0,0,0,0,0,0,0,0,0,0,0,0,0,0,0,0,0,0,0,0,0,0,0,0,0,0,0,0,0,0,0,0,0,0,0,0,0,0,0,0,0,0,0,0,0,0,0,0,0,0,0,0,0,0,0,0,0,0],"id":1,"left_children":[1,3,5,7,9,11,13,15,17,19,21,23,25,27,29,31,33,35,37,39,41,43,45,47,49,51,53,55,57,59,61,63,65,67,69,71,73,75,77,79,81,83,85,87,89,91,93,95,97,99,101,103,105,107,109,111,113,115,117,119,121,123,125,-1,-1,-1,-1,-1,-1,-1,-1,-1,-1,-1,-1,-1,-1,-1,-1,-1,-1,-1,-1,-1,-1,-1,-1,-1,-1,-1,-1,-1,-1,-1,-1,-1,-1,-1,-1,-1,-1,-1,-1,-1,-1,-1,-1,-1,-1,-1,-1,-1,-1,-1,-1,-1,-1,-1,-1,-1,-1,-1,-1,-1,-1,-1,-1],"loss_changes":[3.3436762E5,1.17676516E5,3.70161E5,1.01824256E6,1.0826766E5,2.873587E5,8.1137E4,9.704537E4,8.75645E4,1.1647686E5,1.0472419E6,2.8955762E5,3.4251266E5,4.1426406E4,1.7597894E5,8.8461516E4,5.7241133E4,1.2857973E4,9.24555E4,9.226289E5,1.8845447E5,9.0608E4,1.4325672E5,3.561918E4,8.854644E4,2.4077905E5,3.5611694E5,4.691616E5,8.662869E4,8.318792E4,1.5742125E4,5.7416125E4,7.7652555E4,2.58718E4,1.6339092E4,1.341748E3,1.1972328E4,4.62749E4,8.0324625E4,8.325715E4,7.8786875E4,1.2645176E5,3.4657016E5,1.1655441E4,1.21448125E5,5.0398297E4,1.0203255E5,3.08463E4,6.5477926E4,1.2432146E4,3.2457188E4,3.0197394E5,2.956335E5,1.2335256E5,4.853578E4,7.685561E4,4.7349125E4,6.108858E5,1.5358803E5,5.9962805E4,1.0884433E5,6.095242E3,9.952969E3,0E0,0E0,0E0,0E0,0E0,0E0,0E0,0E0,0E0,0E0,0E0,0E0,0E0,0E0,0E0,0E0,0E0,0E0,0E0,0E0,0E0,0E0,0E0,0E0,0E0,0E0,0E0,0E0,0E0,0E0,0E0,0E0,0E0,0E0,0E0,0E0,0E0,0E0,0E0,0E0,0E0,0E0,0E0,0E0,0E0,0E0,0E0,0E0,0E0,0E0,0E0,0E0,0E0,0E0,0E0,0E0,0E0,0E0,0E0,0E0,0E0,0E0,0E0,0E0],"parents":[2147483647,0,0,1,1,2,2,3,3,4,4,5,5,6,6,7,7,8,8,9,9,10,10,11,11,12,12,13,13,14,14,15,15,16,16,17,17,18,18,19,19,20,20,21,21,22,22,23,23,24,24,25,25,26,26,27,27,28,28,29,29,30,30,31,31,32,32,33,33,34,34,35,35,36,36,37,37,38,38,39,39,40,40,41,41,42,42,43,43,44,44,45,45,46,46,47,47,48,48,49,49,50,50,51,51,52,52,53,53,54,54,55,55,56,56,57,57,58,58,59,59,60,60,61,61,62,62],"right_children":[2,4,6,8,10,12,14,16,18,20,22,24,26,28,30,32,34,36,38,40,42,44,46,48,50,52,54,56,58,60,62,64,66,68,70,72,74,76,78,80,82,84,86,88,90,92,94,96,98,100,102,104,106,108,110,112,114,116,118,120,122,124,126,-1,-1,-1,-1,-1,-1,-1,-1,-1,-1,-1,-1,-1,-1,-1,-1,-1,-1,-1,-1,-1,-1,-1,-1,-1,-1,-1,-1,-1,-1,-1,-1,-1,-1,-1,-1,-1,-1,-1,-1,-1,-1,-1,-1,-1,-1,-1,-1,-1,-1,-1,-1,-1,-1,-1,-1,-1,-1,-1,-1,-1,-1,-1,-1],"split_conditions":[1.3761062E1,3.026379E0,1.3729863E1,6.862366E0,1.6723373E1,3.66974E0,1.9094563E1,4.306225E0,6.7777762E0,3.3613453E0,1.2770568E1,9.502062E0,1.5462348E1,2.3578331E0,1.920864E1,2.147974E2,9.666394E0,2.1877861E2,1.6574828E2,6.576809E0,1.4871528E1,6.1010303E0,1.5159015E1,1.903459E2,4.804017E0,1.6336252E1,1.01487055E1,6.819491E0,4.008588E0,2.4355228E0,1.992254E1,5.437412E0,3.0875308E2,1.7898029E2,1.101627E1,9.953766E-2,9.791021E0,2.3635267E1,9.865956E0,4.0056033E0,8.587044E0,1.7235907E1,1.5589906E1,1.0733691E1,1.9469127E2,1.0178454E1,1.4422943E2,5.851695E0,2.776235E0,1.9068043E0,1.2330659E1,3.928233E0,1.2053503E1,5.437412E0,1.4026766E1,1.3596203E1,1.1342182E1,1.000695E1,5.175669E0,5.920552E0,1.6064014E1,1.3011827E0,2.0517637E1,-1.8068874E-1,-1.543509E0,-8.854599E-2,-9.43696E-1,-2.9877433E-1,7.7261907E-1,-4.021542E-1,2.3303643E-1,-3.764927E-2,1.8252605E0,2.9505894E-1,9.215668E-1,1.4442946E0,2.1819961E-1,1.2856802E0,2.1940038E0,-5.754506E-1,3.8213022E-2,6.8400544E-1,1.4034489E0,3.5019934E-2,4.44095E-1,-3.147913E-1,5.525268E-1,9.4941634E-1,2.9879043E-1,1.7315447E0,6.7639565E-1,6.347197E-1,-1.0874545E-1,-2.9792997E-1,-1.1023375E0,-1.1421255E0,-1.7620875E-2,-2.2194742E-1,9.512558E-1,1.0921113E0,2.078706E-1,1.08922E0,1.969325E0,4.926614E-1,-3.2227308E-1,1.2696257E0,-3.2082066E-1,4.359944E-1,1.6225666E0,-2.577532E-1,5.713885E-1,-1.6652548E0,-4.3611988E-1,8.826162E-1,1.9868819E0,-5.9784925E-1,1.390981E0,1.9365545E-1,-5.0632346E-1,-5.5412143E-2,1.6185694E0,-7.1352905E-1,2.4088693E-1,-2.6982632E-1,-1.0687815E0,-1.217347E0,-1.7096795E0],"split_indices":[9,1,10,7,1,7,10,7,10,0,7,1,7,6,9,11,9,11,11,6,10,10,7,11,10,6,1,0,0,0,10,10,11,11,10,0,7,11,7,6,6,7,0,9,11,9,11,1,1,7,1,6,0,10,6,3,0,6,6,6,0,7,9,0,0,0,0,0,0,0,0,0,0,0,0,0,0,0,0,0,0,0,0,0,0,0,0,0,0,0,0,0,0,0,0,0,0,0,0,0,0,0,0,0,0,0,0,0,0,0,0,0,0,0,0,0,0,0,0,0,0,0,0,0,0,0,0],"split_type":[0,0,0,0,0,0,0,0,0,0,0,0,0,0,0,0,0,0,0,0,0,0,0,0,0,0,0,0,0,0,0,0,0,0,0,0,0,0,0,0,0,0,0,0,0,0,0,0,0,0,0,0,0,0,0,0,0,0,0,0,0,0,0,0,0,0,0,0,0,0,0,0,0,0,0,0,0,0,0,0,0,0,0,0,0,0,0,0,0,0,0,0,0,0,0,0,0,0,0,0,0,0,0,0,0,0,0,0,0,0,0,0,0,0,0,0,0,0,0,0,0,0,0,0,0,0,0],"sum_hessian":[3.07377E5,1.97011E5,1.10366E5,1.7317E4,1.79694E5,6.1827E4,4.8539E4,1.0753E4,6.564E3,1.60425E5,1.9269E4,5.881E3,5.5946E4,3.8531E4,1.0008E4,7.204E3,3.549E3,1.404E3,5.16E3,1.6456E4,1.43969E5,6.816E3,1.2453E4,2.989E3,2.892E3,4.7707E4,8.239E3,5.124E3,3.3407E4,7.536E3,2.472E3,1.526E3,5.678E3,1.619E3,1.93E3,9.2E1,1.312E3,1.253E3,3.907E3,9.593E3,6.863E3,1.05879E5,3.809E4,1.262E3,5.554E3,3.646E3,8.807E3,1.001E3,1.988E3,7.59E2,2.133E3,4.3011E4,4.696E3,3.963E3,4.276E3,3.566E3,1.558E3,7.505E3,2.5902E4,9.53E2,6.583E3,7.58E2,1.714E3,4.31E2,1.095E3,4.265E3,1.413E3,2.7E2,1.349E3,1.353E3,5.77E2,4E0,8.8E1,8.29E2,4.83E2,5.43E2,7.1E2,1.962E3,1.945E3,6.138E3,3.455E3,2.285E3,4.578E3,9.769E4,8.189E3,3.2729E4,5.361E3,4.06E2,8.56E2,4.06E3,1.494E3,1.805E3,1.841E3,6.75E3,2.057E3,4.19E2,5.82E2,1.202E3,7.86E2,2.26E2,5.33E2,5.8E2,1.553E3,5.167E3,3.7844E4,2.511E3,2.185E3,1.309E3,2.654E3,3.385E3,8.91E2,6.14E2,2.952E3,7.85E2,7.73E2,5.332E3,2.173E3,3.648E3,2.2254E4,6.3E2,3.23E2,5.015E3,1.568E3,1.13E2,6.45E2,7.32E2,9.82E2],"tree_param":{"num_deleted":"0","num_feature":"13","num_nodes":"127","size_leaf_vector":"1"}},{"base_weights":[-7.207806E-4,6.361038E-1,-1.4489471E0,3.0270379E0,4.397921E-1,1.6346793E-1,-3.436455E0,-2.1638467E0,1.2312929E1,2.9828143E0,2.5501052E-1,6.9651365E0,-5.708768E-1,-2.785153E0,-5.873475E0,-4.31205E0,2.1856916E0,4.8178782E0,1.4720409E1,1.5099038E0,8.427809E0,1.1789972E0,-3.9970866E-1,1.7449712E0,1.3190514E1,-1.7083986E0,5.333507E0,-3.300114E0,-3.7016485E-2,-3.2274127E0,-1.0953689E1,-9.921461E0,-2.449652E0,5.7539206E0,-1.7139777E0,1.7745382E1,3.281164E0,7.839727E0,1.6432487E1,6.956796E0,1.163506E0,6.6208863E0,1.1498265E1,6.042644E0,8.777527E-1,-7.7495545E-1,4.812292E0,-4.8818765E0,5.5129247E0,5.0966806E0,1.708581E1,1.2921818E0,-2.2006404E0,1.1511075E1,2.3445863E-1,-4.4389076E0,-5.9569865E-1,1.675861E1,-6.196279E0,4.090588E0,-4.7042184E0,-8.698929E0,-1.362262E1,-1.2355893E-1,-1.2610263E0,-6.0920585E-2,-9.3112165E-1,8.5861796E-1,3.2593057E-1,-4.0436444E-1,4.3224826E-1,2.1514578E0,1.5135298E0,4.6193574E-2,7.202695E-1,1.4931833E0,3.1102416E-1,1.0876111E0,1.9801943E0,-9.114551E-2,1.2503293E0,3.0764687E-1,3.8307827E-2,1.19650625E-1,7.953549E-1,1.2060285E0,-4.2604184E-1,7.000636E-2,1.2308357E0,7.576852E-2,2.882338E-1,-1.2246554E-1,3.7464783E-1,2.6122627E-1,9.7013897E-1,-1.0607624E0,8.079007E-2,1.9977924E-1,1.1713927E0,2.528368E-1,1.0820205E0,1.4555265E0,2.0690541E0,-3.5449585E-1,7.537449E-1,-1.8594094E-2,-2.825269E-1,3.959811E-1,1.5532125E0,3.8693744E-1,-6.8952364E-1,-5.9459704E-1,4.6319374E-1,1.5571064E0,-7.054111E-1,2.3018281E0,1.0930451E0,-4.3897715E-1,-1.498971E0,1.4970732E-1,1.4391224E0,-6.745458E-1,3.881471E-1,-9.3582886E-1,1.0859299E-1,-1.0542186E0,-1.6187928E0],"categories":[],"categories_nodes":[],"categories_segments":[],"categories_sizes":[],"default_left":[0,0,0,0,0,0,0,0,0,0,0,0,0,0,0,0,0,0,0,0,0,0,0,0,0,0,0,0,0,0,0,0,0,0,0,0,0,0,0,0,0,0,0,0,0,0,0,0,0,0,0,0,0,0,0,0,0,0,0,0,0,0,0,0,0,0,0,0,0,0,0,0,0,0,0,0,0,0,0,0,0,0,0,0,0,0,0,0,0,0,0,0,0,0,0,0,0,0,0,0,0,0,0,0,0,0,0,0,0,0,0,0,0,0,0,0,0,0,0,0,0,0,0,0,0,0,0],"id":2,"left_children":[1,3,5,7,9,11,13,15,17,19,21,23,25,27,29,31,33,35,37,39,41,43,45,47,49,51,53,55,57,59,61,63,65,67,69,71,73,75,77,79,81,83,85,87,89,91,93,95,97,99,101,103,105,107,109,111,113,115,117,119,121,123,125,-1,-1,-1,-1,-1,-1,-1,-1,-1,-1,-1,-1,-1,-1,-1,-1,-1,-1,-1,-1,-1,-1,-1,-1,-1,-1,-1,-1,-1,-1,-1,-1,-1,-1,-1,-1,-1,-1,-1,-1,-1,-1,-1,-1,-1,-1,-1,-1,-1,-1,-1,-1,-1,-1,-1,-1,-1,-1,-1,-1,-1,-1,-1,-1],"loss_changes":[2.835489E5,1.0023042E5,3.009272E5,7.810435E5,9.273191E4,2.589528E5,6.674122E4,9.7127766E4,1.0476575E5,1.071985E5,1.1129768E5,1.6415433E5,3.14288E5,4.6971203E4,1.1918672E5,7.266563E4,4.7835414E4,2.8032129E4,5.1669062E4,1.9846607E4,1.5713703E4,1.1178389E5,2.1060086E5,6.8668484E4,7.255316E4,5.7953383E4,2.3810367E5,8.608622E4,5.4207144E5,6.305802E4,1.8157531E4,4.0481266E4,6.597741E4,1.2654406E4,2.312289E4,1.1500586E3,1.3982123E4,2.9403445E4,6.5686E4,2.7461719E4,1.4771357E4,1.2959078E4,9.377453E3,1.4895547E5,1.7291066E4,2.0424436E5,7.77632E4,3.2489066E4,3.818734E4,1.0997494E4,1.3883469E4,1.6708378E5,4.2416406E4,1.0372269E5,1.0737008E5,2.68923E5,8.6505556E5,5.1042562E4,6.0838797E4,2.6159012E4,8.509474E4,1.0649094E4,1.08055625E4,0E0,0E0,0E0,0E0,0E0,0E0,0E0,0E0,0E0,0E0,0E0,0E0,0E0,0E0,0E0,0E0,0E0,0E0,0E0,0E0,0E0,0E0,0E0,0E0,0E0,0E0,0E0,0E0,0E0,0E0,0E0,0E0,0E0,0E0,0E0,0E0,0E0,0E0,0E0,0E0,0E0,0E0,0E0,0E0,0E0,0E0,0E0,0E0,0E0,0E0,0E0,0E0,0E0,0E0,0E0,0E0,0E0,0E0,0E0,0E0,0E0,0E0,0E0,0E0],"parents":[2147483647,0,0,1,1,2,2,3,3,4,4,5,5,6,6,7,7,8,8,9,9,10,10,11,11,12,12,13,13,14,14,15,15,16,16,17,17,18,18,19,19,20,20,21,21,22,22,23,23,24,24,25,25,26,26,27,27,28,28,29,29,30,30,31,31,32,32,33,33,34,34,35,35,36,36,37,37,38,38,39,39,40,40,41,41,42,42,43,43,44,44,45,45,46,46,47,47,48,48,49,49,50,50,51,51,52,52,53,53,54,54,55,55,56,56,57,57,58,58,59,59,60,60,61,61,62,62],"right_children":[2,4,6,8,10,12,14,16,18,20,22,24,26,28,30,32,34,36,38,40,42,44,46,48,50,52,54,56,58,60,62,64,66,68,70,72,74,76,78,80,82,84,86,88,90,92,94,96,98,100,102,104,106,108,110,112,114,116,118,120,122,124,126,-1,-1,-1,-1,-1,-1,-1,-1,-1,-1,-1,-1,-1,-1,-1,-1,-1,-1,-1,-1,-1,-1,-1,-1,-1,-1,-1,-1,-1,-1,-1,-1,-1,-1,-1,-1,-1,-1,-1,-1,-1,-1,-1,-1,-1,-1,-1,-1,-1,-1,-1,-1,-1,-1,-1,-1,-1,-1,-1,-1,-1,-1,-1,-1],"split_conditions":[1.4559012E1,2.6093652E0,1.3729863E1,7.0819E0,2.3526127E0,3.7491028E0,1.9094563E1,4.4632015E0,6.846401E0,1.4696529E1,1.0289711E1,1.154822E1,1.5231518E1,1.7235907E1,1.8752846E1,2.2515033E2,1.0956252E1,8.35323E0,1.6727003E2,2.1695216E0,1.800043E1,3.0154133E0,1.7478842E1,5.200326E0,5.3474936E0,5.833153E0,8.454364E0,1.4537855E1,1.2258268E1,3.116972E0,2.0517637E1,5.3474936E0,3.1764438E2,1.3915774E0,1.18501835E1,6.4904714E0,9.927136E0,1.4867926E1,9.0953455E0,5.549582E0,8.462076E0,1.706611E0,2.8909067E2,6.003633E0,1.791977E1,1.6889687E1,1.5670155E1,7.1727743E0,4.167607E0,1.5181724E0,2.7815456E0,1.3269921E1,2.8609958E0,5.437412E0,1.4551393E1,1.3947593E1,9.025442E0,7.0995836E0,6.4042716E0,1.5690392E1,1.6886646E1,1.9433933E1,2.0512236E1,-1.2355893E-1,-1.2610263E0,-6.0920585E-2,-9.3112165E-1,8.5861796E-1,3.2593057E-1,-4.0436444E-1,4.3224826E-1,2.1514578E0,1.5135298E0,4.6193574E-2,7.202695E-1,1.4931833E0,3.1102416E-1,1.0876111E0,1.9801943E0,-9.114551E-2,1.2503293E0,3.0764687E-1,3.8307827E-2,1.19650625E-1,7.953549E-1,1.2060285E0,-4.2604184E-1,7.000636E-2,1.2308357E0,7.576852E-2,2.882338E-1,-1.2246554E-1,3.7464783E-1,2.6122627E-1,9.7013897E-1,-1.0607624E0,8.079007E-2,1.9977924E-1,1.1713927E0,2.528368E-1,1.0820205E0,1.4555265E0,2.0690541E0,-3.5449585E-1,7.537449E-1,-1.8594094E-2,-2.825269E-1,3.959811E-1,1.5532125E0,3.8693744E-1,-6.8952364E-1,-5.9459704E-1,4.6319374E-1,1.5571064E0,-7.054111E-1,2.3018281E0,1.0930451E0,-4.3897715E-1,-1.498971E0,1.4970732E-1,1.4391224E0,-6.745458E-1,3.881471E-1,-9.3582886E-1,1.0859299E-1,-1.0542186E0,-1.6187928E0],"split_indices":[9,1,10,7,0,7,10,7,10,10,10,1,7,7,9,11,9,4,11,7,10,7,0,4,10,7,1,1,1,0,9,10,11,1,10,4,7,11,7,1,9,3,11,1,7,1,10,1,1,4,4,1,1,10,4,7,7,1,4,1,0,0,10,0,0,0,0,0,0,0,0,0,0,0,0,0,0,0,0,0,0,0,0,0,0,0,0,0,0,0,0,0,0,0,0,0,0,0,0,0,0,0,0,0,0,0,0,0,0,0,0,0,0,0,0,0,0,0,0,0,0,0,0,0,0,0,0],"split_type":[0,0,0,0,0,0,0,0,0,0,0,0,0,0,0,0,0,0,0,0,0,0,0,0,0,0,0,0,0,0,0,0,0,0,0,0,0,0,0,0,0,0,0,0,0,0,0,0,0,0,0,0,0,0,0,0,0,0,0,0,0,0,0,0,0,0,0,0,0,0,0,0,0,0,0,0,0,0,0,0,0,0,0,0,0,0,0,0,0,0,0,0,0,0,0,0,0,0,0,0,0,0,0,0,0,0,0,0,0,0,0,0,0,0,0,0,0,0,0,0,0,0,0,0,0,0,0],"sum_hessian":[3.07446E5,2.13545E5,9.3901E4,1.6202E4,1.97343E5,5.1843E4,4.2058E4,1.0393E4,5.809E3,1.3367E4,1.83976E5,5.051E3,4.6792E4,3.319E4,8.868E3,6.957E3,3.436E3,1.413E3,4.396E3,1.0522E4,2.845E3,7.6298E4,1.07678E5,2.748E3,2.303E3,3.9234E4,7.558E3,2.7952E4,5.238E3,5.832E3,3.036E3,1.733E3,5.224E3,1.794E3,1.642E3,1.49E2,1.264E3,8.77E2,3.519E3,6.28E2,9.894E3,1.793E3,1.052E3,4.449E3,7.1849E4,1.00447E5,7.231E3,9.96E2,1.752E3,7.49E2,1.554E3,5.529E3,3.3705E4,3.417E3,4.141E3,1.9669E4,8.283E3,1.405E3,3.833E3,9.79E2,4.853E3,1.648E3,1.388E3,4.1E2,1.323E3,4.12E3,1.104E3,8.39E2,9.55E2,1.185E3,4.57E2,5.8E1,9.1E1,7.36E2,5.28E2,3.5E2,5.27E2,1.33E3,2.189E3,2.6E2,3.68E2,2.866E3,7.028E3,3.54E2,1.439E3,1.016E3,3.6E1,2.402E3,2.047E3,6.779E4,4.059E3,9.1361E4,9.086E3,4.988E3,2.243E3,4.96E2,5E2,1.119E3,6.33E2,5.18E2,2.31E2,9.16E2,6.38E2,3.116E3,2.413E3,7.977E3,2.5728E4,1.188E3,2.229E3,2.743E3,1.398E3,1.6867E4,2.802E3,2.364E3,5.919E3,6.76E2,7.29E2,3.181E3,6.52E2,7.83E2,1.96E2,3.921E3,9.32E2,1.544E3,1.04E2,6.33E2,7.55E2],"tree_param":{"num_deleted":"0","num_feature":"13","num_nodes":"127","size_leaf_vector":"1"}},{"base_weights":[-6.4072763E-3,1.0403113E0,-8.3242995E-1,3.6099896E0,8.237105E-1,6.276948E-1,-1.7528245E0,8.861983E0,1.9015315E-1,6.442228E-1,4.1371713E0,8.358827E-1,-5.075837E-1,-1.3771315E0,-3.6960933E0,2.6683388E0,1.3603516E1,-1.0039942E1,1.7518948E0,4.7454805E0,4.8411456E-1,3.8572678E-1,1.1205084E1,-8.4331757E-1,9.655793E-1,6.5671515E0,-9.6594995E-1,7.532793E-1,-1.6401433E0,-1.9228281E0,-8.801708E0,-1.0001948E1,6.0274267E0,6.9068103E0,1.5726835E1,-1.1547147E1,3.5225487E-1,9.948829E0,-6.095653E-1,1.5454768E1,3.2760825E0,2.6186037E-1,3.5880573E0,2.0053017E0,-1.1064164E1,1.4825392E1,4.0748835E0,-2.4323077E0,2.7619358E-2,1.4827558E0,5.112448E-1,-7.9920125E0,1.7996674E1,-1.68445E0,4.0536604E0,-4.1318214E-1,1.5631626E1,-2.1390572E0,3.995381E-2,-2.3282635E0,6.4661765E0,-6.5814404E0,-1.0823153E1,-1.241844E0,1.7447776E0,9.3887776E-1,-5.847141E-1,1.675572E0,-5.6880254E-1,1.8119324E0,1.1157129E0,9.9900687E-1,-1.2007794E0,1.1665484E0,-1.1607993E0,3.9629194E-1,1.6645441E0,6.790053E-2,-1.12584E0,-1.0468594E0,1.6425835E0,1.5786079E-1,1.4120929E0,4.2076044E-2,-3.1881946E-1,-5.8155067E-2,5.490542E-1,-2.7017763E-2,1.3265312E0,-1.4119853E0,-6.0641855E-1,1.8128651E0,7.277791E-1,8.8773775E-1,-1.1782911E0,-1.0743166E0,8.5490257E-1,9.9206495E-1,-4.8535642E-1,1.7040733E-1,7.1913585E-2,3.2385716E-1,4.206503E-2,-1.5927203E0,1.4431877E-1,1.2107918E0,2.2180688E0,-2.130808E-1,1.0752288E0,1.5716537E0,-7.9085416E-1,1.3860625E0,-1.9222872E-1,2.1599016E0,1.2880235E0,3.1821662E-1,-2.4956742E-1,1.661349E-1,-5.9306407E-1,-1.4738467E-1,-7.6088214E-1,1.1915857E0,-7.444926E-1,-6.982898E-1,6.0823625E-1,-7.568957E-1,-1.3136404E0],"categories":[],"categories_nodes":[],"categories_segments":[],"categories_sizes":[],"default_left":[0,0,0,0,0,0,0,0,0,0,0,0,0,0,0,0,0,0,0,0,0,0,0,0,0,0,0,0,0,0,0,0,0,0,0,0,0,0,0,0,0,0,0,0,0,0,0,0,0,0,0,0,0,0,0,0,0,0,0,0,0,0,0,0,0,0,0,0,0,0,0,0,0,0,0,0,0,0,0,0,0,0,0,0,0,0,0,0,0,0,0,0,0,0,0,0,0,0,0,0,0,0,0,0,0,0,0,0,0,0,0,0,0,0,0,0,0,0,0,0,0,0,0,0,0,0,0],"id":3,"left_children":[1,3,5,7,9,11,13,15,17,19,21,23,25,27,29,31,33,35,37,39,41,43,45,47,49,51,53,55,57,59,61,63,65,67,69,71,73,75,77,79,81,83,85,87,89,91,93,95,97,99,101,103,105,107,109,111,113,115,117,119,121,123,125,-1,-1,-1,-1,-1,-1,-1,-1,-1,-1,-1,-1,-1,-1,-1,-1,-1,-1,-1,-1,-1,-1,-1,-1,-1,-1,-1,-1,-1,-1,-1,-1,-1,-1,-1,-1,-1,-1,-1,-1,-1,-1,-1,-1,-1,-1,-1,-1,-1,-1,-1,-1,-1,-1,-1,-1,-1,-1,-1,-1,-1,-1,-1,-1],"loss_changes":[2.6555475E5,7.539944E4,2.3070148E5,1.8914517E5,7.430294E4,1.568777E4,7.686716E4,1.2192634E5,1.01933375E5,7.782459E4,1.7022122E5,1.221602E4,3.3361992E4,4.9442484E4,1.5441956E5,7.67545E4,3.333503E4,1.3239445E4,1.0714558E5,7.00227E4,7.8691875E4,7.781408E4,5.74005E4,5.5661543E3,1.2233484E4,1.04312914E5,3.4850098E4,1.682981E5,6.5835016E4,4.308106E4,1.9663156E4,2.5290191E4,5.693319E4,7.0553086E4,1.9313219E4,7.441711E3,1.4748785E4,4.955964E4,5.898383E4,1.3690031E4,7.208519E4,5.8358164E4,6.0465594E4,9.4189766E4,7.8591367E3,3.666722E4,5.7298473E4,1.3005221E5,1.2555308E5,4.1138086E3,6.847471E3,2.0687135E4,8.379609E3,4.6941953E4,1.6893584E5,1.9374194E5,1.12969375E4,1.14925125E5,1.7410744E5,5.448679E4,4.4362367E4,1.0708664E4,1.7214438E4,0E0,0E0,0E0,0E0,0E0,0E0,0E0,0E0,0E0,0E0,0E0,0E0,0E0,0E0,0E0,0E0,0E0,0E0,0E0,0E0,0E0,0E0,0E0,0E0,0E0,0E0,0E0,0E0,0E0,0E0,0E0,0E0,0E0,0E0,0E0,0E0,0E0,0E0,0E0,0E0,0E0,0E0,0E0,0E0,0E0,0E0,0E0,0E0,0E0,0E0,0E0,0E0,0E0,0E0,0E0,0E0,0E0,0E0,0E0,0E0,0E0,0E0,0E0,0E0],"parents":[2147483647,0,0,1,1,2,2,3,3,4,4,5,5,6,6,7,7,8,8,9,9,10,10,11,11,12,12,13,13,14,14,15,15,16,16,17,17,18,18,19,19,20,20,21,21,22,22,23,23,24,24,25,25,26,26,27,27,28,28,29,29,30,30,31,31,32,32,33,33,34,34,35,35,36,36,37,37,38,38,39,39,40,40,41,41,42,42,43,43,44,44,45,45,46,46,47,47,48,48,49,49,50,50,51,51,52,52,53,53,54,54,55,55,56,56,57,57,58,58,59,59,60,60,61,61,62,62],"right_children":[2,4,6,8,10,12,14,16,18,20,22,24,26,28,30,32,34,36,38,40,42,44,46,48,50,52,54,56,58,60,62,64,66,68,70,72,74,76,78,80,82,84,86,88,90,92,94,96,98,100,102,104,106,108,110,112,114,116,118,120,122,124,126,-1,-1,-1,-1,-1,-1,-1,-1,-1,-1,-1,-1,-1,-1,-1,-1,-1,-1,-1,-1,-1,-1,-1,-1,-1,-1,-1,-1,-1,-1,-1,-1,-1,-1,-1,-1,-1,-1,-1,-1,-1,-1,-1,-1,-1,-1,-1,-1,-1,-1,-1,-1,-1,-1,-1,-1,-1,-1,-1,-1,-1,-1,-1,-1],"split_conditions":[1.0956252E1,3.026379E0,1.0854392E1,1.6408072E2,1.7907541E1,1.7501507E1,1.865138E1,1.7171199E2,2.0653587E2,1.7511187E0,2.0213583E2,9.486402E-1,1.0190091E2,2.3526127E0,1.8270496E1,3.8693245E1,1.9125902E1,2.1993275E2,2.1607133E2,6.527738E1,1.7394333E1,1.5678018E2,1.8887401E2,5.3013794E1,7.407836E0,1.2632721E2,2.4245734E2,2.8334848E2,1.5826879E1,3.454628E2,1.976343E1,5.178911E1,1.263092E2,3.3662744E2,1.4151337E2,1.4687572E2,3.4102362E2,2.315172E2,3.2810236E2,4.915956E1,2.948216E2,1.9215576E1,1.0190091E2,1.5947081E2,1.8863875E2,3.365942E2,3.238954E2,5.441228E1,5.178911E1,1.6362904E1,1.0092484E1,1.0953015E2,1.3770528E2,2.4681398E2,2.2639754E2,8.304312E1,2.52705E2,2.9166574E1,3.1995258E2,2.948216E2,3.228524E2,3.4697894E2,1.991853E1,-1.241844E0,1.7447776E0,9.3887776E-1,-5.847141E-1,1.675572E0,-5.6880254E-1,1.8119324E0,1.1157129E0,9.9900687E-1,-1.2007794E0,1.1665484E0,-1.1607993E0,3.9629194E-1,1.6645441E0,6.790053E-2,-1.12584E0,-1.0468594E0,1.6425835E0,1.5786079E-1,1.4120929E0,4.2076044E-2,-3.1881946E-1,-5.8155067E-2,5.490542E-1,-2.7017763E-2,1.3265312E0,-1.4119853E0,-6.0641855E-1,1.8128651E0,7.277791E-1,8.8773775E-1,-1.1782911E0,-1.0743166E0,8.5490257E-1,9.9206495E-1,-4.8535642E-1,1.7040733E-1,7.1913585E-2,3.2385716E-1,4.206503E-2,-1.5927203E0,1.4431877E-1,1.2107918E0,2.2180688E0,-2.130808E-1,1.0752288E0,1.5716537E0,-7.9085416E-1,1.3860625E0,-1.9222872E-1,2.1599016E0,1.2880235E0,3.1821662E-1,-2.4956742E-1,1.661349E-1,-5.9306407E-1,-1.4738467E-1,-7.6088214E-1,1.1915857E0,-7.444926E-1,-6.982898E-1,6.0823625E-1,-7.568957E-1,-1.3136404E0],"split_indices":[9,1,10,12,1,3,9,11,11,0,12,3,12,0,10,12,12,12,12,12,0,11,11,12,10,11,12,12,0,12,10,11,12,11,12,11,12,11,11,11,12,10,12,12,12,12,12,11,11,4,12,11,11,11,11,12,11,12,12,12,11,12,9,0,0,0,0,0,0,0,0,0,0,0,0,0,0,0,0,0,0,0,0,0,0,0,0,0,0,0,0,0,0,0,0,0,0,0,0,0,0,0,0,0,0,0,0,0,0,0,0,0,0,0,0,0,0,0,0,0,0,0,0,0,0,0,0],"split_type":[0,0,0,0,0,0,0,0,0,0,0,0,0,0,0,0,0,0,0,0,0,0,0,0,0,0,0,0,0,0,0,0,0,0,0,0,0,0,0,0,0,0,0,0,0,0,0,0,0,0,0,0,0,0,0,0,0,0,0,0,0,0,0,0,0,0,0,0,0,0,0,0,0,0,0,0,0,0,0,0,0,0,0,0,0,0,0,0,0,0,0,0,0,0,0,0,0,0,0,0,0,0,0,0,0,0,0,0,0,0,0,0,0,0,0,0,0,0,0,0,0,0,0,0,0,0,0],"sum_hessian":[3.07135E5,1.3547E5,1.71665E5,1.053E4,1.2494E5,6.6372E4,1.05293E5,4.152E3,6.378E3,1.18521E5,6.419E3,5.6087E4,1.0285E4,8.8236E4,1.7057E4,1.801E3,2.351E3,8.44E2,5.534E3,4.452E3,1.14069E5,4.194E3,2.225E3,4.021E3,5.2066E4,6.25E2,9.66E3,9.696E3,7.854E4,1.2661E4,4.396E3,3.77E2,1.424E3,5.67E2,1.784E3,7.37E2,1.07E2,1.237E3,4.297E3,5.36E2,3.916E3,1.06448E5,7.621E3,3.675E3,5.19E2,1.475E3,7.5E2,1.423E3,2.598E3,2.4348E4,2.7718E4,2.75E2,3.5E2,8.451E3,1.209E3,8.992E3,7.04E2,6.0557E4,1.7983E4,1.2078E4,5.83E2,2.097E3,2.299E3,3.47E2,3E1,1.11E3,3.14E2,3.18E2,2.49E2,1.169E3,6.15E2,1.5E1,7.22E2,5.5E1,5.2E1,6.54E2,5.83E2,3.834E3,4.63E2,1.9E1,5.17E2,3.387E3,5.29E2,1.01762E5,4.686E3,2.388E3,5.233E3,3.058E3,6.17E2,3.21E2,1.98E2,1.025E3,4.5E2,5.76E2,1.74E2,8.1E2,6.13E2,8.58E2,1.74E3,1.8876E4,5.472E3,8.9E2,2.6828E4,1.49E2,1.26E2,1.47E2,2.03E2,8.159E3,2.92E2,6.12E2,5.97E2,8.59E2,8.133E3,2.2E2,4.84E2,3.803E3,5.6754E4,1.4143E4,3.84E3,1.0397E4,1.681E3,4.19E2,1.64E2,2.033E3,6.4E1,9.57E2,1.342E3],"tree_param":{"num_deleted":"0","num_feature":"13","num_nodes":"127","size_leaf_vector":"1"}},{"base_weights":[1.0035201E-2,4.5653844E-1,-1.1788582E0,2.0372894E0,2.0501684E-1,8.710389E-1,-1.7032528E0,-2.7559614E0,1.0520168E1,2.3845875E0,-2.8647843E-1,-4.931258E0,1.3010589E1,1.4867212E0,-3.2564752E0,-4.334117E0,1.5051917E0,1.309927E1,4.0371866E0,9.49036E0,-1.2758157E0,2.3131814E0,-6.939734E-1,-1.1013954E1,-2.985232E0,6.0541983E0,1.6837149E1,-3.5575662E0,1.1105504E1,1.8617994E0,-4.1784344E0,-8.658587E0,-2.9757683E0,5.0683093E0,-1.1136968E0,5.411958E0,1.6726995E1,-2.1286983E0,1.377427E1,1.1002473E0,1.5215844E1,-2.644074E0,5.788693E0,-2.7413342E0,8.205346E0,1.4982461E0,-1.3158553E0,-1.2296828E1,4.891146E0,6.6961784E0,-5.065443E0,1.3169461E1,2.309565E0,1.2088337E1,2.1233082E1,4.9575553E0,-4.38201E0,1.8931656E1,4.529053E0,-4.974988E0,6.722596E0,-2.7941225E0,-6.129798E0,-1.0673875E0,4.493023E-1,-1.7743039E-1,-9.4143575E-1,-3.2027492E-1,7.415735E-1,2.3356418E-1,-2.9396662E-1,1.0970472E0,1.5433308E-1,1.2985824E0,1.9461288E0,5.210618E-1,-4.667355E-1,1.697085E0,2.6409623E-1,-2.3983538E-1,7.460341E-1,6.229437E-1,1.7162123E0,1.4798598E-1,-3.5312223E-1,1.588851E0,-6.40835E-1,-5.149307E-1,6.273816E-2,2.158453E-1,1.2243072E0,-2.6853856E-1,8.4318763E-1,2.1247394E-1,-1.9867162E-1,-1.5108352E0,-4.854478E-1,-1.6781672E0,8.0448145E-1,8.926778E-2,1.2581428E0,2.6347387E-1,-7.758912E-1,3.590848E-1,1.9321747E0,-6.7114145E-1,4.9143186E-1,7.989609E-1,1.3992621E0,1.867017E0,2.2644331E0,-2.518188E-1,9.468867E-1,1.3828175E-1,-5.6557447E-1,2.150647E0,1.6470307E0,8.35923E-2,1.3463447E0,-9.648469E-1,1.1693867E-1,1.7358916E-1,1.3908707E0,-4.9659258E-1,8.509464E-1,7.618736E-1,-7.856249E-1],"categories":[],"categories_nodes":[],"categories_segments":[],"categories_sizes":[],"default_left":[0,0,0,0,0,0,0,0,0,0,0,0,0,0,0,0,0,0,0,0,0,0,0,0,0,0,0,0,0,0,0,0,0,0,0,0,0,0,0,0,0,0,0,0,0,0,0,0,0,0,0,0,0,0,0,0,0,0,0,0,0,0,0,0,0,0,0,0,0,0,0,0,0,0,0,0,0,0,0,0,0,0,0,0,0,0,0,0,0,0,0,0,0,0,0,0,0,0,0,0,0,0,0,0,0,0,0,0,0,0,0,0,0,0,0,0,0,0,0,0,0,0,0,0,0,0,0],"id":4,"left_children":[1,3,5,7,9,11,13,15,17,19,21,23,25,27,29,31,33,35,37,39,41,43,45,47,49,51,53,55,57,59,61,63,65,67,69,71,73,75,77,79,81,83,85,87,89,91,93,95,97,99,101,103,105,107,109,111,113,115,117,119,121,123,125,-1,-1,-1,-1,-1,-1,-1,-1,-1,-1,-1,-1,-1,-1,-1,-1,-1,-1,-1,-1,-1,-1,-1,-1,-1,-1,-1,-1,-1,-1,-1,-1,-1,-1,-1,-1,-1,-1,-1,-1,-1,-1,-1,-1,-1,-1,-1,-1,-1,-1,-1,-1,-1,-1,-1,-1,-1,-1,-1,-1,-1,-1,-1,-1],"loss_changes":[1.6319975E5,8.886042E4,9.022997E4,1.2474952E6,2.0655672E5,1.2044711E6,3.3117462E5,1.318388E5,1.851575E5,9.228467E5,1.666784E5,1.3692222E5,1.4710138E5,1.0620432E6,2.121291E5,8.400966E4,4.9452773E4,2.2088962E5,1.8938833E5,5.794591E5,2.2637536E5,6.3500544E5,1.854369E5,5.7273625E4,1.7659584E5,5.2298508E4,7.4206125E4,1.0082533E5,3.8747062E5,2.2807305E5,1.02877875E5,9.0666E4,8.420999E4,4.361199E4,1.9248438E4,5.4645766E4,5.4812625E4,3.602135E4,4.3479938E4,1.0891638E5,1.252965E5,7.178216E4,4.6821588E5,9.3102086E4,2.4034606E5,8.719667E5,2.4457916E5,5.4225312E4,1.448827E4,5.2963242E4,1.4970242E5,3.9826477E4,3.0297668E4,1.3289625E4,6.272125E3,4.2787664E4,9.614056E4,2.143425E4,1.3504088E5,8.190823E4,1.4371011E5,5.471204E5,3.7525762E5,0E0,0E0,0E0,0E0,0E0,0E0,0E0,0E0,0E0,0E0,0E0,0E0,0E0,0E0,0E0,0E0,0E0,0E0,0E0,0E0,0E0,0E0,0E0,0E0,0E0,0E0,0E0,0E0,0E0,0E0,0E0,0E0,0E0,0E0,0E0,0E0,0E0,0E0,0E0,0E0,0E0,0E0,0E0,0E0,0E0,0E0,0E0,0E0,0E0,0E0,0E0,0E0,0E0,0E0,0E0,0E0,0E0,0E0,0E0,0E0,0E0,0E0,0E0,0E0],"parents":[2147483647,0,0,1,1,2,2,3,3,4,4,5,5,6,6,7,7,8,8,9,9,10,10,11,11,12,12,13,13,14,14,15,15,16,16,17,17,18,18,19,19,20,20,21,21,22,22,23,23,24,24,25,25,26,26,27,27,28,28,29,29,30,30,31,31,32,32,33,33,34,34,35,35,36,36,37,37,38,38,39,39,40,40,41,41,42,42,43,43,44,44,45,45,46,46,47,47,48,48,49,49,50,50,51,51,52,52,53,53,54,54,55,55,56,56,57,57,58,58,59,59,60,60,61,61,62,62],"right_children":[2,4,6,8,10,12,14,16,18,20,22,24,26,28,30,32,34,36,38,40,42,44,46,48,50,52,54,56,58,60,62,64,66,68,70,72,74,76,78,80,82,84,86,88,90,92,94,96,98,100,102,104,106,108,110,112,114,116,118,120,122,124,126,-1,-1,-1,-1,-1,-1,-1,-1,-1,-1,-1,-1,-1,-1,-1,-1,-1,-1,-1,-1,-1,-1,-1,-1,-1,-1,-1,-1,-1,-1,-1,-1,-1,-1,-1,-1,-1,-1,-1,-1,-1,-1,-1,-1,-1,-1,-1,-1,-1,-1,-1,-1,-1,-1,-1,-1,-1,-1,-1,-1,-1,-1,-1,-1],"split_conditions":[1.505192E1,3.989669E0,4.630256E0,7.7368603E0,4.630256E0,1.0283034E1,5.5335283E0,5.399174E0,2.1614232E2,1.9919623E2,6.500238E0,2.3540192E2,1.6874165E2,1.2611084E1,7.2426353E0,2.1733168E2,1.0119289E1,1.6704082E2,3.151287E2,8.596669E0,3.2793854E2,1.06444025E1,8.594206E0,2.510749E2,2.3017122E2,2.0814236E1,1.4696841E1,1.7020103E2,1.9918053E2,1.3722807E1,1.2367341E2,2.3027892E2,3.238954E2,1.7563159E2,1.4749235E0,2.4905457E1,1.06444025E1,2.3822043E2,3.0851105E2,2.1202188E2,1.5678018E2,2.2505789E2,3.1130148E2,7.955785E0,1.5390315E2,1.2413336E1,8.883092E0,7.00974E0,1.1988745E1,1.3116694E1,6.672938E0,4.780041E1,1.4621822E1,1.1762565E1,1.6335583E1,8.66308E0,3.8470423E0,2.8490388E0,3.3377963E2,2.3409007E2,1.5388258E2,1.302738E2,1.1090733E2,-1.0673875E0,4.493023E-1,-1.7743039E-1,-9.4143575E-1,-3.2027492E-1,7.415735E-1,2.3356418E-1,-2.9396662E-1,1.0970472E0,1.5433308E-1,1.2985824E0,1.9461288E0,5.210618E-1,-4.667355E-1,1.697085E0,2.6409623E-1,-2.3983538E-1,7.460341E-1,6.229437E-1,1.7162123E0,1.4798598E-1,-3.5312223E-1,1.588851E0,-6.40835E-1,-5.149307E-1,6.273816E-2,2.158453E-1,1.2243072E0,-2.6853856E-1,8.4318763E-1,2.1247394E-1,-1.9867162E-1,-1.5108352E0,-4.854478E-1,-1.6781672E0,8.0448145E-1,8.926778E-2,1.2581428E0,2.6347387E-1,-7.758912E-1,3.590848E-1,1.9321747E0,-6.7114145E-1,4.9143186E-1,7.989609E-1,1.3992621E0,1.867017E0,2.2644331E0,-2.518188E-1,9.468867E-1,1.3828175E-1,-5.6557447E-1,2.150647E0,1.6470307E0,8.35923E-2,1.3463447E0,-9.648469E-1,1.1693867E-1,1.7358916E-1,1.3908707E0,-4.9659258E-1,8.509464E-1,7.618736E-1,-7.856249E-1],"split_indices":[10,7,1,1,1,7,7,1,11,12,7,11,11,1,1,12,10,12,11,7,12,1,1,12,12,11,7,11,11,7,11,11,12,12,7,12,1,11,12,11,11,12,11,1,12,7,7,7,11,0,0,12,7,7,7,1,0,7,11,11,11,12,12,0,0,0,0,0,0,0,0,0,0,0,0,0,0,0,0,0,0,0,0,0,0,0,0,0,0,0,0,0,0,0,0,0,0,0,0,0,0,0,0,0,0,0,0,0,0,0,0,0,0,0,0,0,0,0,0,0,0,0,0,0,0,0,0],"split_type":[0,0,0,0,0,0,0,0,0,0,0,0,0,0,0,0,0,0,0,0,0,0,0,0,0,0,0,0,0,0,0,0,0,0,0,0,0,0,0,0,0,0,0,0,0,0,0,0,0,0,0,0,0,0,0,0,0,0,0,0,0,0,0,0,0,0,0,0,0,0,0,0,0,0,0,0,0,0,0,0,0,0,0,0,0,0,0,0,0,0,0,0,0,0,0,0,0,0,0,0,0,0,0,0,0,0,0,0,0,0,0,0,0,0,0,0,0,0,0,0,0,0,0,0,0,0,0],"sum_hessian":[3.07432E5,2.23496E5,8.3936E4,3.0679E4,1.92817E5,1.7098E4,6.6838E4,1.9603E4,1.1076E4,3.5479E4,1.57338E5,1.1569E4,5.529E3,2.1887E4,4.4951E4,1.4305E4,5.298E3,7.923E3,3.153E3,1.2062E4,2.3417E4,2.132E4,1.36018E5,2.803E3,8.766E3,1.963E3,3.566E3,1.4358E4,7.529E3,6.861E3,3.809E4,3.418E3,1.0887E4,2.244E3,3.054E3,2.541E3,5.382E3,1.931E3,1.222E3,4.893E3,7.169E3,1.9618E4,3.799E3,1.1476E4,9.844E3,3.0058E4,1.0596E5,2.594E3,2.09E2,1.55E3,7.216E3,6.76E2,1.287E3,1.716E3,1.85E3,1.267E3,1.3091E4,3.437E3,4.092E3,2.851E3,4.01E3,2.2284E4,1.5806E4,2.964E3,4.54E2,9.176E3,1.711E3,4.96E2,1.748E3,1.057E3,1.997E3,1.042E3,1.499E3,2.275E3,3.107E3,4.96E2,1.435E3,9.49E2,2.73E2,3.157E3,1.736E3,1.277E3,5.892E3,3.473E3,1.6145E4,2.078E3,1.721E3,6.692E3,4.784E3,3.942E3,5.902E3,1.8747E4,1.1311E4,1.7289E4,8.8671E4,1.882E3,7.12E2,2.6E1,1.83E2,7.81E2,7.69E2,1.87E3,5.346E3,2.65E2,4.11E2,2.88E2,9.99E2,5.46E2,1.17E3,6.62E2,1.188E3,4.77E2,7.9E2,2.369E3,1.0722E4,1.676E3,1.761E3,2.896E3,1.196E3,1.619E3,1.232E3,2.368E3,1.642E3,1.8693E4,3.591E3,1.763E3,1.4043E4],"tree_param":{"num_deleted":"0","num_feature":"13","num_nodes":"127","size_leaf_vector":"1"}},{"base_weights":[-1.7241942E-3,7.067279E-1,-7.323068E-1,5.0271016E-1,3.2153175E0,7.66792E-1,-9.8919034E-1,3.1458046E0,2.818431E-1,1.1582271E1,-2.6998255E0,-4.387683E0,1.18967E1,1.3854784E0,-1.9391603E0,-2.6181047E0,1.122256E1,3.0406184E-2,3.034516E0,1.2357873E1,-3.9429178E0,1.1991501E0,-5.396976E0,-9.133139E0,-3.0747144E0,7.0041113E0,1.4887817E1,-2.8602011E0,1.0269839E1,2.5993707E0,-2.8424644E0,-8.514084E0,-1.2305156E0,7.9911804E0,1.5155479E1,3.1324573E0,-2.3747037E-1,1.0285057E1,-3.3205934E0,4.585827E0,1.383794E1,7.803536E0,-1.441582E1,6.053961E0,-1.007974E0,-2.975491E0,-1.1597698E1,-1.0743423E1,9.0665245E0,5.2202544E0,-4.8544426E0,3.8316152E0,9.6209135E0,7.2502265E0,1.7215208E1,-4.936183E0,1.0801117E0,1.6654634E1,3.6290321E0,-4.5182276E0,8.415258E0,8.205997E-1,-3.4784384E0,6.7143387E-1,-1.0798926E0,1.09858E-1,-7.121207E-1,2.3109607E-1,9.1866285E-1,1.6605285E0,-1.8507884E-1,-2.7147925E-1,9.147828E-1,1.9519822E-3,-1.697561E-1,1.2369498E0,5.0240177E-1,-1.6338573E-1,-8.9193696E-1,1.8909749E0,3.2289538E-1,-7.5885914E-2,1.480273E0,1.4776739E0,1.0604401E-1,-8.026878E-1,-1.6967257E0,9.5114803E-1,1.4063279E-3,-3.8807085E-1,2.3036623E-1,1.3470535E-1,-4.3366098E-1,-4.1478133E-1,-1.5644662E0,-1.3655508E0,-4.8442218E-1,-1.6079876E0,1.1962494E0,-1.61809E-1,9.5965624E-1,1.1458569E-1,-7.0158476E-1,5.4052866E-1,-9.6749157E-1,1.5804055E0,6.131342E-1,1.5060439E0,7.7310175E-2,1.5121508E0,1.9390831E0,-5.803887E-1,-8.046E-2,6.475896E-1,-1.2779126E-1,1.3831419E0,1.8796017E0,-5.7112854E-2,1.1847119E0,-9.219565E-1,-6.173532E-2,3.0612043E-1,1.3544687E0,-4.247832E-1,1.0180326E0,-1.3594341E-2,-4.3504778E-1],"categories":[],"categories_nodes":[],"categories_segments":[],"categories_sizes":[],"default_left":[0,0,0,0,0,0,0,0,0,0,0,0,0,0,0,0,0,0,0,0,0,0,0,0,0,0,0,0,0,0,0,0,0,0,0,0,0,0,0,0,0,0,0,0,0,0,0,0,0,0,0,0,0,0,0,0,0,0,0,0,0,0,0,0,0,0,0,0,0,0,0,0,0,0,0,0,0,0,0,0,0,0,0,0,0,0,0,0,0,0,0,0,0,0,0,0,0,0,0,0,0,0,0,0,0,0,0,0,0,0,0,0,0,0,0,0,0,0,0,0,0,0,0,0,0,0,0],"id":5,"left_children":[1,3,5,7,9,11,13,15,17,19,21,23,25,27,29,31,33,35,37,39,41,43,45,47,49,51,53,55,57,59,61,63,65,67,69,71,73,75,77,79,81,83,85,87,89,91,93,95,97,99,101,103,105,107,109,111,113,115,117,119,121,123,125,-1,-1,-1,-1,-1,-1,-1,-1,-1,-1,-1,-1,-1,-1,-1,-1,-1,-1,-1,-1,-1,-1,-1,-1,-1,-1,-1,-1,-1,-1,-1,-1,-1,-1,-1,-1,-1,-1,-1,-1,-1,-1,-1,-1,-1,-1,-1,-1,-1,-1,-1,-1,-1,-1,-1,-1,-1,-1,-1,-1,-1,-1,-1,-1],"loss_changes":[1.5905731E5,7.984739E4,5.8261992E4,8.422816E4,5.807671E5,1.2697966E6,2.9136784E5,5.1803225E5,9.2161695E4,5.8569812E4,7.230483E4,9.422894E4,1.0242369E5,1.3921292E6,3.7821872E5,5.311821E4,5.877125E4,1.0139032E5,5.1357325E5,5.3184562E4,2.8653008E4,3.0137156E4,6.0986266E4,9.616456E4,1.7497922E5,2.2045906E4,7.7146E4,2.0428494E5,5.059435E5,6.339634E5,1.7924569E5,4.311336E4,7.21475E4,1.7267156E4,5.1536656E4,3.4117144E5,4.2144254E4,5.7028438E4,5.6080746E4,1.4360263E4,5.4765312E4,5.1566367E3,1.8688281E3,1.8356078E4,1.8407955E4,1.7209184E4,3.4335594E4,5.1676938E4,1.963615E4,6.2682047E4,1.265603E5,2.5643123E4,3.1340078E4,5.143608E4,1.48798125E4,5.8631438E4,1.0965844E5,3.6521375E4,2.019674E5,1.2629722E5,2.3141869E5,5.400429E5,1.9108988E5,0E0,0E0,0E0,0E0,0E0,0E0,0E0,0E0,0E0,0E0,0E0,0E0,0E0,0E0,0E0,0E0,0E0,0E0,0E0,0E0,0E0,0E0,0E0,0E0,0E0,0E0,0E0,0E0,0E0,0E0,0E0,0E0,0E0,0E0,0E0,0E0,0E0,0E0,0E0,0E0,0E0,0E0,0E0,0E0,0E0,0E0,0E0,0E0,0E0,0E0,0E0,0E0,0E0,0E0,0E0,0E0,0E0,0E0,0E0,0E0,0E0,0E0,0E0,0E0],"parents":[2147483647,0,0,1,1,2,2,3,3,4,4,5,5,6,6,7,7,8,8,9,9,10,10,11,11,12,12,13,13,14,14,15,15,16,16,17,17,18,18,19,19,20,20,21,21,22,22,23,23,24,24,25,25,26,26,27,27,28,28,29,29,30,30,31,31,32,32,33,33,34,34,35,35,36,36,37,37,38,38,39,39,40,40,41,41,42,42,43,43,44,44,45,45,46,46,47,47,48,48,49,49,50,50,51,51,52,52,53,53,54,54,55,55,56,56,57,57,58,58,59,59,60,60,61,61,62,62],"right_children":[2,4,6,8,10,12,14,16,18,20,22,24,26,28,30,32,34,36,38,40,42,44,46,48,50,52,54,56,58,60,62,64,66,68,70,72,74,76,78,80,82,84,86,88,90,92,94,96,98,100,102,104,106,108,110,112,114,116,118,120,122,124,126,-1,-1,-1,-1,-1,-1,-1,-1,-1,-1,-1,-1,-1,-1,-1,-1,-1,-1,-1,-1,-1,-1,-1,-1,-1,-1,-1,-1,-1,-1,-1,-1,-1,-1,-1,-1,-1,-1,-1,-1,-1,-1,-1,-1,-1,-1,-1,-1,-1,-1,-1,-1,-1,-1,-1,-1,-1,-1,-1,-1,-1,-1,-1,-1],"split_conditions":[1.1907992E1,1.7154297E1,3.4426913E0,2.78026E0,1.4069195E1,8.883092E0,5.456692E0,5.927565E0,1.6903828E1,3.1764438E2,1.6722715E1,2.3409007E2,1.2125638E1,1.1828583E1,6.8070693E0,1.249834E2,9.532914E0,2.7651458E0,1.4463844E1,3.9636164E0,3.148136E2,7.128658E0,1.6289133E1,2.5542683E2,2.3276477E2,2.3822043E2,1.5957065E2,8.727238E0,2.0653587E2,1.1910438E1,8.233577E0,6.556455E1,2.2757712E2,1.5747741E0,2.9340244E2,5.0903645E0,1.6875786E1,1.8549237E2,1.4969156E2,1.7501507E1,4.915956E1,3.3806992E2,3.294377E2,1.722441E1,1.8625664E1,2.7747488E1,4.804017E0,5.7582808E0,1.1988745E1,1.1273155E1,6.672938E0,2.0344095E2,2.9203E2,2.3635267E1,1.50818615E1,1.6064014E1,2.1202188E2,1.4772755E1,3.2539496E2,2.315172E2,1.5678018E2,1.4309553E1,9.780962E0,6.7143387E-1,-1.0798926E0,1.09858E-1,-7.121207E-1,2.3109607E-1,9.1866285E-1,1.6605285E0,-1.8507884E-1,-2.7147925E-1,9.147828E-1,1.9519822E-3,-1.697561E-1,1.2369498E0,5.0240177E-1,-1.6338573E-1,-8.9193696E-1,1.8909749E0,3.2289538E-1,-7.5885914E-2,1.480273E0,1.4776739E0,1.0604401E-1,-8.026878E-1,-1.6967257E0,9.5114803E-1,1.4063279E-3,-3.8807085E-1,2.3036623E-1,1.3470535E-1,-4.3366098E-1,-4.1478133E-1,-1.5644662E0,-1.3655508E0,-4.8442218E-1,-1.6079876E0,1.1962494E0,-1.61809E-1,9.5965624E-1,1.1458569E-1,-7.0158476E-1,5.4052866E-1,-9.6749157E-1,1.5804055E0,6.131342E-1,1.5060439E0,7.7310175E-2,1.5121508E0,1.9390831E0,-5.803887E-1,-8.046E-2,6.475896E-1,-1.2779126E-1,1.3831419E0,1.8796017E0,-5.7112854E-2,1.1847119E0,-9.219565E-1,-6.173532E-2,3.0612043E-1,1.3544687E0,-4.247832E-1,1.0180326E0,-1.3594341E-2,-4.3504778E-1],"split_indices":[10,6,1,6,0,7,7,0,7,11,0,11,7,1,1,12,0,7,1,10,12,10,3,12,12,11,11,1,11,7,7,11,12,3,12,1,3,12,12,3,11,11,11,3,6,12,10,7,11,0,0,12,11,11,7,0,11,1,11,11,11,1,1,0,0,0,0,0,0,0,0,0,0,0,0,0,0,0,0,0,0,0,0,0,0,0,0,0,0,0,0,0,0,0,0,0,0,0,0,0,0,0,0,0,0,0,0,0,0,0,0,0,0,0,0,0,0,0,0,0,0,0,0,0,0,0,0],"split_type":[0,0,0,0,0,0,0,0,0,0,0,0,0,0,0,0,0,0,0,0,0,0,0,0,0,0,0,0,0,0,0,0,0,0,0,0,0,0,0,0,0,0,0,0,0,0,0,0,0,0,0,0,0,0,0,0,0,0,0,0,0,0,0,0,0,0,0,0,0,0,0,0,0,0,0,0,0,0,0,0,0,0,0,0,0,0,0,0,0,0,0,0,0,0,0,0,0,0,0,0,0,0,0,0,0,0,0,0,0,0,0,0,0,0,0,0,0,0,0,0,0,0,0,0,0,0,0],"sum_hessian":[3.07306E5,1.56016E5,1.5129E5,1.44283E5,1.1733E4,2.2132E4,1.29158E5,1.1126E4,1.33157E5,4.859E3,6.874E3,1.5127E4,7.005E3,3.6905E4,9.2253E4,6.493E3,4.633E3,1.22013E5,1.1144E4,4.628E3,2.31E2,2.811E3,4.063E3,3.277E3,1.185E4,2.659E3,4.346E3,2.4972E4,1.1933E4,1.5313E4,7.694E4,1.236E3,5.257E3,2.545E3,2.088E3,9.698E3,1.12315E5,5.205E3,5.939E3,7.41E2,3.887E3,1.09E2,1.22E2,8.78E2,1.933E3,2.923E3,1.14E3,3.011E3,2.66E2,2.093E3,9.757E3,1.203E3,1.456E3,1.016E3,3.33E3,1.6355E4,8.617E3,6.083E3,5.85E3,6.886E3,8.427E3,1.1382E4,6.5558E4,1.61E2,1.075E3,3.768E3,1.489E3,4.43E2,2.102E3,1.924E3,1.64E2,4.918E3,4.78E3,9.5506E4,1.6809E4,3.727E3,1.478E3,4.565E3,1.374E3,6.3E1,6.78E2,2.41E2,3.646E3,5.3E1,5.6E1,3.6E1,8.6E1,5.58E2,3.2E2,1.035E3,8.98E2,7E2,2.223E3,4.02E2,7.38E2,2.015E3,9.96E2,2.7E1,2.39E2,8.17E2,1.276E3,2.584E3,7.173E3,1.078E3,1.25E2,5.24E2,9.32E2,4.6E2,5.56E2,1.701E3,1.629E3,1.3516E4,2.839E3,2.62E3,5.997E3,2.627E3,3.456E3,3.872E3,1.978E3,3.122E3,3.764E3,4.124E3,4.303E3,7.384E3,3.998E3,1.3565E4,5.1993E4],"tree_param":{"num_deleted":"0","num_feature":"13","num_nodes":"127","size_leaf_vector":"1"}},{"base_weights":[-1.2463587E-2,7.562066E-1,-9.0824604E-1,3.2485065E0,5.9247756E-1,3.798415E-2,-2.0555406E0,-1.4552737E0,8.988092E0,3.866788E-1,2.7209988E0,5.0808277E0,-4.4624317E-1,-1.1816043E0,-3.2182457E0,-3.185354E0,1.5162009E0,1.0606809E1,3.8271565E0,1.4184941E-1,1.8918897E0,9.355788E0,-2.8919744E0,2.7377126E0,6.9795184E0,-1.1246701E0,4.1009245E0,-1.6273049E0,1.9097519E0,-2.3734636E0,-6.263789E0,-7.8024673E0,-1.7656258E0,6.2010007E0,-1.0199063E0,2.475179E0,1.169075E1,-2.4507034E0,1.1666639E1,-1.5363957E-1,2.6026902E0,4.6588764E0,-2.3558176E0,3.3128843E0,1.1297588E1,-1.642956E-1,-4.6644125E0,4.685113E0,8.929567E-1,7.721224E0,-3.464912E0,-1.599666E0,4.7164865E0,2.3772836E0,6.907191E0,1.4597617E0,-2.2505045E0,1.4284069E1,-4.906335E0,1.1340876E0,-3.1854637E0,-4.5080457E0,-9.19246E0,-4.2512942E-2,-1.0827707E0,-3.1139773E-1,3.4706166E-1,-1.2015857E-1,7.644412E-1,-2.3795274E-1,4.9654427E-1,1.1759671E0,8.591869E-2,7.992834E-1,1.3549343E0,-3.8054055E-1,1.5505536E-1,7.45516E-1,1.5182506E0,1.0741564E-1,-6.766062E-2,7.7500373E-1,-3.9995626E-1,2.2210708E-1,1.3613118E0,2.6382026E-1,-4.6638355E-1,1.353558E0,-2.993177E-1,1.4989197E0,6.853152E-1,4.939066E-1,-2.0611916E-1,-2.1222058E-1,-8.453973E-1,5.4689165E-2,6.592641E-1,2.5522083E-1,-1.2196749E-1,-7.9439305E-2,8.6285895E-1,-8.744753E-1,6.527718E-1,2.6517E-1,-2.3683296E-1,1.0479646E0,-2.5318035E-1,1.266492E-1,5.3090507E-1,2.6887807E-1,8.438172E-1,-5.232045E-1,1.2153652E0,4.765353E-2,-3.1106484E-1,1.925443E0,1.0207084E0,-2.2971904E-1,-1.4455965E0,4.1124502E-1,-1.4866787E-1,-4.3872768E-1,1.21541254E-1,-5.883428E-1,2.3584543E-1,-7.1660566E-1,-1.0699155E0],"categories":[],"categories_nodes":[],"categories_segments":[],"categories_sizes":[],"default_left":[0,0,0,0,0,0,0,0,0,0,0,0,0,0,0,0,0,0,0,0,0,0,0,0,0,0,0,0,0,0,0,0,0,0,0,0,0,0,0,0,0,0,0,0,0,0,0,0,0,0,0,0,0,0,0,0,0,0,0,0,0,0,0,0,0,0,0,0,0,0,0,0,0,0,0,0,0,0,0,0,0,0,0,0,0,0,0,0,0,0,0,0,0,0,0,0,0,0,0,0,0,0,0,0,0,0,0,0,0,0,0,0,0,0,0,0,0,0,0,0,0,0,0,0,0,0,0],"id":6,"left_children":[1,3,5,7,9,11,13,15,17,19,21,23,25,27,29,31,33,35,37,39,41,43,45,47,49,51,53,55,57,59,61,63,65,67,69,71,73,75,77,79,81,83,85,87,89,91,93,95,97,99,101,103,105,107,109,111,113,115,117,119,121,123,125,-1,-1,-1,-1,-1,-1,-1,-1,-1,-1,-1,-1,-1,-1,-1,-1,-1,-1,-1,-1,-1,-1,-1,-1,-1,-1,-1,-1,-1,-1,-1,-1,-1,-1,-1,-1,-1,-1,-1,-1,-1,-1,-1,-1,-1,-1,-1,-1,-1,-1,-1,-1,-1,-1,-1,-1,-1,-1,-1,-1,-1,-1,-1,-1],"loss_changes":[2.114131E5,6.742701E4,1.539323E5,2.7501212E5,6.792121E4,1.8975364E5,6.511797E4,2.8788668E4,3.8288E4,5.2104016E4,5.091101E5,3.0268672E4,2.1872552E5,5.041615E4,7.073769E4,2.3184531E4,2.4493385E4,3.0750312E4,5.4017633E4,8.842855E4,2.3249225E5,7.347675E4,3.5804586E4,1.0949281E4,2.9154312E4,1.7118466E5,4.4508125E4,6.1526367E4,3.8898222E5,6.132389E4,3.0661438E4,1.8564152E4,1.9130084E4,7.7451055E3,1.0900201E4,6.1714062E3,2.1067188E4,3.312412E3,7.112625E3,6.971505E4,4.4308153E5,2.6143395E5,8.995192E4,9.834956E4,7.76835E4,2.8258016E4,4.322839E4,1.1702859E4,5.496054E3,2.7135594E4,1.3246955E4,1.8646114E5,1.938535E5,1.856882E4,2.2594297E4,3.844917E5,6.2414438E4,3.2996E4,7.406806E4,3.1603148E4,9.247347E4,3.5287438E4,6.7532812E3,0E0,0E0,0E0,0E0,0E0,0E0,0E0,0E0,0E0,0E0,0E0,0E0,0E0,0E0,0E0,0E0,0E0,0E0,0E0,0E0,0E0,0E0,0E0,0E0,0E0,0E0,0E0,0E0,0E0,0E0,0E0,0E0,0E0,0E0,0E0,0E0,0E0,0E0,0E0,0E0,0E0,0E0,0E0,0E0,0E0,0E0,0E0,0E0,0E0,0E0,0E0,0E0,0E0,0E0,0E0,0E0,0E0,0E0,0E0,0E0,0E0,0E0,0E0,0E0],"parents":[2147483647,0,0,1,1,2,2,3,3,4,4,5,5,6,6,7,7,8,8,9,9,10,10,11,11,12,12,13,13,14,14,15,15,16,16,17,17,18,18,19,19,20,20,21,21,22,22,23,23,24,24,25,25,26,26,27,27,28,28,29,29,30,30,31,31,32,32,33,33,34,34,35,35,36,36,37,37,38,38,39,39,40,40,41,41,42,42,43,43,44,44,45,45,46,46,47,47,48,48,49,49,50,50,51,51,52,52,53,53,54,54,55,55,56,56,57,57,58,58,59,59,60,60,61,61,62,62],"right_children":[2,4,6,8,10,12,14,16,18,20,22,24,26,28,30,32,34,36,38,40,42,44,46,48,50,52,54,56,58,60,62,64,66,68,70,72,74,76,78,80,82,84,86,88,90,92,94,96,98,100,102,104,106,108,110,112,114,116,118,120,122,124,126,-1,-1,-1,-1,-1,-1,-1,-1,-1,-1,-1,-1,-1,-1,-1,-1,-1,-1,-1,-1,-1,-1,-1,-1,-1,-1,-1,-1,-1,-1,-1,-1,-1,-1,-1,-1,-1,-1,-1,-1,-1,-1,-1,-1,-1,-1,-1,-1,-1,-1,-1,-1,-1,-1,-1,-1,-1,-1,-1,-1,-1,-1,-1,-1],"split_conditions":[1.2321243E1,2.4426844E0,1.3339528E1,5.456692E0,1.6974154E1,3.5167494E0,1.6586042E1,3.266854E0,2.2385664E2,1.6739815E1,1.4472953E1,1.5030442E1,1.57727165E1,1.6974154E1,1.9094563E1,3.2097638E0,7.8206253E0,3.2960236E0,3.148136E2,1.4693784E1,1.2755639E1,1.4023796E2,1.6739815E1,9.946602E0,2.9340244E2,1.6903828E1,1.6448984E1,3.4426913E0,1.3577149E1,3.5167494E0,1.946494E1,4.804017E0,1.3062077E1,1.2084638E0,1.2565466E1,9.299971E-1,7.7995872E0,2.948216E2,7.00974E0,8.132483E0,1.1910438E1,9.412211E0,9.480351E0,3.9995598E1,1.7763449E1,6.790375E0,1.4465788E1,1.16624245E2,2.2703538E0,7.401875E1,8.66308E0,4.6172137E0,1.3412636E1,1.827574E1,5.437412E0,5.833153E0,3.8287575E0,7.72791E0,7.687718E0,1.6600069E1,1.6744562E1,1.7739367E1,2.0301899E1,-4.2512942E-2,-1.0827707E0,-3.1139773E-1,3.4706166E-1,-1.2015857E-1,7.644412E-1,-2.3795274E-1,4.9654427E-1,1.1759671E0,8.591869E-2,7.992834E-1,1.3549343E0,-3.8054055E-1,1.5505536E-1,7.45516E-1,1.5182506E0,1.0741564E-1,-6.766062E-2,7.7500373E-1,-3.9995626E-1,2.2210708E-1,1.3613118E0,2.6382026E-1,-4.6638355E-1,1.353558E0,-2.993177E-1,1.4989197E0,6.853152E-1,4.939066E-1,-2.0611916E-1,-2.1222058E-1,-8.453973E-1,5.4689165E-2,6.592641E-1,2.5522083E-1,-1.2196749E-1,-7.9439305E-2,8.6285895E-1,-8.744753E-1,6.527718E-1,2.6517E-1,-2.3683296E-1,1.0479646E0,-2.5318035E-1,1.266492E-1,5.3090507E-1,2.6887807E-1,8.438172E-1,-5.232045E-1,1.2153652E0,4.765353E-2,-3.1106484E-1,1.925443E0,1.0207084E0,-2.2971904E-1,-1.4455965E0,4.1124502E-1,-1.4866787E-1,-4.3872768E-1,1.21541254E-1,-5.883428E-1,2.3584543E-1,-7.1660566E-1,-1.0699155E0],"split_indices":[9,1,10,7,1,6,9,7,12,7,7,9,6,1,10,4,9,9,12,1,1,12,7,10,12,7,9,1,7,6,9,10,10,4,10,1,7,12,7,10,7,4,10,12,4,9,4,12,6,12,1,7,1,6,10,7,7,7,4,10,6,1,10,0,0,0,0,0,0,0,0,0,0,0,0,0,0,0,0,0,0,0,0,0,0,0,0,0,0,0,0,0,0,0,0,0,0,0,0,0,0,0,0,0,0,0,0,0,0,0,0,0,0,0,0,0,0,0,0,0,0,0,0,0,0,0,0],"split_type":[0,0,0,0,0,0,0,0,0,0,0,0,0,0,0,0,0,0,0,0,0,0,0,0,0,0,0,0,0,0,0,0,0,0,0,0,0,0,0,0,0,0,0,0,0,0,0,0,0,0,0,0,0,0,0,0,0,0,0,0,0,0,0,0,0,0,0,0,0,0,0,0,0,0,0,0,0,0,0,0,0,0,0,0,0,0,0,0,0,0,0,0,0,0,0,0,0,0,0,0,0,0,0,0,0,0,0,0,0,0,0,0,0,0,0,0,0,0,0,0,0,0,0,0,0,0,0],"sum_hessian":[3.07034E5,1.65241E5,1.41793E5,1.0185E4,1.55056E5,7.7706E4,6.4087E4,5.598E3,4.587E3,1.41387E5,1.3669E4,6.807E3,7.0899E4,3.6588E4,2.7499E4,3.538E3,2.06E3,3.491E3,1.096E3,1.21608E5,1.9779E4,6.264E3,7.405E3,3.048E3,3.759E3,6.1695E4,9.204E3,3.1978E4,4.61E3,2.1529E4,5.97E3,8.31E2,2.707E3,7.23E2,1.337E3,4.11E2,3.08E3,6.09E2,4.87E2,1.08572E5,1.3036E4,1.1977E4,7.802E3,1.524E3,4.74E3,2.917E3,4.488E3,1.482E3,1.566E3,3.51E3,2.49E2,5.7056E4,4.639E3,5.703E3,3.501E3,5.371E3,2.6607E4,1.637E3,2.973E3,4.047E3,1.7482E4,3.734E3,2.236E3,2.42E2,5.89E2,2.153E3,5.54E2,1.18E2,6.05E2,1.09E3,2.47E2,6E1,3.51E2,1.032E3,2.048E3,4.55E2,1.54E2,2.23E2,2.64E2,3.2431E4,7.6141E4,7.325E3,5.711E3,9.415E3,2.562E3,2.466E3,5.336E3,5.81E2,9.43E2,2.588E3,2.152E3,7.9E2,2.127E3,2.687E3,1.801E3,4.68E2,1.014E3,8.77E2,6.89E2,3.38E2,3.172E3,1.63E2,8.6E1,8.736E3,4.832E4,2.584E3,2.055E3,4.137E3,1.566E3,9.33E2,2.568E3,3.304E3,2.067E3,6.38E3,2.0227E4,7.36E2,9.01E2,2.336E3,6.37E2,1.894E3,2.153E3,1.3732E4,3.75E3,3.111E3,6.23E2,9.56E2,1.28E3],"tree_param":{"num_deleted":"0","num_feature":"13","num_nodes":"127","size_leaf_vector":"1"}},{"base_weights":[2.5191972E-2,7.2528E-1,-7.921576E-1,2.442518E0,5.040091E-1,6.534845E-1,-1.1201468E0,-3.5184698E0,9.490235E0,2.6119752E0,1.4321305E-1,-4.0427995E0,1.0781237E1,1.369965E0,-2.1979787E0,-2.1839201E0,-8.459719E0,5.455482E0,1.208171E1,1.0762362E1,7.698195E-1,-7.534565E-2,2.6758618E0,-9.602706E0,-2.6509864E0,4.5905037E0,1.2999135E1,-2.9836605E0,8.364367E0,1.4938985E0,-3.160563E0,-8.218022E0,1.1727927E-1,1.3842074E1,-9.908142E0,9.583602E0,3.565891E0,3.6971524E0,1.4494853E1,1.1065863E0,1.54355E1,-2.1513097E0,1.018067E1,1.669468E0,-4.122219E-1,1.3070477E1,-2.6428306E0,-1.0856428E1,3.854966E0,6.099892E0,-3.925616E0,9.942924E0,-2.4972858E-1,8.758345E0,1.6233515E1,3.9539597E0,-3.6768792E0,1.4663518E1,2.5414534E0,-5.1992183E0,5.923784E0,-4.471399E-2,-3.884555E0,-9.7922724E-1,1.3448465E0,1.0038849E0,-1.4012915E-1,1.9524376E0,7.020013E-1,-1.1730807E0,6.4819324E-1,1.2215065E0,5.4516244E-1,4.2863175E-1,-3.858518E-1,6.6487235E-1,-3.781214E-1,1.1875904E0,1.6631079E0,-1.8635869E-1,1.2259834E0,-1.1218318E0,1.5940197E0,-1.1123115E-1,-5.335478E-1,1.5658076E-1,1.5010904E0,-4.5995212E-1,6.061499E-1,1.8704125E-1,-9.966313E-2,-5.0114256E-1,1.3886787E0,2.0563178E-1,-4.9259517E-1,-1.3459843E0,-4.8286787E-1,-1.6063131E0,8.0910224E-1,8.701625E-1,-5.9852344E-1,-2.8659245E-1,-1.1631395E0,1.5480801E-1,1.6444136E0,-4.3396363E-1,5.8151555E-1,9.6255445E-1,2.2665346E-1,1.7041683E0,1.1845125E0,-3.133922E-1,1.1008843E0,-4.5254955E-1,1.8714713E-1,1.1299217E0,1.6357201E0,-9.910872E-2,9.7443783E-1,-1.0445704E0,-2.0874754E-2,1.448451E-1,1.1801068E0,-5.2575296E-1,7.677905E-1,-6.87317E-1,-3.1727582E-1],"categories":[],"categories_nodes":[],"categories_segments":[],"categories_sizes":[],"default_left":[0,0,0,0,0,0,0,0,0,0,0,0,0,0,0,0,0,0,0,0,0,0,0,0,0,0,0,0,0,0,0,0,0,0,0,0,0,0,0,0,0,0,0,0,0,0,0,0,0,0,0,0,0,0,0,0,0,0,0,0,0,0,0,0,0,0,0,0,0,0,0,0,0,0,0,0,0,0,0,0,0,0,0,0,0,0,0,0,0,0,0,0,0,0,0,0,0,0,0,0,0,0,0,0,0,0,0,0,0,0,0,0,0,0,0,0,0,0,0,0,0,0,0,0,0,0,0],"id":7,"left_children":[1,3,5,7,9,11,13,15,17,19,21,23,25,27,29,31,33,35,37,39,41,43,45,47,49,51,53,55,57,59,61,63,65,67,69,71,73,75,77,79,81,83,85,87,89,91,93,95,97,99,101,103,105,107,109,111,113,115,117,119,121,123,125,-1,-1,-1,-1,-1,-1,-1,-1,-1,-1,-1,-1,-1,-1,-1,-1,-1,-1,-1,-1,-1,-1,-1,-1,-1,-1,-1,-1,-1,-1,-1,-1,-1,-1,-1,-1,-1,-1,-1,-1,-1,-1,-1,-1,-1,-1,-1,-1,-1,-1,-1,-1,-1,-1,-1,-1,-1,-1,-1,-1,-1,-1,-1,-1],"loss_changes":[1.7564305E5,6.282228E4,6.714865E4,7.928716E5,1.11392984E5,1.2456658E6,3.098028E5,6.7408695E4,9.035725E4,3.2137238E5,6.9225516E4,1.3843684E5,1.13861625E5,1.0618514E6,2.8629072E5,1.1180838E5,7.036261E4,2.636257E4,1.06473875E5,1.780374E5,4.800027E5,6.767077E4,5.4929856E5,6.047797E4,1.5966186E5,5.673871E4,8.3637125E4,1.0338059E5,4.9066006E5,4.940251E5,1.4414631E5,7.595484E4,8.785238E4,5.0186875E3,6.1077938E4,1.14806875E4,1.2441654E4,2.6027047E4,2.26735E4,4.2690516E4,3.5947875E4,4.4077758E4,1.7208288E5,5.1300628E5,1.2872819E5,4.9708938E4,7.053003E4,5.1360125E4,2.5948469E4,5.7277008E4,1.0198134E5,5.673429E4,2.8575578E4,1.4868734E4,1.2083375E4,9.7692664E4,9.201572E4,3.6430875E4,1.7692614E5,1.7374444E5,2.636948E5,4.8509197E5,1.1028006E5,0E0,0E0,0E0,0E0,0E0,0E0,0E0,0E0,0E0,0E0,0E0,0E0,0E0,0E0,0E0,0E0,0E0,0E0,0E0,0E0,0E0,0E0,0E0,0E0,0E0,0E0,0E0,0E0,0E0,0E0,0E0,0E0,0E0,0E0,0E0,0E0,0E0,0E0,0E0,0E0,0E0,0E0,0E0,0E0,0E0,0E0,0E0,0E0,0E0,0E0,0E0,0E0,0E0,0E0,0E0,0E0,0E0,0E0,0E0,0E0,0E0,0E0,0E0,0E0],"parents":[2147483647,0,0,1,1,2,2,3,3,4,4,5,5,6,6,7,7,8,8,9,9,10,10,11,11,12,12,13,13,14,14,15,15,16,16,17,17,18,18,19,19,20,20,21,21,22,22,23,23,24,24,25,25,26,26,27,27,28,28,29,29,30,30,31,31,32,32,33,33,34,34,35,35,36,36,37,37,38,38,39,39,40,40,41,41,42,42,43,43,44,44,45,45,46,46,47,47,48,48,49,49,50,50,51,51,52,52,53,53,54,54,55,55,56,56,57,57,58,58,59,59,60,60,61,61,62,62],"right_children":[2,4,6,8,10,12,14,16,18,20,22,24,26,28,30,32,34,36,38,40,42,44,46,48,50,52,54,56,58,60,62,64,66,68,70,72,74,76,78,80,82,84,86,88,90,92,94,96,98,100,102,104,106,108,110,112,114,116,118,120,122,124,126,-1,-1,-1,-1,-1,-1,-1,-1,-1,-1,-1,-1,-1,-1,-1,-1,-1,-1,-1,-1,-1,-1,-1,-1,-1,-1,-1,-1,-1,-1,-1,-1,-1,-1,-1,-1,-1,-1,-1,-1,-1,-1,-1,-1,-1,-1,-1,-1,-1,-1,-1,-1,-1,-1,-1,-1,-1,-1,-1,-1,-1,-1,-1,-1],"split_conditions":[1.2321243E1,3.8470423E0,4.2247944E0,5.920552E0,3.6798077E0,9.502062E0,5.851695E0,2.327803E2,8.587044E0,1.1246458E2,1.755933E1,2.2887936E2,1.6551384E2,1.1478255E1,7.9457917E0,1.3142488E2,2.1339325E2,1.5737246E0,4.5291376E0,7.323229E0,2.4388445E2,6.672938E0,1.350363E1,2.4535994E2,2.2257707E2,3.061699E1,1.282589E1,1.5818916E2,2.0213583E2,1.2185879E1,9.710425E0,1.4828201E2,1.2765099E2,2.0045415E2,3.0056702E2,1.0461308E1,2.788993E2,3.048517E2,1.0979923E1,1.249834E2,4.9134766E1,2.0213583E2,7.466233E0,8.369369E0,7.5133896E0,3.9995598E1,1.601721E1,6.733685E0,2.3445768E1,3.4102362E2,3.160688E2,5.0479702E1,1.3402278E2,1.6579006E1,1.8887401E2,3.1941025E1,1.6909664E1,1.3947593E1,3.238954E2,2.3017122E2,1.5676445E2,1.4547626E1,5.170314E1,-9.7922724E-1,1.3448465E0,1.0038849E0,-1.4012915E-1,1.9524376E0,7.020013E-1,-1.1730807E0,6.4819324E-1,1.2215065E0,5.4516244E-1,4.2863175E-1,-3.858518E-1,6.6487235E-1,-3.781214E-1,1.1875904E0,1.6631079E0,-1.8635869E-1,1.2259834E0,-1.1218318E0,1.5940197E0,-1.1123115E-1,-5.335478E-1,1.5658076E-1,1.5010904E0,-4.5995212E-1,6.061499E-1,1.8704125E-1,-9.966313E-2,-5.0114256E-1,1.3886787E0,2.0563178E-1,-4.9259517E-1,-1.3459843E0,-4.8286787E-1,-1.6063131E0,8.0910224E-1,8.701625E-1,-5.9852344E-1,-2.8659245E-1,-1.1631395E0,1.5480801E-1,1.6444136E0,-4.3396363E-1,5.8151555E-1,9.6255445E-1,2.2665346E-1,1.7041683E0,1.1845125E0,-3.133922E-1,1.1008843E0,-4.5254955E-1,1.8714713E-1,1.1299217E0,1.6357201E0,-9.910872E-2,9.7443783E-1,-1.0445704E0,-2.0874754E-2,1.448451E-1,1.1801068E0,-5.2575296E-1,7.677905E-1,-6.87317E-1,-3.1727582E-1],"split_indices":[9,0,7,6,6,1,1,11,6,11,0,12,12,7,7,11,12,0,9,0,11,0,6,11,11,12,1,12,12,1,1,12,12,12,12,9,11,11,6,12,12,12,0,6,6,12,6,1,12,12,12,11,12,6,11,12,6,7,12,12,12,7,12,0,0,0,0,0,0,0,0,0,0,0,0,0,0,0,0,0,0,0,0,0,0,0,0,0,0,0,0,0,0,0,0,0,0,0,0,0,0,0,0,0,0,0,0,0,0,0,0,0,0,0,0,0,0,0,0,0,0,0,0,0,0,0,0],"split_type":[0,0,0,0,0,0,0,0,0,0,0,0,0,0,0,0,0,0,0,0,0,0,0,0,0,0,0,0,0,0,0,0,0,0,0,0,0,0,0,0,0,0,0,0,0,0,0,0,0,0,0,0,0,0,0,0,0,0,0,0,0,0,0,0,0,0,0,0,0,0,0,0,0,0,0,0,0,0,0,0,0,0,0,0,0,0,0,0,0,0,0,0,0,0,0,0,0,0,0,0,0,0,0,0,0,0,0,0,0,0,0,0,0,0,0,0,0,0,0,0,0,0,0,0,0,0,0],"sum_hessian":[3.0695E5,1.65335E5,1.41615E5,1.8871E4,1.46464E5,2.6188E4,1.15427E5,1.0224E4,8.647E3,2.1404E4,1.2506E5,1.7892E4,8.296E3,3.4869E4,8.0558E4,8.051E3,2.173E3,3.383E3,5.264E3,3.945E3,1.7459E4,1.15126E5,9.934E3,3.581E3,1.4311E4,2.189E3,6.107E3,2.1492E4,1.3377E4,1.666E4,6.3898E4,2.222E3,5.829E3,1.32E2,2.041E3,1.061E3,2.322E3,1.177E3,4.087E3,1.287E3,2.658E3,1.3324E4,4.135E3,1.863E4,9.6496E4,3.362E3,6.572E3,3.276E3,3.05E2,1.819E3,1.2492E4,1.039E3,1.15E3,2.644E3,3.463E3,1.952E3,1.954E4,6.425E3,6.952E3,6.635E3,1.0025E4,1.2048E4,5.185E4,2.072E3,1.5E2,7.73E2,5.056E3,7.1E1,6.1E1,1.837E3,2.04E2,6.47E2,4.14E2,2.117E3,2.05E2,8.44E2,3.33E2,1.839E3,2.248E3,1.017E3,2.7E2,4.9E1,2.609E3,1.0047E4,3.277E3,1.486E3,2.649E3,7.675E3,1.0955E4,1.9669E4,7.6827E4,1.45E2,3.217E3,2.149E3,4.423E3,2.287E3,9.89E2,5.3E1,2.52E2,1.497E3,3.22E2,1.0983E4,1.509E3,4.54E2,5.85E2,6.87E2,4.63E2,2.332E3,3.12E2,2.922E3,5.41E2,9.74E2,9.78E2,1.6948E4,2.592E3,2.154E3,4.271E3,4.665E3,2.287E3,3.234E3,3.401E3,5.692E3,4.333E3,7.193E3,4.855E3,9.972E3,4.1878E4],"tree_param":{"num_deleted":"0","num_feature":"13","num_nodes":"127","size_leaf_vector":"1"}},{"base_weights":[1.4197485E-2,3.801734E-1,-1.4184697E0,2.3949273E-1,2.4163232E0,-6.4767563E-1,-4.0416403E0,1.0892539E0,-1.6374147E-1,1.1900344E1,-1.4254668E0,-1.468525E0,4.034532E0,-2.901697E0,-5.3998084E0,9.0323293E-1,6.3471627E0,2.3196776E0,-4.3030623E-1,5.4961915E0,1.4647557E1,2.2686834E0,-3.9492588E0,3.2071915E0,-2.7741518E0,1.179477E1,-2.113766E0,1.9332727E0,-3.4609036E0,-4.0993066E0,-8.016433E0,4.691518E0,7.7170694E-1,1.0225775E1,1.003976E0,-3.8077817E0,1.3045104E1,-8.580047E-1,1.6165465E0,4.1860948E0,1.9255562E1,1.629101E1,7.933105E0,7.031068E0,-6.3780594E-1,-2.8163629E0,-9.270027E0,-2.9463089E0,1.1348455E1,-3.319613E0,3.854103E0,2.9519703E0,1.49696865E1,2.0385652E0,-4.944097E0,-5.1855774E0,1.1048807E1,-4.177292E0,9.3911666E-1,-5.071107E0,5.5887306E-1,5.2304983E0,-8.289001E0,-3.4072265E-2,1.1005877E0,6.44863E-2,4.4579324E-1,4.1335607E-1,1.1706389E0,3.460572E-1,-2.7094254E-1,-5.63596E-1,1.9586872E-1,3.5570797E-1,1.477241E0,-1.6226628E-1,1.453859E-1,1.2161587E0,-4.5968863E-1,8.722498E-1,5.130275E-2,1.9493672E0,-4.4207582E-1,1.8478664E0,1.2583574E0,1.971218E-1,1.1127359E0,8.259577E-1,-6.1414824E-3,-3.1435883E-1,5.4818076E-1,-9.477353E-1,-1.5224417E-1,-3.2057938E-1,-1.3710616E0,-5.950953E-1,7.6976255E-2,3.4169042E-1,1.5380954E0,1.6287763E-1,-4.27291E-1,9.769649E-1,-3.3271953E-1,1.36055E-1,8.574519E-1,1.843796E0,9.7029763E-1,6.652026E-1,2.5985849E-3,3.752379E-1,-6.186463E-1,-8.339273E-1,1.1352687E-1,8.3418655E-1,1.7511784E0,-8.568179E-2,-4.6794316E-1,1.1424654E0,-5.5918425E-1,5.3298183E-2,-6.506176E-1,1.0390373E0,-4.9087635E-1,1.0642635E0,-1.7961977E-1,-8.561675E-1,2.6619643E-1],"categories":[],"categories_nodes":[],"categories_segments":[],"categories_sizes":[],"default_left":[0,0,0,0,0,0,0,0,0,0,0,0,0,0,0,0,0,0,0,0,0,0,0,0,0,0,0,0,0,0,0,0,0,0,0,0,0,0,0,0,0,0,0,0,0,0,0,0,0,0,0,0,0,0,0,0,0,0,0,0,0,0,0,0,0,0,0,0,0,0,0,0,0,0,0,0,0,0,0,0,0,0,0,0,0,0,0,0,0,0,0,0,0,0,0,0,0,0,0,0,0,0,0,0,0,0,0,0,0,0,0,0,0,0,0,0,0,0,0,0,0,0,0,0,0,0,0],"id":8,"left_children":[1,3,5,7,9,11,13,15,17,19,21,23,25,27,29,31,33,35,37,39,41,43,45,47,49,51,53,55,57,59,61,63,65,67,69,71,73,75,77,79,81,83,85,87,89,91,93,95,97,99,101,103,105,107,109,111,113,115,117,119,121,123,125,-1,-1,-1,-1,-1,-1,-1,-1,-1,-1,-1,-1,-1,-1,-1,-1,-1,-1,-1,-1,-1,-1,-1,-1,-1,-1,-1,-1,-1,-1,-1,-1,-1,-1,-1,-1,-1,-1,-1,-1,-1,-1,-1,-1,-1,-1,-1,-1,-1,-1,-1,-1,-1,-1,-1,-1,-1,-1,-1,-1,-1,-1,-1,-1],"loss_changes":[1.6128031E5,7.018178E4,1.2654558E5,7.852831E4,5.769385E5,1.8592978E5,2.1990938E4,7.2130695E4,1.028911E5,8.0234125E4,1.0508219E5,2.5128E5,3.4431656E5,2.0906668E4,2.203511E4,3.548927E4,5.22146E4,9.9018144E5,1.22877555E5,2.465121E4,3.5116188E4,6.3330812E4,4.0336555E4,4.501574E5,1.1634375E5,8.951559E4,4.733728E4,5.2100773E4,2.1844984E4,1.9622086E4,7.813578E3,7.5946875E4,3.218736E4,1.3121125E4,9.688166E3,1.0109956E5,8.9724875E4,2.05244E5,1.5895931E6,2.089032E4,7.570508E2,2.0571062E4,1.1975645E4,1.5109164E4,4.359765E4,4.757856E4,3.1597352E4,5.7149453E4,1.2366141E5,1.4025184E5,1.0398425E5,7.540311E3,4.2692312E4,1.5162162E4,2.5899285E4,8.999712E3,6.012125E3,9.93168E3,6.6558555E4,2.8842992E4,4.031355E4,1.6924116E3,6.320328E3,0E0,0E0,0E0,0E0,0E0,0E0,0E0,0E0,0E0,0E0,0E0,0E0,0E0,0E0,0E0,0E0,0E0,0E0,0E0,0E0,0E0,0E0,0E0,0E0,0E0,0E0,0E0,0E0,0E0,0E0,0E0,0E0,0E0,0E0,0E0,0E0,0E0,0E0,0E0,0E0,0E0,0E0,0E0,0E0,0E0,0E0,0E0,0E0,0E0,0E0,0E0,0E0,0E0,0E0,0E0,0E0,0E0,0E0,0E0,0E0,0E0,0E0,0E0,0E0],"parents":[2147483647,0,0,1,1,2,2,3,3,4,4,5,5,6,6,7,7,8,8,9,9,10,10,11,11,12,12,13,13,14,14,15,15,16,16,17,17,18,18,19,19,20,20,21,21,22,22,23,23,24,24,25,25,26,26,27,27,28,28,29,29,30,30,31,31,32,32,33,33,34,34,35,35,36,36,37,37,38,38,39,39,40,40,41,41,42,42,43,43,44,44,45,45,46,46,47,47,48,48,49,49,50,50,51,51,52,52,53,53,54,54,55,55,56,56,57,57,58,58,59,59,60,60,61,61,62,62],"right_children":[2,4,6,8,10,12,14,16,18,20,22,24,26,28,30,32,34,36,38,40,42,44,46,48,50,52,54,56,58,60,62,64,66,68,70,72,74,76,78,80,82,84,86,88,90,92,94,96,98,100,102,104,106,108,110,112,114,116,118,120,122,124,126,-1,-1,-1,-1,-1,-1,-1,-1,-1,-1,-1,-1,-1,-1,-1,-1,-1,-1,-1,-1,-1,-1,-1,-1,-1,-1,-1,-1,-1,-1,-1,-1,-1,-1,-1,-1,-1,-1,-1,-1,-1,-1,-1,-1,-1,-1,-1,-1,-1,-1,-1,-1,-1,-1,-1,-1,-1,-1,-1,-1,-1,-1,-1,-1],"split_conditions":[1.6183739E1,1.7907541E1,1.7030548E1,9.004404E0,1.1836586E1,1.57727165E1,1.865138E1,1.791977E1,3.116972E0,7.678717E0,1.5536049E1,4.9505043E0,1.0367771E1,1.5726933E0,1.992254E1,1.5584207E0,1.5462407E1,7.7256713E0,1.5589906E1,1.05935135E1,1.8325362E2,1.0733691E1,1.4422943E2,1.0510605E1,1.7319782E1,5.437412E0,1.664336E1,3.429261E0,1.8164461E1,1.7743198E1,1.7884474E1,4.0865903E0,1.827574E1,4.0786295E0,1.7058958E1,5.4016633E0,4.8261476E0,1.5077403E1,1.1903738E1,9.304096E0,1.8546024E1,9.927136E0,3.855791E0,1.7460944E2,1.2018252E1,3.7601994E1,7.407836E0,3.199892E0,6.7049513E0,4.2247944E0,1.3560384E1,1.8010626E1,5.1697307E0,8.175138E1,3.7491028E0,1.947902E1,1.2555859E1,1.9233942E0,1.5843553E1,2.1695216E0,1.6080318E1,1.8190044E1,3.3806992E2,-3.4072265E-2,1.1005877E0,6.44863E-2,4.4579324E-1,4.1335607E-1,1.1706389E0,3.460572E-1,-2.7094254E-1,-5.63596E-1,1.9586872E-1,3.5570797E-1,1.477241E0,-1.6226628E-1,1.453859E-1,1.2161587E0,-4.5968863E-1,8.722498E-1,5.130275E-2,1.9493672E0,-4.4207582E-1,1.8478664E0,1.2583574E0,1.971218E-1,1.1127359E0,8.259577E-1,-6.1414824E-3,-3.1435883E-1,5.4818076E-1,-9.477353E-1,-1.5224417E-1,-3.2057938E-1,-1.3710616E0,-5.950953E-1,7.6976255E-2,3.4169042E-1,1.5380954E0,1.6287763E-1,-4.27291E-1,9.769649E-1,-3.3271953E-1,1.36055E-1,8.574519E-1,1.843796E0,9.7029763E-1,6.652026E-1,2.5985849E-3,3.752379E-1,-6.186463E-1,-8.339273E-1,1.1352687E-1,8.3418655E-1,1.7511784E0,-8.568179E-2,-4.6794316E-1,1.1424654E0,-5.5918425E-1,5.3298183E-2,-6.506176E-1,1.0390373E0,-4.9087635E-1,1.0642635E0,-1.7961977E-1,-8.561675E-1,2.6619643E-1],"split_indices":[9,1,10,10,7,6,9,7,0,10,7,6,0,1,10,7,1,6,0,4,11,9,11,0,7,10,0,7,1,7,11,1,6,10,1,6,9,6,6,7,4,7,9,11,10,11,10,0,10,7,1,6,0,11,7,10,7,0,7,7,1,6,11,0,0,0,0,0,0,0,0,0,0,0,0,0,0,0,0,0,0,0,0,0,0,0,0,0,0,0,0,0,0,0,0,0,0,0,0,0,0,0,0,0,0,0,0,0,0,0,0,0,0,0,0,0,0,0,0,0,0,0,0,0,0,0,0],"split_type":[0,0,0,0,0,0,0,0,0,0,0,0,0,0,0,0,0,0,0,0,0,0,0,0,0,0,0,0,0,0,0,0,0,0,0,0,0,0,0,0,0,0,0,0,0,0,0,0,0,0,0,0,0,0,0,0,0,0,0,0,0,0,0,0,0,0,0,0,0,0,0,0,0,0,0,0,0,0,0,0,0,0,0,0,0,0,0,0,0,0,0,0,0,0,0,0,0,0,0,0,0,0,0,0,0,0,0,0,0,0,0,0,0,0,0,0,0,0,0,0,0,0,0,0,0,0,0],"sum_hessian":[3.07596E5,2.45009E5,6.2587E4,2.29176E5,1.5833E4,4.8374E4,1.4213E4,7.3752E4,1.55424E5,4.564E3,1.1269E4,4.1159E4,7.215E3,7.729E3,6.484E3,7.1233E4,2.519E3,1.5065E4,1.40359E5,1.371E3,3.193E3,4.574E3,6.695E3,8.984E3,3.2175E4,3.189E3,4.026E3,8.01E2,6.928E3,4.333E3,2.151E3,2.389E3,6.8844E4,1.459E3,1.06E3,9.588E3,5.477E3,1.161E5,2.4259E4,1.253E3,1.18E2,2.564E3,6.29E2,1.733E3,2.841E3,5.521E3,1.174E3,5.117E3,3.867E3,2.9729E4,2.446E3,8.43E2,2.346E3,1.632E3,2.394E3,4.5E2,3.51E2,5.958E3,9.7E2,3.585E3,7.48E2,4.3E1,2.108E3,1.33E3,1.059E3,6.6555E4,2.289E3,2.86E2,1.173E3,6.38E2,4.22E2,7.28E3,2.308E3,8.44E2,4.633E3,8.7244E4,2.8856E4,8.994E3,1.5265E4,5.6E2,6.93E2,1.17E2,1E0,1.61E3,9.54E2,2.2E2,4.09E2,1.477E3,2.56E2,2.016E3,8.25E2,8.97E2,4.624E3,4.97E2,6.77E2,2.829E3,2.288E3,1.304E3,2.563E3,4.802E3,2.4927E4,1.341E3,1.105E3,6.58E2,1.85E2,1.413E3,9.33E2,4.95E2,1.137E3,2.99E2,2.095E3,3E2,1.5E2,2.49E2,1.02E2,7.83E2,5.175E3,3.72E2,5.98E2,7.31E2,2.854E3,2.67E2,4.81E2,2.4E1,1.9E1,2.057E3,5.1E1],"tree_param":{"num_deleted":"0","num_feature":"13","num_nodes":"127","size_leaf_vector":"1"}},{"base_weights":[-9.832463E-4,2.9232857E-1,-1.4156643E0,2.461294E0,1.2922953E-1,1.0978633E0,-2.0544314E0,-2.2311816E0,1.0459863E1,2.459432E0,3.5713878E-3,-2.892475E0,9.917462E0,-3.1438189E0,9.178334E-1,-4.237637E0,9.817096E-1,6.5534897E0,1.4348856E1,-1.9835141E0,9.411534E0,-1.4881857E-1,2.1076894E0,-7.5715165E0,-1.0637642E0,4.206938E0,1.3430869E1,3.9084864E-1,-4.0528526E0,8.38299E0,-4.1214495E0,-1.1433642E1,-3.3805609E0,7.3641376E0,-1.0853944E0,1.1493286E1,4.4132843E0,3.7716804E0,1.5125514E1,2.955412E0,-3.4687524E0,1.3133356E1,3.6307952E0,-3.0014968E-1,2.2683358E0,9.831077E0,-2.139916E0,-9.627531E0,-2.5182362E0,2.7819877E0,-6.582707E0,1.0789075E1,1.1162277E0,9.597121E0,1.6196474E1,-6.276587E0,8.913555E0,-5.4891534E0,-7.4287705E-2,1.1549938E1,2.6897826E0,-2.017936E0,-1.0423312E1,-1.296079E0,1.2270623E0,-1.8438838E-1,-9.059605E-1,-8.227784E-1,8.3616394E-1,-1.3146333E-1,1.5326757E0,9.925906E-1,1.9186281E0,-2.0746432E-1,1.0121809E0,7.374255E-1,-3.9292896E-1,1.2671431E0,1.9509509E0,-1.2489305E-2,7.748719E-1,-4.730719E-1,2.3058757E-2,8.470597E-1,1.4383311E0,-1.0182859E-1,1.4249651E0,3.855515E-2,-6.3060254E-2,1.0613539E0,-2.9035136E-1,3.4747002E-1,1.3564799E0,1.2621208E-1,-4.3795395E-1,-1.0736293E0,5.680947E-1,-9.916267E-1,1.947025E-1,-1.00139104E-1,1.0493253E0,4.5373026E-1,-8.960566E-1,4.969975E-1,1.6817133E0,-5.235705E-1,4.257415E-1,3.620163E-1,1.1017882E0,1.7477934E0,1.1645654E0,-7.973887E-1,-8.598958E-2,-3.361059E-1,1.0231265E0,-4.3249127E-1,-9.854682E-1,8.163778E-1,-7.402578E-1,1.6503798E0,8.384208E-1,5.490865E-1,-5.2266294E-1,-8.9937204E-1,1.6580187E-1,5.79247E-1,-1.1917444E0],"categories":[],"categories_nodes":[],"categories_segments":[],"categories_sizes":[],"default_left":[0,0,0,0,0,0,0,0,0,0,0,0,0,0,0,0,0,0,0,0,0,0,0,0,0,0,0,0,0,0,0,0,0,0,0,0,0,0,0,0,0,0,0,0,0,0,0,0,0,0,0,0,0,0,0,0,0,0,0,0,0,0,0,0,0,0,0,0,0,0,0,0,0,0,0,0,0,0,0,0,0,0,0,0,0,0,0,0,0,0,0,0,0,0,0,0,0,0,0,0,0,0,0,0,0,0,0,0,0,0,0,0,0,0,0,0,0,0,0,0,0,0,0,0,0,0,0],"id":9,"left_children":[1,3,5,7,9,11,13,15,17,19,21,23,25,27,29,31,33,35,37,39,41,43,45,47,49,51,53,55,57,59,61,63,65,67,69,71,73,75,77,79,81,83,85,87,89,91,93,95,97,99,101,103,105,107,109,111,113,115,117,119,121,123,125,-1,-1,-1,-1,-1,-1,-1,-1,-1,-1,-1,-1,-1,-1,-1,-1,-1,-1,-1,-1,-1,-1,-1,-1,-1,-1,-1,-1,-1,-1,-1,-1,-1,-1,-1,-1,-1,-1,-1,-1,-1,-1,-1,-1,-1,-1,-1,-1,-1,-1,-1,-1,-1,-1,-1,-1,-1,-1,-1,-1,-1,-1,-1,-1],"loss_changes":[1.2756916E5,9.008086E4,8.476933E4,6.6845006E5,6.9347086E4,3.7656056E5,1.3631405E5,7.2366375E4,9.9944375E4,3.7431722E5,7.205502E4,6.302852E4,6.681478E4,9.898853E4,4.2482866E5,4.2578938E4,5.6949598E4,3.4700016E4,2.7043688E4,5.4248812E4,1.01610125E5,7.664919E4,4.9788338E5,2.1482258E4,1.1246563E5,2.5844512E4,2.1717781E4,3.5822138E5,1.4003134E5,8.202394E4,8.9351266E4,2.676596E4,5.388035E4,1.6492727E4,1.2289019E4,1.1783E4,8.501976E4,6.32671E3,3.281425E4,2.5248855E4,2.6541195E4,1.6628531E4,9.144391E4,4.4683484E4,5.328858E5,1.2775472E5,7.461354E4,2.5028922E4,1.9839787E4,9.112289E4,5.7578047E4,1.4158039E4,1.7301248E4,7.3225234E3,6.777E3,3.2511422E4,4.478892E4,9.146825E4,3.925319E5,4.57175E4,3.6128812E4,1.2966425E5,4.094253E4,0E0,0E0,0E0,0E0,0E0,0E0,0E0,0E0,0E0,0E0,0E0,0E0,0E0,0E0,0E0,0E0,0E0,0E0,0E0,0E0,0E0,0E0,0E0,0E0,0E0,0E0,0E0,0E0,0E0,0E0,0E0,0E0,0E0,0E0,0E0,0E0,0E0,0E0,0E0,0E0,0E0,0E0,0E0,0E0,0E0,0E0,0E0,0E0,0E0,0E0,0E0,0E0,0E0,0E0,0E0,0E0,0E0,0E0,0E0,0E0,0E0,0E0,0E0,0E0],"parents":[2147483647,0,0,1,1,2,2,3,3,4,4,5,5,6,6,7,7,8,8,9,9,10,10,11,11,12,12,13,13,14,14,15,15,16,16,17,17,18,18,19,19,20,20,21,21,22,22,23,23,24,24,25,25,26,26,27,27,28,28,29,29,30,30,31,31,32,32,33,33,34,34,35,35,36,36,37,37,38,38,39,39,40,40,41,41,42,42,43,43,44,44,45,45,46,46,47,47,48,48,49,49,50,50,51,51,52,52,53,53,54,54,55,55,56,56,57,57,58,58,59,59,60,60,61,61,62,62],"right_children":[2,4,6,8,10,12,14,16,18,20,22,24,26,28,30,32,34,36,38,40,42,44,46,48,50,52,54,56,58,60,62,64,66,68,70,72,74,76,78,80,82,84,86,88,90,92,94,96,98,100,102,104,106,108,110,112,114,116,118,120,122,124,126,-1,-1,-1,-1,-1,-1,-1,-1,-1,-1,-1,-1,-1,-1,-1,-1,-1,-1,-1,-1,-1,-1,-1,-1,-1,-1,-1,-1,-1,-1,-1,-1,-1,-1,-1,-1,-1,-1,-1,-1,-1,-1,-1,-1,-1,-1,-1,-1,-1,-1,-1,-1,-1,-1,-1,-1,-1,-1,-1,-1,-1,-1,-1,-1],"split_conditions":[1.6741957E1,2.1822498E0,4.5544014E0,7.323229E0,1.6490537E0,1.1910438E1,1.5304377E1,4.2424493E0,1.0367771E1,6.733685E0,1.8005232E1,2.4099553E2,1.6574828E2,4.5554814E0,1.1549762E1,1.1522076E2,9.183468E0,1.22324196E2,3.5881927E0,8.327118E0,2.2257707E2,1.827574E1,1.2611084E1,7.0819E0,2.9203E2,1.4867926E1,1.5688216E1,7.9435806E0,1.5202432E1,1.9180707E2,1.2094557E2,1.3266693E2,2.2629713E2,8.449441E1,3.0211725E2,1.5109882E2,2.1877861E2,2.9201263E2,2.4535994E2,3.4426913E0,4.9422836E0,1.8711574E2,3.2669464E2,7.940528E0,1.3116694E1,1.3391904E2,1.5843646E1,2.5993323E2,1.803643E2,3.266854E0,2.8033514E2,5.0435307E1,1.6739815E1,1.8325362E2,2.1688328E1,4.5626454E0,7.1376625E1,2.0101782E1,1.350363E1,4.306225E0,5.073983E0,6.556455E1,1.0792464E2,-1.296079E0,1.2270623E0,-1.8438838E-1,-9.059605E-1,-8.227784E-1,8.3616394E-1,-1.3146333E-1,1.5326757E0,9.925906E-1,1.9186281E0,-2.0746432E-1,1.0121809E0,7.374255E-1,-3.9292896E-1,1.2671431E0,1.9509509E0,-1.2489305E-2,7.748719E-1,-4.730719E-1,2.3058757E-2,8.470597E-1,1.4383311E0,-1.0182859E-1,1.4249651E0,3.855515E-2,-6.3060254E-2,1.0613539E0,-2.9035136E-1,3.4747002E-1,1.3564799E0,1.2621208E-1,-4.3795395E-1,-1.0736293E0,5.680947E-1,-9.916267E-1,1.947025E-1,-1.00139104E-1,1.0493253E0,4.5373026E-1,-8.960566E-1,4.969975E-1,1.6817133E0,-5.235705E-1,4.257415E-1,3.620163E-1,1.1017882E0,1.7477934E0,1.1645654E0,-7.973887E-1,-8.598958E-2,-3.361059E-1,1.0231265E0,-4.3249127E-1,-9.854682E-1,8.163778E-1,-7.402578E-1,1.6503798E0,8.384208E-1,5.490865E-1,-5.2266294E-1,-8.9937204E-1,1.6580187E-1,5.79247E-1,-1.1917444E0],"split_indices":[10,6,1,0,7,7,1,0,0,1,7,11,11,0,7,12,10,11,10,10,11,6,1,7,11,11,7,6,0,11,11,11,12,12,11,12,11,12,11,1,1,12,11,10,0,11,1,12,11,7,12,12,7,11,10,6,11,10,6,7,7,11,12,0,0,0,0,0,0,0,0,0,0,0,0,0,0,0,0,0,0,0,0,0,0,0,0,0,0,0,0,0,0,0,0,0,0,0,0,0,0,0,0,0,0,0,0,0,0,0,0,0,0,0,0,0,0,0,0,0,0,0,0,0,0,0,0],"split_type":[0,0,0,0,0,0,0,0,0,0,0,0,0,0,0,0,0,0,0,0,0,0,0,0,0,0,0,0,0,0,0,0,0,0,0,0,0,0,0,0,0,0,0,0,0,0,0,0,0,0,0,0,0,0,0,0,0,0,0,0,0,0,0,0,0,0,0,0,0,0,0,0,0,0,0,0,0,0,0,0,0,0,0,0,0,0,0,0,0,0,0,0,0,0,0,0,0,0,0,0,0,0,0,0,0,0,0,0,0,0,0,0,0,0,0,0,0,0,0,0,0,0,0,0,0,0,0],"sum_hessian":[3.07436E5,2.54641E5,5.2795E4,1.7808E4,2.36833E5,1.0698E4,4.2097E4,1.1224E4,6.584E3,1.2117E4,2.24716E5,7.366E3,3.332E3,3.0806E4,1.1291E4,6.909E3,4.315E3,3.286E3,3.298E3,7.393E3,4.724E3,2.09541E5,1.5175E4,2.069E3,5.297E3,1.27E3,2.062E3,6.302E3,2.4504E4,4.55E3,6.741E3,7.34E2,6.175E3,1.055E3,3.26E3,9.92E2,2.294E3,2.26E2,3.072E3,1.709E3,5.684E3,2.873E3,1.851E3,1.97196E5,1.2345E4,5.384E3,9.791E3,1.47E3,5.99E2,3.122E3,2.175E3,4.05E2,8.65E2,8.66E2,1.196E3,3.536E3,2.766E3,1.8004E4,6.5E3,2.923E3,1.627E3,5.055E3,1.686E3,6.9E2,4.4E1,4.861E3,1.314E3,6.3E1,9.92E2,3.216E3,4.4E1,8.26E2,1.66E2,1.074E3,1.22E3,1.54E2,7.2E1,1.972E3,1.1E3,1.041E3,6.68E2,4.238E3,1.446E3,6.09E2,2.264E3,1.288E3,5.63E2,6.4128E4,1.33068E5,4.723E3,7.622E3,1.993E3,3.391E3,3.887E3,5.904E3,1.371E3,9.9E1,2.25E2,3.74E2,2.095E3,1.027E3,3.83E2,1.792E3,2.07E2,1.98E2,2.86E2,5.79E2,1.67E2,6.99E2,9.31E2,2.65E2,2.692E3,8.44E2,2.68E2,2.498E3,1.4215E4,3.789E3,3.06E3,3.44E3,1.138E3,1.785E3,1.202E3,4.25E2,1.744E3,3.311E3,1.42E2,1.544E3],"tree_param":{"num_deleted":"0","num_feature":"13","num_nodes":"127","size_leaf_vector":"1"}},{"base_weights":[-8.016159E-3,4.1123196E-1,-1.0216118E0,3.4912531E0,3.1311333E-1,-3.0094427E-1,-2.5501673E0,-3.5845807E-1,1.034526E1,1.9189604E-1,3.010264E0,-9.7133535E-1,3.4574687E0,-1.6420171E0,-3.5079618E0,-2.6596057E0,2.9505422E0,1.2940299E1,4.5961895E0,9.817294E-1,-1.0026313E-1,9.327547E0,-1.8920722E0,2.7903178E0,-2.099986E0,2.288447E0,6.4484377E0,2.8392737E0,-2.0088074E0,-2.639447E0,-5.319576E0,-3.6084878E0,2.7477787E0,8.029631E0,4.9814954E-1,1.5061471E1,1.0427375E1,-2.4847934E0,1.2521922E1,8.637698E-1,5.7301316E0,-2.889121E-1,1.0865597E0,2.8817637E0,1.2479029E1,2.5647707E0,-3.0451283E0,7.2570286E0,2.001232E0,-2.733635E0,2.0982473E0,1.6940289E0,6.7402434E0,5.27054E0,1.163493E1,-3.7750602E0,1.0888731E1,-2.6973045E0,1.0797368E0,-3.2834287E0,2.0960026E0,-3.911041E0,-7.2009254E0,2.6355538E-1,-4.8111206E-1,-9.274077E-1,4.3544522E-1,7.011656E-1,1.4813083E0,-1.5175897E-1,5.6687796E-1,1.238351E0,1.7927732E0,5.726584E-1,1.2955774E0,3.1772238E-1,-4.4466278E-1,1.0429512E0,1.6797999E0,5.2097327E-1,7.485811E-2,1.0273585E0,1.8893825E-1,-1.0017412E-1,1.819846E-1,9.1556865E-1,-4.340879E-1,1.0555779E0,-3.5806417E-1,1.4515365E0,8.903062E-1,7.3703367E-1,-1.3790725E-1,-4.106322E-1,4.3850455E-1,-5.0752896E-1,7.656848E-1,3.564948E-1,-2.5598843E-2,1.2449312E-1,-3.6411357E-1,6.856789E-1,-5.298499E-1,7.9671043E-1,1.1940407E-1,8.3501875E-1,2.6779229E-2,8.9858323E-1,4.4061175E-1,1.333925E0,8.238559E-1,-8.151414E-1,5.851843E-2,7.175254E-1,1.5904837E0,-3.578861E-1,1.1211176E-1,1.0980014E0,-4.0702724E-1,7.7753E-2,-4.43356E-1,1.039337E0,-4.0003783E-1,1.9240633E-1,-4.929692E-1,-6.2261146E-1,-9.0023357E-1],"categories":[],"categories_nodes":[],"categories_segments":[],"categories_sizes":[],"default_left":[0,0,0,0,0,0,0,0,0,0,0,0,0,0,0,0,0,0,0,0,0,0,0,0,0,0,0,0,0,0,0,0,0,0,0,0,0,0,0,0,0,0,0,0,0,0,0,0,0,0,0,0,0,0,0,0,0,0,0,0,0,0,0,0,0,0,0,0,0,0,0,0,0,0,0,0,0,0,0,0,0,0,0,0,0,0,0,0,0,0,0,0,0,0,0,0,0,0,0,0,0,0,0,0,0,0,0,0,0,0,0,0,0,0,0,0,0,0,0,0,0,0,0,0,0,0,0],"id":10,"left_children":[1,3,5,7,9,11,13,15,17,19,21,23,25,27,29,31,33,35,37,39,41,43,45,47,49,51,53,55,57,59,61,63,65,67,69,71,73,75,77,79,81,83,85,87,89,91,93,95,97,99,101,103,105,107,109,111,113,115,117,119,121,123,125,-1,-1,-1,-1,-1,-1,-1,-1,-1,-1,-1,-1,-1,-1,-1,-1,-1,-1,-1,-1,-1,-1,-1,-1,-1,-1,-1,-1,-1,-1,-1,-1,-1,-1,-1,-1,-1,-1,-1,-1,-1,-1,-1,-1,-1,-1,-1,-1,-1,-1,-1,-1,-1,-1,-1,-1,-1,-1,-1,-1,-1,-1,-1,-1],"loss_changes":[1.3054362E5,6.5672516E4,9.9015875E4,1.77027E5,6.885489E4,1.5391856E5,2.504511E4,3.2727346E4,3.5940234E4,4.6508727E4,2.8053888E5,2.2010162E5,3.2317438E4,2.430771E4,2.2038922E4,1.3016928E4,2.1955781E4,8.701969E3,4.223484E4,3.0477867E4,3.2941E4,8.036597E4,2.6221795E4,4.215753E4,1.0608675E5,1.7586E4,1.5810273E4,5.9618688E4,2.9065152E4,2.8904352E4,1.2005242E4,1.6210209E4,7.3608433E3,3.8598281E3,1.2411547E4,6.6784844E3,9.006305E3,4.435088E3,3.0010977E3,2.65803E4,2.2997492E4,1.9082955E5,8.8377275E5,6.4557766E4,1.9225969E4,1.9891229E4,3.1975309E4,8.894391E3,3.589748E4,1.25102875E5,1.8412044E5,1.8395254E4,8.1568438E3,6.765758E3,2.668586E3,1.1740181E4,9.292605E3,3.7624164E4,1.2710309E5,3.896589E4,5.7454312E4,1.5457766E4,3.3559375E3,0E0,0E0,0E0,0E0,0E0,0E0,0E0,0E0,0E0,0E0,0E0,0E0,0E0,0E0,0E0,0E0,0E0,0E0,0E0,0E0,0E0,0E0,0E0,0E0,0E0,0E0,0E0,0E0,0E0,0E0,0E0,0E0,0E0,0E0,0E0,0E0,0E0,0E0,0E0,0E0,0E0,0E0,0E0,0E0,0E0,0E0,0E0,0E0,0E0,0E0,0E0,0E0,0E0,0E0,0E0,0E0,0E0,0E0,0E0,0E0,0E0,0E0,0E0,0E0],"parents":[2147483647,0,0,1,1,2,2,3,3,4,4,5,5,6,6,7,7,8,8,9,9,10,10,11,11,12,12,13,13,14,14,15,15,16,16,17,17,18,18,19,19,20,20,21,21,22,22,23,23,24,24,25,25,26,26,27,27,28,28,29,29,30,30,31,31,32,32,33,33,34,34,35,35,36,36,37,37,38,38,39,39,40,40,41,41,42,42,43,43,44,44,45,45,46,46,47,47,48,48,49,49,50,50,51,51,52,52,53,53,54,54,55,55,56,56,57,57,58,58,59,59,60,60,61,61,62,62],"right_children":[2,4,6,8,10,12,14,16,18,20,22,24,26,28,30,32,34,36,38,40,42,44,46,48,50,52,54,56,58,60,62,64,66,68,70,72,74,76,78,80,82,84,86,88,90,92,94,96,98,100,102,104,106,108,110,112,114,116,118,120,122,124,126,-1,-1,-1,-1,-1,-1,-1,-1,-1,-1,-1,-1,-1,-1,-1,-1,-1,-1,-1,-1,-1,-1,-1,-1,-1,-1,-1,-1,-1,-1,-1,-1,-1,-1,-1,-1,-1,-1,-1,-1,-1,-1,-1,-1,-1,-1,-1,-1,-1,-1,-1,-1,-1,-1,-1,-1,-1,-1,-1,-1,-1,-1,-1,-1],"split_conditions":[1.4732883E1,1.2068952E0,1.5481736E1,6.425454E0,1.8429253E1,1.5380601E1,1.7556717E1,3.507444E0,2.2254912E2,8.132483E0,1.4319526E1,5.4016633E0,1.809776E1,1.6604706E0,1.9094563E1,1.4350157E1,9.261779E0,1.3729863E1,3.122967E2,1.8448126E1,1.5226328E1,1.3151611E2,7.0814085E0,1.4795051E0,1.5843553E1,1.6085423E1,1.946494E1,3.8287575E0,1.6889687E1,1.8005232E1,1.9752583E1,6.0348334E0,1.8863875E2,3.2938715E2,1.1571915E1,8.667096E0,1.0702984E1,2.4383824E2,9.507585E0,1.5584207E0,1.5462407E1,1.4547626E1,1.1762565E1,5.0435307E1,1.1693441E1,1.7235907E1,1.4929932E1,8.153076E1,1.2290383E1,4.7715487E0,1.4463844E1,2.7651458E0,1.808322E1,3.732688E1,1.8870804E1,1.7575542E1,1.0702984E1,1.7319782E1,1.4396488E1,3.1003451E0,1.648098E1,1.7440317E0,2.1340715E1,2.6355538E-1,-4.8111206E-1,-9.274077E-1,4.3544522E-1,7.011656E-1,1.4813083E0,-1.5175897E-1,5.6687796E-1,1.238351E0,1.7927732E0,5.726584E-1,1.2955774E0,3.1772238E-1,-4.4466278E-1,1.0429512E0,1.6797999E0,5.2097327E-1,7.485811E-2,1.0273585E0,1.8893825E-1,-1.0017412E-1,1.819846E-1,9.1556865E-1,-4.340879E-1,1.0555779E0,-3.5806417E-1,1.4515365E0,8.903062E-1,7.3703367E-1,-1.3790725E-1,-4.106322E-1,4.3850455E-1,-5.0752896E-1,7.656848E-1,3.564948E-1,-2.5598843E-2,1.2449312E-1,-3.6411357E-1,6.856789E-1,-5.298499E-1,7.9671043E-1,1.1940407E-1,8.3501875E-1,2.6779229E-2,8.9858323E-1,4.4061175E-1,1.333925E0,8.238559E-1,-8.151414E-1,5.851843E-2,7.175254E-1,1.5904837E0,-3.578861E-1,1.1211176E-1,1.0980014E0,-4.0702724E-1,7.7753E-2,-4.43356E-1,1.039337E0,-4.0003783E-1,1.9240633E-1,-4.929692E-1,-6.2261146E-1,-9.0023357E-1],"split_indices":[9,1,10,7,1,6,9,7,12,10,7,6,6,1,10,10,9,10,12,7,1,12,9,6,7,7,9,7,1,7,9,9,12,12,10,7,7,12,7,7,1,7,7,12,7,7,10,12,10,7,1,7,1,12,3,10,7,7,7,7,1,1,10,0,0,0,0,0,0,0,0,0,0,0,0,0,0,0,0,0,0,0,0,0,0,0,0,0,0,0,0,0,0,0,0,0,0,0,0,0,0,0,0,0,0,0,0,0,0,0,0,0,0,0,0,0,0,0,0,0,0,0,0,0,0,0,0],"split_type":[0,0,0,0,0,0,0,0,0,0,0,0,0,0,0,0,0,0,0,0,0,0,0,0,0,0,0,0,0,0,0,0,0,0,0,0,0,0,0,0,0,0,0,0,0,0,0,0,0,0,0,0,0,0,0,0,0,0,0,0,0,0,0,0,0,0,0,0,0,0,0,0,0,0,0,0,0,0,0,0,0,0,0,0,0,0,0,0,0,0,0,0,0,0,0,0,0,0,0,0,0,0,0,0,0,0,0,0,0,0,0,0,0,0,0,0,0,0,0,0,0,0,0,0,0,0,0],"sum_hessian":[3.07197E5,2.17312E5,8.9885E4,6.708E3,2.10604E5,6.1086E4,2.8799E4,4.296E3,2.412E3,2.01547E5,9.057E3,5.184E4,9.246E3,1.4784E4,1.4015E4,2.534E3,1.762E3,1.661E3,7.51E2,5.4421E4,1.47126E5,3.957E3,5.1E3,1.1964E4,3.9876E4,6.649E3,2.597E3,1.118E3,1.3666E4,9.475E3,4.54E3,2.156E3,3.78E2,5.73E2,1.189E3,8.98E2,7.63E2,3.97E2,3.54E2,5.3103E4,1.318E3,1.26948E5,2.0178E4,1.3E3,2.657E3,1.048E3,4.052E3,1.795E3,1.0169E4,3.4647E4,5.229E3,5.867E3,7.82E2,2.118E3,4.79E2,6.14E2,5.04E2,1.1175E4,2.491E3,8.341E3,1.134E3,2.598E3,1.942E3,3.48E2,1.808E3,4.4E1,3.34E2,5E2,7.3E1,8.56E2,3.33E2,4.67E2,4.31E2,2.68E2,4.95E2,1.02E2,2.95E2,2.4E2,1.14E2,1.37E3,5.1733E4,6.03E2,7.15E2,9.4877E4,3.2071E4,8.114E3,1.2064E4,5.94E2,7.06E2,1.691E3,9.66E2,4.72E2,5.76E2,3.546E3,5.06E2,5.6E1,1.739E3,6.007E3,4.162E3,6.435E3,2.8212E4,3.182E3,2.047E3,4.32E2,5.435E3,6.26E2,1.56E2,3.98E2,1.72E3,3.17E2,1.62E2,3.06E2,3.08E2,2.91E2,2.13E2,9.079E3,2.096E3,8.52E2,1.639E3,1.841E3,6.5E3,4.8E2,6.54E2,3.86E2,2.212E3,1.263E3,6.79E2],"tree_param":{"num_deleted":"0","num_feature":"13","num_nodes":"127","size_leaf_vector":"1"}},{"base_weights":[2.2404457E-3,3.912746E-1,-9.5328015E-1,2.3563194E0,2.4894255E-1,-2.5950646E-1,-2.3053377E0,1.2865771E0,1.1208502E1,1.1472213E0,-1.5302359E-1,3.4732957E0,-9.241463E-1,-1.8581994E0,-3.5672727E0,1.1270778E1,1.4645632E-1,1.3057947E1,-3.3308074E0,3.830982E0,1.0420717E0,2.801021E0,-3.4491622E-1,-3.8998803E-1,8.942179E0,-2.0051537E0,2.475541E0,-2.226244E0,1.3298233E0,-2.7035701E0,-6.173306E0,2.599439E0,1.6084074E1,-1.0618596E1,1.1173068E0,1.0683213E1,1.860558E1,-1.1262136E1,5.2769594E0,-3.736285E-2,1.06355295E1,9.4189197E-1,3.2504745E0,-2.8585436E0,9.396466E0,-6.212908E-1,2.1316094E0,-8.238439E0,1.5322899E0,3.5427558E0,1.3059385E1,-1.252853E0,-3.6568272E0,5.7419515E0,-3.169698E0,4.8890325E-1,-2.8358479E0,1.036663E1,-4.6283956E0,-3.7642543E0,2.133298E0,5.2495365E0,-6.335575E0,1.0017111E0,-5.0473225E-1,1.2489331E0,1.8498166E0,-2.8444567E-1,-1.308024E0,8.9288867E-1,1.8758751E-2,3.7642238E-1,1.6382521E0,2.2780354E0,1.6489327E0,-1.3132609E0,1.3861256E0,1.2586554E0,-1.2356573E0,-2.9774937E-1,2.9145002E-1,6.1651057E-1,1.2429696E0,1.0520505E-1,-7.177786E-2,1.0991381E0,-2.7225936E-2,-1.0371597E0,-1.3739103E-1,3.1289873E-1,1.1210953E0,-8.770991E-2,2.361778E-1,9.69028E-1,-2.9772654E-1,-1.101449E0,-4.922791E-1,-2.0292282E-1,7.281467E-1,9.560319E-1,-1.2862104E-1,9.7212344E-1,1.4973615E0,-2.0526436E-1,2.0165852E-1,-3.006116E-1,-7.2755986E-1,1.0384958E0,1.01996E-1,-1.0531163E-1,-1.1047336E0,-4.9044567E-1,1.0773627E0,9.198717E-2,-3.6210892E-1,1.3347152E0,5.692053E-1,-6.9009745E-1,3.0002886E-2,2.2062616E-1,-5.304257E-1,8.0122536E-1,-3.5757312E-1,-4.6185976E-1,1.4109825E0,-1.4493723E-1,-6.7310166E-1],"categories":[],"categories_nodes":[],"categories_segments":[],"categories_sizes":[],"default_left":[0,0,0,0,0,0,0,0,0,0,0,0,0,0,0,0,0,0,0,0,0,0,0,0,0,0,0,0,0,0,0,0,0,0,0,0,0,0,0,0,0,0,0,0,0,0,0,0,0,0,0,0,0,0,0,0,0,0,0,0,0,0,0,0,0,0,0,0,0,0,0,0,0,0,0,0,0,0,0,0,0,0,0,0,0,0,0,0,0,0,0,0,0,0,0,0,0,0,0,0,0,0,0,0,0,0,0,0,0,0,0,0,0,0,0,0,0,0,0,0,0,0,0,0,0,0,0],"id":11,"left_children":[1,3,5,7,9,11,13,15,17,19,21,23,25,27,29,31,33,35,37,39,41,43,45,47,49,51,53,55,57,59,61,63,65,67,69,71,73,75,77,79,81,83,85,87,89,91,93,95,97,99,101,103,105,107,109,111,113,115,117,119,121,123,125,-1,-1,-1,-1,-1,-1,-1,-1,-1,-1,-1,-1,-1,-1,-1,-1,-1,-1,-1,-1,-1,-1,-1,-1,-1,-1,-1,-1,-1,-1,-1,-1,-1,-1,-1,-1,-1,-1,-1,-1,-1,-1,-1,-1,-1,-1,-1,-1,-1,-1,-1,-1,-1,-1,-1,-1,-1,-1,-1,-1,-1,-1,-1,-1],"loss_changes":[1.1408065E5,6.0998152E4,8.3292016E4,1.3947212E5,7.343109E4,1.4559888E5,1.6984344E4,1.4960769E5,4.2744234E4,1.7737703E4,7.9643016E4,1.8740752E5,1.8308311E5,2.6093219E4,1.7713156E4,5.617889E4,1.2330535E5,1.836361E4,1.2348216E4,6.2384332E4,1.3382008E4,3.1992222E5,9.029928E4,7.844944E4,8.158425E4,4.69615E4,2.2164456E5,3.2997094E4,1.2399519E5,3.0369676E4,3.6662734E3,2.7390162E4,7.2841406E3,1.8640664E4,7.859393E4,3.8938E4,3.3438594E3,4.599341E3,1.1369303E4,1.313112E4,6.8131406E3,1.0582219E4,7.158452E4,5.1439746E4,4.4976312E4,9.05691E4,5.1150178E5,9.361891E3,8.554219E4,4.6215484E4,1.3164781E4,6.791481E4,2.7830422E4,1.6692052E5,7.345253E4,2.0284827E5,4.8015414E4,1.267243E4,1.5547994E4,4.4642336E4,3.577338E4,2.513334E3,3.7252031E3,0E0,0E0,0E0,0E0,0E0,0E0,0E0,0E0,0E0,0E0,0E0,0E0,0E0,0E0,0E0,0E0,0E0,0E0,0E0,0E0,0E0,0E0,0E0,0E0,0E0,0E0,0E0,0E0,0E0,0E0,0E0,0E0,0E0,0E0,0E0,0E0,0E0,0E0,0E0,0E0,0E0,0E0,0E0,0E0,0E0,0E0,0E0,0E0,0E0,0E0,0E0,0E0,0E0,0E0,0E0,0E0,0E0,0E0,0E0,0E0,0E0,0E0,0E0,0E0],"parents":[2147483647,0,0,1,1,2,2,3,3,4,4,5,5,6,6,7,7,8,8,9,9,10,10,11,11,12,12,13,13,14,14,15,15,16,16,17,17,18,18,19,19,20,20,21,21,22,22,23,23,24,24,25,25,26,26,27,27,28,28,29,29,30,30,31,31,32,32,33,33,34,34,35,35,36,36,37,37,38,38,39,39,40,40,41,41,42,42,43,43,44,44,45,45,46,46,47,47,48,48,49,49,50,50,51,51,52,52,53,53,54,54,55,55,56,56,57,57,58,58,59,59,60,60,61,61,62,62],"right_children":[2,4,6,8,10,12,14,16,18,20,22,24,26,28,30,32,34,36,38,40,42,44,46,48,50,52,54,56,58,60,62,64,66,68,70,72,74,76,78,80,82,84,86,88,90,92,94,96,98,100,102,104,106,108,110,112,114,116,118,120,122,124,126,-1,-1,-1,-1,-1,-1,-1,-1,-1,-1,-1,-1,-1,-1,-1,-1,-1,-1,-1,-1,-1,-1,-1,-1,-1,-1,-1,-1,-1,-1,-1,-1,-1,-1,-1,-1,-1,-1,-1,-1,-1,-1,-1,-1,-1,-1,-1,-1,-1,-1,-1,-1,-1,-1,-1,-1,-1,-1,-1,-1,-1,-1,-1,-1],"split_conditions":[1.4815353E1,2.3578331E0,1.5214612E1,2.8909067E2,8.709802E0,4.706648E0,1.9094563E1,6.69939E1,2.8910056E2,1.8311394E0,2.3409534E0,1.1693441E1,1.43874855E1,1.8177065E1,1.9752583E1,8.739458E1,2.7111273E0,2.8541772E0,3.2810236E2,4.6964374E0,1.7995918E1,5.851695E0,1.6739815E1,2.0368214E2,1.5678018E2,1.8270496E1,1.4925472E1,2.6817977E0,1.5386661E1,1.7230553E1,1.7645971E1,4.1498444E1,9.596572E1,4.193269E0,1.0058571E2,3.1130148E2,2.4682321E2,3.499603E2,3.1995258E2,2.1695216E0,1.8600299E2,1.8429892E1,1.4852264E1,2.1865031E2,1.7705846E2,1.7323164E1,1.2972976E1,7.9457917E0,3.989669E0,3.0798437E1,1.8325362E2,1.7235907E1,2.9638116E2,1.8469704E2,1.22324196E2,5.476886E0,2.527531E0,1.2185879E1,1.8752846E1,2.776235E0,1.7492193E1,3.50451E1,5.7746154E-1,1.0017111E0,-5.0473225E-1,1.2489331E0,1.8498166E0,-2.8444567E-1,-1.308024E0,8.9288867E-1,1.8758751E-2,3.7642238E-1,1.6382521E0,2.2780354E0,1.6489327E0,-1.3132609E0,1.3861256E0,1.2586554E0,-1.2356573E0,-2.9774937E-1,2.9145002E-1,6.1651057E-1,1.2429696E0,1.0520505E-1,-7.177786E-2,1.0991381E0,-2.7225936E-2,-1.0371597E0,-1.3739103E-1,3.1289873E-1,1.1210953E0,-8.770991E-2,2.361778E-1,9.69028E-1,-2.9772654E-1,-1.101449E0,-4.922791E-1,-2.0292282E-1,7.281467E-1,9.560319E-1,-1.2862104E-1,9.7212344E-1,1.4973615E0,-2.0526436E-1,2.0165852E-1,-3.006116E-1,-7.2755986E-1,1.0384958E0,1.01996E-1,-1.0531163E-1,-1.1047336E0,-4.9044567E-1,1.0773627E0,9.198717E-2,-3.6210892E-1,1.3347152E0,5.692053E-1,-6.9009745E-1,3.0002886E-2,2.2062616E-1,-5.304257E-1,8.0122536E-1,-3.5757312E-1,-4.6185976E-1,1.4109825E0,-1.4493723E-1,-6.7310166E-1],"split_indices":[10,6,9,11,9,1,10,11,12,1,7,7,1,7,9,12,3,3,11,7,1,1,7,11,11,10,7,7,1,1,12,11,12,10,11,11,12,12,12,7,11,3,7,12,12,6,1,7,7,11,11,7,11,11,11,1,1,1,9,1,7,11,7,0,0,0,0,0,0,0,0,0,0,0,0,0,0,0,0,0,0,0,0,0,0,0,0,0,0,0,0,0,0,0,0,0,0,0,0,0,0,0,0,0,0,0,0,0,0,0,0,0,0,0,0,0,0,0,0,0,0,0,0,0,0,0,0],"split_type":[0,0,0,0,0,0,0,0,0,0,0,0,0,0,0,0,0,0,0,0,0,0,0,0,0,0,0,0,0,0,0,0,0,0,0,0,0,0,0,0,0,0,0,0,0,0,0,0,0,0,0,0,0,0,0,0,0,0,0,0,0,0,0,0,0,0,0,0,0,0,0,0,0,0,0,0,0,0,0,0,0,0,0,0,0,0,0,0,0,0,0,0,0,0,0,0,0,0,0,0,0,0,0,0,0,0,0,0,0,0,0,0,0,0,0,0,0,0,0,0,0,0,0,0,0,0,0],"sum_hessian":[3.06889E5,2.18094E5,8.8795E4,1.4729E4,2.03365E5,5.8684E4,3.0111E4,1.3142E4,1.587E3,6.2869E4,1.40496E5,8.869E3,4.9815E4,2.2235E4,7.876E3,1.346E3,1.1796E4,1.408E3,1.79E2,2.369E3,6.05E4,8.569E3,1.31927E5,5.198E3,3.671E3,3.7797E4,1.2018E4,1.9934E4,2.301E3,5.917E3,1.959E3,4.81E2,8.65E2,9.75E2,1.0821E4,9.88E2,4.2E2,9.3E1,8.6E1,1.511E3,8.58E2,5.7876E4,2.624E3,4.612E3,3.957E3,1.18683E5,1.3244E4,1.022E3,4.176E3,1.589E3,2.082E3,2.597E4,1.1827E4,7.613E3,4.405E3,3.655E3,1.6279E4,9.14E2,1.387E3,4.853E3,1.064E3,2.7E1,1.932E3,2.44E2,2.37E2,3.5E2,5.15E2,2.35E2,7.4E2,1.15E3,9.671E3,4.47E2,5.41E2,1.38E2,2.82E2,8.7E1,6E0,6.1E1,2.5E1,7.57E2,7.54E2,2.47E2,6.11E2,5.4274E4,3.602E3,8.2E2,1.804E3,7.6E2,3.852E3,8.89E2,3.068E3,1.0931E5,9.373E3,5.341E3,7.903E3,5.55E2,4.67E2,2.579E3,1.597E3,7.07E2,8.82E2,7.61E2,1.321E3,2.0866E4,5.104E3,1.0026E4,1.801E3,3.838E3,3.775E3,3.473E3,9.32E2,2.398E3,1.257E3,2.815E3,1.3464E4,5.57E2,3.57E2,9.49E2,4.38E2,9.95E2,3.858E3,5.24E2,5.4E2,1.3E1,1.4E1,1.45E2,1.787E3],"tree_param":{"num_deleted":"0","num_feature":"13","num_nodes":"127","size_leaf_vector":"1"}},{"base_weights":[-1.0662283E-2,6.057413E-1,-4.90174E-1,2.258301E0,4.4298968E-1,2.7221113E-1,-1.0337468E0,-1.7717265E0,7.403465E0,3.1149307E-1,2.8844013E0,3.0327892E0,-1.5544225E-1,-6.6405606E-1,-1.7556405E0,-5.6113834E0,-3.7033957E-1,3.2544024E0,9.652242E0,1.4657098E0,1.6617712E-2,7.5475507E0,-1.2563328E0,8.404273E0,1.8388178E0,-8.2712173E-1,2.574251E0,-9.2879957E-1,1.1147956E0,-2.2312186E0,5.195454E-1,1.4215618E0,-7.9017425E0,1.4481691E0,-6.0370126E0,5.0731907E0,-6.2383957E0,1.1696493E1,4.0533886E0,7.6159782E0,-1.2715499E0,2.9474099E0,-3.4166744E-1,8.778248E0,2.9316792E0,6.3686067E-1,-5.9770203E0,-9.46606E0,1.3283687E1,-6.1462336E0,3.2548816E0,2.6614265E0,-1.1801146E0,3.6427748E0,-9.975784E-1,-1.5221041E0,1.5233358E0,1.1098769E1,-3.8342156E0,9.929809E-2,-3.0227134E0,5.024698E0,-2.0036674E0,-1.4611321E-2,1.0268238E0,-9.534856E-1,-4.3079826E-1,-5.2775767E-2,9.0513194E-1,2.0339088E-1,-1.1082722E0,-3.783904E-1,7.9487634E-1,1.4028205E0,-7.5817543E-1,9.3044895E-1,1.3354783E0,-1.23640016E-1,1.1245247E0,-3.979085E-2,1.2585961E0,-2.393707E-1,3.5734305E-1,-2.6832277E-1,7.069265E-1,-1.8419974E-1,-2.7858908E-3,3.327135E-1,1.069594E0,-5.4899823E-2,9.8956865E-1,-1.5108146E-1,6.74415E-1,1.2509184E-1,-8.480379E-1,1.2016217E-2,-1.2256981E0,7.2005194E-1,1.5441903E0,7.1223E-1,-1.0429564E0,1.6119947E0,2.3865962E-1,-1.7526476E-1,7.323157E-1,-1.821549E-1,1.1103799E-1,1.9994906E-1,1.2881691E0,-9.5271313E-1,2.6553777E-1,-2.1807499E-1,2.051891E-1,1.1602477E0,-3.592276E-1,1.3563946E0,6.7113197E-1,-1.89991E-1,-1.1884066E0,1.3010442E0,-1.19678594E-1,-2.8849501E-2,-3.5353535E-1,7.092974E-1,8.839686E-2,-6.034431E-1,-9.638266E-3],"categories":[],"categories_nodes":[],"categories_segments":[],"categories_sizes":[],"default_left":[0,0,0,0,0,0,0,0,0,0,0,0,0,0,0,0,0,0,0,0,0,0,0,0,0,0,0,0,0,0,0,0,0,0,0,0,0,0,0,0,0,0,0,0,0,0,0,0,0,0,0,0,0,0,0,0,0,0,0,0,0,0,0,0,0,0,0,0,0,0,0,0,0,0,0,0,0,0,0,0,0,0,0,0,0,0,0,0,0,0,0,0,0,0,0,0,0,0,0,0,0,0,0,0,0,0,0,0,0,0,0,0,0,0,0,0,0,0,0,0,0,0,0,0,0,0,0],"id":12,"left_children":[1,3,5,7,9,11,13,15,17,19,21,23,25,27,29,31,33,35,37,39,41,43,45,47,49,51,53,55,57,59,61,63,65,67,69,71,73,75,77,79,81,83,85,87,89,91,93,95,97,99,101,103,105,107,109,111,113,115,117,119,121,123,125,-1,-1,-1,-1,-1,-1,-1,-1,-1,-1,-1,-1,-1,-1,-1,-1,-1,-1,-1,-1,-1,-1,-1,-1,-1,-1,-1,-1,-1,-1,-1,-1,-1,-1,-1,-1,-1,-1,-1,-1,-1,-1,-1,-1,-1,-1,-1,-1,-1,-1,-1,-1,-1,-1,-1,-1,-1,-1,-1,-1,-1,-1,-1,-1],"loss_changes":[9.0848125E4,3.616965E4,7.164297E4,2.5001684E5,3.9303383E4,8.495078E4,2.6932633E4,3.63832E4,4.938197E4,3.953947E4,1.2082502E5,6.188667E4,1.1423887E5,3.1433414E4,3.6983812E4,2.9134434E4,5.1069496E4,3.2197074E4,3.9256312E4,3.979863E5,9.71672E4,1.6692672E4,2.963054E4,1.5315603E5,8.932541E4,6.157847E4,4.696289E4,8.452696E4,4.2729772E5,5.2146906E4,6.7191734E4,6.173077E3,7.9642656E3,5.6372074E4,4.9053668E4,3.986393E4,8.273949E3,9.8518125E3,3.5013836E4,2.8999912E5,8.895507E4,2.3396242E5,3.882111E4,2.4248031E4,1.5058139E4,3.1056883E4,1.7181934E4,1.0087879E4,1.7993406E4,6.770616E4,7.490475E4,9.456517E4,6.671701E4,1.4376456E5,8.8327305E4,1.1012443E5,5.836603E5,3.0907188E4,9.00082E4,1.1996435E5,2.9578422E4,1.8166902E4,2.9128543E4,0E0,0E0,0E0,0E0,0E0,0E0,0E0,0E0,0E0,0E0,0E0,0E0,0E0,0E0,0E0,0E0,0E0,0E0,0E0,0E0,0E0,0E0,0E0,0E0,0E0,0E0,0E0,0E0,0E0,0E0,0E0,0E0,0E0,0E0,0E0,0E0,0E0,0E0,0E0,0E0,0E0,0E0,0E0,0E0,0E0,0E0,0E0,0E0,0E0,0E0,0E0,0E0,0E0,0E0,0E0,0E0,0E0,0E0,0E0,0E0,0E0,0E0,0E0,0E0],"parents":[2147483647,0,0,1,1,2,2,3,3,4,4,5,5,6,6,7,7,8,8,9,9,10,10,11,11,12,12,13,13,14,14,15,15,16,16,17,17,18,18,19,19,20,20,21,21,22,22,23,23,24,24,25,25,26,26,27,27,28,28,29,29,30,30,31,31,32,32,33,33,34,34,35,35,36,36,37,37,38,38,39,39,40,40,41,41,42,42,43,43,44,44,45,45,46,46,47,47,48,48,49,49,50,50,51,51,52,52,53,53,54,54,55,55,56,56,57,57,58,58,59,59,60,60,61,61,62,62],"right_children":[2,4,6,8,10,12,14,16,18,20,22,24,26,28,30,32,34,36,38,40,42,44,46,48,50,52,54,56,58,60,62,64,66,68,70,72,74,76,78,80,82,84,86,88,90,92,94,96,98,100,102,104,106,108,110,112,114,116,118,120,122,124,126,-1,-1,-1,-1,-1,-1,-1,-1,-1,-1,-1,-1,-1,-1,-1,-1,-1,-1,-1,-1,-1,-1,-1,-1,-1,-1,-1,-1,-1,-1,-1,-1,-1,-1,-1,-1,-1,-1,-1,-1,-1,-1,-1,-1,-1,-1,-1,-1,-1,-1,-1,-1,-1,-1,-1,-1,-1,-1,-1,-1,-1,-1,-1,-1],"split_conditions":[1.09081745E1,3.3597922E0,1.1296379E1,5.833153E0,1.7907541E1,4.7954535E0,1.665493E1,2.147974E2,1.761542E2,4.6172137E0,1.5159015E1,5.3028328E1,1.4619867E1,1.6809216E1,1.6824484E1,4.8973794E0,3.151287E2,1.3151611E2,2.0913892E2,2.0515442E2,5.6990786E0,1.8754846E2,1.351708E2,5.5676113E1,1.0492153E2,3.5886555E0,2.5561142E2,1.6165964E1,1.29152775E1,3.928233E0,1.6459654E1,2.3823691E2,4.068546E0,1.2018252E1,3.0851105E2,5.170314E1,1.1393079E2,3.6486826E0,3.148136E2,7.0995836E0,3.2024185E2,8.811571E0,4.1749835E0,1.4023796E2,3.4987686E2,1.3151611E2,5.1726713E0,1.1988745E1,7.260608E1,5.5676113E1,8.468614E1,8.382127E0,1.4172289E1,2.657126E2,9.507585E0,1.3777454E1,1.0429132E1,9.996309E0,9.22978E0,8.175138E1,2.8490388E0,2.6017496E2,5.0479702E1,-1.4611321E-2,1.0268238E0,-9.534856E-1,-4.3079826E-1,-5.2775767E-2,9.0513194E-1,2.0339088E-1,-1.1082722E0,-3.783904E-1,7.9487634E-1,1.4028205E0,-7.5817543E-1,9.3044895E-1,1.3354783E0,-1.23640016E-1,1.1245247E0,-3.979085E-2,1.2585961E0,-2.393707E-1,3.5734305E-1,-2.6832277E-1,7.069265E-1,-1.8419974E-1,-2.7858908E-3,3.327135E-1,1.069594E0,-5.4899823E-2,9.8956865E-1,-1.5108146E-1,6.74415E-1,1.2509184E-1,-8.480379E-1,1.2016217E-2,-1.2256981E0,7.2005194E-1,1.5441903E0,7.1223E-1,-1.0429564E0,1.6119947E0,2.3865962E-1,-1.7526476E-1,7.323157E-1,-1.821549E-1,1.1103799E-1,1.9994906E-1,1.2881691E0,-9.5271313E-1,2.6553777E-1,-2.1807499E-1,2.051891E-1,1.1602477E0,-3.592276E-1,1.3563946E0,6.7113197E-1,-1.89991E-1,-1.1884066E0,1.3010442E0,-1.19678594E-1,-2.8849501E-2,-3.5353535E-1,7.092974E-1,8.839686E-2,-6.034431E-1,-9.638266E-3],"split_indices":[9,1,10,7,1,6,9,11,11,7,7,11,6,1,6,10,11,12,12,11,1,11,11,12,12,7,11,7,7,6,10,12,7,10,12,12,11,4,12,1,11,7,4,12,11,12,10,11,12,12,11,1,7,12,7,1,1,7,4,11,7,11,11,0,0,0,0,0,0,0,0,0,0,0,0,0,0,0,0,0,0,0,0,0,0,0,0,0,0,0,0,0,0,0,0,0,0,0,0,0,0,0,0,0,0,0,0,0,0,0,0,0,0,0,0,0,0,0,0,0,0,0,0,0,0,0,0],"split_type":[0,0,0,0,0,0,0,0,0,0,0,0,0,0,0,0,0,0,0,0,0,0,0,0,0,0,0,0,0,0,0,0,0,0,0,0,0,0,0,0,0,0,0,0,0,0,0,0,0,0,0,0,0,0,0,0,0,0,0,0,0,0,0,0,0,0,0,0,0,0,0,0,0,0,0,0,0,0,0,0,0,0,0,0,0,0,0,0,0,0,0,0,0,0,0,0,0,0,0,0,0,0,0,0,0,0,0,0,0,0,0,0,0,0,0,0,0,0,0,0,0,0,0,0,0,0,0],"sum_hessian":[3.07361E5,1.34484E5,1.72877E5,1.2056E4,1.22428E5,7.1956E4,1.00921E5,6.761E3,5.295E3,1.16172E5,6.256E3,9.651E3,6.2305E4,6.6743E4,3.4178E4,1.807E3,4.954E3,1.862E3,3.433E3,2.3639E4,9.2533E4,2.942E3,3.314E3,1.754E3,7.897E3,5.0002E4,1.2303E4,5.8097E4,8.646E3,2.8269E4,5.909E3,4.44E2,1.363E3,3.751E3,1.203E3,1.563E3,2.99E2,2.514E3,9.19E2,7.28E3,1.6359E4,1.0079E4,8.2454E4,2.322E3,6.2E2,2.366E3,9.48E2,3.76E2,1.378E3,1.189E3,6.708E3,4.594E3,4.5408E4,9.47E3,2.833E3,4.6779E4,1.1318E4,2.865E3,5.781E3,7.167E3,2.1102E4,2.121E3,3.788E3,3.78E2,6.6E1,9.36E2,4.27E2,2.978E3,7.73E2,4.63E2,7.4E2,3.83E2,1.18E3,1.8E1,2.81E2,1.032E3,1.482E3,5.3E2,3.89E2,2.787E3,4.493E3,1.3283E4,3.076E3,4.26E3,5.819E3,1.4262E4,6.8192E4,6.05E2,1.717E3,4.14E2,2.06E2,1.751E3,6.15E2,2.44E2,7.04E2,8.5E1,2.91E2,3.62E2,1.016E3,2.9E2,8.99E2,4.23E2,6.285E3,2.36E3,2.234E3,3.5474E4,9.934E3,8.041E3,1.429E3,8.49E2,1.984E3,3.95E4,7.279E3,3.81E3,7.508E3,1.833E3,1.032E3,4.662E3,1.119E3,6.53E2,6.514E3,3.332E3,1.777E4,1.414E3,7.07E2,1.216E3,2.572E3],"tree_param":{"num_deleted":"0","num_feature":"13","num_nodes":"127","size_leaf_vector":"1"}},{"base_weights":[-4.7765477E-3,1.7681806E-1,-1.4797988E0,6.9814247E-1,-2.5252017E-1,1.580503E0,-2.1168187E0,6.056485E-1,3.0897496E0,1.6248025E0,-5.6652886E-1,-2.3855479E0,1.1976465E1,-3.4215531E0,8.8064486E-1,3.241283E0,5.197044E-1,9.522558E0,-3.2720234E0,-3.8611321E0,1.1779975E1,1.4257964E0,-1.4270043E0,-4.636214E0,1.7278812E0,1.877436E0,1.4967855E1,-4.334939E0,-4.773012E-1,7.997876E0,-3.9283552E0,-2.7916489E0,7.7574434E0,3.2704556E0,4.4487995E-1,1.030015E1,-6.5592566E0,-5.0824485E0,1.9342598E0,-2.875144E0,-1.0760834E1,3.896317E0,1.375941E1,-3.2990263E0,8.420633E0,3.1847E0,-2.476503E0,-1.0411553E1,-2.9275877E0,3.2560542E0,-4.5267987E0,4.367174E0,-8.938638E0,9.332664E0,1.6656298E1,-8.2266057E-1,-6.0845985E0,4.3330784E0,-5.9497247E0,-4.1684332E-1,1.12008915E1,-5.535046E0,3.1147544E0,-1.3885657E-1,-9.1856796E-1,5.246117E-1,1.1208532E0,-7.48901E-2,7.9683435E-1,1.0635296E-1,1.436945E-2,-2.680647E-1,1.1253779E0,1.9204997E-1,-1.6845639E0,1.500489E-1,-8.671798E-1,9.525885E-1,-8.5686415E-1,-9.0100795E-1,-1.2508176E-1,-1.3715693E0,-4.1703415E-1,6.7073023E-1,-3.1531787E-1,8.517155E-1,1.6964239E0,-4.8687816E-1,6.414765E-3,3.254632E-1,1.3447802E0,-4.3468782E-1,7.969329E-1,1.03571154E-1,-3.121645E-1,-1.1718934E0,5.035896E-1,2.1835303E-2,-9.306162E-1,-7.404625E-1,4.7831795E-1,-7.48098E-1,1.6779867E-1,-3.2977754E-1,1.0045933E0,6.057643E-1,-1.6087059E0,1.0805331E0,2.3060958E-1,1.9151562E0,1.2611407E0,-6.318318E-1,3.9092726E-1,-4.0387177E-1,-8.598358E-1,8.092459E-1,-1.5346725E-1,-8.546359E-1,