{"learner":{"attributes":{},"feature_names":[],"feature_types":[],"gradient_booster":{"model":{"cats":{"enc":[],"feature_segments":[],"sorted_idx":[]},"gbtree_model_param":{"num_parallel_tree":"1","num_trees":"300"},"iteration_indptr":[0,1,2,3,4,5,6,7,8,9,10,11,12,13,14,15,16,17,18,19,20,21,22,23,24,25,26,27,28,29,30,31,32,33,34,35,36,37,38,39,40,41,42,43,44,45,46,47,48,49,50,51,52,53,54,55,56,57,58,59,60,61,62,63,64,65,66,67,68,69,70,71,72,73,74,75,76,77,78,79,80,81,82,83,84,85,86,87,88,89,90,91,92,93,94,95,96,97,98,99,100,101,102,103,104,105,106,107,108,109,110,111,112,113,114,115,116,117,118,119,120,121,122,123,124,125,126,127,128,129,130,131,132,133,134,135,136,137,138,139,140,141,142,143,144,145,146,147,148,149,150,151,152,153,154,155,156,157,158,159,160,161,162,163,164,165,166,167,168,169,170,171,172,173,174,175,176,177,178,179,180,181,182,183,184,185,186,187,188,189,190,191,192,193,194,195,196,197,198,199,200,201,202,203,204,205,206,207,208,209,210,211,212,213,214,215,216,217,218,219,220,221,222,223,224,225,226,227,228,229,230,231,232,233,234,235,236,237,238,239,240,241,242,243,244,245,246,247,248,249,250,251,252,253,254,255,256,257,258,259,260,261,262,263,264,265,266,267,268,269,270,271,272,273,274,275,276,277,278,279,280,281,282,283,284,285,286,287,288,289,290,291,292,293,294,295,296,297,298,299,300],"tree_info":[0,0,0,0,0,0,0,0,0,0,0,0,0,0,0,0,0,0,0,0,0,0,0,0,0,0,0,0,0,0,0,0,0,0,0,0,0,0,0,0,0,0,0,0,0,0,0,0,0,0,0,0,0,0,0,0,0,0,0,0,0,0,0,0,0,0,0,0,0,0,0,0,0,0,0,0,0,0,0,0,0,0,0,0,0,0,0,0,0,0,0,0,0,0,0,0,0,0,0,0,0,0,0,0,0,0,0,0,0,0,0,0,0,0,0,0,0,0,0,0,0,0,0,0,0,0,0,0,0,0,0,0,0,0,0,0,0,0,0,0,0,0,0,0,0,0,0,0,0,0,0,0,0,0,0,0,0,0,0,0,0,0,0,0,0,0,0,0,0,0,0,0,0,0,0,0,0,0,0,0,0,0,0,0,0,0,0,0,0,0,0,0,0,0,0,0,0,0,0,0,0,0,0,0,0,0,0,0,0,0,0,0,0,0,0,0,0,0,0,0,0,0,0,0,0,0,0,0,0,0,0,0,0,0,0,0,0,0,0,0,0,0,0,0,0,0,0,0,0,0,0,0,0,0,0,0,0,0,0,0,0,0,0,0,0,0,0,0,0,0,0,0,0,0,0,0,0,0,0,0,0,0,0,0,0,0,0,0,0,0,0,0,0,0,0,0,0,0,0,0],"trees":[{"base_weights":[1.699589E-1,2.8884384E-1,-1.3636183E1,3.413022E0,-1.5496883E-1,-3.05017E1,1.59544E1,-1.0783893E1,1.7481165E1,1.7511219E0,-2.8007474E0,-1.9244461E1,-3.681483E1,3.2957657E1,-3.3280575E0,-3.630919E0,-2.522163E1,8.317678E0,2.593536E1,1.0346068E1,-1.9660317E0,-9.606071E0,1.02404375E1,-2.61852E0,-2.28705E0,-1.4366268E0,-3.9590364E0,2.9753003E-1,3.7458832E0,-1.083952E1,1.03004E0,-1.2999408E1,5.3394165E0,-3.0645378E1,-7.14693E0,4.0940986E0,1.5519904E1,-5.9030147E0,2.9585812E1,1.1416981E0,1.9823675E1,-7.4458632E0,4.293663E0,-3.0441697E0,-1.9919537E1,1.7921633E1,-2.37189E0,2.4753001E-1,-4.6996E0,4.4753E-1,-1.5787051E0,-2.000485E0,-3.6869168E-1,9.8180896E-1,-5.201346E-1,-3.1589575E0,1.34753E0,1.40672E0,-2.246195E0,1.6272576E0,-1.7277135E-1,6.719427E-2,1.7846636E0,2.2671943E0,-3.0168226E0,3.0736756E0,-1.003705E0,1.0786667E0,-1.6654452E0,-6.2913084E-1,2.342227E0,-1.3076608E0,2.3631887E-1,1.4239855E0,1.7131466E-1,-6.5693754E-1,3.2020187E-1,-2.8724954E0,-1.1334853E0,2.0773184E0,3.0888233E-1,3.2480595E-1,-1.7240759E0,-6.0247004E-1,-1.0247E-1],"categories":[],"categories_nodes":[],"categories_segments":[],"categories_sizes":[],"default_left":[0,0,0,0,0,0,0,0,0,0,0,0,0,0,0,0,0,0,0,0,0,0,0,0,0,0,0,0,0,0,0,0,0,0,0,0,0,0,0,0,0,0,0,0,0,0,0,0,0,0,0,0,0,0,0,0,0,0,0,0,0,0,0,0,0,0,0,0,0,0,0,0,0,0,0,0,0,0,0,0,0,0,0,0,0],"id":0,"left_children":[1,3,5,7,9,11,13,15,17,19,21,23,25,27,29,31,33,35,37,39,41,43,45,-1,47,-1,-1,-1,-1,49,-1,51,53,55,57,59,61,63,65,67,69,71,73,75,77,79,81,-1,83,-1,-1,-1,-1,-1,-1,-1,-1,-1,-1,-1,-1,-1,-1,-1,-1,-1,-1,-1,-1,-1,-1,-1,-1,-1,-1,-1,-1,-1,-1,-1,-1,-1,-1,-1,-1],"loss_changes":[6.536481E3,5.473241E3,1.7454691E4,9.825311E4,1.7438879E4,8.550254E2,4.371924E3,2.5210248E4,1.8919344E4,6.42373E4,1.2860762E5,1.1170825E3,2.412207E2,8.332407E2,8.282389E2,1.393576E4,7.721621E3,3.5867617E3,1.5051367E4,5.2929254E4,4.8192074E4,6.436686E4,4.8190758E4,0E0,5.7590546E1,0E0,0E0,0E0,0E0,4.4950452E2,0E0,5.2105303E3,4.0638015E3,3.0085117E3,6.8138735E3,5.487476E3,1.5080859E3,1.0391256E4,5.5529297E3,5.321742E4,2.824657E4,4.139987E4,1.6812703E4,1.285817E4,2.7643344E4,1.3005453E4,1.58492705E4,0E0,8.435326E0,0E0,0E0,0E0,0E0,0E0,0E0,0E0,0E0,0E0,0E0,0E0,0E0,0E0,0E0,0E0,0E0,0E0,0E0,0E0,0E0,0E0,0E0,0E0,0E0,0E0,0E0,0E0,0E0,0E0,0E0,0E0,0E0,0E0,0E0,0E0,0E0],"parents":[2147483647,0,0,1,1,2,2,3,3,4,4,5,5,6,6,7,7,8,8,9,9,10,10,11,11,12,12,13,13,14,14,15,15,16,16,17,17,18,18,19,19,20,20,21,21,22,22,24,24,29,29,31,31,32,32,33,33,34,34,35,35,36,36,37,37,38,38,39,39,40,40,41,41,42,42,43,43,44,44,45,45,46,46,48,48],"right_children":[2,4,6,8,10,12,14,16,18,20,22,24,26,28,30,32,34,36,38,40,42,44,46,-1,48,-1,-1,-1,-1,50,-1,52,54,56,58,60,62,64,66,68,70,72,74,76,78,80,82,-1,84,-1,-1,-1,-1,-1,-1,-1,-1,-1,-1,-1,-1,-1,-1,-1,-1,-1,-1,-1,-1,-1,-1,-1,-1,-1,-1,-1,-1,-1,-1,-1,-1,-1,-1,-1,-1],"split_conditions":[1.981834E1,2.5882602E0,1.3196279E1,9.778702E0,1.2158443E1,1.6909597E0,8.446694E0,1.2407445E1,9.265531E0,6.2284937E0,1.3349341E1,9.293451E0,5.771163E-1,2.0208776E0,3.7327025E0,1.089912E1,3.7519073E0,1.3846457E1,5.2243524E0,1.0483687E1,1.1883979E1,1.2870524E1,1.3622452E1,-2.61852E0,5.1084433E0,-1.4366268E0,-3.9590364E0,2.9753003E-1,3.7458832E0,1.2154864E1,1.03004E0,1.4391726E0,1.4323598E1,1.9429314E1,5.23717E0,6.164634E0,4.5374417E0,2.9914646E0,1.8457148E1,7.8379846E0,1.8743193E0,7.30339E0,4.1111193E0,9.035964E0,7.6249623E0,1.4865953E1,1.4804749E1,2.4753001E-1,1.0973429E1,4.4753E-1,-1.5787051E0,-2.000485E0,-3.6869168E-1,9.8180896E-1,-5.201346E-1,-3.1589575E0,1.34753E0,1.40672E0,-2.246195E0,1.6272576E0,-1.7277135E-1,6.719427E-2,1.7846636E0,2.2671943E0,-3.0168226E0,3.0736756E0,-1.003705E0,1.0786667E0,-1.6654452E0,-6.2913084E-1,2.342227E0,-1.3076608E0,2.3631887E-1,1.4239855E0,1.7131466E-1,-6.5693754E-1,3.2020187E-1,-2.8724954E0,-1.1334853E0,2.0773184E0,3.0888233E-1,3.2480595E-1,-1.7240759E0,-6.0247004E-1,-1.0247E-1],"split_indices":[6,7,4,3,3,2,1,1,1,1,1,4,5,1,2,4,5,6,9,6,7,7,7,0,1,0,0,0,0,1,0,7,9,4,6,4,4,9,6,3,4,3,6,1,1,6,6,0,1,0,0,0,0,0,0,0,0,0,0,0,0,0,0,0,0,0,0,0,0,0,0,0,0,0,0,0,0,0,0,0,0,0,0,0,0],"split_type":[0,0,0,0,0,0,0,0,0,0,0,0,0,0,0,0,0,0,0,0,0,0,0,0,0,0,0,0,0,0,0,0,0,0,0,0,0,0,0,0,0,0,0,0,0,0,0,0,0,0,0,0,0,0,0,0,0,0,0,0,0,0,0,0,0,0,0,0,0,0,0,0,0,0,0,0,0,0,0,0,0,0,0,0,0],"sum_hessian":[3.979E3,3.946E3,3.3E1,4.9E2,3.456E3,2.1E1,1.2E1,2.44E2,2.46E2,2.009E3,1.447E3,9E0,1.2E1,6E0,6E0,1.64E2,8E1,1.19E2,1.27E2,6.06E2,1.403E3,9.51E2,4.96E2,6E0,3E0,2E0,1E1,1E0,5E0,4E0,2E0,8E1,8.4E1,6.1E1,1.9E1,7.6E1,4.3E1,1.3E1,1.14E2,3.08E2,2.98E2,7.48E2,6.55E2,5.82E2,3.69E2,3.08E2,1.88E2,1E0,2E0,1E0,3E0,4.5E1,3.5E1,5.9E1,2.5E1,6E1,1E0,8E0,1.1E1,2.4E1,5.2E1,6E0,3.7E1,6E0,7E0,1.11E2,3E0,2E2,1.08E2,3.6E1,2.62E2,4.75E2,2.73E2,1.34E2,5.21E2,3.72E2,2.1E2,1.81E2,1.88E2,2.58E2,5E1,1.37E2,5.1E1,1E0,1E0],"tree_param":{"num_deleted":"0","num_feature":"15","num_nodes":"85","size_leaf_vector":"1"}},{"base_weights":[-1.6416512E-2,-7.4207635E0,1.3554966E-1,-1.1177336E1,1.7159311E1,3.0504463E0,-2.6692602E-1,-2.252044E1,-6.1896853E0,2.0583704E1,1.1663585E0,-9.131375E0,1.3679427E1,1.0900834E0,-1.6713206E0,1.9435967E0,-2.5590057E1,-5.1648307E-1,-2.4111786E1,6.4126453E0,2.3716486E1,3.1289704E-2,1.4366408E-1,-3.115897E0,-1.50645895E1,7.1733146E0,2.0830591E1,8.911912E0,-6.5380983E0,-8.994071E0,6.5285783E0,-2.9429306E1,5.9754505E0,3.1955545E0,-3.1353912E0,-1.481537E1,-3.9000778E0,-1.8480094E-2,9.803769E-1,2.5357022E0,6.936641E-1,1.1831976E1,-9.320503E0,-2.1357199E1,-5.360823E0,-8.609996E0,1.2415485E1,1.2681236E1,2.538178E1,5.0435305E-1,1.673396E1,3.363366E0,-1.2424281E1,-1.9946686E1,-4.2932024E0,1.6664482E1,-1.4809284E0,-3.9229171E0,-2.1260273E0,9.936641E-1,-9.734651E-2,-8.139974E-1,7.9691535E-1,-2.456455E0,-8.520668E-1,3.3322499E0,-1.0354546E0,-2.6272647E0,-5.265078E-1,-9.5033646E-1,-2.7752285E0,-2.2148378E0,2.1512572E-1,-1.349963E-2,-3.6136873E0,7.6545835E-1,2.3971705E0,1.8119773E0,4.977079E-1,2.9520624E0,4.9440032E-1,1.1699E0,-3.4590262E-1,-1.4103426E-1,1.8673451E0,1.0248955E0,-1.1082759E0,-1.9607449E0,-3.150321E-1,1.2053336E0,-2.4826229E0,2.5866148E-1,-8.5131073E-1,1.960371E0,-1.1316087E0,1.9986962E-1,-1.0306318E0],"categories":[],"categories_nodes":[],"categories_segments":[],"categories_sizes":[],"default_left":[0,0,0,0,0,0,0,0,0,0,0,0,0,0,0,0,0,0,0,0,0,0,0,0,0,0,0,0,0,0,0,0,0,0,0,0,0,0,0,0,0,0,0,0,0,0,0,0,0,0,0,0,0,0,0,0,0,0,0,0,0,0,0,0,0,0,0,0,0,0,0,0,0,0,0,0,0,0,0,0,0,0,0,0,0,0,0,0,0,0,0,0,0,0,0,0,0],"id":1,"left_children":[1,3,5,7,9,11,13,15,17,19,21,23,25,27,29,-1,31,33,35,37,39,-1,-1,41,43,45,47,49,51,53,55,57,59,-1,61,63,-1,-1,-1,-1,-1,65,67,69,71,73,75,77,79,81,83,85,87,89,91,93,95,-1,-1,-1,-1,-1,-1,-1,-1,-1,-1,-1,-1,-1,-1,-1,-1,-1,-1,-1,-1,-1,-1,-1,-1,-1,-1,-1,-1,-1,-1,-1,-1,-1,-1,-1,-1,-1,-1,-1,-1],"loss_changes":[4.4759673E3,7.5787407E3,4.5738506E3,3.8208857E3,5.784197E2,6.1369113E4,6.5310127E3,3.201961E3,5.0713315E3,2.4746802E2,2.4250603E-1,7.840797E3,1.1621727E4,1.0405669E5,1.01175875E5,0E0,2.5996094E3,3.4168022E3,1.0831602E3,6.8930016E1,1.6802734E1,0E0,0E0,1.0405049E4,6.6633926E3,1.11939E4,4.128836E3,5.661464E4,5.1504645E4,4.5737625E4,6.456563E4,6.069746E2,9.225091E1,0E0,2.121092E3,3.4300708E2,0E0,0E0,0E0,0E0,0E0,1.6079437E4,5.2927754E3,4.8152793E3,5.7225723E3,7.926991E3,5.373326E3,1.7952856E3,6.282797E3,1.8497816E4,1.5721391E4,3.2938715E4,3.684371E4,4.19901E4,1.8138098E4,2.9088531E4,1.3686122E4,0E0,0E0,0E0,0E0,0E0,0E0,0E0,0E0,0E0,0E0,0E0,0E0,0E0,0E0,0E0,0E0,0E0,0E0,0E0,0E0,0E0,0E0,0E0,0E0,0E0,0E0,0E0,0E0,0E0,0E0,0E0,0E0,0E0,0E0,0E0,0E0,0E0,0E0,0E0,0E0],"parents":[2147483647,0,0,1,1,2,2,3,3,4,4,5,5,6,6,7,7,8,8,9,9,10,10,11,11,12,12,13,13,14,14,16,16,17,17,18,18,19,19,20,20,23,23,24,24,25,25,26,26,27,27,28,28,29,29,30,30,31,31,32,32,34,34,35,35,41,41,42,42,43,43,44,44,45,45,46,46,47,47,48,48,49,49,50,50,51,51,52,52,53,53,54,54,55,55,56,56],"right_children":[2,4,6,8,10,12,14,16,18,20,22,24,26,28,30,-1,32,34,36,38,40,-1,-1,42,44,46,48,50,52,54,56,58,60,-1,62,64,-1,-1,-1,-1,-1,66,68,70,72,74,76,78,80,82,84,86,88,90,92,94,96,-1,-1,-1,-1,-1,-1,-1,-1,-1,-1,-1,-1,-1,-1,-1,-1,-1,-1,-1,-1,-1,-1,-1,-1,-1,-1,-1,-1,-1,-1,-1,-1,-1,-1,-1,-1,-1,-1,-1,-1],"split_conditions":[9.9275604E-2,1.8743872E1,2.637324E0,9.072212E0,1.1718999E1,1.0057803E1,1.0057803E1,1.3113796E0,3.49925E0,1.0800083E1,6.7929044E0,2.5748608E0,1.5180409E1,9.993732E0,1.1093977E1,1.9435967E0,1.8426643E1,3.9871893E0,1.5442623E1,8.12793E0,1.9389513E1,3.1289704E-2,1.4366408E-1,1.4106195E0,1.4364219E1,6.814263E0,5.867291E0,9.194016E0,6.7670693E0,6.324503E0,9.261585E0,2.8832147E0,1.8801865E1,3.1955545E0,3.3357432E0,1.9925984E0,-3.9000778E0,-1.8480094E-2,9.803769E-1,2.5357022E0,6.936641E-1,8.499847E0,2.5554492E0,6.8667307E0,4.1133265E0,1.3958793E1,1.1692619E1,1.1883979E1,4.1088624E0,5.533422E0,2.428119E0,1.2863439E1,1.2133462E1,3.9871893E0,9.720908E0,1.8124323E1,1.4865953E1,-3.9229171E0,-2.1260273E0,9.936641E-1,-9.734651E-2,-8.139974E-1,7.9691535E-1,-2.456455E0,-8.520668E-1,3.3322499E0,-1.0354546E0,-2.6272647E0,-5.265078E-1,-9.5033646E-1,-2.7752285E0,-2.2148378E0,2.1512572E-1,-1.349963E-2,-3.6136873E0,7.6545835E-1,2.3971705E0,1.8119773E0,4.977079E-1,2.9520624E0,4.9440032E-1,1.1699E0,-3.4590262E-1,-1.4103426E-1,1.8673451E0,1.0248955E0,-1.1082759E0,-1.9607449E0,-3.150321E-1,1.2053336E0,-2.4826229E0,2.5866148E-1,-8.5131073E-1,1.960371E0,-1.1316087E0,1.9986962E-1,-1.0306318E0],"split_indices":[8,3,6,10,7,1,1,9,5,1,0,8,1,3,3,0,0,0,10,0,3,0,0,2,10,9,0,7,7,7,7,7,0,0,2,3,0,0,0,0,0,3,1,0,1,0,0,7,2,0,0,0,6,0,6,6,6,0,0,0,0,0,0,0,0,0,0,0,0,0,0,0,0,0,0,0,0,0,0,0,0,0,0,0,0,0,0,0,0,0,0,0,0,0,0,0,0],"split_type":[0,0,0,0,0,0,0,0,0,0,0,0,0,0,0,0,0,0,0,0,0,0,0,0,0,0,0,0,0,0,0,0,0,0,0,0,0,0,0,0,0,0,0,0,0,0,0,0,0,0,0,0,0,0,0,0,0,0,0,0,0,0,0,0,0,0,0,0,0,0,0,0,0,0,0,0,0,0,0,0,0,0,0,0,0,0,0,0,0,0,0,0,0,0,0,0,0],"sum_hessian":[3.976E3,7.9E1,3.897E3,6.9E1,1E1,4.72E2,3.425E3,2E1,4.9E1,8E0,2E0,2.2E2,2.52E2,1.742E3,1.683E3,1E0,1.9E1,3.8E1,1.1E1,2E0,6E0,1E0,1E0,1.1E2,1.1E2,1.33E2,1.19E2,8.6E2,8.82E2,8.89E2,7.94E2,1.7E1,2E0,2E0,3.6E1,8E0,3E0,1E0,1E0,5E0,1E0,3.2E1,7.8E1,6.6E1,4.4E1,3.3E1,1E2,4.4E1,7.5E1,4.15E2,4.45E2,3.29E2,5.53E2,2.66E2,6.23E2,3.5E2,4.44E2,6E0,1.1E1,1E0,1E0,2.5E1,1.1E1,2E0,6E0,1.6E1,1.6E1,1.4E1,6.4E1,2.4E1,4.2E1,1.3E1,3.1E1,2.6E1,7E0,7.2E1,2.8E1,2.5E1,1.9E1,6.2E1,1.3E1,1.08E2,3.07E2,4.3E1,4.02E2,2.23E2,1.06E2,3.11E2,2.42E2,3.5E1,2.31E2,2.37E2,3.86E2,3.17E2,3.3E1,3.19E2,1.25E2],"tree_param":{"num_deleted":"0","num_feature":"15","num_nodes":"97","size_leaf_vector":"1"}},{"base_weights":[1.5965467E-2,2.122253E-1,-7.5742016E0,-1.2015688E1,2.9726174E-1,1.4105337E1,-2.0328081E1,-2.3546596E0,-3.4666297E0,1.5596371E0,-5.1469654E-1,-1.6307003E1,2.554928E1,-2.8289402E1,1.6528429E1,2.7415628E0,-9.220923E0,-7.4733763E0,1.1307226E1,7.9143305E0,-5.7276397E0,2.0265364E1,-2.6685904E1,3.7395523E1,1.5684329E1,-3.0819403E1,-1.2496132E1,5.282739E0,2.3806388E0,-2.5384256E1,-3.7084678E-1,-2.521612E-1,-1.9763416E1,2.2704863E1,3.1395772E0,1.3879564E1,-6.811951E0,-1.4099257E1,-7.5502443E-1,2.7942076E0,2.4559703E-1,-3.098927E1,3.870514E-1,8.4771377E-1,3.925382E0,1.6988219E0,3.936773E-1,-3.2419456E1,-1.1535081E1,-2.0845348E1,-1.6476892E0,6.3911104E-1,-1.2955809E-2,-2.884442E0,-4.0417233E-1,-9.508807E-1,5.3867346E-1,1.0403575E0,-4.163439E-1,-1.3656935E-1,-2.2345262E0,3.3104858E0,1.7238009E0,1.4601074E0,7.841035E-3,6.62112E-1,2.0873592E0,-1.2960657E0,4.8170677E-1,-1.9176258E0,9.7638115E-2,-4.280067E-1,4.6859834E-1,-3.9649453E0,-1.2416726E0,-3.2948463E0,-5.629558E-1,-3.836938E-1,-2.1163826E0,-4.0398404E-1,-2.4036765E0,-6.0744745E-1,3.3283255E-1],"categories":[],"categories_nodes":[],"categories_segments":[],"categories_sizes":[],"default_left":[0,0,0,0,0,0,0,0,0,0,0,0,0,0,0,0,0,0,0,0,0,0,0,0,0,0,0,0,0,0,0,0,0,0,0,0,0,0,0,0,0,0,0,0,0,0,0,0,0,0,0,0,0,0,0,0,0,0,0,0,0,0,0,0,0,0,0,0,0,0,0,0,0,0,0,0,0,0,0,0,0,0,0],"id":2,"left_children":[1,3,5,7,9,11,13,15,-1,17,19,21,23,25,27,-1,29,31,33,35,37,39,41,43,45,47,49,51,-1,53,55,57,59,61,63,65,67,69,71,-1,-1,73,-1,-1,-1,-1,-1,75,77,79,81,-1,-1,-1,-1,-1,-1,-1,-1,-1,-1,-1,-1,-1,-1,-1,-1,-1,-1,-1,-1,-1,-1,-1,-1,-1,-1,-1,-1,-1,-1,-1,-1],"loss_changes":[5.9691255E3,4.0651028E3,2.821305E4,5.8267344E3,3.9777876E3,1.3642043E4,1.9246873E4,4.3410103E3,0E0,1.3383261E5,1.03831695E5,4.71619E3,2.685627E3,1.7325977E3,8.5638477E2,0E0,2.422381E3,7.0017984E4,6.797891E4,7.941922E4,6.076746E4,3.4152783E2,1.3034038E3,3.1210938E2,1.9351904E2,1.0145547E3,7.808373E2,3.6821014E1,0E0,3.2651074E2,6.82572E2,2.0798729E4,1.38395E4,1.6770203E4,1.4980386E4,3.2504172E4,1.8724824E4,4.1655945E4,1.7607918E4,0E0,0E0,7.94416E2,0E0,0E0,0E0,0E0,0E0,3.955703E2,2.8941296E2,1.7106226E2,1.3035657E2,0E0,0E0,0E0,0E0,0E0,0E0,0E0,0E0,0E0,0E0,0E0,0E0,0E0,0E0,0E0,0E0,0E0,0E0,0E0,0E0,0E0,0E0,0E0,0E0,0E0,0E0,0E0,0E0,0E0,0E0,0E0,0E0],"parents":[2147483647,0,0,1,1,2,2,3,3,4,4,5,5,6,6,7,7,9,9,10,10,11,11,12,12,13,13,14,14,16,16,17,17,18,18,19,19,20,20,21,21,22,22,23,23,24,24,25,25,26,26,27,27,29,29,30,30,31,31,32,32,33,33,34,34,35,35,36,36,37,37,38,38,41,41,47,47,48,48,49,49,50,50],"right_children":[2,4,6,8,10,12,14,16,-1,18,20,22,24,26,28,-1,30,32,34,36,38,40,42,44,46,48,50,52,-1,54,56,58,60,62,64,66,68,70,72,-1,-1,74,-1,-1,-1,-1,-1,76,78,80,82,-1,-1,-1,-1,-1,-1,-1,-1,-1,-1,-1,-1,-1,-1,-1,-1,-1,-1,-1,-1,-1,-1,-1,-1,-1,-1,-1,-1,-1,-1,-1,-1],"split_conditions":[1.947804E1,1.7964344E0,8.446694E0,1.5130618E1,7.4584317E0,3.2632937E0,1.6764685E1,1.2206327E0,-3.4666297E0,1.0488336E1,7.702838E0,1.1865386E0,8.7660475E0,1.8893192E1,7.9633574E0,2.7415628E0,7.3909106E0,1.1980735E1,9.0479765E0,1.3874035E1,7.6120715E0,1.1607396E1,1.8893192E1,7.074568E0,1.992785E1,1.7400608E1,4.7657533E0,1.4822393E1,2.3806388E0,2.5114422E0,3.0570724E0,5.1243715E0,3.0672698E0,2.8925722E0,4.19679E0,9.0479765E0,1.5170419E1,1.4136231E1,1.20646E1,2.7942076E0,2.4559703E-1,1.0777302E1,3.870514E-1,8.4771377E-1,3.925382E0,1.6988219E0,3.936773E-1,1.834949E1,1.1812174E1,8.940949E0,3.3645134E0,6.3911104E-1,-1.2955809E-2,-2.884442E0,-4.0417233E-1,-9.508807E-1,5.3867346E-1,1.0403575E0,-4.163439E-1,-1.3656935E-1,-2.2345262E0,3.3104858E0,1.7238009E0,1.4601074E0,7.841035E-3,6.62112E-1,2.0873592E0,-1.2960657E0,4.8170677E-1,-1.9176258E0,9.7638115E-2,-4.280067E-1,4.6859834E-1,-3.9649453E0,-1.2416726E0,-3.2948463E0,-5.629558E-1,-3.836938E-1,-2.1163826E0,-4.0398404E-1,-2.4036765E0,-6.0744745E-1,3.3283255E-1],"split_indices":[6,10,1,7,4,4,4,5,0,0,0,2,0,10,7,0,0,6,6,7,6,0,10,4,6,0,0,0,0,2,4,7,1,6,1,6,4,1,7,0,0,0,0,0,0,0,0,9,4,1,2,0,0,0,0,0,0,0,0,0,0,0,0,0,0,0,0,0,0,0,0,0,0,0,0,0,0,0,0,0,0,0,0],"split_type":[0,0,0,0,0,0,0,0,0,0,0,0,0,0,0,0,0,0,0,0,0,0,0,0,0,0,0,0,0,0,0,0,0,0,0,0,0,0,0,0,0,0,0,0,0,0,0,0,0,0,0,0,0,0,0,0,0,0,0,0,0,0,0,0,0,0,0,0,0,0,0,0,0,0,0,0,0,0,0,0,0,0,0],"sum_hessian":[4.005E3,3.905E3,1E2,2.6E1,3.879E3,3.7E1,6.3E1,1.9E1,7E0,1.518E3,2.361E3,1E1,2.7E1,5.2E1,1.1E1,3E0,1.6E1,7.88E2,7.3E2,9.02E2,1.459E3,2E0,8E0,1.1E1,1.6E1,4.4E1,8E0,5E0,6E0,5E0,1.1E1,4.97E2,2.91E2,3.04E2,4.26E2,6.42E2,2.6E2,5.43E2,9.16E2,1E0,1E0,7E0,1E0,1E0,1E1,1.4E1,2E0,4E1,4E0,4E0,4E0,4E0,1E0,4E0,1E0,4E0,7E0,1.33E2,3.64E2,3.6E1,2.55E2,1.03E2,2.01E2,8.9E1,3.37E2,3.16E2,3.26E2,1.7E2,9E1,4.06E2,1.37E2,5.56E2,3.6E2,4E0,3E0,3.9E1,1E0,3E0,1E0,1E0,3E0,2E0,2E0],"tree_param":{"num_deleted":"0","num_feature":"15","num_nodes":"83","size_leaf_vector":"1"}},{"base_weights":[-1.7515379E-1,-5.9093614E0,-7.70826E-3,-7.9639444E0,1.4053006E1,7.2268863E0,-1.3013496E-1,-1.7363308E1,-4.608217E0,2.4458835E0,1.3050097E0,1.5721976E1,-1.4167645E1,-1.8152093E0,3.7868625E-1,-2.0444698E1,1.410271E0,4.773658E-1,-1.5408747E1,-1.017179E0,5.6347275E0,2.1180624E1,-1.964131E0,1.4882099E1,-2.0544603E1,-1.1367333E1,9.06986E0,-3.8019512E0,3.0426762E0,-5.854267E0,-2.5793518E1,3.200232E0,-2.684677E0,-1.1961793E0,-2.0869402E1,3.2611059E-3,7.027104E0,2.9150824E1,4.8371286E0,9.257808E0,-1.4729037E1,1.9665607E0,2.657871E-2,6.0460323E-1,-2.4775126E1,-1.021141E0,-1.9991875E1,1.650066E1,-1.099023E0,5.922985E0,-8.264673E0,-1.6598711E0,5.9254174E0,1.4646424E0,-1.5128902E0,-2.9425395E0,-1.3625532E0,6.620359E-1,-9.108713E-1,-4.914883E-1,6.6399544E-1,-5.902404E-1,-2.617191E0,9.331873E-1,5.639881E-3,-1.744886E0,3.1935544E0,-1.1711196E0,1.664373E0,3.570057E-1,1.0818896E0,-2.152283E0,-5.9514344E-1,-3.3414228E0,-1.1362565E0,2.8336725E-1,-5.395035E-1,-2.179777E0,-6.006672E-1,-8.572928E-1,1.957269E0,-1.0242989E0,4.1705066E-1,9.298192E-2,1.356336E0,-3.3951834E-1,-1.8916491E0,6.364466E-1,-3.287127E-1,1.5517135E0,5.810329E-2],"categories":[],"categories_nodes":[],"categories_segments":[],"categories_sizes":[],"default_left":[0,0,0,0,0,0,0,0,0,0,0,0,0,0,0,0,0,0,0,0,0,0,0,0,0,0,0,0,0,0,0,0,0,0,0,0,0,0,0,0,0,0,0,0,0,0,0,0,0,0,0,0,0,0,0,0,0,0,0,0,0,0,0,0,0,0,0,0,0,0,0,0,0,0,0,0,0,0,0,0,0,0,0,0,0,0,0,0,0,0,0],"id":3,"left_children":[1,3,5,7,9,11,13,15,17,-1,19,21,23,25,27,29,-1,31,33,-1,35,37,39,41,43,45,47,49,51,53,55,-1,57,59,61,-1,63,65,67,69,71,-1,-1,-1,73,75,77,79,81,83,85,87,89,-1,-1,-1,-1,-1,-1,-1,-1,-1,-1,-1,-1,-1,-1,-1,-1,-1,-1,-1,-1,-1,-1,-1,-1,-1,-1,-1,-1,-1,-1,-1,-1,-1,-1,-1,-1,-1,-1],"loss_changes":[3.857907E3,4.7875527E3,3.4596284E3,3.2003242E3,1.427269E3,1.2036395E4,3.2939666E3,2.9062197E3,4.29166E3,0E0,3.554631E2,4.579086E3,3.8254775E3,9.2745305E4,3.287737E4,1.8000381E3,0E0,5.468812E3,1.9152847E3,0E0,3.877211E1,4.5483887E3,1.8553225E3,2.7444214E2,1.949667E3,4.236439E4,3.1527875E4,4.9915195E4,2.4451709E4,1.7426757E3,3.9453027E2,0E0,3.0490972E3,2.6575668E2,1.2740503E3,0E0,6.3737137E1,3.6716465E3,2.734851E3,2.3529419E1,2.297074E2,0E0,0E0,0E0,1.242543E3,3.6740261E3,6.4103203E3,1.873125E4,8.571356E3,1.3797564E4,4.0808484E4,8.97847E3,5.730171E4,0E0,0E0,0E0,0E0,0E0,0E0,0E0,0E0,0E0,0E0,0E0,0E0,0E0,0E0,0E0,0E0,0E0,0E0,0E0,0E0,0E0,0E0,0E0,0E0,0E0,0E0,0E0,0E0,0E0,0E0,0E0,0E0,0E0,0E0,0E0,0E0,0E0,0E0],"parents":[2147483647,0,0,1,1,2,2,3,3,4,4,5,5,6,6,7,7,8,8,10,10,11,11,12,12,13,13,14,14,15,15,17,17,18,18,20,20,21,21,22,22,23,23,24,24,25,25,26,26,27,27,28,28,29,29,30,30,32,32,33,33,34,34,36,36,37,37,38,38,39,39,40,40,44,44,45,45,46,46,47,47,48,48,49,49,50,50,51,51,52,52],"right_children":[2,4,6,8,10,12,14,16,18,-1,20,22,24,26,28,30,-1,32,34,-1,36,38,40,42,44,46,48,50,52,54,56,-1,58,60,62,-1,64,66,68,70,72,-1,-1,-1,74,76,78,80,82,84,86,88,90,-1,-1,-1,-1,-1,-1,-1,-1,-1,-1,-1,-1,-1,-1,-1,-1,-1,-1,-1,-1,-1,-1,-1,-1,-1,-1,-1,-1,-1,-1,-1,-1,-1,-1,-1,-1,-1,-1],"split_conditions":[1.1912085E-1,1.8811062E1,3.687857E-1,5.2502656E0,8.339823E0,1.2625051E1,4.360533E0,1.5846445E1,1.5406871E1,2.4458835E0,2.7596717E0,4.1690693E0,2.9927514E0,1.0399091E1,8.3111E0,1.5190904E0,1.410271E0,3.418898E0,6.0091214E0,-1.017179E0,1.3969263E-1,9.92353E0,5.6843114E0,8.2691145E0,1.5716567E0,9.035964E0,1.2034275E1,9.479597E0,1.1093977E1,9.2012E0,1.5512186E1,3.200232E0,1.1546393E1,4.1770263E0,7.661243E0,3.2611059E-3,1.7412443E1,1.5419466E0,2.9983423E0,3.2458534E0,7.097622E0,1.9665607E0,2.657871E-2,6.0460323E-1,1.2537891E1,2.8123562E0,1.6948067E1,2.3538973E0,8.44238E0,1.20646E1,1.2870524E1,9.952064E0,7.2092443E0,1.4646424E0,-1.5128902E0,-2.9425395E0,-1.3625532E0,6.620359E-1,-9.108713E-1,-4.914883E-1,6.6399544E-1,-5.902404E-1,-2.617191E0,9.331873E-1,5.639881E-3,-1.744886E0,3.1935544E0,-1.1711196E0,1.664373E0,3.570057E-1,1.0818896E0,-2.152283E0,-5.9514344E-1,-3.3414228E0,-1.1362565E0,2.8336725E-1,-5.395035E-1,-2.179777E0,-6.006672E-1,-8.572928E-1,1.957269E0,-1.0242989E0,4.1705066E-1,9.298192E-2,1.356336E0,-3.3951834E-1,-1.8916491E0,6.364466E-1,-3.287127E-1,1.5517135E0,5.810329E-2],"split_indices":[8,3,1,4,7,3,3,0,3,0,1,2,10,7,1,2,0,9,0,0,2,4,3,0,7,1,1,3,3,9,7,0,4,0,7,0,1,10,8,7,0,0,0,0,4,8,4,0,0,7,7,1,7,0,0,0,0,0,0,0,0,0,0,0,0,0,0,0,0,0,0,0,0,0,0,0,0,0,0,0,0,0,0,0,0,0,0,0,0,0,0],"split_type":[0,0,0,0,0,0,0,0,0,0,0,0,0,0,0,0,0,0,0,0,0,0,0,0,0,0,0,0,0,0,0,0,0,0,0,0,0,0,0,0,0,0,0,0,0,0,0,0,0,0,0,0,0,0,0,0,0,0,0,0,0,0,0,0,0,0,0,0,0,0,0,0,0,0,0,0,0,0,0,0,0,0,0,0,0,0,0,0,0,0,0],"sum_hessian":[4.017E3,1.13E2,3.904E3,1.03E2,1E1,6.4E1,3.84E3,2.6E1,7.7E1,5E0,5E0,4.6E1,1.8E1,8.9E2,2.95E3,2.4E1,2E0,5.3E1,2.4E1,1E0,4E0,3.5E1,1.1E1,3E0,1.5E1,4.74E2,4.16E2,1.148E3,1.802E3,7E0,1.7E1,4E0,4.9E1,7E0,1.7E1,1E0,3E0,2.3E1,1.2E1,6E0,5E0,2E0,1E0,2E0,1.3E1,2.16E2,2.58E2,2.4E2,1.76E2,3.61E2,7.87E2,6.85E2,1.117E3,2E0,5E0,1.2E1,5E0,2E1,2.9E1,5E0,2E0,5E0,1.2E1,2E0,1E0,1E0,2.2E1,5E0,7E0,2E0,4E0,2E0,3E0,7E0,6E0,1.15E2,1.01E2,2.28E2,3E1,2.6E1,2.14E2,6.4E1,1.12E2,2.19E2,1.42E2,5.41E2,2.46E2,1.15E2,5.7E2,3.99E2,7.18E2],"tree_param":{"num_deleted":"0","num_feature":"15","num_nodes":"91","size_leaf_vector":"1"}},{"base_weights":[-3.326814E-2,-2.0597817E-1,8.020761E0,-5.3522544E0,-3.2118186E-2,-6.5507703E0,1.8060417E1,-2.5722203E0,-2.219845E1,8.8183E-2,-7.3877134E0,2.3362621E1,-1.9450632E1,1.975983E1,-3.26054E0,-9.283975E0,3.081414E0,2.4172294E0,-2.634804E1,3.1754905E-1,-3.6631622E0,1.6928225E1,-2.1538454E1,3.9541035E0,1.2353087E1,-5.3827534E0,-3.0119482E1,2.595387E1,3.9897466E0,-1.7236683E1,1.0951639E1,1.1488919E1,-9.484951E0,7.139891E-1,-3.128909E1,-1.0877644E1,4.1377455E-1,-1.216423E1,6.128103E-1,-1.4880545E1,2.6590693E1,-2.5688396E1,5.567631E0,2.3869815E-1,1.343582E0,-1.3282424E1,2.1573577E0,-3.454924E1,-2.3606217E-1,1.30058E1,3.1346495E1,1.13622875E1,-3.8815129E0,-8.779687E-1,-2.5675752E0,1.7972695E0,-2.5753912E-1,-7.892158E-1,1.9992151E0,-1.4247938E0,2.4173883E-1,-3.2658048E0,-6.061851E-1,-1.3029398E0,2.576162E0,1.9804141E-1,-2.0377954E-2,-1.5446672E-1,-2.879695E0,-3.199471E-1,2.1899076E0,5.4868764E-1,-2.0051405E0,4.1071525E0,1.5927649E0,-3.113221E0,-1.6717423E0,7.714576E-1,-2.5835466E-1,-1.631527E0,-4.8111555E-1,2.3971383E-2,4.6343118E-1,-7.52452E-1,-3.6321988E0,1.8361338E0,-9.1812533E-1,1.6034567E0,3.5559661E0,2.1411763E-1,1.407913E0,4.022323E-2,-8.265816E-1],"categories":[],"categories_nodes":[],"categories_segments":[],"categories_sizes":[],"default_left":[0,0,0,0,0,0,0,0,0,0,0,0,0,0,0,0,0,0,0,0,0,0,0,0,0,0,0,0,0,0,0,0,0,0,0,0,0,0,0,0,0,0,0,0,0,0,0,0,0,0,0,0,0,0,0,0,0,0,0,0,0,0,0,0,0,0,0,0,0,0,0,0,0,0,0,0,0,0,0,0,0,0,0,0,0,0,0,0,0,0,0,0,0],"id":4,"left_children":[1,3,5,7,9,11,13,15,17,19,21,23,25,27,-1,29,31,-1,33,35,37,39,41,-1,43,45,47,49,51,53,55,57,59,-1,61,63,65,67,69,71,73,75,77,-1,-1,79,81,83,-1,85,87,89,91,-1,-1,-1,-1,-1,-1,-1,-1,-1,-1,-1,-1,-1,-1,-1,-1,-1,-1,-1,-1,-1,-1,-1,-1,-1,-1,-1,-1,-1,-1,-1,-1,-1,-1,-1,-1,-1,-1,-1,-1],"loss_changes":[5.565698E3,3.5044912E3,1.2406936E4,5.937524E3,3.3543726E3,1.3960169E4,4.949385E3,4.240592E3,4.1004453E3,3.2105723E3,2.1354008E4,1.4708306E3,3.5900771E3,4.682797E3,0E0,8.396096E3,6.553731E3,0E0,3.0363154E3,3.7921567E3,7.8227754E3,7.464761E3,4.530082E3,0E0,5.4253906E1,7.4342773E2,1.6399531E3,2.0361582E3,9.145706E2,2.4152344E3,1.470897E3,6.2554473E3,1.45171E3,0E0,3.2005664E2,2.7008196E3,3.3740222E3,1.2673038E4,1.1755554E4,7.419221E2,2.1252031E3,1.1399844E3,1.2493173E2,0E0,0E0,7.565686E1,3.21385E1,3.0158887E2,0E0,1.5944633E3,9.780957E2,1.7027246E2,1.5357468E2,0E0,0E0,0E0,0E0,0E0,0E0,0E0,0E0,0E0,0E0,0E0,0E0,0E0,0E0,0E0,0E0,0E0,0E0,0E0,0E0,0E0,0E0,0E0,0E0,0E0,0E0,0E0,0E0,0E0,0E0,0E0,0E0,0E0,0E0,0E0,0E0,0E0,0E0,0E0,0E0],"parents":[2147483647,0,0,1,1,2,2,3,3,4,4,5,5,6,6,7,7,8,8,9,9,10,10,11,11,12,12,13,13,15,15,16,16,18,18,19,19,20,20,21,21,22,22,24,24,25,25,26,26,27,27,28,28,29,29,30,30,31,31,32,32,34,34,35,35,36,36,37,37,38,38,39,39,40,40,41,41,42,42,45,45,46,46,47,47,49,49,50,50,51,51,52,52],"right_children":[2,4,6,8,10,12,14,16,18,20,22,24,26,28,-1,30,32,-1,34,36,38,40,42,-1,44,46,48,50,52,54,56,58,60,-1,62,64,66,68,70,72,74,76,78,-1,-1,80,82,84,-1,86,88,90,92,-1,-1,-1,-1,-1,-1,-1,-1,-1,-1,-1,-1,-1,-1,-1,-1,-1,-1,-1,-1,-1,-1,-1,-1,-1,-1,-1,-1,-1,-1,-1,-1,-1,-1,-1,-1,-1,-1,-1,-1],"split_conditions":[1.9599428E1,1.3799572E-1,1.0538374E1,4.132979E0,1.9627922E1,3.385452E0,1.8801865E1,9.509296E0,1.6119032E0,4.734558E0,8.170725E0,4.7937207E0,9.1669235E0,1.4509233E1,-3.26054E0,1.2356015E1,1.21606865E1,2.4172294E0,5.876474E-1,1.7964344E0,6.68343E0,2.8865361E0,1.621803E1,3.9541035E0,7.4966794E-1,1.3674462E1,1.8903606E1,7.8274136E0,1.6501444E1,1.2630739E1,1.4575224E1,7.108321E0,1.3549029E1,7.139891E-1,1.8971092E1,1.7762285E1,5.1216154E0,1.2771978E1,1.682328E1,1.9640888E-1,7.308749E0,1.4830518E1,1.4822393E1,2.3869815E-1,1.343582E0,3.147697E0,1.5485022E1,1.9936068E-1,-2.3606217E-1,1.3079812E1,4.0730395E0,1.8743193E0,9.878972E0,-8.779687E-1,-2.5675752E0,1.7972695E0,-2.5753912E-1,-7.892158E-1,1.9992151E0,-1.4247938E0,2.4173883E-1,-3.2658048E0,-6.061851E-1,-1.3029398E0,2.576162E0,1.9804141E-1,-2.0377954E-2,-1.5446672E-1,-2.879695E0,-3.199471E-1,2.1899076E0,5.4868764E-1,-2.0051405E0,4.1071525E0,1.5927649E0,-3.113221E0,-1.6717423E0,7.714576E-1,-2.5835466E-1,-1.631527E0,-4.8111555E-1,2.3971383E-2,4.6343118E-1,-7.52452E-1,-3.6321988E0,1.8361338E0,-9.1812533E-1,1.6034567E0,3.5559661E0,2.1411763E-1,1.407913E0,4.022323E-2,-8.265816E-1],"split_indices":[1,8,3,5,6,6,0,4,6,8,1,10,4,7,0,0,0,0,1,10,4,4,4,0,0,7,4,4,3,6,6,6,6,0,6,4,4,6,6,1,0,10,0,0,0,5,0,8,0,6,0,4,6,0,0,0,0,0,0,0,0,0,0,0,0,0,0,0,0,0,0,0,0,0,0,0,0,0,0,0,0,0,0,0,0,0,0,0,0,0,0,0,0],"split_type":[0,0,0,0,0,0,0,0,0,0,0,0,0,0,0,0,0,0,0,0,0,0,0,0,0,0,0,0,0,0,0,0,0,0,0,0,0,0,0,0,0,0,0,0,0,0,0,0,0,0,0,0,0,0,0,0,0,0,0,0,0,0,0,0,0,0,0,0,0,0,0,0,0,0,0,0,0,0,0,0,0,0,0,0,0,0,0,0,0,0,0,0,0],"sum_hessian":[3.999E3,3.916E3,8.3E1,1.27E2,3.789E3,3.4E1,4.9E1,1.1E2,1.7E1,3.729E3,6E1,1E1,2.4E1,4.8E1,1E0,5E1,6E1,1E0,1.6E1,3.515E3,2.14E2,2.2E1,3.8E1,3E0,7E0,1.1E1,1.3E1,3.4E1,1.4E1,3.6E1,1.4E1,3.6E1,2.4E1,2E0,1.4E1,2.9E1,3.486E3,7.1E1,1.43E2,5E0,1.7E1,3.3E1,5E0,1E0,6E0,5E0,6E0,1.1E1,2E0,1.1E1,2.3E1,7E0,7E0,1.9E1,1.7E1,9E0,5E0,1.1E1,2.5E1,1.7E1,7E0,1.3E1,1E0,2.8E1,1E0,9.85E2,2.501E3,4.4E1,2.7E1,1.22E2,2.1E1,1E0,4E0,6E0,1.1E1,1.9E1,1.4E1,4E0,1E0,3E0,2E0,4E0,2E0,1E0,1E1,9E0,2E0,6E0,1.7E1,2E0,5E0,4E0,3E0],"tree_param":{"num_deleted":"0","num_feature":"15","num_nodes":"93","size_leaf_vector":"1"}},{"base_weights":[4.9081776E-2,-3.7254791E0,4.527032E-1,8.5211223E-1,-9.218228E0,5.266006E-1,-1.523583E1,-1.301298E1,5.0999804E0,-7.36127E0,-3.6403397E1,1.3486755E0,-6.9779176E-1,-1.9913282E1,4.944207E0,-2.2417673E1,-1.8904922E0,1.8295355E0,3.134359E1,-1.9632668E1,-4.051723E0,-4.672844E0,6.7061954E0,-2.7600687E0,7.8648863E0,7.586611E0,-8.678161E0,-7.641992E0,-2.5881555E0,1.32930765E1,-1.0051202E0,-1.5759936E1,-3.9188364E0,-1.4531216E1,1.1961166E1,2.5385649E1,-1.8944945E0,3.39785E0,1.3626779E0,-3.7371887E1,-9.94503E0,-1.5200857E1,1.2786993E-1,-1.1400508E0,2.1459801E0,7.034954E0,-6.832265E0,-1.9031093E0,1.4591651E1,1.568784E0,1.7528135E1,-2.055062E1,-2.4425268E0,-5.119307E-1,-1.1079041E1,1.7382405E0,2.557211E-1,-3.0382793E0,-7.885275E-1,-2.2208898E0,8.2957965E-1,-1.1922191E0,1.7930058E0,3.1077485E0,-1.7227246E0,-2.8620195E0,1.14314556E-1,-3.9633977E0,-6.244456E-1,-1.5114061E0,3.1276205E0,-6.862674E-1,-3.1305335E0,-1.7945496E0,3.919467E-1,-3.8408285E-1,1.1900883E0,-3.265347E-1,-1.6382684E0,8.046703E-1,-8.148214E-1,2.6825397E0,1.0419191E0,4.3576518E-1,-1.1992545E0,-2.9650856E-2,2.103073E0,-2.4343374E0,-1.1516067E0,-5.6453794E-1,1.0263078E0,1.4847742E-1,-2.2526704E-1,-1.5075241E0,4.547813E-2],"categories":[],"categories_nodes":[],"categories_segments":[],"categories_sizes":[],"default_left":[0,0,0,0,0,0,0,0,0,0,0,0,0,0,0,0,0,0,0,0,0,0,0,0,0,0,0,0,0,0,0,0,0,0,0,0,0,0,0,0,0,0,0,0,0,0,0,0,0,0,0,0,0,0,0,0,0,0,0,0,0,0,0,0,0,0,0,0,0,0,0,0,0,0,0,0,0,0,0,0,0,0,0,0,0,0,0,0,0,0,0,0,0,0,0],"id":5,"left_children":[1,3,5,7,9,11,13,15,17,19,21,23,25,27,29,31,33,35,37,39,41,-1,43,45,47,49,51,53,-1,55,-1,57,-1,59,61,63,65,-1,-1,67,69,71,73,-1,-1,75,77,79,81,83,85,87,89,91,93,-1,-1,-1,-1,-1,-1,-1,-1,-1,-1,-1,-1,-1,-1,-1,-1,-1,-1,-1,-1,-1,-1,-1,-1,-1,-1,-1,-1,-1,-1,-1,-1,-1,-1,-1,-1,-1,-1,-1,-1],"loss_changes":[6.1032793E3,9.738414E3,4.203682E3,1.2552548E4,8.616809E3,3.6275127E3,1.703105E3,5.187799E3,1.3932664E4,6.662173E3,5.2095615E3,5.774525E4,9.5796875E4,8.275508E2,6.343902E2,2.3970742E3,4.3760903E3,1.285575E4,3.7726172E2,5.643126E3,6.152991E3,0E0,1.0460701E3,5.2818906E4,5.482741E4,4.2509047E4,5.458564E4,1.4136649E2,0E0,8.725696E1,0E0,2.1785737E3,0E0,2.4626018E3,1.9244514E3,5.386292E3,1.0342967E4,0E0,0E0,5.974629E2,5.5864814E3,4.6193154E3,6.7174478E3,0E0,0E0,2.0631893E4,3.1797805E4,2.1254496E4,2.493664E4,1.6844674E4,1.673814E4,8.42318E3,1.9794613E4,1.3771936E1,1.912218E2,0E0,0E0,0E0,0E0,0E0,0E0,0E0,0E0,0E0,0E0,0E0,0E0,0E0,0E0,0E0,0E0,0E0,0E0,0E0,0E0,0E0,0E0,0E0,0E0,0E0,0E0,0E0,0E0,0E0,0E0,0E0,0E0,0E0,0E0,0E0,0E0,0E0,0E0,0E0,0E0],"parents":[2147483647,0,0,1,1,2,2,3,3,4,4,5,5,6,6,7,7,8,8,9,9,10,10,11,11,12,12,13,13,14,14,15,15,16,16,17,17,18,18,19,19,20,20,22,22,23,23,24,24,25,25,26,26,27,27,29,29,31,31,33,33,34,34,35,35,36,36,39,39,40,40,41,41,42,42,45,45,46,46,47,47,48,48,49,49,50,50,51,51,52,52,53,53,54,54],"right_children":[2,4,6,8,10,12,14,16,18,20,22,24,26,28,30,32,34,36,38,40,42,-1,44,46,48,50,52,54,-1,56,-1,58,-1,60,62,64,66,-1,-1,68,70,72,74,-1,-1,76,78,80,82,84,86,88,90,92,94,-1,-1,-1,-1,-1,-1,-1,-1,-1,-1,-1,-1,-1,-1,-1,-1,-1,-1,-1,-1,-1,-1,-1,-1,-1,-1,-1,-1,-1,-1,-1,-1,-1,-1,-1,-1,-1,-1,-1,-1],"split_conditions":[4.6771493E0,1.0675657E1,1.992785E1,4.588383E0,1.810683E1,1.2480735E1,3.2995677E0,2.5332038E0,1.6563803E1,1.1054943E0,1.8859869E1,1.1966884E1,9.816821E0,1.4871551E0,8.446694E0,1.1000862E1,9.718603E0,5.513599E0,1.8540094E1,3.11347E0,4.851487E0,-4.672844E0,1.8271902E1,6.6662235E0,9.890653E0,1.2154864E1,7.6249623E0,1.0973429E1,-2.5881555E0,8.7660475E0,-1.0051202E0,6.9948893E0,-3.9188364E0,4.512965E0,5.062167E-1,3.682187E0,1.9763228E0,3.39785E0,1.3626779E0,1.7490742E1,1.6508766E1,1.6312292E1,5.8257966E0,-1.1400508E0,2.1459801E0,3.9612422E0,1.4206645E1,5.130002E0,5.4911523E0,1.6006536E1,6.188054E0,1.5671216E1,1.5025594E1,1.2863439E1,1.4425599E1,1.7382405E0,2.557211E-1,-3.0382793E0,-7.885275E-1,-2.2208898E0,8.2957965E-1,-1.1922191E0,1.7930058E0,3.1077485E0,-1.7227246E0,-2.8620195E0,1.14314556E-1,-3.9633977E0,-6.244456E-1,-1.5114061E0,3.1276205E0,-6.862674E-1,-3.1305335E0,-1.7945496E0,3.919467E-1,-3.8408285E-1,1.1900883E0,-3.265347E-1,-1.6382684E0,8.046703E-1,-8.148214E-1,2.6825397E0,1.0419191E0,4.3576518E-1,-1.1992545E0,-2.9650856E-2,2.103073E0,-2.4343374E0,-1.1516067E0,-5.6453794E-1,1.0263078E0,1.4847742E-1,-2.2526704E-1,-1.5075241E0,4.547813E-2],"split_indices":[9,1,6,7,0,3,2,2,0,2,3,7,7,2,1,10,10,10,3,9,3,0,0,0,0,1,1,1,0,0,0,6,0,2,3,2,0,0,0,1,0,1,10,0,0,3,1,3,1,0,10,9,0,0,0,0,0,0,0,0,0,0,0,0,0,0,0,0,0,0,0,0,0,0,0,0,0,0,0,0,0,0,0,0,0,0,0,0,0,0,0,0,0,0,0],"split_type":[0,0,0,0,0,0,0,0,0,0,0,0,0,0,0,0,0,0,0,0,0,0,0,0,0,0,0,0,0,0,0,0,0,0,0,0,0,0,0,0,0,0,0,0,0,0,0,0,0,0,0,0,0,0,0,0,0,0,0,0,0,0,0,0,0,0,0,0,0,0,0,0,0,0,0,0,0,0,0,0,0,0,0,0,0,0,0,0,0,0,0,0,0,0,0],"sum_hessian":[4.004E3,3.86E2,3.618E3,2.11E2,1.75E2,3.602E3,1.6E1,4.9E1,1.62E2,1.65E2,1E1,2.155E3,1.447E3,1.3E1,3E0,2.6E1,2.3E1,1.45E2,1.7E1,3.4E1,1.31E2,8E0,2E0,1.322E3,8.33E2,7.1E2,7.37E2,5E0,8E0,2E0,1E0,2E1,6E0,1.2E1,1.1E1,1.9E1,1.26E2,1.4E1,3E0,1.1E1,2.3E1,3.5E1,9.6E1,1E0,1E0,3.88E2,9.34E2,3.4E2,4.93E2,4.43E2,2.67E2,2.53E2,4.84E2,2E0,3E0,1E0,1E0,6E0,1.4E1,9E0,3E0,2E0,9E0,1.7E1,2E0,1.2E1,1.14E2,1E1,1E0,2.1E1,2E0,2.4E1,1.1E1,1.6E1,8E1,1.2E2,2.68E2,6.81E2,2.53E2,1.31E2,2.09E2,1.24E2,3.69E2,3.68E2,7.5E1,4.4E1,2.23E2,1.77E2,7.6E1,3.87E2,9.7E1,1E0,1E0,2E0,1E0],"tree_param":{"num_deleted":"0","num_feature":"15","num_nodes":"95","size_leaf_vector":"1"}},{"base_weights":[-7.0997365E-2,-5.735206E-1,1.3593671E0,-5.668804E0,-2.9592153E-1,1.7690617E0,-1.5246669E1,-3.2795708E1,-3.9340062E0,-6.334573E-1,3.3455865E0,2.9019902E0,-4.135799E0,-2.7363289E1,2.662056E0,-3.6578815E0,-1.2654154E-1,-1.3213183E0,-1.7621567E1,-2.928508E0,7.499034E-3,1.35849495E1,-7.698385E-1,9.331541E0,1.6499789E0,-1.0542119E1,-4.96669E-1,1.2094305E0,-3.1045568E1,1.3862176E1,-8.98174E0,-3.5240612E0,-1.7007035E-1,-3.3507214E1,-2.6745957E-1,1.3523982E1,-3.6932716E0,2.8218895E-1,-4.5369983E0,2.362185E1,6.3991423E0,5.284209E0,-3.4088354E0,2.9590376E1,6.046129E0,-1.2859989E1,1.8753136E0,-1.41265955E1,1.8103502E1,3.8847866E0,-6.9044604E0,-3.8356113E-1,-3.2843594E1,1.9472488E0,-7.0946926E-1,1.9115386E0,-2.0512197E0,5.1909393E-1,-5.7099265E-1,-3.4890587E0,-9.1450423E-1,-5.4228085E-1,8.034591E-1,2.769726E0,-7.032668E-1,-6.577103E-1,-3.6608655E-2,-1.9595757E-1,1.7154267E-1,1.2139808E0,-1.3715539E0,1.0670991E-1,3.1089284E0,-9.3275213E-1,2.3378515E0,8.128859E-1,-3.875036E-1,1.0322956E0,-5.488641E-1,-8.2650185E-1,3.2152622E0,8.931977E-1,-1.1964126E0,-5.4048914E-1,-2.4555187E0,1.6750727E0,1.5477933E-1,-6.782907E-1,-3.8652287E0,2.996201E-1,2.3547184E0,7.8508127E-1,-1.0557076E0,-2.510142E-1,-1.183242E0,-1.0952184E0,-3.5828197E0,-2.5501132E-1,4.2487937E-1],"categories":[],"categories_nodes":[],"categories_segments":[],"categories_sizes":[],"default_left":[0,0,0,0,0,0,0,0,0,0,0,0,0,0,0,0,0,0,0,0,0,0,0,0,0,0,0,0,0,0,0,0,0,0,0,0,0,0,0,0,0,0,0,0,0,0,0,0,0,0,0,0,0,0,0,0,0,0,0,0,0,0,0,0,0,0,0,0,0,0,0,0,0,0,0,0,0,0,0,0,0,0,0,0,0,0,0,0,0,0,0,0,0,0,0,0,0,0,0],"id":6,"left_children":[1,3,5,7,9,11,13,15,17,19,21,23,25,27,29,-1,-1,31,33,35,37,39,41,43,45,47,49,-1,51,53,55,-1,57,59,61,63,65,67,69,71,73,75,77,79,81,83,85,87,89,91,93,-1,95,-1,-1,97,-1,-1,-1,-1,-1,-1,-1,-1,-1,-1,-1,-1,-1,-1,-1,-1,-1,-1,-1,-1,-1,-1,-1,-1,-1,-1,-1,-1,-1,-1,-1,-1,-1,-1,-1,-1,-1,-1,-1,-1,-1,-1,-1],"loss_changes":[2.858694E3,4.161037E3,7.0616914E3,7.024056E3,3.4338765E3,6.7686836E3,5.4976743E3,1.0272549E3,5.1263467E3,3.7599678E3,9.99748E3,6.810892E3,3.7948535E3,2.5548818E3,1.5590376E3,0E0,0E0,4.7580474E3,6.3317065E3,7.0708525E3,2.4966873E3,4.7532188E3,2.7340369E3,9.006181E3,2.3488022E3,6.313835E3,2.974745E3,0E0,5.5896387E2,8.4359875E2,7.928369E2,0E0,3.5638477E3,8.534766E1,5.571697E2,7.4786636E3,5.1213447E3,6.063045E3,1.761634E4,4.682758E3,1.1166248E4,1.3863512E3,3.4552349E3,2.1086445E3,6.343846E3,8.2635913E2,3.3893464E3,9.283604E3,5.0512305E2,3.6913196E3,9.014651E2,0E0,4.5698438E2,0E0,0E0,5.2546974E1,0E0,0E0,0E0,0E0,0E0,0E0,0E0,0E0,0E0,0E0,0E0,0E0,0E0,0E0,0E0,0E0,0E0,0E0,0E0,0E0,0E0,0E0,0E0,0E0,0E0,0E0,0E0,0E0,0E0,0E0,0E0,0E0,0E0,0E0,0E0,0E0,0E0,0E0,0E0,0E0,0E0,0E0,0E0],"parents":[2147483647,0,0,1,1,2,2,3,3,4,4,5,5,6,6,7,7,8,8,9,9,10,10,11,11,12,12,13,13,14,14,17,17,18,18,19,19,20,20,21,21,22,22,23,23,24,24,25,25,26,26,28,28,29,29,30,30,32,32,33,33,34,34,35,35,36,36,37,37,38,38,39,39,40,40,41,41,42,42,43,43,44,44,45,45,46,46,47,47,48,48,49,49,50,50,52,52,55,55],"right_children":[2,4,6,8,10,12,14,16,18,20,22,24,26,28,30,-1,-1,32,34,36,38,40,42,44,46,48,50,-1,52,54,56,-1,58,60,62,64,66,68,70,72,74,76,78,80,82,84,86,88,90,92,94,-1,96,-1,-1,98,-1,-1,-1,-1,-1,-1,-1,-1,-1,-1,-1,-1,-1,-1,-1,-1,-1,-1,-1,-1,-1,-1,-1,-1,-1,-1,-1,-1,-1,-1,-1,-1,-1,-1,-1,-1,-1,-1,-1,-1,-1,-1,-1],"split_conditions":[3.7195857E0,3.0221716E-1,4.889892E0,3.514816E0,4.57988E0,4.2820477E0,9.949929E0,1.4948288E1,1.5535304E1,6.8924766E0,7.548483E0,6.1367393E0,7.666139E0,2.5882602E0,1.6253002E0,-3.6578815E0,-1.2654154E-1,1.015613E0,1.02086E1,1.9438024E0,1.893754E1,6.588361E0,1.3952961E0,3.8458428E0,3.601931E-1,1.7572756E1,1.111569E1,1.2094305E0,3.0836115E0,1.830418E1,4.5207176E0,-3.5240612E0,1.6340658E-1,4.334988E0,2.3112612E0,2.5748608E0,1.0243678E1,7.7532525E0,8.735345E0,1.2952062E0,1.2966686E1,2.9085543E0,2.8172867E0,1.5019631E0,1.5957473E1,8.940949E0,8.066686E-1,1.6757477E1,1.182138E0,1.790107E1,1.5350114E1,-3.8356113E-1,1.1273984E-1,1.9472488E0,-7.0946926E-1,6.945618E-1,-2.0512197E0,5.1909393E-1,-5.7099265E-1,-3.4890587E0,-9.1450423E-1,-5.4228085E-1,8.034591E-1,2.769726E0,-7.032668E-1,-6.577103E-1,-3.6608655E-2,-1.9595757E-1,1.7154267E-1,1.2139808E0,-1.3715539E0,1.0670991E-1,3.1089284E0,-9.3275213E-1,2.3378515E0,8.128859E-1,-3.875036E-1,1.0322956E0,-5.488641E-1,-8.2650185E-1,3.2152622E0,8.931977E-1,-1.1964126E0,-5.4048914E-1,-2.4555187E0,1.6750727E0,1.5477933E-1,-6.782907E-1,-3.8652287E0,2.996201E-1,2.3547184E0,7.8508127E-1,-1.0557076E0,-2.510142E-1,-1.183242E0,-1.0952184E0,-3.5828197E0,-2.5501132E-1,4.2487937E-1],"split_indices":[5,2,2,10,2,8,10,0,6,10,10,10,6,7,8,0,0,6,0,6,7,0,8,5,7,10,1,0,3,6,3,0,2,8,5,8,7,3,3,0,0,5,1,3,7,1,7,0,7,6,6,0,8,0,0,1,0,0,0,0,0,0,0,0,0,0,0,0,0,0,0,0,0,0,0,0,0,0,0,0,0,0,0,0,0,0,0,0,0,0,0,0,0,0,0,0,0,0,0],"split_type":[0,0,0,0,0,0,0,0,0,0,0,0,0,0,0,0,0,0,0,0,0,0,0,0,0,0,0,0,0,0,0,0,0,0,0,0,0,0,0,0,0,0,0,0,0,0,0,0,0,0,0,0,0,0,0,0,0,0,0,0,0,0,0,0,0,0,0,0,0,0,0,0,0,0,0,0,0,0,0,0,0,0,0,0,0,0,0,0,0,0,0,0,0,0,0,0,0,0,0],"sum_hessian":[3.975E3,2.942E3,1.033E3,1.51E2,2.791E3,1.009E3,2.4E1,8E0,1.43E2,2.555E3,2.36E2,8.47E2,1.62E2,1.4E1,1E1,7E0,1E0,1.21E2,2.2E1,5.57E2,1.998E3,6.7E1,1.69E2,1.37E2,7.1E2,5.8E1,1.04E2,1E0,1.3E1,5E0,5E0,3E0,1.18E2,1.1E1,1.1E1,2.4E1,5.33E2,1.885E3,1.13E2,2.7E1,4E1,5.1E1,1.18E2,1.8E1,1.19E2,1E1,7E2,5.2E1,6E0,6.2E1,4.2E1,1E0,1.2E1,4E0,1E0,3E0,2E0,6E1,5.8E1,1E1,1E0,7E0,4E0,1.4E1,1E1,2.85E2,2.48E2,7.35E2,1.15E3,4E1,7.3E1,7E0,2E1,2.1E1,1.9E1,3.9E1,1.2E1,1.5E1,1.03E2,1E0,1.7E1,1.03E2,1.6E1,7E0,3E0,1.4E1,6.86E2,4.1E1,1.1E1,2E0,4E0,4.9E1,1.3E1,2.3E1,1.9E1,2E0,1E1,1E0,2E0],"tree_param":{"num_deleted":"0","num_feature":"15","num_nodes":"99","size_leaf_vector":"1"}},{"base_weights":[-1.23319186E-1,-7.134254E0,1.4841015E-2,-1.7857744E1,-2.6025658E0,1.3221021E-1,-7.1302404E0,-3.1323211E0,-1.1262686E1,3.8588518E-1,-2.0581509E1,-6.712708E-1,1.3041445E0,1.2948566E1,-1.870978E1,-1.8144926E1,4.378908E0,1.3106438E1,-3.2118573E0,-2.5108349E1,-4.6673232E-1,3.8567276E0,-5.9766893E0,-7.4457717E0,7.5391774E0,1.8382595E1,-1.137726E1,2.8912356E0,-2.0491209E1,5.897086E-1,-2.1950823E1,-2.5001162E-1,8.443449E0,1.972372E1,-3.4047375E0,-6.572885E0,1.3091824E1,-2.7860868E0,-5.672881E-1,-4.1162553E0,7.6085963E0,6.069129E0,-9.659873E0,-1.663232E1,-1.8756356E0,1.1629028E1,-6.8118963E0,3.0723616E1,5.4923406E0,-2.248737E1,1.6531588E0,5.216353E-1,-2.042058E-1,-2.8932147E0,-1.4944635E1,2.3751579E-1,-1.4905949E-1,-2.3212168E0,-5.299363E-1,1.0789144E0,7.0318274E-2,6.5735406E-1,2.3011522E0,2.94262E-1,-6.501397E-1,-2.0571244E0,-3.9327237E-1,1.7370579E0,1.5966235E-1,2.419266E-1,-8.5749686E-1,1.5636504E0,2.4993311E-1,1.1000563E0,-7.2914827E-1,-1.5965087E0,-5.9824574E-1,1.3699237E0,-1.9632291E0,1.4713902E0,-4.912469E-1,1.6265715E0,2.609957E-1,-1.2925155E0,2.4032362E-1,3.3924673E0,9.5706105E-2,-5.023397E-1,1.0063667E0,-2.555156E0,-6.647398E-1,-2.0621254E0,-2.561619E-1],"categories":[],"categories_nodes":[],"categories_segments":[],"categories_sizes":[],"default_left":[0,0,0,0,0,0,0,0,0,0,0,0,0,0,0,0,0,0,0,0,0,0,0,0,0,0,0,0,0,0,0,0,0,0,0,0,0,0,0,0,0,0,0,0,0,0,0,0,0,0,0,0,0,0,0,0,0,0,0,0,0,0,0,0,0,0,0,0,0,0,0,0,0,0,0,0,0,0,0,0,0,0,0,0,0,0,0,0,0,0,0,0,0],"id":7,"left_children":[1,3,5,7,9,11,13,-1,15,17,19,21,23,25,27,29,31,33,35,37,-1,39,41,43,45,47,49,51,53,55,57,-1,59,61,63,65,67,-1,-1,69,71,73,75,77,79,81,83,85,87,89,-1,-1,-1,-1,91,-1,-1,-1,-1,-1,-1,-1,-1,-1,-1,-1,-1,-1,-1,-1,-1,-1,-1,-1,-1,-1,-1,-1,-1,-1,-1,-1,-1,-1,-1,-1,-1,-1,-1,-1,-1,-1,-1],"loss_changes":[3.9095054E3,3.7439746E3,3.3210093E3,1.6897437E3,3.0167764E3,3.669454E3,1.5122479E4,0E0,1.9094917E3,2.2845942E3,4.591394E2,5.5564062E4,8.652742E4,3.3816375E3,1.6369512E3,8.685696E2,1.8887006E2,1.2690044E3,2.2231387E3,1.6292725E2,0E0,3.736347E4,4.7309438E4,3.3741223E4,5.442962E4,3.0128335E3,1.9221038E3,5.6534035E1,1.3467139E3,1.4683227E1,8.702295E1,0E0,6.503848E1,1.946145E2,9.775354E1,1.1387103E3,3.1656177E2,0E0,0E0,1.167675E4,3.47841E4,1.6551953E4,1.8825E4,2.2926398E4,2.0828701E4,3.0108758E4,1.1635969E4,9.20376E2,5.793333E2,2.429541E1,0E0,0E0,0E0,0E0,1.7045176E3,0E0,0E0,0E0,0E0,0E0,0E0,0E0,0E0,0E0,0E0,0E0,0E0,0E0,0E0,0E0,0E0,0E0,0E0,0E0,0E0,0E0,0E0,0E0,0E0,0E0,0E0,0E0,0E0,0E0,0E0,0E0,0E0,0E0,0E0,0E0,0E0,0E0,0E0],"parents":[2147483647,0,0,1,1,2,2,3,3,4,4,5,5,6,6,8,8,9,9,10,10,11,11,12,12,13,13,14,14,15,15,16,16,17,17,18,18,19,19,21,21,22,22,23,23,24,24,25,25,26,26,27,27,28,28,29,29,30,30,32,32,33,33,34,34,35,35,36,36,39,39,40,40,41,41,42,42,43,43,44,44,45,45,46,46,47,47,48,48,49,49,54,54],"right_children":[2,4,6,8,10,12,14,-1,16,18,20,22,24,26,28,30,32,34,36,38,-1,40,42,44,46,48,50,52,54,56,58,-1,60,62,64,66,68,-1,-1,70,72,74,76,78,80,82,84,86,88,90,-1,-1,-1,-1,92,-1,-1,-1,-1,-1,-1,-1,-1,-1,-1,-1,-1,-1,-1,-1,-1,-1,-1,-1,-1,-1,-1,-1,-1,-1,-1,-1,-1,-1,-1,-1,-1,-1,-1,-1,-1,-1,-1],"split_conditions":[9.9275604E-2,9.072212E0,1.9627922E1,2.8832147E0,4.025791E0,1.1942275E1,8.891117E0,-3.1323211E0,1.4206645E1,1.0617608E1,1.5982185E1,1.1381771E1,8.735345E0,1.4916821E1,9.4821966E-1,1.1093977E1,8.798321E0,1.4737173E1,1.8811062E1,4.907549E0,-4.6673232E-1,6.7244453E0,4.528893E0,8.517083E0,1.4865953E1,1.1607396E1,6.0919785E0,1.5207554E1,6.6662235E0,1.4581038E1,1.842337E1,-2.5001162E-1,1.8801865E1,3.890866E-2,2.2419639E-1,3.6930025E0,1.1718999E1,-2.7860868E0,-5.672881E-1,3.9612422E0,4.4341726E0,1.31493025E1,4.869848E0,2.5764377E0,2.7542143E0,1.3251836E1,1.5406871E1,4.1231084E0,3.621432E0,1.0777302E1,1.6531588E0,5.216353E-1,-2.042058E-1,-2.8932147E0,1.293222E1,2.3751579E-1,-1.4905949E-1,-2.3212168E0,-5.299363E-1,1.0789144E0,7.0318274E-2,6.5735406E-1,2.3011522E0,2.94262E-1,-6.501397E-1,-2.0571244E0,-3.9327237E-1,1.7370579E0,1.5966235E-1,2.419266E-1,-8.5749686E-1,1.5636504E0,2.4993311E-1,1.1000563E0,-7.2914827E-1,-1.5965087E0,-5.9824574E-1,1.3699237E0,-1.9632291E0,1.4713902E0,-4.912469E-1,1.6265715E0,2.609957E-1,-1.2925155E0,2.4032362E-1,3.3924673E0,9.5706105E-2,-5.023397E-1,1.0063667E0,-2.555156E0,-6.647398E-1,-2.0621254E0,-2.561619E-1],"split_indices":[8,10,6,7,5,1,1,0,1,10,3,3,3,3,3,3,3,1,3,5,0,6,7,7,6,0,1,0,0,0,3,0,0,8,0,0,7,0,0,3,1,0,1,0,6,7,3,8,8,0,0,0,0,0,7,0,0,0,0,0,0,0,0,0,0,0,0,0,0,0,0,0,0,0,0,0,0,0,0,0,0,0,0,0,0,0,0,0,0,0,0,0,0],"split_type":[0,0,0,0,0,0,0,0,0,0,0,0,0,0,0,0,0,0,0,0,0,0,0,0,0,0,0,0,0,0,0,0,0,0,0,0,0,0,0,0,0,0,0,0,0,0,0,0,0,0,0,0,0,0,0,0,0,0,0,0,0,0,0,0,0,0,0,0,0,0,0,0,0,0,0,0,0,0,0,0,0,0,0,0,0,0,0,0,0,0,0,0,0],"sum_hessian":[4.035E3,7.7E1,3.958E3,2.2E1,5.5E1,3.895E3,6.3E1,6E0,1.6E1,4.8E1,7E0,2.311E3,1.584E3,2.3E1,4E1,1.1E1,5E0,1E1,3.8E1,5E0,2E0,1.247E3,1.064E3,6.59E2,9.25E2,1.9E1,4E0,3E0,3.7E1,2E0,9E0,2E0,3E0,7E0,3E0,3.2E1,6E0,4E0,1E0,3.99E2,8.48E2,2.49E2,8.15E2,2.48E2,4.11E2,7.2E2,2.05E2,9E0,1E1,3E0,1E0,2E0,1E0,1.3E1,2.4E1,1E0,1E0,8E0,1E0,2E0,1E0,2E0,5E0,1E0,2E0,4E0,2.8E1,4E0,2E0,1.62E2,2.37E2,3.29E2,5.19E2,1.82E2,6.7E1,2.99E2,5.16E2,2.2E1,2.26E2,6.3E1,3.48E2,4.75E2,2.45E2,1.23E2,8.2E1,8E0,1E0,3E0,7E0,2E0,1E0,1.6E1,8E0],"tree_param":{"num_deleted":"0","num_feature":"15","num_nodes":"93","size_leaf_vector":"1"}},{"base_weights":[7.85026E-2,2.389059E-1,-6.705849E0,9.482077E-1,-1.2336782E0,-1.3531068E1,2.0588741E1,-4.231801E0,5.321779E0,9.708882E0,-8.964776E0,-2.4398445E1,-7.266776E0,2.43995E1,1.9852352E-1,-8.333733E0,1.925574E0,1.0503574E1,8.990895E-1,1.27252E0,2.2160368E1,-1.8499674E1,-1.5500921E0,-1.7692997E1,-3.130584E1,-3.0878484E0,-4.481769E0,3.0340106E0,1.4666379E1,2.2317753E0,-2.950616E-1,2.0075736E0,-1.523252E1,1.4362922E0,2.1173288E1,1.7031387E1,-2.7184808E0,1.7740353E1,1.9992073E-1,-1.355363E1,2.7558618E0,2.6256252E1,1.5246796E1,-1.2898746E1,-2.5393307E1,2.832636E0,-9.628616E0,-2.6504366E1,-5.5685844E0,-7.7406865E-1,-3.2744427E1,1.0191913E1,-6.161931E0,1.8003132E0,3.1040794E-1,3.023941E-1,3.2372214E-2,-8.2864136E-1,4.1087696E-1,-9.8565465E-1,-2.152232E0,2.8388098E-1,-4.293501E-1,2.6125484E0,-1.6650432E0,1.2331287E0,2.180395E0,-6.316033E-1,6.3471025E-1,2.6874645E0,-1.3106003E-1,-4.3271795E-1,1.9633552E-1,2.5603168E0,-1.905646E0,9.159624E-3,1.158236E0,3.1136582E0,1.7798928E0,5.366843E-1,1.7941675E0,-1.4624432E0,1.896825E-1,1.4605244E-1,-2.6756165E0,-9.828198E-2,1.0072267E0,-2.1086285E0,-4.9341464E-1,-2.8238657E0,-6.315028E-1,9.3259937E-1,-2.2794662E0,-3.4381127E0,-8.188723E-1,-7.973153E-1,2.4959674E0,-1.3009928E0,-2.3698026E-2],"categories":[],"categories_nodes":[],"categories_segments":[],"categories_sizes":[],"default_left":[0,0,0,0,0,0,0,0,0,0,0,0,0,0,0,0,0,0,0,0,0,0,0,0,0,0,0,0,0,0,0,0,0,0,0,0,0,0,0,0,0,0,0,0,0,0,0,0,0,0,0,0,0,0,0,0,0,0,0,0,0,0,0,0,0,0,0,0,0,0,0,0,0,0,0,0,0,0,0,0,0,0,0,0,0,0,0,0,0,0,0,0,0,0,0,0,0,0,0],"id":8,"left_children":[1,3,5,7,9,11,13,15,17,19,21,23,25,27,29,31,33,35,37,39,41,43,45,47,49,-1,51,-1,53,55,-1,57,59,61,63,65,67,69,71,73,75,77,79,81,83,85,87,89,91,-1,93,95,97,-1,-1,-1,-1,-1,-1,-1,-1,-1,-1,-1,-1,-1,-1,-1,-1,-1,-1,-1,-1,-1,-1,-1,-1,-1,-1,-1,-1,-1,-1,-1,-1,-1,-1,-1,-1,-1,-1,-1,-1,-1,-1,-1,-1,-1,-1],"loss_changes":[4.381738E3,4.1092144E3,1.7603701E4,6.017191E4,1.0828788E5,4.9284336E3,1.4714976E3,3.0728713E4,3.2991715E4,5.5645785E4,5.2995016E4,6.9666895E2,3.0837896E3,4.801504E2,3.2197083E1,5.2110586E4,4.5559385E3,5.7270555E4,9.157314E3,7.0088945E3,5.6595547E3,1.2336781E4,1.5004004E4,1.561731E3,1.5334277E2,0E0,1.1722393E3,0E0,2.5276123E2,3.5555668E0,0E0,6.3715435E3,1.4598305E4,3.8373887E3,2.682726E3,9.690734E3,7.2151494E3,5.429748E3,5.9799624E3,6.736628E3,6.7951025E3,4.9353125E3,2.0869844E3,4.7001875E3,5.382383E3,7.606084E3,7.910323E3,1.3679932E2,2.265184E3,0E0,1.6055566E2,1.5402941E3,1.6604526E3,0E0,0E0,0E0,0E0,0E0,0E0,0E0,0E0,0E0,0E0,0E0,0E0,0E0,0E0,0E0,0E0,0E0,0E0,0E0,0E0,0E0,0E0,0E0,0E0,0E0,0E0,0E0,0E0,0E0,0E0,0E0,0E0,0E0,0E0,0E0,0E0,0E0,0E0,0E0,0E0,0E0,0E0,0E0,0E0,0E0,0E0],"parents":[2147483647,0,0,1,1,2,2,3,3,4,4,5,5,6,6,7,7,8,8,9,9,10,10,11,11,12,12,13,13,14,14,15,15,16,16,17,17,18,18,19,19,20,20,21,21,22,22,23,23,24,24,26,26,28,28,29,29,31,31,32,32,33,33,34,34,35,35,36,36,37,37,38,38,39,39,40,40,41,41,42,42,43,43,44,44,45,45,46,46,47,47,48,48,50,50,51,51,52,52],"right_children":[2,4,6,8,10,12,14,16,18,20,22,24,26,28,30,32,34,36,38,40,42,44,46,48,50,-1,52,-1,54,56,-1,58,60,62,64,66,68,70,72,74,76,78,80,82,84,86,88,90,92,-1,94,96,98,-1,-1,-1,-1,-1,-1,-1,-1,-1,-1,-1,-1,-1,-1,-1,-1,-1,-1,-1,-1,-1,-1,-1,-1,-1,-1,-1,-1,-1,-1,-1,-1,-1,-1,-1,-1,-1,-1,-1,-1,-1,-1,-1,-1,-1,-1],"split_conditions":[1.947804E1,1.3641638E1,1.6764685E1,9.315742E0,8.525983E0,1.0872577E1,1.9397503E1,8.059356E0,9.575447E0,1.1041758E1,9.0479765E0,3.2995677E0,9.634747E-1,8.7660475E0,1.6822838E1,7.2140017E0,1.866499E1,8.838805E0,2.9914646E0,5.204E0,5.2204895E0,1.4581038E1,1.6117928E1,2.682558E0,4.44252E0,-3.0878484E0,3.6930025E0,3.0340106E0,1.361049E1,2.044183E0,-2.950616E-1,5.606461E0,1.3420239E1,7.3909106E0,1.7943937E1,1.4476862E1,7.4217224E0,8.707703E0,7.095599E0,8.047295E-1,7.909185E0,1.4952737E1,4.1253443E0,1.5345963E1,4.4594736E0,1.6248669E1,9.868991E0,2.8360484E0,4.251249E0,-7.7406865E-1,1.8337294E1,5.37783E0,1.06399555E1,1.8003132E0,3.1040794E-1,3.023941E-1,3.2372214E-2,-8.2864136E-1,4.1087696E-1,-9.8565465E-1,-2.152232E0,2.8388098E-1,-4.293501E-1,2.6125484E0,-1.6650432E0,1.2331287E0,2.180395E0,-6.316033E-1,6.3471025E-1,2.6874645E0,-1.3106003E-1,-4.3271795E-1,1.9633552E-1,2.5603168E0,-1.905646E0,9.159624E-3,1.158236E0,3.1136582E0,1.7798928E0,5.366843E-1,1.7941675E0,-1.4624432E0,1.896825E-1,1.4605244E-1,-2.6756165E0,-9.828198E-2,1.0072267E0,-2.1086285E0,-4.9341464E-1,-2.8238657E0,-6.315028E-1,9.3259937E-1,-2.2794662E0,-3.4381127E0,-8.188723E-1,-7.973153E-1,2.4959674E0,-1.3009928E0,-2.3698026E-2],"split_indices":[6,4,4,0,0,10,10,4,6,6,6,2,0,0,0,6,6,4,9,10,0,0,0,5,9,0,0,0,9,0,0,9,6,0,10,0,6,4,10,0,6,9,3,9,10,6,9,2,5,0,3,3,0,0,0,0,0,0,0,0,0,0,0,0,0,0,0,0,0,0,0,0,0,0,0,0,0,0,0,0,0,0,0,0,0,0,0,0,0,0,0,0,0,0,0,0,0,0,0],"split_type":[0,0,0,0,0,0,0,0,0,0,0,0,0,0,0,0,0,0,0,0,0,0,0,0,0,0,0,0,0,0,0,0,0,0,0,0,0,0,0,0,0,0,0,0,0,0,0,0,0,0,0,0,0,0,0,0,0,0,0,0,0,0,0,0,0,0,0,0,0,0,0,0,0,0,0,0,0,0,0,0,0,0,0,0,0,0,0,0,0,0,0,0,0,0,0,0,0,0,0],"sum_hessian":[4.024E3,3.932E3,9.2E1,2.654E3,1.278E3,7.4E1,1.8E1,1.215E3,1.439E3,5.29E2,7.49E2,2.6E1,4.8E1,1.5E1,3E0,7.29E2,4.86E2,6.62E2,7.77E2,3.16E2,2.13E2,3.27E2,4.22E2,1.5E1,1.1E1,4E0,4.4E1,8E0,7E0,2E0,1E0,2.92E2,4.37E2,4.75E2,1.1E1,4.43E2,2.19E2,3E1,7.47E2,2.8E1,2.88E2,1.32E2,8.1E1,1.82E2,1.45E2,2.74E2,1.48E2,8E0,7E0,1E0,1E1,4E0,4E1,5E0,2E0,1E0,1E0,4.9E1,2.43E2,2.37E2,2E2,3.82E2,9.3E1,1E1,1E0,2.25E2,2.18E2,1.57E2,6.2E1,2E1,1E1,2.09E2,5.38E2,3E0,2.5E1,2.22E2,6.6E1,8.2E1,5E1,1.8E1,6.3E1,1.63E2,1.9E1,7E0,1.38E2,1.8E2,9.4E1,4.2E1,1.06E2,7E0,1E0,4E0,3E0,9E0,1E0,2E0,2E0,1.8E1,2.2E1],"tree_param":{"num_deleted":"0","num_feature":"15","num_nodes":"99","size_leaf_vector":"1"}},{"base_weights":[-2.8862664E-2,5.3116693E0,-1.6551167E-1,-2.2627815E1,7.335762E0,-1.0065911E1,-7.8600936E-2,8.713871E-1,-2.9303741E1,9.965732E0,-1.3414531E1,-1.972339E1,2.0314639E0,2.0118687E-1,-2.8026328E0,-3.2139728E0,-7.561903E-1,3.3674154E0,1.7864552E1,-1.9782213E0,-2.6742456E1,-2.369086E1,-3.8763E0,1.630244E1,-1.4277319E1,-9.0032226E-1,1.9326732E0,7.075472E0,-1.1154484E1,5.937777E0,-2.5748415E1,2.2580225E1,2.4026394E0,5.552295E0,-1.3869675E0,-3.2319582E0,-2.2169788E-1,-3.380192E1,-1.3194384E1,6.0431546E-1,-7.064816E-1,4.572554E0,2.4771841E1,-2.0013814E0,-3.5373726E0,4.8070507E0,-4.308812E0,-5.746246E0,9.046471E0,-1.9603798E0,1.3849217E1,-1.5268821E1,5.799868E0,-6.406281E-1,1.2543541E0,-5.969793E-1,-3.035136E0,3.0645447E0,1.5948955E0,-1.3400698E0,8.028561E-1,9.215705E-1,-4.5506713E-1,-9.0349114E-1,-3.6423938E0,-3.20513E-1,-2.487967E0,-5.5105593E-2,1.457529E-1,-6.135189E-1,2.3701763E0,2.7784688E0,6.360228E-1,-2.8860213E-3,-4.6972567E-1,-5.1760703E-1,7.8834504E-1,-7.828276E-1,5.1096242E-2,5.004226E-1,-9.1534036E-1,1.3309723E0,-1.4257361E-2,-2.387725E0,-6.614254E-2,2.0990124E0,9.524941E-1,-1.77088E0,-2.2001277E-1,-8.8083774E-2,1.654772E0],"categories":[],"categories_nodes":[],"categories_segments":[],"categories_sizes":[],"default_left":[0,0,0,0,0,0,0,0,0,0,0,0,0,0,0,0,0,0,0,0,0,0,0,0,0,0,0,0,0,0,0,0,0,0,0,0,0,0,0,0,0,0,0,0,0,0,0,0,0,0,0,0,0,0,0,0,0,0,0,0,0,0,0,0,0,0,0,0,0,0,0,0,0,0,0,0,0,0,0,0,0,0,0,0,0,0,0,0,0,0,0],"id":9,"left_children":[1,3,5,7,9,11,13,-1,15,17,19,21,23,25,27,-1,-1,29,31,33,35,37,39,41,43,45,47,49,51,53,55,57,59,61,-1,-1,-1,63,65,67,-1,69,71,-1,73,75,77,79,81,83,85,87,89,-1,-1,-1,-1,-1,-1,-1,-1,-1,-1,-1,-1,-1,-1,-1,-1,-1,-1,-1,-1,-1,-1,-1,-1,-1,-1,-1,-1,-1,-1,-1,-1,-1,-1,-1,-1,-1,-1],"loss_changes":[2.9251008E3,5.821203E3,3.3618516E3,1.7199924E3,5.2635127E3,4.0122922E3,2.9538987E3,0E0,1.2692041E2,4.317832E3,1.6237427E3,1.102752E3,3.9566316E3,6.705717E3,2.9861588E4,0E0,0E0,3.6702844E3,2.716454E3,7.0385016E2,6.1225684E2,1.1459619E3,7.5701935E1,7.808352E2,4.220808E2,4.1826336E4,7.47261E4,1.0187439E4,1.3760713E4,3.6682021E3,1.8296826E2,1.0622344E3,9.966717E2,2.2699414E2,0E0,0E0,0E0,1.25489746E2,9.7080286E2,3.7605157E0,0E0,1.169568E3,1.0063989E2,0E0,1.6142307E1,2.4733307E4,2.2836223E4,2.4147389E4,2.7816309E4,2.0339761E3,2.7335996E3,4.9992383E3,2.8149019E3,0E0,0E0,0E0,0E0,0E0,0E0,0E0,0E0,0E0,0E0,0E0,0E0,0E0,0E0,0E0,0E0,0E0,0E0,0E0,0E0,0E0,0E0,0E0,0E0,0E0,0E0,0E0,0E0,0E0,0E0,0E0,0E0,0E0,0E0,0E0,0E0,0E0,0E0],"parents":[2147483647,0,0,1,1,2,2,3,3,4,4,5,5,6,6,8,8,9,9,10,10,11,11,12,12,13,13,14,14,17,17,18,18,19,19,20,20,21,21,22,22,23,23,24,24,25,25,26,26,27,27,28,28,29,29,30,30,31,31,32,32,33,33,37,37,38,38,39,39,41,41,42,42,44,44,45,45,46,46,47,47,48,48,49,49,50,50,51,51,52,52],"right_children":[2,4,6,8,10,12,14,-1,16,18,20,22,24,26,28,-1,-1,30,32,34,36,38,40,42,44,46,48,50,52,54,56,58,60,62,-1,-1,-1,64,66,68,-1,70,72,-1,74,76,78,80,82,84,86,88,90,-1,-1,-1,-1,-1,-1,-1,-1,-1,-1,-1,-1,-1,-1,-1,-1,-1,-1,-1,-1,-1,-1,-1,-1,-1,-1,-1,-1,-1,-1,-1,-1,-1,-1,-1,-1,-1,-1],"split_conditions":[2.7111406E0,3.655002E-1,2.9927514E0,8.75292E-1,1.8320164E1,2.628868E0,1.842337E1,8.713871E-1,1.7789265E1,1.0153765E1,3.206478E0,1.6248669E1,3.5181618E0,1.20646E1,9.902324E0,-3.2139728E0,-7.561903E-1,9.762515E0,1.3891943E1,7.922753E0,1.9767904E1,1.1152407E1,8.8138685E0,1.568928E0,9.967826E0,7.702838E0,9.890653E0,7.793036E0,1.6608778E1,1.7964344E0,8.6440533E-1,1.2092523E1,8.654026E-1,2.127907E0,-1.3869675E0,-3.2319582E0,-2.2169788E-1,1.4347787E0,1.3893301E1,9.433003E0,-7.064816E-1,1.21606865E1,1.3835622E1,-2.0013814E0,9.018902E0,4.360533E0,1.0414873E1,4.688339E0,1.2260634E1,4.238285E0,1.1963975E1,1.7475576E1,1.3227556E1,-6.406281E-1,1.2543541E0,-5.969793E-1,-3.035136E0,3.0645447E0,1.5948955E0,-1.3400698E0,8.028561E-1,9.215705E-1,-4.5506713E-1,-9.0349114E-1,-3.6423938E0,-3.20513E-1,-2.487967E0,-5.5105593E-2,1.457529E-1,-6.135189E-1,2.3701763E0,2.7784688E0,6.360228E-1,-2.8860213E-3,-4.6972567E-1,-5.1760703E-1,7.8834504E-1,-7.828276E-1,5.1096242E-2,5.004226E-1,-9.1534036E-1,1.3309723E0,-1.4257361E-2,-2.387725E0,-6.614254E-2,2.0990124E0,9.524941E-1,-1.77088E0,-2.2001277E-1,-8.8083774E-2,1.654772E0],"split_indices":[10,5,10,1,1,2,3,0,1,1,5,6,2,7,7,0,0,1,9,0,1,7,1,5,9,0,0,1,1,10,2,1,0,2,0,0,0,1,3,0,0,0,1,0,0,3,3,3,3,9,9,10,0,0,0,0,0,0,0,0,0,0,0,0,0,0,0,0,0,0,0,0,0,0,0,0,0,0,0,0,0,0,0,0,0,0,0,0,0,0,0],"split_type":[0,0,0,0,0,0,0,0,0,0,0,0,0,0,0,0,0,0,0,0,0,0,0,0,0,0,0,0,0,0,0,0,0,0,0,0,0,0,0,0,0,0,0,0,0,0,0,0,0,0,0,0,0,0,0,0,0,0,0,0,0,0,0,0,0,0,0,0,0,0,0,0,0,0,0,0,0,0,0,0,0,0,0,0,0,0,0,0,0,0,0],"sum_hessian":[4.006E3,9.9E1,3.907E3,6E0,9.3E1,3.3E1,3.874E3,1E0,5E0,8.3E1,1E1,1.8E1,1.5E1,3.514E3,3.6E2,4E0,1E0,4.6E1,3.7E1,6E0,4E0,1.4E1,4E0,8E0,7E0,2.148E3,1.366E3,1.65E2,1.95E2,4.3E1,3E0,2.8E1,9E0,4E0,2E0,3E0,1E0,6E0,8E0,2E0,2E0,4E0,4E0,4E0,3E0,8.03E2,1.345E3,6.57E2,7.09E2,7.1E1,9.4E1,1.57E2,3.8E1,1.5E1,2.8E1,1E0,2E0,1.1E1,1.7E1,2E0,7E0,3E0,1E0,1E0,5E0,5E0,3E0,1E0,1E0,3E0,1E0,3E0,1E0,1E0,2E0,1.89E2,6.14E2,7.77E2,5.68E2,1.58E2,4.99E2,4.84E2,2.25E2,3E0,6.8E1,3.4E1,6E1,1.32E2,2.5E1,2.4E1,1.4E1],"tree_param":{"num_deleted":"0","num_feature":"15","num_nodes":"91","size_leaf_vector":"1"}},{"base_weights":[-2.0117933E-1,6.2936473E0,-3.5353312E-1,1.5303666E1,1.1793179E-1,-2.026233E0,6.894181E-2,-1.2999196E1,1.9128231E1,-1.421842E1,6.9057317E0,-4.954069E-1,-7.49313E0,4.2223163E0,-2.4391872E-1,8.2781774E-1,-2.0388083E0,3.8752668E0,1.5085114E1,4.79598E0,-2.4125286E1,3.581067E0,3.4270115E0,-3.5691655E0,4.1868405E0,-1.2947599E1,1.8574463E1,6.6817446E0,-3.9138966E0,-3.6033838E0,4.065921E-2,1.7370272E1,-1.050969E1,-7.175562E0,2.314989E0,1.1803704E1,-3.2491455E1,7.49352E0,-2.1392351E1,1.1579853E0,-1.0748163E1,-2.9002264E0,1.2365769E1,4.0984634E-1,-2.5578745E1,3.2029217E1,2.9844263E0,-6.3192077E0,8.101178E0,-9.515418E0,1.732031E1,-1.8183126E1,-2.6235735E0,-1.4126128E0,9.630061E-1,1.0402712E0,2.6559207E0,-2.2924633E0,7.160098E-1,9.5451754E-1,-1.374204E0,2.0911012E0,-3.205455E-1,-3.954625E0,-2.848183E-1,1.3361087E-1,2.0290473E0,-2.418936E0,-5.102157E-1,-5.3181916E-1,1.3111957E0,-5.36236E-1,-2.919117E0,7.437192E-1,-1.1215397E0,3.017322E0,1.0343946E0,-5.412255E-1,2.2118368E0,-3.2001762E0,-8.150234E-1,3.662154E0,-1.8427811E0,1.2782991E0,-1.3843918E0,9.080704E-1,-2.1016986E0,-2.2831564E-1,1.0483655E0,6.336872E-1,-1.2965503E0,-2.606027E-1,2.9079077E0,-2.2774978E0,6.2453157E-1,-1.2468536E0,-1.6458528E-1,6.209792E-1,-8.3420223E-1,-2.6266524E-1,6.761469E-1],"categories":[],"categories_nodes":[],"categories_segments":[],"categories_sizes":[],"default_left":[0,0,0,0,0,0,0,0,0,0,0,0,0,0,0,0,0,0,0,0,0,0,0,0,0,0,0,0,0,0,0,0,0,0,0,0,0,0,0,0,0,0,0,0,0,0,0,0,0,0,0,0,0,0,0,0,0,0,0,0,0,0,0,0,0,0,0,0,0,0,0,0,0,0,0,0,0,0,0,0,0,0,0,0,0,0,0,0,0,0,0,0,0,0,0,0,0,0,0,0,0],"id":10,"left_children":[1,3,5,7,9,11,13,15,17,19,21,23,25,27,29,-1,-1,-1,31,33,35,37,-1,39,41,43,45,47,49,51,53,55,57,59,-1,61,63,65,67,69,71,73,75,77,79,81,83,85,87,89,91,93,95,97,99,-1,-1,-1,-1,-1,-1,-1,-1,-1,-1,-1,-1,-1,-1,-1,-1,-1,-1,-1,-1,-1,-1,-1,-1,-1,-1,-1,-1,-1,-1,-1,-1,-1,-1,-1,-1,-1,-1,-1,-1,-1,-1,-1,-1,-1,-1],"loss_changes":[3.9286064E3,5.0617363E3,2.7406208E3,4.253758E3,5.4503643E3,6.5407437E3,4.0253552E3,9.548568E2,2.0337617E3,3.5064204E3,3.3344175E3,8.822907E3,2.455411E4,4.368416E3,2.754468E3,0E0,0E0,0E0,1.8787139E3,1.7041858E3,3.9905747E3,3.5800598E3,0E0,1.2568844E4,1.4121266E4,2.3968703E4,6.197216E3,3.1330088E3,6.2309463E3,3.1665059E3,3.5628584E3,1.4523726E3,8.22251E2,6.8015204E2,0E0,4.7710828E2,1.9786377E3,2.4155684E3,1.0440088E2,1.7410924E4,1.4445035E4,1.1343831E4,3.756287E3,8.966955E3,7.9110625E3,4.382293E3,2.6503706E3,4.038705E3,3.7597383E3,2.3245222E3,2.6531816E3,1.7126411E3,2.0201112E3,5.4560766E4,3.3862137E4,0E0,0E0,0E0,0E0,0E0,0E0,0E0,0E0,0E0,0E0,0E0,0E0,0E0,0E0,0E0,0E0,0E0,0E0,0E0,0E0,0E0,0E0,0E0,0E0,0E0,0E0,0E0,0E0,0E0,0E0,0E0,0E0,0E0,0E0,0E0,0E0,0E0,0E0,0E0,0E0,0E0,0E0,0E0,0E0,0E0,0E0],"parents":[2147483647,0,0,1,1,2,2,3,3,4,4,5,5,6,6,7,7,8,8,9,9,10,10,11,11,12,12,13,13,14,14,18,18,19,19,20,20,21,21,23,23,24,24,25,25,26,26,27,27,28,28,29,29,30,30,31,31,32,32,33,33,35,35,36,36,37,37,38,38,39,39,40,40,41,41,42,42,43,43,44,44,45,45,46,46,47,47,48,48,49,49,50,50,51,51,52,52,53,53,54,54],"right_children":[2,4,6,8,10,12,14,16,18,20,22,24,26,28,30,-1,-1,-1,32,34,36,38,-1,40,42,44,46,48,50,52,54,56,58,60,-1,62,64,66,68,70,72,74,76,78,80,82,84,86,88,90,92,94,96,98,100,-1,-1,-1,-1,-1,-1,-1,-1,-1,-1,-1,-1,-1,-1,-1,-1,-1,-1,-1,-1,-1,-1,-1,-1,-1,-1,-1,-1,-1,-1,-1,-1,-1,-1,-1,-1,-1,-1,-1,-1,-1,-1,-1,-1,-1,-1],"split_conditions":[2.7111406E0,2.2665136E0,6.8924766E0,3.3361512E-1,6.8667307E0,1.4865953E1,7.672429E0,3.4767992E0,5.990472E0,9.194016E0,1.7762285E1,1.2034275E1,1.5238475E1,3.8986044E0,3.4923303E-1,8.2781774E-1,-2.0388083E0,3.8752668E0,1.7616526E1,3.5181618E0,1.4473587E0,1.5428703E1,3.4270115E0,1.0049632E1,8.653093E0,1.0973429E1,1.3558263E1,1.8272774E0,4.0042596E0,1.6997945E0,7.7532525E0,2.105783E0,1.8481369E1,5.0196686E0,2.314989E0,7.4966794E-1,1.1381771E1,3.7757401E0,6.0919785E0,1.1214813E1,1.4806544E1,5.4774485E0,7.5304613E0,1.830418E1,1.6822466E1,1.8337294E1,3.5568738E0,2.9335492E0,5.7466946E0,7.0571127E0,7.8379846E0,1.3349341E1,8.435762E0,9.822109E0,1.2499597E1,1.0402712E0,2.6559207E0,-2.2924633E0,7.160098E-1,9.5451754E-1,-1.374204E0,2.0911012E0,-3.205455E-1,-3.954625E0,-2.848183E-1,1.3361087E-1,2.0290473E0,-2.418936E0,-5.102157E-1,-5.3181916E-1,1.3111957E0,-5.36236E-1,-2.919117E0,7.437192E-1,-1.1215397E0,3.017322E0,1.0343946E0,-5.412255E-1,2.2118368E0,-3.2001762E0,-8.150234E-1,3.662154E0,-1.8427811E0,1.2782991E0,-1.3843918E0,9.080704E-1,-2.1016986E0,-2.2831564E-1,1.0483655E0,6.336872E-1,-1.2965503E0,-2.606027E-1,2.9079077E0,-2.2774978E0,6.2453157E-1,-1.2468536E0,-1.6458528E-1,6.209792E-1,-8.3420223E-1,-2.6266524E-1,6.761469E-1],"split_indices":[10,8,10,5,0,6,10,0,9,7,4,1,4,8,8,0,0,0,0,2,3,7,0,3,3,1,0,0,2,6,3,10,0,1,0,0,3,5,1,7,7,6,6,6,3,3,5,5,7,10,3,1,10,1,1,0,0,0,0,0,0,0,0,0,0,0,0,0,0,0,0,0,0,0,0,0,0,0,0,0,0,0,0,0,0,0,0,0,0,0,0,0,0,0,0,0,0,0,0,0,0],"split_type":[0,0,0,0,0,0,0,0,0,0,0,0,0,0,0,0,0,0,0,0,0,0,0,0,0,0,0,0,0,0,0,0,0,0,0,0,0,0,0,0,0,0,0,0,0,0,0,0,0,0,0,0,0,0,0,0,0,0,0,0,0,0,0,0,0,0,0,0,0,0,0,0,0,0,0,0,0,0,0,0,0,0,0,0,0,0,0,0,0,0,0,0,0,0,0,0,0,0,0,0,0],"sum_hessian":[3.967E3,9E1,3.877E3,3.6E1,5.4E1,7.81E2,3.096E3,4E0,3.2E1,1.7E1,3.7E1,6.11E2,1.7E2,2.16E2,2.88E3,1E0,3E0,4E0,2.8E1,6E0,1.1E1,3.4E1,3E0,3.69E2,2.42E2,1.41E2,2.9E1,1.66E2,5E1,2.24E2,2.656E3,2.6E1,2E0,4E0,2E0,2E0,9E0,3E1,4E0,2.23E2,1.46E2,1.3E2,1.12E2,6.9E1,7.2E1,1.5E1,1.4E1,1.6E1,1.5E2,4E1,1E1,1.3E1,2.11E2,1.031E3,1.625E3,1.6E1,1E1,1E0,1E0,1E0,3E0,1E0,1E0,7E0,2E0,2.1E1,9E0,3E0,1E0,1.45E2,7.8E1,1.14E2,3.2E1,5.8E1,7.2E1,1E1,1.02E2,5.5E1,1.4E1,5.2E1,2E1,1.4E1,1E0,9E0,5E0,8E0,8E0,2.8E1,1.22E2,7E0,3.3E1,4E0,6E0,1.1E1,2E0,1.8E1,1.93E2,4.91E2,5.4E2,1.004E3,6.21E2],"tree_param":{"num_deleted":"0","num_feature":"15","num_nodes":"101","size_leaf_vector":"1"}},{"base_weights":[2.4858934E-1,4.3879572E-1,-2.7494047E0,2.0910743E-1,4.940547E0,-1.2778016E1,-7.8007835E-1,5.680026E-1,-2.236078E0,1.3924571E1,2.1458786E0,8.708376E0,-2.385615E1,-7.9106426E0,1.3411218E0,-5.8804667E-1,1.166032E0,9.674007E0,-2.8606663E0,2.8467487E1,5.922215E0,-2.3954253E0,3.289989E0,-1.3872294E1,1.9127874E1,-2.7801853E1,1.5661527E0,-1.8083607E1,5.0611525E0,-1.300292E1,2.7458787E0,7.5635076E0,-6.0172358E0,-4.0775595E0,4.499275E0,2.5442417E1,-4.3197262E-1,-8.0939045E0,-1.2539269E0,-1.9983319E0,3.335564E1,3.5292833E0,1.1758811E0,6.230702E0,-3.849972E0,-2.378175E0,1.2882761E0,-1.4412374E0,2.4455942E1,-3.0254332E1,1.4302586E0,-2.3270685E1,-3.5038404E0,-5.223397E0,1.6896496E1,-3.5713298E0,-2.1924322E0,2.0065262E1,1.9673226E0,1.2419977E0,4.6431246E-1,-3.801441E-1,-1.401793E0,9.665055E-2,-6.820981E-1,5.9995437E-1,9.356388E-2,-4.3000475E-1,2.969773E0,-1.2494595E0,1.1684645E0,-9.75756E-1,5.1966447E-1,-3.206705E-1,3.2191238E-1,3.6956328E-1,3.7991006E0,4.7381303E-1,-2.771407E0,-1.1987561E0,8.488495E-1,2.5252368E0,-6.0462105E-1,2.74185E0,9.3913317E-1,5.059046E-1,-3.3858418E0,-2.8780992E0,-2.0856266E-1,-9.0752333E-1,8.8068926E-1,9.719829E-1,-2.808788E0,-2.8392312E-1,2.2185333E0,-7.7786654E-1,6.033785E-1,2.5131505E0,-2.6329756E-1,3.197259E-1,-9.066923E-1],"categories":[],"categories_nodes":[],"categories_segments":[],"categories_sizes":[],"default_left":[0,0,0,0,0,0,0,0,0,0,0,0,0,0,0,0,0,0,0,0,0,0,0,0,0,0,0,0,0,0,0,0,0,0,0,0,0,0,0,0,0,0,0,0,0,0,0,0,0,0,0,0,0,0,0,0,0,0,0,0,0,0,0,0,0,0,0,0,0,0,0,0,0,0,0,0,0,0,0,0,0,0,0,0,0,0,0,0,0,0,0,0,0,0,0,0,0,0,0,0,0],"id":11,"left_children":[1,3,5,7,9,11,13,15,17,19,21,23,25,27,29,31,33,35,37,39,41,-1,43,45,47,49,-1,51,53,55,57,59,61,63,65,67,69,71,73,-1,75,-1,77,79,81,-1,-1,-1,83,85,-1,87,89,91,93,95,-1,97,99,-1,-1,-1,-1,-1,-1,-1,-1,-1,-1,-1,-1,-1,-1,-1,-1,-1,-1,-1,-1,-1,-1,-1,-1,-1,-1,-1,-1,-1,-1,-1,-1,-1,-1,-1,-1,-1,-1,-1,-1,-1,-1],"loss_changes":[2.2747437E3,3.8764653E3,4.6904385E3,3.1333E3,4.5396597E3,9.490883E3,3.03568E3,2.1528628E3,3.4272512E3,4.8356465E3,4.259409E3,3.5592566E3,4.4894707E3,6.1617573E3,3.1589377E3,4.704573E4,3.588354E4,3.676161E3,3.6475261E3,4.219079E3,4.0011797E3,0E0,2.858526E3,1.6320146E3,2.139516E3,2.910963E3,0E0,1.88475E3,2.6444019E3,1.0997029E3,1.8752688E3,5.970002E3,1.1257109E4,1.1049314E4,6.704131E3,1.2667734E3,2.3383677E3,2.306018E3,2.927771E3,0E0,1.7843887E3,0E0,2.8070557E3,4.0505305E3,2.7093076E3,0E0,0E0,0E0,1.4417139E2,3.0985547E3,0E0,2.157961E3,6.2862805E2,4.373039E3,1.1067793E3,3.702303E2,0E0,7.5613916E2,1.8882742E3,0E0,0E0,0E0,0E0,0E0,0E0,0E0,0E0,0E0,0E0,0E0,0E0,0E0,0E0,0E0,0E0,0E0,0E0,0E0,0E0,0E0,0E0,0E0,0E0,0E0,0E0,0E0,0E0,0E0,0E0,0E0,0E0,0E0,0E0,0E0,0E0,0E0,0E0,0E0,0E0,0E0,0E0],"parents":[2147483647,0,0,1,1,2,2,3,3,4,4,5,5,6,6,7,7,8,8,9,9,10,10,11,11,12,12,13,13,14,14,15,15,16,16,17,17,18,18,19,19,20,20,22,22,23,23,24,24,25,25,27,27,28,28,29,29,30,30,31,31,32,32,33,33,34,34,35,35,36,36,37,37,38,38,40,40,42,42,43,43,44,44,48,48,49,49,51,51,52,52,53,53,54,54,55,55,57,57,58,58],"right_children":[2,4,6,8,10,12,14,16,18,20,22,24,26,28,30,32,34,36,38,40,42,-1,44,46,48,50,-1,52,54,56,58,60,62,64,66,68,70,72,74,-1,76,-1,78,80,82,-1,-1,-1,84,86,-1,88,90,92,94,96,-1,98,100,-1,-1,-1,-1,-1,-1,-1,-1,-1,-1,-1,-1,-1,-1,-1,-1,-1,-1,-1,-1,-1,-1,-1,-1,-1,-1,-1,-1,-1,-1,-1,-1,-1,-1,-1,-1,-1,-1,-1,-1,-1,-1],"split_conditions":[1.8720102E1,1.7853195E1,8.695035E0,1.5706224E1,8.029085E0,1.7435179E0,6.702774E0,7.158556E0,3.4173722E0,1.9966772E0,8.908184E0,1.9010294E1,3.7793357E0,7.30339E0,2.7391505E-1,8.381521E0,8.3111E0,2.280197E0,1.2883557E0,6.70143E-2,1.2403683E1,-2.3954253E0,3.5530326E0,2.4914587E0,9.288538E-1,1.7475576E1,1.5661527E0,1.82169E1,3.3665948E0,3.0452867E0,5.1559526E-1,3.1192603E0,1.7338432E1,1.1869863E1,1.4041815E1,4.1253443E0,4.101936E0,1.8320164E1,1.4886286E1,-1.9983319E0,3.890866E-2,3.5292833E0,1.8649166E1,7.8455985E-1,9.51585E0,-2.378175E0,1.2882761E0,-1.4412374E0,6.694603E0,5.719948E-1,1.4302586E0,1.479234E1,1.9901175E1,2.6971247E0,9.298395E0,1.1273984E-1,-2.1924322E0,1.1200263E1,4.4712915E0,1.2419977E0,4.6431246E-1,-3.801441E-1,-1.401793E0,9.665055E-2,-6.820981E-1,5.9995437E-1,9.356388E-2,-4.3000475E-1,2.969773E0,-1.2494595E0,1.1684645E0,-9.75756E-1,5.1966447E-1,-3.206705E-1,3.2191238E-1,3.6956328E-1,3.7991006E0,4.7381303E-1,-2.771407E0,-1.1987561E0,8.488495E-1,2.5252368E0,-6.0462105E-1,2.74185E0,9.3913317E-1,5.059046E-1,-3.3858418E0,-2.8780992E0,-2.0856266E-1,-9.0752333E-1,8.8068926E-1,9.719829E-1,-2.808788E0,-2.8392312E-1,2.2185333E0,-7.7786654E-1,6.033785E-1,2.5131505E0,-2.6329756E-1,3.197259E-1,-9.066923E-1],"split_indices":[0,0,9,0,9,5,10,3,10,2,9,0,2,3,8,1,1,8,8,2,3,0,8,2,2,10,0,9,8,5,1,1,1,3,9,3,8,1,9,0,8,0,0,1,9,0,0,0,9,8,0,1,0,8,9,8,0,3,2,0,0,0,0,0,0,0,0,0,0,0,0,0,0,0,0,0,0,0,0,0,0,0,0,0,0,0,0,0,0,0,0,0,0,0,0,0,0,0,0,0,0],"split_type":[0,0,0,0,0,0,0,0,0,0,0,0,0,0,0,0,0,0,0,0,0,0,0,0,0,0,0,0,0,0,0,0,0,0,0,0,0,0,0,0,0,0,0,0,0,0,0,0,0,0,0,0,0,0,0,0,0,0,0,0,0,0,0,0,0,0,0,0,0,0,0,0,0,0,0,0,0,0,0,0,0,0,0,0,0,0,0,0,0,0,0,0,0,0,0,0,0,0,0,0,0],"sum_hessian":[3.986E3,3.749E3,2.37E2,3.568E3,1.81E2,3.8E1,1.99E2,3.112E3,4.56E2,4.2E1,1.39E2,1.3E1,2.5E1,4.5E1,1.54E2,1.061E3,2.051E3,2.2E1,4.34E2,1.4E1,2.8E1,5E0,1.34E2,4E0,9E0,2.3E1,2E0,2.5E1,2E1,1.3E1,1.41E2,4.24E2,6.37E2,7.97E2,1.254E3,8E0,1.4E1,1.01E2,3.33E2,1E0,1.3E1,3E0,2.5E1,9.5E1,3.9E1,3E0,1E0,1E0,8E0,2.2E1,1E0,1.8E1,7E0,1.1E1,9E0,7E0,6E0,5E0,1.36E2,1.58E2,2.66E2,5E2,1.37E2,2.81E2,5.16E2,8.82E2,3.72E2,1E0,7E0,7E0,7E0,9E1,1.1E1,2.32E2,1.01E2,2E0,1.1E1,2.3E1,2E0,1E1,8.5E1,2E0,3.7E1,6E0,2E0,2E0,2E1,1.4E1,4E0,5E0,2E0,7E0,4E0,2E0,7E0,5E0,2E0,4E0,1E0,1.23E2,1.3E1],"tree_param":{"num_deleted":"0","num_feature":"15","num_nodes":"101","size_leaf_vector":"1"}},{"base_weights":[8.659413E-2,5.4033604E0,-4.7097437E-2,6.8478293E0,-3.0253608E0,-8.607128E0,1.9288711E-2,1.4643089E1,2.46256E0,-1.2428667E1,1.9340044E1,-2.5101166E0,2.3260665E-1,2.360173E1,3.0895104E0,-1.9974829E1,5.2232594E0,-2.0386064E0,-2.1930965E1,2.6464021E0,-1.0159464E-1,-1.2730607E0,-2.0803627E1,2.9083785E-1,-1.271654E1,2.8802965E1,-1.3739175E1,-2.4833132E1,8.852255E0,2.4551861E-1,-2.9437873E0,2.8585143E0,1.7254871E1,-1.42856045E1,1.2249192E1,-8.1733674E-1,-2.4940004E1,4.6883035E0,-5.147478E0,-2.7435265E0,-2.7057695E1,2.2128202E-1,9.368695E0,-1.9063002E1,1.1088591E1,3.3318946E0,1.1300821E0,-2.85511E-1,-1.7753652E0,-2.946118E0,-7.788516E-1,-1.8464431E-1,1.7107083E0,1.1922283E0,-3.4909305E-1,1.970931E-1,2.9087837E0,-2.0900874E0,-2.445118E-1,1.9732598E0,-4.3062145E-1,-5.0213486E-1,-2.6429737E0,2.1024397E-1,2.421893E0,-3.3571598E-1,-3.1046028E0,2.693272E0,-1.406532E0,2.207152E-3,-3.157283E0,2.1074136E-1,-4.4665136E-3,1.6184323E0,-1.241657E0,-5.966971E-1,-2.4220464E0,1.3707051E0,1.6166058E-1],"categories":[],"categories_nodes":[],"categories_segments":[],"categories_sizes":[],"default_left":[0,0,0,0,0,0,0,0,0,0,0,0,0,0,0,0,0,0,0,0,0,0,0,0,0,0,0,0,0,0,0,0,0,0,0,0,0,0,0,0,0,0,0,0,0,0,0,0,0,0,0,0,0,0,0,0,0,0,0,0,0,0,0,0,0,0,0,0,0,0,0,0,0,0,0,0,0,0,0],"id":12,"left_children":[1,3,5,7,-1,9,11,13,15,17,19,21,23,25,27,29,31,33,35,-1,-1,37,39,41,43,45,47,49,51,-1,-1,53,55,57,59,-1,61,63,65,67,69,71,73,75,77,-1,-1,-1,-1,-1,-1,-1,-1,-1,-1,-1,-1,-1,-1,-1,-1,-1,-1,-1,-1,-1,-1,-1,-1,-1,-1,-1,-1,-1,-1,-1,-1,-1,-1],"loss_changes":[2.8399275E3,5.254698E3,2.2152725E3,3.2114507E3,0E0,3.4444072E3,2.0881707E3,3.446231E3,3.9447925E3,2.6209863E3,6.069485E2,6.7851733E3,2.6948838E3,4.0858857E3,2.7944058E3,1.5580693E3,1.5439716E3,2.6247441E3,3.757163E2,0E0,0E0,6.5605312E3,2.0717998E3,2.241986E3,2.628635E3,9.671387E2,8.039282E1,7.191284E0,1.26801E3,0E0,0E0,2.8040151E3,1.5703584E3,5.755187E2,9.5220874E2,0E0,1.9369434E2,5.6054775E3,7.8708354E3,2.3947473E3,1.712459E3,1.7697787E3,4.2099194E3,7.3352734E2,7.70491E1,0E0,0E0,0E0,0E0,0E0,0E0,0E0,0E0,0E0,0E0,0E0,0E0,0E0,0E0,0E0,0E0,0E0,0E0,0E0,0E0,0E0,0E0,0E0,0E0,0E0,0E0,0E0,0E0,0E0,0E0,0E0,0E0,0E0,0E0],"parents":[2147483647,0,0,1,1,2,2,3,3,5,5,6,6,7,7,8,8,9,9,10,10,11,11,12,12,13,13,14,14,15,15,16,16,17,17,18,18,21,21,22,22,23,23,24,24,25,25,26,26,27,27,28,28,31,31,32,32,33,33,34,34,36,36,37,37,38,38,39,39,40,40,41,41,42,42,43,43,44,44],"right_children":[2,4,6,8,-1,10,12,14,16,18,20,22,24,26,28,30,32,34,36,-1,-1,38,40,42,44,46,48,50,52,-1,-1,54,56,58,60,-1,62,64,66,68,70,72,74,76,78,-1,-1,-1,-1,-1,-1,-1,-1,-1,-1,-1,-1,-1,-1,-1,-1,-1,-1,-1,-1,-1,-1,-1,-1,-1,-1,-1,-1,-1,-1,-1,-1,-1,-1],"split_conditions":[2.7111406E0,4.6138916E0,2.9927514E0,8.852513E0,-3.0253608E0,1.8251778E1,4.238285E0,1.25695505E1,9.917757E0,1.0483687E1,8.076264E0,4.58968E0,1.992785E1,1.7645447E1,1.1824797E0,5.6737366E0,1.6579998E1,6.6547756E0,1.1516706E0,2.6464021E0,-1.0159464E-1,2.9914646E0,5.8175983E0,1.9871613E1,3.050799E0,1.3409504E1,4.0730395E0,9.7438E0,1.7964344E0,2.4551861E-1,-2.9437873E0,6.093002E0,1.1255492E0,1.7669933E0,7.4217224E0,-8.1733674E-1,1.4524107E0,4.0042596E0,1.7779198E1,2.127907E0,6.569597E-1,2.5882602E0,3.7531457E0,1.4871551E0,1.4351035E1,3.3318946E0,1.1300821E0,-2.85511E-1,-1.7753652E0,-2.946118E0,-7.788516E-1,-1.8464431E-1,1.7107083E0,1.1922283E0,-3.4909305E-1,1.970931E-1,2.9087837E0,-2.0900874E0,-2.445118E-1,1.9732598E0,-4.3062145E-1,-5.0213486E-1,-2.6429737E0,2.1024397E-1,2.421893E0,-3.3571598E-1,-3.1046028E0,2.693272E0,-1.406532E0,2.207152E-3,-3.157283E0,2.1074136E-1,-4.4665136E-3,1.6184323E0,-1.241657E0,-5.966971E-1,-2.4220464E0,1.3707051E0,1.6166058E-1],"split_indices":[10,5,10,9,0,4,9,6,9,6,0,8,6,7,5,7,4,6,5,0,0,9,6,7,2,4,0,0,10,0,0,7,8,8,6,0,4,2,0,2,2,7,2,2,0,0,0,0,0,0,0,0,0,0,0,0,0,0,0,0,0,0,0,0,0,0,0,0,0,0,0,0,0,0,0,0,0,0,0],"split_type":[0,0,0,0,0,0,0,0,0,0,0,0,0,0,0,0,0,0,0,0,0,0,0,0,0,0,0,0,0,0,0,0,0,0,0,0,0,0,0,0,0,0,0,0,0,0,0,0,0,0,0,0,0,0,0,0,0,0,0,0,0,0,0,0,0,0,0,0,0,0,0,0,0,0,0,0,0,0,0],"sum_hessian":[3.994E3,9.7E1,3.897E3,9.4E1,3E0,2.9E1,3.868E3,3.3E1,6.1E1,2.6E1,3E0,3E2,3.568E3,1.8E1,1.5E1,6E0,5.5E1,1.3E1,1.3E1,2E0,1E0,2.82E2,1.8E1,3.553E3,1.5E1,1.6E1,2E0,2E0,1.3E1,2E0,4E0,4.7E1,8E0,7E0,6E0,3E0,1E1,1.11E2,1.71E2,5E0,1.3E1,3.527E3,2.6E1,1.2E1,3E0,1.2E1,4E0,1E0,1E0,1E0,1E0,6E0,7E0,1.9E1,2.8E1,4E0,4E0,4E0,3E0,4E0,2E0,1E0,9E0,9.9E1,1.2E1,1.61E2,1E1,1E0,4E0,2E0,1.1E1,4.35E2,3.092E3,2E1,6E0,4E0,8E0,2E0,1E0],"tree_param":{"num_deleted":"0","num_feature":"15","num_nodes":"79","size_leaf_vector":"1"}},{"base_weights":[-4.3705618E-1,-5.6922495E-1,4.9382296E0,-3.0717522E-1,-3.169777E0,-6.4812584E0,1.3210744E1,-1.2615918E0,1.1069655E0,5.0706034E0,-1.0358121E1,-2.609323E1,3.5561998E0,2.174105E1,8.24272E0,1.4965601E0,-7.0798044E0,-5.2815523E0,7.4052167E0,-7.0224917E-1,1.3080159E1,-1.54342785E1,-2.1237326E0,-3.0425392E1,-7.656474E-1,1.4928845E1,-4.6807384E0,2.6360382E1,-1.3221959E1,1.1626111E1,-2.0550485E0,-4.794022E0,5.288877E0,6.2800765E0,-1.4892851E1,-9.449125E0,4.8910975E0,1.215844E1,-5.2754655E0,3.2293875E0,-6.0213213E0,1.7024956E1,6.9159656E0,-1.7177887E1,3.0879078E0,-5.591319E0,8.208298E0,-8.513935E-1,-3.1765144E0,2.841563E0,7.275958E0,-4.4369718E-1,-1.4760898E1,2.8238577E1,7.5565535E-1,-3.0539875E0,1.0706936E0,-5.151378E-1,1.4960776E1,-5.8393745E0,1.6001943E0,6.276823E-1,-1.3708524E0,1.1338364E0,-7.4547604E-2,2.0440176E0,-1.9897318E-1,-2.365913E0,-7.0951194E-1,7.088606E-2,-1.5094639E0,-7.0957893E-1,1.9661E0,2.036264E0,7.950677E-1,-1.7884644E0,6.6437167E-1,7.386891E-1,-1.340416E-1,-8.2718164E-1,1.2286704E0,1.1087503E0,2.1447742E0,8.435726E-1,-9.0672E-1,-8.237648E-1,-2.005627E0,-2.7930292E-1,1.4077805E0,-3.4977064E-1,-1.6135998E0,4.005463E-2,1.6839074E0,2.1815088E-1,9.4595975E-1,-4.161558E-1,1.6710806E-1,-1.8237222E0,-4.2779874E-2,3.1844413E0,1.692145E0,4.4722015E-1,-3.404514E-1,1.9400673E0,6.391963E-1,-8.578081E-1,2.4973992E-1],"categories":[],"categories_nodes":[],"categories_segments":[],"categories_sizes":[],"default_left":[0,0,0,0,0,0,0,0,0,0,0,0,0,0,0,0,0,0,0,0,0,0,0,0,0,0,0,0,0,0,0,0,0,0,0,0,0,0,0,0,0,0,0,0,0,0,0,0,0,0,0,0,0,0,0,0,0,0,0,0,0,0,0,0,0,0,0,0,0,0,0,0,0,0,0,0,0,0,0,0,0,0,0,0,0,0,0,0,0,0,0,0,0,0,0,0,0,0,0,0,0,0,0,0,0,0,0],"id":13,"left_children":[1,3,5,7,9,11,13,15,17,19,21,23,25,27,29,31,33,35,37,39,41,43,45,47,-1,49,51,53,55,57,59,61,63,65,67,69,71,73,75,77,79,81,83,85,87,89,91,-1,-1,-1,93,95,97,99,-1,-1,-1,101,103,105,-1,-1,-1,-1,-1,-1,-1,-1,-1,-1,-1,-1,-1,-1,-1,-1,-1,-1,-1,-1,-1,-1,-1,-1,-1,-1,-1,-1,-1,-1,-1,-1,-1,-1,-1,-1,-1,-1,-1,-1,-1,-1,-1,-1,-1,-1,-1],"loss_changes":[2.8417488E3,2.657456E3,9.154538E3,4.78601E3,2.1199305E4,8.1638203E3,2.1940068E3,3.3983184E4,5.753705E4,7.730928E3,7.95084E3,8.8524316E2,2.6927998E3,3.5786504E3,1.3130232E3,3.4306258E4,7.117725E4,3.0146855E4,4.3461508E4,2.0688857E3,1.5844111E3,3.8639082E3,2.697109E3,5.246875E1,0E0,1.0318035E3,7.195215E2,4.2232422E2,1.5701841E3,1.141343E3,7.767768E2,5.347791E4,3.2753207E4,2.95502E4,2.922568E4,2.8913617E4,3.678786E4,1.7927273E4,2.9726162E4,1.092843E3,1.8321222E3,8.651221E2,7.809153E2,2.6139922E3,7.502596E2,1.1798436E3,1.2736072E3,0E0,0E0,0E0,7.9483826E1,1.0916613E2,2.4133069E2,1.1407031E2,0E0,0E0,0E0,1.16097755E2,7.129741E2,2.269107E2,0E0,0E0,0E0,0E0,0E0,0E0,0E0,0E0,0E0,0E0,0E0,0E0,0E0,0E0,0E0,0E0,0E0,0E0,0E0,0E0,0E0,0E0,0E0,0E0,0E0,0E0,0E0,0E0,0E0,0E0,0E0,0E0,0E0,0E0,0E0,0E0,0E0,0E0,0E0,0E0,0E0,0E0,0E0,0E0,0E0,0E0,0E0],"parents":[2147483647,0,0,1,1,2,2,3,3,4,4,5,5,6,6,7,7,8,8,9,9,10,10,11,11,12,12,13,13,14,14,15,15,16,16,17,17,18,18,19,19,20,20,21,21,22,22,23,23,25,25,26,26,27,27,28,28,29,29,30,30,31,31,32,32,33,33,34,34,35,35,36,36,37,37,38,38,39,39,40,40,41,41,42,42,43,43,44,44,45,45,46,46,50,50,51,51,52,52,53,53,57,57,58,58,59,59],"right_children":[2,4,6,8,10,12,14,16,18,20,22,24,26,28,30,32,34,36,38,40,42,44,46,48,-1,50,52,54,56,58,60,62,64,66,68,70,72,74,76,78,80,82,84,86,88,90,92,-1,-1,-1,94,96,98,100,-1,-1,-1,102,104,106,-1,-1,-1,-1,-1,-1,-1,-1,-1,-1,-1,-1,-1,-1,-1,-1,-1,-1,-1,-1,-1,-1,-1,-1,-1,-1,-1,-1,-1,-1,-1,-1,-1,-1,-1,-1,-1,-1,-1,-1,-1,-1,-1,-1,-1,-1,-1],"split_conditions":[1.952175E1,1.842337E1,1.0538374E1,1.1495592E1,1.0098251E1,8.431518E0,7.661243E0,1.3693782E1,9.965051E0,1.0675657E1,1.0887948E1,2.7832925E0,3.0288796E0,1.7194546E1,1.3774219E1,7.0265174E0,7.12459E0,1.4173059E1,1.4335288E1,1.0777302E1,5.951065E0,1.9709204E1,1.758408E1,5.3720694E0,-7.656474E-1,4.7937207E0,1.1162925E1,1.9022278E1,1.8956635E1,2.428119E0,1.4444987E1,8.573477E0,6.7276287E0,8.89803E0,1.0003771E1,7.30339E0,1.0398224E1,7.5304613E0,1.0892845E1,5.6737366E0,4.6326137E0,7.807053E0,1.6406332E1,1.2727872E1,1.27790575E1,1.8541624E1,1.3227556E1,-8.513935E-1,-3.1765144E0,2.841563E0,2.5132196E0,1.3674462E1,1.5028638E0,1.5955834E1,7.5565535E-1,-3.0539875E0,1.0706936E0,1.9688332E1,1.38145485E1,1.6117928E1,1.6001943E0,6.276823E-1,-1.3708524E0,1.1338364E0,-7.4547604E-2,2.0440176E0,-1.9897318E-1,-2.365913E0,-7.0951194E-1,7.088606E-2,-1.5094639E0,-7.0957893E-1,1.9661E0,2.036264E0,7.950677E-1,-1.7884644E0,6.6437167E-1,7.386891E-1,-1.340416E-1,-8.2718164E-1,1.2286704E0,1.1087503E0,2.1447742E0,8.435726E-1,-9.0672E-1,-8.237648E-1,-2.005627E0,-2.7930292E-1,1.4077805E0,-3.4977064E-1,-1.6135998E0,4.005463E-2,1.6839074E0,2.1815088E-1,9.4595975E-1,-4.161558E-1,1.6710806E-1,-1.8237222E0,-4.2779874E-2,3.1844413E0,1.692145E0,4.4722015E-1,-3.404514E-1,1.9400673E0,6.391963E-1,-8.578081E-1,2.4973992E-1],"split_indices":[1,3,3,7,7,7,7,0,0,1,1,5,6,0,6,4,4,4,4,0,7,10,1,10,0,10,4,3,0,0,4,6,0,6,6,3,6,6,6,7,8,0,6,7,0,6,0,0,0,0,0,7,2,10,0,0,0,1,10,0,0,0,0,0,0,0,0,0,0,0,0,0,0,0,0,0,0,0,0,0,0,0,0,0,0,0,0,0,0,0,0,0,0,0,0,0,0,0,0,0,0,0,0,0,0,0,0],"split_type":[0,0,0,0,0,0,0,0,0,0,0,0,0,0,0,0,0,0,0,0,0,0,0,0,0,0,0,0,0,0,0,0,0,0,0,0,0,0,0,0,0,0,0,0,0,0,0,0,0,0,0,0,0,0,0,0,0,0,0,0,0,0,0,0,0,0,0,0,0,0,0,0,0,0,0,0,0,0,0,0,0,0,0,0,0,0,0,0,0,0,0,0,0,0,0,0,0,0,0,0,0,0,0,0,0,0,0],"sum_hessian":[3.995E3,3.9E3,9.5E1,3.544E3,3.56E2,4E1,5.5E1,2.116E3,1.428E3,1.66E2,1.9E2,1.3E1,2.7E1,1.9E1,3.6E1,1.436E3,6.8E2,7.09E2,7.19E2,9.7E1,6.9E1,1.17E2,7.3E1,1E1,3E0,1.1E1,1.6E1,1.7E1,2E0,2.7E1,9E0,5.4E2,8.96E2,2.51E2,4.29E2,5.03E2,2.06E2,5.23E2,1.96E2,5.6E1,4.1E1,4.1E1,2.8E1,1.07E2,1E1,5.5E1,1.8E1,1E0,9E0,3E0,8E0,1.2E1,4E0,1.5E1,2E0,1E0,1E0,6E0,2.1E1,8E0,1E0,2.41E2,2.99E2,4.47E2,4.49E2,9.2E1,1.59E2,2.01E2,2.28E2,1.8E2,3.23E2,1.14E2,9.2E1,1.76E2,3.47E2,9.5E1,1.01E2,2.9E1,2.7E1,3.7E1,4E0,1.9E1,2.2E1,2.6E1,2E0,2.7E1,8E1,7E0,3E0,4.7E1,8E0,1E1,8E0,3E0,5E0,4E0,8E0,3E0,1E0,1E1,5E0,2E0,4E0,1.3E1,8E0,6E0,2E0],"tree_param":{"num_deleted":"0","num_feature":"15","num_nodes":"107","size_leaf_vector":"1"}},{"base_weights":[-6.533203E-2,-6.752439E0,1.199198E-2,-2.734612E1,-1.0040805E0,8.86453E0,-9.607868E-2,8.3132505E-1,-3.2231967E0,1.0416723E1,-2.0510881E1,-1.0262851E1,1.4828423E1,-5.9722495E-1,9.6714365E-1,-2.7183387E0,1.7082615E1,-8.184342E0,-3.166823E0,1.182877E1,-2.2787256E1,2.058051E1,-8.595454E0,-2.0899343E0,3.091655E-1,1.7380084E0,-1.617259E0,2.7515076E1,1.1543618E-1,4.8685994E0,-1.3346756E1,-1.1240735E0,2.040633E0,-8.964905E-1,-2.5900557E1,-1.755322E1,2.3931248E1,-1.305423E1,1.1307989E0,-4.3647876E0,-7.958472E-1,1.5060485E1,1.9289656E-1,2.5556428E0,-2.453657E0,-8.797592E0,-4.82441E-2,3.5083444E0,-9.407302E-1,-1.0633043E0,1.6209296E0,1.362568E0,-6.3227814E-1,-1.561721E0,-9.972452E-2,-7.714888E-1,-2.7994714E0,-1.9467546E-1,-2.4383078E0,3.271452E0,9.494009E-1,2.8830057E-1,-1.6190938E0,1.8280735E0,-5.184073E-1,-1.4383081E0,-2.2477636E-2,3.561997E-2,2.420614E0,3.135638E-2,-9.6692276E-1,8.1896E-1,1.520128E-1,2.6962826E-1,-5.4377437E-1,1.471504E-1,-1.6992788E0,-7.3502433E-1,1.4564304E-1],"categories":[],"categories_nodes":[],"categories_segments":[],"categories_sizes":[],"default_left":[0,0,0,0,0,0,0,0,0,0,0,0,0,0,0,0,0,0,0,0,0,0,0,0,0,0,0,0,0,0,0,0,0,0,0,0,0,0,0,0,0,0,0,0,0,0,0,0,0,0,0,0,0,0,0,0,0,0,0,0,0,0,0,0,0,0,0,0,0,0,0,0,0,0,0,0,0,0,0],"id":14,"left_children":[1,3,5,7,9,11,13,-1,-1,15,17,19,21,23,25,-1,27,29,-1,31,33,35,37,39,41,43,45,47,49,51,53,-1,-1,-1,55,57,59,61,-1,63,65,67,69,71,73,75,77,-1,-1,-1,-1,-1,-1,-1,-1,-1,-1,-1,-1,-1,-1,-1,-1,-1,-1,-1,-1,-1,-1,-1,-1,-1,-1,-1,-1,-1,-1,-1,-1],"loss_changes":[2.0807866E3,5.4180166E3,3.8075593E3,2.0102144E3,8.456639E3,5.627717E3,2.095665E3,0E0,0E0,6.479681E3,1.6662573E3,3.5897588E3,5.1621367E3,3.6171553E3,2.5130144E3,0E0,3.7140215E3,6.040575E2,0E0,1.2187825E3,1.1206885E2,4.2533555E3,8.57577E2,2.9698232E3,2.8510557E3,3.33413E3,3.26673E3,3.962789E3,1.7292146E3,3.8016367E2,1.5265967E2,0E0,0E0,0E0,1.2525879E1,2.7230194E2,3.2399834E3,3.966117E2,0E0,6.8852197E3,5.001498E3,1.7396216E3,1.96897E3,4.73063E3,2.4581526E3,4.4011826E3,2.6366296E3,0E0,0E0,0E0,0E0,0E0,0E0,0E0,0E0,0E0,0E0,0E0,0E0,0E0,0E0,0E0,0E0,0E0,0E0,0E0,0E0,0E0,0E0,0E0,0E0,0E0,0E0,0E0,0E0,0E0,0E0,0E0,0E0],"parents":[2147483647,0,0,1,1,2,2,3,3,4,4,5,5,6,6,9,9,10,10,11,11,12,12,13,13,14,14,16,16,17,17,19,19,20,20,21,21,22,22,23,23,24,24,25,25,26,26,27,27,28,28,29,29,30,30,34,34,35,35,36,36,37,37,39,39,40,40,41,41,42,42,43,43,44,44,45,45,46,46],"right_children":[2,4,6,8,10,12,14,-1,-1,16,18,20,22,24,26,-1,28,30,-1,32,34,36,38,40,42,44,46,48,50,52,54,-1,-1,-1,56,58,60,62,-1,64,66,68,70,72,74,76,78,-1,-1,-1,-1,-1,-1,-1,-1,-1,-1,-1,-1,-1,-1,-1,-1,-1,-1,-1,-1,-1,-1,-1,-1,-1,-1,-1,-1,-1,-1,-1,-1],"split_conditions":[1.9643105E0,3.0967164E0,2.6409543E0,5.964402E-1,1.5972505E1,1.3112764E0,3.4217136E0,8.3132505E-1,-3.2231967E0,5.488043E-1,3.7170718E0,4.959812E0,1.6682825E1,9.460867E0,3.7962291E0,-2.7183387E0,1.2170246E1,1.6097112E0,-3.166823E0,2.3669174E-1,4.9487272E-1,6.104958E-1,3.7327025E0,8.299693E0,9.51585E0,4.2973204E0,5.967419E0,3.1187148E0,3.9463658E0,9.196443E0,3.7327025E0,-1.1240735E0,2.040633E0,-8.964905E-1,3.2285815E-1,7.95013E0,3.0126414E0,1.4453803E0,1.1307989E0,7.8455985E-1,1.4033052E-1,5.812191E0,1.9871613E1,5.967419E0,1.1360857E0,4.4594736E0,3.1868708E0,3.5083444E0,-9.407302E-1,-1.0633043E0,1.6209296E0,1.362568E0,-6.3227814E-1,-1.561721E0,-9.972452E-2,-7.714888E-1,-2.7994714E0,-1.9467546E-1,-2.4383078E0,3.271452E0,9.494009E-1,2.8830057E-1,-1.6190938E0,1.8280735E0,-5.184073E-1,-1.4383081E0,-2.2477636E-2,3.561997E-2,2.420614E0,3.135638E-2,-9.6692276E-1,8.1896E-1,1.520128E-1,2.6962826E-1,-5.4377437E-1,1.471504E-1,-1.6992788E0,-7.3502433E-1,1.4564304E-1],"split_indices":[9,6,9,5,6,2,5,0,0,5,8,1,10,9,2,0,7,5,0,2,5,5,2,10,9,8,10,2,5,1,2,0,0,0,2,1,5,2,0,1,5,4,7,10,2,10,6,0,0,0,0,0,0,0,0,0,0,0,0,0,0,0,0,0,0,0,0,0,0,0,0,0,0,0,0,0,0,0,0],"split_type":[0,0,0,0,0,0,0,0,0,0,0,0,0,0,0,0,0,0,0,0,0,0,0,0,0,0,0,0,0,0,0,0,0,0,0,0,0,0,0,0,0,0,0,0,0,0,0,0,0,0,0,0,0,0,0,0,0,0,0,0,0,0,0,0,0,0,0,0,0,0,0,0,0,0,0,0,0,0,0],"sum_hessian":[4.023E3,4.5E1,3.978E3,9E0,3.6E1,4.7E1,3.931E3,1E0,8E0,2.3E1,1.3E1,1.1E1,3.6E1,2.672E3,1.259E3,3E0,2E1,7E0,6E0,4E0,7E0,2.9E1,7E0,1.009E3,1.663E3,9.7E2,2.89E2,1.2E1,8E0,2E0,5E0,1E0,3E0,2E0,5E0,2E0,2.7E1,6E0,1E0,3.65E2,6.44E2,1.2E1,1.651E3,8.12E2,1.58E2,5.1E1,2.38E2,1E1,2E0,5E0,3E0,1E0,1E0,4E0,1E0,1E0,4E0,1E0,1E0,1.6E1,1.1E1,1E0,5E0,1.2E1,3.53E2,2.5E1,6.19E2,5E0,7E0,1.632E3,1.9E1,1.25E2,6.87E2,5.8E1,1E2,2.3E1,2.8E1,4E1,1.98E2],"tree_param":{"num_deleted":"0","num_feature":"15","num_nodes":"79","size_leaf_vector":"1"}},{"base_weights":[5.13052E-2,-2.1488516E0,3.296425E-1,-1.1975824E1,8.506984E0,1.3778722E0,-1.827593E0,1.3002725E1,-1.4760229E1,1.4003577E1,-1.3932881E1,3.3781922E0,-6.361406E0,-9.872169E0,4.968505E0,-2.710101E0,1.7880383E1,-8.16237E0,-2.2142025E1,7.162515E0,2.6246101E1,-2.0477957E1,4.6817245E0,-9.306458E-1,5.584811E0,1.9944669E0,-1.525229E1,-4.7100983E0,-1.8988804E1,1.4198174E1,-2.2977102E-1,-1.5499791E0,2.0208E1,-2.1755136E1,-4.4469395E0,-2.8476671E1,-1.4527594E1,1.8682299E1,3.67755E0,3.1226543E1,1.5771361E1,-2.7543074E1,-6.4075055E0,3.0231338E0,-3.4513314E0,5.545798E0,-4.0111256E0,1.0499542E1,1.2011936E0,-8.557415E0,1.0926175E1,-2.6569086E1,-1.1373741E1,-8.214977E0,6.11096E0,-2.1262747E1,-4.3049707E0,8.9760275E0,2.0980635E1,-4.3012557E0,5.7547264E0,1.0378882E0,2.438121E0,1.0141544E0,-2.3582885E0,-1.6579981E0,-3.0610332E-1,1.0782573E-1,-3.0911324E0,2.1120133E0,-1.5761677E0,1.022931E-1,2.5134544E0,-1.9648876E0,4.4485003E-1,3.3254323E0,1.3855442E0,4.7115165E-1,2.0618522E0,-6.042685E-1,-2.9488237E0,-7.014292E-2,-8.231594E-1,-8.65481E-1,2.1689987E0,1.1418377E0,1.5550582E-1,-5.9964037E-1,8.2830764E-2,1.7274668E0,4.6867022E-1,-5.496605E-1,8.935539E-1,-1.3086752E0,1.2771301E0,1.8837351E0,6.63318E-1,-3.1668193E0,-1.6989301E0,1.4792274E0,-1.3175042E0,-1.4805199E0,-3.811081E-1,1.1568638E0,1.0489123E-2,-2.6936204E0,-1.7344817E0,1.605304E0,-3.1090238E0,1.1528451E0,-4.8212376E-1,2.6517873E0,8.731397E-1,-1.03257E-1,-1.0511134E0,1.1128253E0,-5.7092273E-1],"categories":[],"categories_nodes":[],"categories_segments":[],"categories_sizes":[],"default_left":[0,0,0,0,0,0,0,0,0,0,0,0,0,0,0,0,0,0,0,0,0,0,0,0,0,0,0,0,0,0,0,0,0,0,0,0,0,0,0,0,0,0,0,0,0,0,0,0,0,0,0,0,0,0,0,0,0,0,0,0,0,0,0,0,0,0,0,0,0,0,0,0,0,0,0,0,0,0,0,0,0,0,0,0,0,0,0,0,0,0,0,0,0,0,0,0,0,0,0,0,0,0,0,0,0,0,0,0,0,0,0,0,0,0,0,0,0],"id":15,"left_children":[1,3,5,7,9,11,13,15,17,19,21,23,25,27,29,-1,31,33,35,37,39,41,43,45,47,49,51,53,55,57,59,-1,61,63,65,67,69,71,73,75,77,79,81,-1,83,85,87,89,91,93,95,97,99,101,103,105,107,109,111,113,115,-1,-1,-1,-1,-1,-1,-1,-1,-1,-1,-1,-1,-1,-1,-1,-1,-1,-1,-1,-1,-1,-1,-1,-1,-1,-1,-1,-1,-1,-1,-1,-1,-1,-1,-1,-1,-1,-1,-1,-1,-1,-1,-1,-1,-1,-1,-1,-1,-1,-1,-1,-1,-1,-1,-1,-1],"loss_changes":[2.448414E3,4.711874E4,8.027795E3,1.646671E4,2.6837156E4,3.7005676E4,6.352292E4,5.1792715E3,1.009582E4,1.4384836E4,5.3347344E3,1.806082E4,3.6507348E4,2.4946863E4,3.0229637E4,0E0,2.0225381E3,5.6100933E3,4.361543E3,4.467798E3,2.7419844E3,3.0046182E3,2.5978955E3,1.28704E4,2.7047035E4,2.4032066E4,1.0144285E4,1.2983137E4,6.319375E3,7.851789E3,9.868532E3,0E0,6.0834863E2,1.6383457E3,1.4626215E3,3.846996E3,2.4005264E3,2.936795E3,1.6699573E3,9.8346094E2,1.0822495E3,7.000703E2,1.1912674E2,0E0,1.4959458E3,4.8569175E3,4.2034985E3,2.3233617E4,3.449817E4,1.1469912E4,4.5618945E3,2.392875E3,8.631668E3,7.431418E3,2.7522385E3,3.2226875E3,1.522205E4,4.6337217E3,6.4155E3,4.880998E3,1.0166236E4,0E0,0E0,0E0,0E0,0E0,0E0,0E0,0E0,0E0,0E0,0E0,0E0,0E0,0E0,0E0,0E0,0E0,0E0,0E0,0E0,0E0,0E0,0E0,0E0,0E0,0E0,0E0,0E0,0E0,0E0,0E0,0E0,0E0,0E0,0E0,0E0,0E0,0E0,0E0,0E0,0E0,0E0,0E0,0E0,0E0,0E0,0E0,0E0,0E0,0E0,0E0,0E0,0E0,0E0,0E0,0E0],"parents":[2147483647,0,0,1,1,2,2,3,3,4,4,5,5,6,6,7,7,8,8,9,9,10,10,11,11,12,12,13,13,14,14,16,16,17,17,18,18,19,19,20,20,21,21,22,22,23,23,24,24,25,25,26,26,27,27,28,28,29,29,30,30,32,32,33,33,34,34,35,35,36,36,37,37,38,38,39,39,40,40,41,41,42,42,44,44,45,45,46,46,47,47,48,48,49,49,50,50,51,51,52,52,53,53,54,54,55,55,56,56,57,57,58,58,59,59,60,60],"right_children":[2,4,6,8,10,12,14,16,18,20,22,24,26,28,30,-1,32,34,36,38,40,42,44,46,48,50,52,54,56,58,60,-1,62,64,66,68,70,72,74,76,78,80,82,-1,84,86,88,90,92,94,96,98,100,102,104,106,108,110,112,114,116,-1,-1,-1,-1,-1,-1,-1,-1,-1,-1,-1,-1,-1,-1,-1,-1,-1,-1,-1,-1,-1,-1,-1,-1,-1,-1,-1,-1,-1,-1,-1,-1,-1,-1,-1,-1,-1,-1,-1,-1,-1,-1,-1,-1,-1,-1,-1,-1,-1,-1,-1,-1,-1,-1,-1,-1],"split_conditions":[2.1898694E0,1.0778649E1,1.3409504E1,2.6523728E0,1.4864516E1,1.56946335E1,9.0479765E0,4.985993E0,9.301926E0,1.18997555E1,3.9806411E0,8.076264E0,1.0290577E1,1.3623844E1,8.7660475E0,-2.710101E0,1.4688398E-1,7.4964266E0,1.4793756E1,9.917757E0,1.5345963E1,1.5983432E1,2.8752892E0,6.019966E0,5.7499905E0,4.6981373E0,8.00305E0,1.5007708E1,1.5663501E1,1.5350114E1,1.6115686E1,-1.5499791E0,3.4847026E0,1.5419466E0,2.6054456E0,3.9331021E0,1.4347787E0,2.8304982E0,2.7111406E0,1.8025612E1,1.42244835E1,1.4955435E1,3.91207E-1,3.0231338E0,1.4626118E0,4.6326613E0,1.4469658E1,7.6120715E0,1.0493365E1,1.6993664E1,7.177094E0,1.4364219E1,3.7984166E0,3.7250583E0,1.669583E1,3.534158E0,1.6837145E1,1.667576E1,1.5955834E1,1.6379114E1,1.3835622E1,1.0378882E0,2.438121E0,1.0141544E0,-2.3582885E0,-1.6579981E0,-3.0610332E-1,1.0782573E-1,-3.0911324E0,2.1120133E0,-1.5761677E0,1.022931E-1,2.5134544E0,-1.9648876E0,4.4485003E-1,3.3254323E0,1.3855442E0,4.7115165E-1,2.0618522E0,-6.042685E-1,-2.9488237E0,-7.014292E-2,-8.231594E-1,-8.65481E-1,2.1689987E0,1.1418377E0,1.5550582E-1,-5.9964037E-1,8.2830764E-2,1.7274668E0,4.6867022E-1,-5.496605E-1,8.935539E-1,-1.3086752E0,1.2771301E0,1.8837351E0,6.63318E-1,-3.1668193E0,-1.6989301E0,1.4792274E0,-1.3175042E0,-1.4805199E0,-3.811081E-1,1.1568638E0,1.0489123E-2,-2.6936204E0,-1.7344817E0,1.605304E0,-3.1090238E0,1.1528451E0,-4.8212376E-1,2.6517873E0,8.731397E-1,-1.03257E-1,-1.0511134E0,1.1128253E0,-5.7092273E-1],"split_indices":[0,4,4,7,7,6,6,9,6,6,2,0,1,0,0,0,4,9,9,9,9,9,10,7,4,4,0,1,7,6,6,0,4,10,1,9,1,6,10,10,6,7,0,0,0,0,1,6,7,0,9,10,10,6,4,6,4,7,10,0,1,0,0,0,0,0,0,0,0,0,0,0,0,0,0,0,0,0,0,0,0,0,0,0,0,0,0,0,0,0,0,0,0,0,0,0,0,0,0,0,0,0,0,0,0,0,0,0,0,0,0,0,0,0,0,0,0],"split_type":[0,0,0,0,0,0,0,0,0,0,0,0,0,0,0,0,0,0,0,0,0,0,0,0,0,0,0,0,0,0,0,0,0,0,0,0,0,0,0,0,0,0,0,0,0,0,0,0,0,0,0,0,0,0,0,0,0,0,0,0,0,0,0,0,0,0,0,0,0,0,0,0,0,0,0,0,0,0,0,0,0,0,0,0,0,0,0,0,0,0,0,0,0,0,0,0,0,0,0,0,0,0,0,0,0,0,0,0,0,0,0,0,0,0,0,0,0],"sum_hessian":[3.996E3,4.48E2,3.548E3,2.33E2,2.15E2,2.388E3,1.16E3,2.3E1,2.1E2,1.73E2,4.2E1,1.898E3,4.9E2,5.31E2,6.29E2,2E0,2.1E1,1.12E2,9.8E1,1.12E2,6.1E1,3.1E1,1.1E1,6.43E2,1.255E3,2.53E2,2.37E2,3.4E2,1.91E2,2.26E2,4.03E2,1E0,2E1,2.3E1,8.9E1,5.2E1,4.6E1,2.5E1,8.7E1,4E1,2.1E1,2E1,1.1E1,2E0,9E0,2.07E2,4.36E2,5.91E2,6.64E2,1.16E2,1.37E2,5.9E1,1.78E2,2.57E2,8.3E1,1.65E2,2.6E1,1.29E2,9.7E1,2.4E2,1.63E2,7E0,1.3E1,1E0,2.2E1,8E0,8.1E1,4E0,4.8E1,1E0,4.5E1,7E0,1.8E1,2E0,8.5E1,3.5E1,5E0,7E0,1.4E1,2E0,1.8E1,3E0,8E0,8E0,1E0,8.3E1,1.24E2,3.09E2,1.27E2,2.72E2,3.19E2,3.56E2,3.08E2,9.6E1,2E1,4.7E1,9E1,3.7E1,2.2E1,1.1E1,1.67E2,1.02E2,1.55E2,4.3E1,4E1,6.5E1,1E2,1.5E1,1.1E1,1.09E2,2E1,6.6E1,3.1E1,1.58E2,8.2E1,1.11E2,5.2E1],"tree_param":{"num_deleted":"0","num_feature":"15","num_nodes":"117","size_leaf_vector":"1"}},{"base_weights":[-3.8870303E-3,-2.0807238E-1,2.2833755E0,-1.13217354E-1,-7.6641035E0,3.3416426E0,-6.9346805E0,-1.717777E-1,6.668321E0,1.3755767E0,-1.2531118E1,2.0377884E0,1.03268175E1,3.1304386E0,-1.41367855E1,4.2859852E-2,-4.1888013E0,1.7775167E1,-6.3639917E0,1.3129833E1,-1.348919E1,-1.654294E1,5.69258E-1,2.9995816E0,-1.0471866E1,-5.9234467E0,1.6236423E1,-1.4762329E1,1.3553055E1,-1.7538347E1,3.8540435E0,-1.1728405E0,6.522978E-1,1.8305576E0,-1.4547859E1,2.1846184E1,-9.1718626E-1,-2.4227045E1,2.3341224E0,1.0113431E0,1.6033037E1,-2.9301894E0,-2.3315644E0,-1.8502415E1,2.6876893E0,-1.9022915E0,6.085699E0,5.2961264E0,-4.898362E-1,-1.9885233E1,-9.526495E-1,-8.763432E0,3.732168E-1,2.2424217E1,4.5158157E0,-2.5914114E0,-2.7079082E0,-6.1032E-1,1.9230019E1,-1.9339434E0,-2.2190937E1,-1.7768366E-2,5.257181E-1,7.121205E-1,-7.29978E-1,-3.19724E-1,4.7066006E-1,-2.454954E0,4.0119496E-1,-2.6846287E0,-1.0163131E0,3.1359532E0,7.8529036E-1,5.379719E-1,-9.9039507E-1,-7.3079866E-1,-3.307042E0,1.4866047E0,-4.223605E-1,4.781723E-3,1.4691976E-1,4.338604E-1,1.9208081E0,8.0992796E-2,-5.693577E-1,2.317303E-1,-1.9659265E0,5.772267E-1,-1.740733E-1,1.1072536E0,-4.2256188E-2,1.5992984E-1,1.7234347E0,2.569338E-1,-1.3379136E0,-2.3492613E0,4.4869098E-1,-8.943741E-1,5.865369E-1,-1.0874624E0,-4.8995534E-1,2.8137097E-1,-9.403338E-2,2.9072883E0,1.1538532E0,1.0901854E0,-2.0404928E0,-6.01225E-1,3.6025584E-1,2.932588E-1,2.4173732E0,1.1192981E-1,-4.342537E-1,2.8797892E-1,-2.4520147E0],"categories":[],"categories_nodes":[],"categories_segments":[],"categories_sizes":[],"default_left":[0,0,0,0,0,0,0,0,0,0,0,0,0,0,0,0,0,0,0,0,0,0,0,0,0,0,0,0,0,0,0,0,0,0,0,0,0,0,0,0,0,0,0,0,0,0,0,0,0,0,0,0,0,0,0,0,0,0,0,0,0,0,0,0,0,0,0,0,0,0,0,0,0,0,0,0,0,0,0,0,0,0,0,0,0,0,0,0,0,0,0,0,0,0,0,0,0,0,0,0,0,0,0,0,0,0,0,0,0,0,0,0,0,0,0],"id":16,"left_children":[1,3,5,7,9,11,13,15,17,19,21,23,25,27,29,31,33,35,37,39,41,43,45,47,49,51,53,55,57,59,61,63,65,67,69,71,73,75,77,79,81,83,-1,85,87,-1,89,91,93,95,97,99,101,103,105,-1,107,-1,109,111,113,-1,-1,-1,-1,-1,-1,-1,-1,-1,-1,-1,-1,-1,-1,-1,-1,-1,-1,-1,-1,-1,-1,-1,-1,-1,-1,-1,-1,-1,-1,-1,-1,-1,-1,-1,-1,-1,-1,-1,-1,-1,-1,-1,-1,-1,-1,-1,-1,-1,-1,-1,-1,-1,-1],"loss_changes":[1.8634398E3,2.58976E3,3.213112E3,1.4379589E3,2.0410654E3,2.6566052E3,2.5089158E3,3.0937678E3,4.6003057E3,3.1474236E3,1.5861079E3,3.027304E3,4.5136777E3,2.9974165E3,1.2915312E3,2.5249905E3,1.137522E4,1.3136841E3,2.387172E3,3.3560962E2,7.6174097E2,9.164131E2,9.8040027E2,1.8617505E3,1.5939979E3,2.3574234E2,2.3645762E3,7.3639685E2,1.233243E3,1.1912993E3,2.3562374E1,5.7881855E4,3.5443375E4,6.77375E3,3.3401494E3,1.617458E3,2.7963568E2,5.0642944E2,9.6677875E2,1.2532108E0,2.1370654E2,5.6288353E1,0E0,5.5134814E2,5.1027412E1,0E0,2.3186823E2,6.151134E3,3.7014226E3,8.966858E2,5.9729236E2,2.0135742E1,1.8674383E1,1.2567979E3,2.2913342E3,0E0,1.0506723E2,0E0,5.73667E2,4.1630684E1,8.297471E2,0E0,0E0,0E0,0E0,0E0,0E0,0E0,0E0,0E0,0E0,0E0,0E0,0E0,0E0,0E0,0E0,0E0,0E0,0E0,0E0,0E0,0E0,0E0,0E0,0E0,0E0,0E0,0E0,0E0,0E0,0E0,0E0,0E0,0E0,0E0,0E0,0E0,0E0,0E0,0E0,0E0,0E0,0E0,0E0,0E0,0E0,0E0,0E0,0E0,0E0,0E0,0E0,0E0,0E0],"parents":[2147483647,0,0,1,1,2,2,3,3,4,4,5,5,6,6,7,7,8,8,9,9,10,10,11,11,12,12,13,13,14,14,15,15,16,16,17,17,18,18,19,19,20,20,21,21,22,22,23,23,24,24,25,25,26,26,27,27,28,28,29,29,30,30,31,31,32,32,33,33,34,34,35,35,36,36,37,37,38,38,39,39,40,40,41,41,43,43,44,44,46,46,47,47,48,48,49,49,50,50,51,51,52,52,53,53,54,54,56,56,58,58,59,59,60,60],"right_children":[2,4,6,8,10,12,14,16,18,20,22,24,26,28,30,32,34,36,38,40,42,44,46,48,50,52,54,56,58,60,62,64,66,68,70,72,74,76,78,80,82,84,-1,86,88,-1,90,92,94,96,98,100,102,104,106,-1,108,-1,110,112,114,-1,-1,-1,-1,-1,-1,-1,-1,-1,-1,-1,-1,-1,-1,-1,-1,-1,-1,-1,-1,-1,-1,-1,-1,-1,-1,-1,-1,-1,-1,-1,-1,-1,-1,-1,-1,-1,-1,-1,-1,-1,-1,-1,-1,-1,-1,-1,-1,-1,-1,-1,-1,-1,-1],"split_conditions":[4.5980473E0,4.5306873E0,4.961108E0,1.985503E1,5.938995E0,1.7007225E1,2.2511353E0,1.8826982E1,1.205993E1,9.751659E0,1.5581186E1,1.5878992E1,6.164634E0,7.441437E0,1.8385757E1,6.574907E0,1.2454826E1,1.5395832E1,2.9496117E0,3.938851E0,1.6450089E0,1.7013792E1,9.5673335E-1,1.1969053E1,7.922753E0,1.5207554E1,1.2351011E1,1.3414135E0,4.985993E0,8.091485E-1,1.013923E1,8.137489E0,1.0076682E1,3.4173722E0,6.4048724E0,1.1152407E1,9.301926E0,3.704013E-1,1.2627775E1,9.634747E-1,1.4626118E0,1.1479459E0,-2.3315644E0,1.5419466E0,8.699803E0,-1.9022915E0,9.60801E0,1.4749159E1,1.6822838E1,4.9371877E0,8.797736E0,1.6682825E1,2.6804534E-1,8.44238E0,1.4864516E1,-2.5914114E0,1.0991428E1,-6.1032E-1,6.495637E0,2.829299E0,1.4347787E0,-1.7768366E-2,5.257181E-1,7.121205E-1,-7.29978E-1,-3.19724E-1,4.7066006E-1,-2.454954E0,4.0119496E-1,-2.6846287E0,-1.0163131E0,3.1359532E0,7.8529036E-1,5.379719E-1,-9.9039507E-1,-7.3079866E-1,-3.307042E0,1.4866047E0,-4.223605E-1,4.781723E-3,1.4691976E-1,4.338604E-1,1.9208081E0,8.0992796E-2,-5.693577E-1,2.317303E-1,-1.9659265E0,5.772267E-1,-1.740733E-1,1.1072536E0,-4.2256188E-2,1.5992984E-1,1.7234347E0,2.569338E-1,-1.3379136E0,-2.3492613E0,4.4869098E-1,-8.943741E-1,5.865369E-1,-1.0874624E0,-4.8995534E-1,2.8137097E-1,-9.403338E-2,2.9072883E0,1.1538532E0,1.0901854E0,-2.0404928E0,-6.01225E-1,3.6025584E-1,2.932588E-1,2.4173732E0,1.1192981E-1,-4.342537E-1,2.8797892E-1,-2.4520147E0],"split_indices":[2,2,2,1,0,6,5,1,6,7,7,6,4,1,7,6,6,9,7,1,5,4,1,4,0,0,9,5,9,8,0,4,4,10,7,7,6,4,7,0,0,0,0,10,0,0,1,0,0,2,10,10,1,0,7,0,0,0,4,5,1,0,0,0,0,0,0,0,0,0,0,0,0,0,0,0,0,0,0,0,0,0,0,0,0,0,0,0,0,0,0,0,0,0,0,0,0,0,0,0,0,0,0,0,0,0,0,0,0,0,0,0,0,0,0],"split_type":[0,0,0,0,0,0,0,0,0,0,0,0,0,0,0,0,0,0,0,0,0,0,0,0,0,0,0,0,0,0,0,0,0,0,0,0,0,0,0,0,0,0,0,0,0,0,0,0,0,0,0,0,0,0,0,0,0,0,0,0,0,0,0,0,0,0,0,0,0,0,0,0,0,0,0,0,0,0,0,0,0,0,0,0,0,0,0,0,0,0,0,0,0,0,0,0,0,0,0,0,0,0,0,0,0,0,0,0,0,0,0,0,0,0,0],"sum_hessian":[3.988E3,3.662E3,3.26E2,3.617E3,4.5E1,2.93E2,3.3E1,3.587E3,3E1,1.6E1,2.9E1,2.48E2,4.5E1,1.4E1,1.9E1,3.406E3,1.81E2,1.6E1,1.4E1,9E0,7E0,2.2E1,7E0,2.31E2,1.7E1,1.2E1,3.3E1,5E0,9E0,1.6E1,3E0,1.137E3,2.269E3,1.15E2,6.6E1,1.3E1,3E0,4E0,1E1,2E0,7E0,4E0,3E0,2E1,2E0,1E0,6E0,1.39E2,9.2E1,8E0,9E0,8E0,4E0,2.1E1,1.2E1,2E0,3E0,2E0,7E0,4E0,1.2E1,1E0,2E0,4.83E2,6.54E2,1.164E3,1.105E3,8E0,1.07E2,1.6E1,5E1,7E0,6E0,2E0,1E0,2E0,2E0,3E0,7E0,1E0,1E0,2E0,5E0,2E0,2E0,1E0,1.9E1,1E0,1E0,3E0,3E0,1.07E2,3.2E1,7.5E1,1.7E1,7E0,1E0,4E0,5E0,4E0,4E0,1E0,3E0,1.2E1,9E0,1E1,2E0,2E0,1E0,2E0,5E0,2E0,2E0,1E0,1.1E1],"tree_param":{"num_deleted":"0","num_feature":"15","num_nodes":"115","size_leaf_vector":"1"}},{"base_weights":[3.9637193E-2,-3.9956348E0,1.23608775E-1,-1.0798637E1,-9.4176275E-1,1.2589148E0,-1.784413E-1,-1.923153E1,1.682454E0,6.7905827E0,-6.37219E0,9.099258E0,-5.802135E0,-3.0097318E0,1.1237414E0,-2.4423873E0,-7.372365E0,-1.8224441E0,8.271637E-1,-2.5182145E0,9.275578E0,-1.1832335E1,3.3582244E0,-1.0412674E0,1.4153966E1,-1.5990362E1,-1.1515865E0,-9.668843E0,5.0517664E0,4.0060663E0,-2.1261888E0,-1.1662487E0,-2.3116827E0,-3.5822077E0,2.3045647E0,2.6317894E0,4.302569E0,-2.8817112E0,-7.6338387E0,-3.4585258E-1,1.1778861E0,4.747694E0,-4.161867E0,1.9550934E1,9.051929E0,-1.9304192E1,-7.6374125E0,4.3605623E0,-3.9717665E0,-2.7988327E-1,-1.23215685E1,1.3816924E1,-4.6602097E0,9.307437E0,-1.2458342E0,-6.4533E0,5.6102405E0,-3.6219344E-1,8.095362E-2,-3.8668266E-1,-1.07955694E-1,-1.3336068E-1,4.790454E-1,-1.3864784E-1,7.73672E-1,1.1153883E0,-1.0500269E0,2.0587397E-1,-4.467426E-1,1.6723444E0,9.565567E-2,-2.1094666E0,-3.0652514E-1,2.5478287E0,1.601659E0,4.6691594E-1,1.7158625E0,2.4713619E-2,-2.0610359E0,-9.237937E-2,-1.2559489E0,1.73939E0,2.7371857E-1,-7.27292E-1,2.3976715E-1,-1.1394852E0,4.738821E-1,-8.1665534E-1,-1.8479866E0,-2.6572934E-1,1.770742E0,1.0762071E-1,-2.1565063E0,1.4311775E0,5.626299E-1,-6.539825E-1,8.2213765E-1,-1.1129249E0,7.161212E-2,7.967195E-1,-7.4335843E-1],"categories":[],"categories_nodes":[],"categories_segments":[],"categories_sizes":[],"default_left":[0,0,0,0,0,0,0,0,0,0,0,0,0,0,0,0,0,0,0,0,0,0,0,0,0,0,0,0,0,0,0,0,0,0,0,0,0,0,0,0,0,0,0,0,0,0,0,0,0,0,0,0,0,0,0,0,0,0,0,0,0,0,0,0,0,0,0,0,0,0,0,0,0,0,0,0,0,0,0,0,0,0,0,0,0,0,0,0,0,0,0,0,0,0,0,0,0,0,0,0,0],"id":17,"left_children":[1,3,5,7,9,11,13,15,17,19,21,23,25,27,29,-1,31,33,-1,-1,35,37,39,41,43,45,47,49,51,53,55,-1,57,59,61,-1,63,-1,65,67,-1,69,71,73,75,77,79,81,83,85,87,89,91,93,95,97,99,-1,-1,-1,-1,-1,-1,-1,-1,-1,-1,-1,-1,-1,-1,-1,-1,-1,-1,-1,-1,-1,-1,-1,-1,-1,-1,-1,-1,-1,-1,-1,-1,-1,-1,-1,-1,-1,-1,-1,-1,-1,-1,-1,-1],"loss_changes":[1.3463987E3,1.6726458E3,1.3348665E3,2.6636482E3,2.4366978E3,4.533814E4,1.1340469E4,7.435918E2,2.6911313E2,2.1404277E3,1.8461377E3,1.9902605E4,2.040273E4,5.20671E4,1.9745533E4,0E0,1.03305695E2,6.635591E1,0E0,0E0,1.8360521E3,1.3488469E3,4.0955267E2,2.3682131E3,6.9547266E3,3.5893984E3,4.6342583E3,1.3221816E4,3.743514E4,3.1111418E4,3.3211305E4,0E0,1.9290415E1,9.9342346E-2,3.3520855E1,0E0,3.8193066E2,0E0,1.1403392E3,1.083043E2,0E0,2.0724824E3,1.513685E3,2.2105898E3,4.7164033E3,2.4566719E3,1.3101953E3,2.0893496E3,4.159657E3,6.636362E3,1.0442434E4,1.4852512E4,2.0290625E4,1.0161918E4,2.8220828E4,2.1329148E4,1.10039795E4,0E0,0E0,0E0,0E0,0E0,0E0,0E0,0E0,0E0,0E0,0E0,0E0,0E0,0E0,0E0,0E0,0E0,0E0,0E0,0E0,0E0,0E0,0E0,0E0,0E0,0E0,0E0,0E0,0E0,0E0,0E0,0E0,0E0,0E0,0E0,0E0,0E0,0E0,0E0,0E0,0E0,0E0,0E0,0E0],"parents":[2147483647,0,0,1,1,2,2,3,3,4,4,5,5,6,6,7,7,8,8,9,9,10,10,11,11,12,12,13,13,14,14,16,16,17,17,20,20,21,21,22,22,23,23,24,24,25,25,26,26,27,27,28,28,29,29,30,30,32,32,33,33,34,34,36,36,38,38,39,39,41,41,42,42,43,43,44,44,45,45,46,46,47,47,48,48,49,49,50,50,51,51,52,52,53,53,54,54,55,55,56,56],"right_children":[2,4,6,8,10,12,14,16,18,20,22,24,26,28,30,-1,32,34,-1,-1,36,38,40,42,44,46,48,50,52,54,56,-1,58,60,62,-1,64,-1,66,68,-1,70,72,74,76,78,80,82,84,86,88,90,92,94,96,98,100,-1,-1,-1,-1,-1,-1,-1,-1,-1,-1,-1,-1,-1,-1,-1,-1,-1,-1,-1,-1,-1,-1,-1,-1,-1,-1,-1,-1,-1,-1,-1,-1,-1,-1,-1,-1,-1,-1,-1,-1,-1,-1,-1,-1],"split_conditions":[9.9275604E-2,5.2502656E0,3.6553607E0,1.0792347E1,9.433003E0,9.435475E0,6.5065813E0,1.4503977E1,1.1938899E1,1.8984064E-2,1.3234734E1,7.3909106E0,7.478182E0,1.0800083E1,1.0675657E1,-2.4423873E0,5.4717145E0,1.8669811E1,8.271637E-1,-2.5182145E0,5.3110294E0,5.2243524E0,1.4206645E1,2.6992555E0,4.4525623E0,1.5868145E1,1.315893E1,3.9612422E0,1.246501E1,1.0049632E1,1.3280611E1,-1.1662487E0,1.6212643E1,3.1595848E0,8.12793E0,2.6317894E0,1.1721061E1,-2.8817112E0,6.48282E-1,3.0261703E0,1.1778861E0,8.609153E0,4.4406638E-1,1.1221716E1,1.5706224E1,5.062167E-1,1.2365821E1,5.990472E0,1.5537777E1,2.1412044E0,1.0488336E1,3.7524312E0,1.38994255E1,9.81161E0,1.4375444E1,1.3470882E1,1.770053E1,-3.6219344E-1,8.095362E-2,-3.8668266E-1,-1.07955694E-1,-1.3336068E-1,4.790454E-1,-1.3864784E-1,7.73672E-1,1.1153883E0,-1.0500269E0,2.0587397E-1,-4.467426E-1,1.6723444E0,9.565567E-2,-2.1094666E0,-3.0652514E-1,2.5478287E0,1.601659E0,4.6691594E-1,1.7158625E0,2.4713619E-2,-2.0610359E0,-9.237937E-2,-1.2559489E0,1.73939E0,2.7371857E-1,-7.27292E-1,2.3976715E-1,-1.1394852E0,4.738821E-1,-8.1665534E-1,-1.8479866E0,-2.6572934E-1,1.770742E0,1.0762071E-1,-2.1565063E0,1.4311775E0,5.626299E-1,-6.539825E-1,8.2213765E-1,-1.1129249E0,7.161212E-2,7.967195E-1,-7.4335843E-1],"split_indices":[8,4,4,3,0,6,6,9,0,5,6,0,0,1,1,0,0,3,0,0,3,9,1,6,6,9,6,3,4,3,3,0,1,5,0,0,4,0,5,5,0,10,1,10,0,3,6,9,0,6,0,3,0,0,6,4,6,0,0,0,0,0,0,0,0,0,0,0,0,0,0,0,0,0,0,0,0,0,0,0,0,0,0,0,0,0,0,0,0,0,0,0,0,0,0,0,0,0,0,0,0],"split_type":[0,0,0,0,0,0,0,0,0,0,0,0,0,0,0,0,0,0,0,0,0,0,0,0,0,0,0,0,0,0,0,0,0,0,0,0,0,0,0,0,0,0,0,0,0,0,0,0,0,0,0,0,0,0,0,0,0,0,0,0,0,0,0,0,0,0,0,0,0,0,0,0,0,0,0,0,0,0,0,0,0,0,0,0,0,0,0,0,0,0,0,0,0,0,0,0,0,0,0,0,0],"sum_hessian":[3.971E3,8E1,3.891E3,2.4E1,5.6E1,8.17E2,3.074E3,1.4E1,1E1,2.3E1,3.3E1,3.87E2,4.3E2,9.68E2,2.106E3,9E0,5E0,7E0,3E0,1E0,2.2E1,2.1E1,1.2E1,1.29E2,2.58E2,1.34E2,2.96E2,5.3E2,4.38E2,1.116E3,9.9E2,2E0,3E0,5E0,2E0,4E0,1.8E1,3E0,1.8E1,9E0,3E0,4.5E1,8.4E1,1.24E2,1.34E2,9.5E1,3.9E1,1E2,1.96E2,1.17E2,4.13E2,2.3E2,2.08E2,5.55E2,5.61E2,6.35E2,3.55E2,2E0,1E0,4E0,1E0,1E0,1E0,7E0,1.1E1,2E0,1.6E1,6E0,3E0,1E1,3.5E1,4E0,8E1,4.4E1,8E1,8.8E1,4.6E1,6E0,8.9E1,1.7E1,2.2E1,1E1,9E1,1.29E2,6.7E1,3.6E1,8.1E1,2.48E2,1.65E2,4.4E1,1.86E2,1.56E2,5.2E1,2.34E2,3.21E2,3.6E2,2.01E2,3.84E2,2.51E2,3.01E2,5.4E1],"tree_param":{"num_deleted":"0","num_feature":"15","num_nodes":"101","size_leaf_vector":"1"}},{"base_weights":[-2.0975022E-1,-2.240582E0,4.4595795E-3,-1.4022169E0,-1.8316341E1,-7.961261E-1,6.014525E-1,-1.7130547E1,-8.6810964E-1,-2.4390041E1,3.568031E0,4.2655854E0,-5.622444E0,-3.0948539E0,4.6876087E0,8.435539E0,-2.6589857E1,-1.3214911E1,-2.4821633E-1,-3.3091352E0,-3.6915845E-1,-1.114324E1,1.7089958E0,-2.9097579E0,8.9056225E0,